{"model_data": {"model": "SimpleRNN", "input_size": 2, "skip": 1, "output_size": 1, "unit_type": "LSTM", "num_layers": 1, "hidden_size": 24, "bias_fl": true}, "state_dict": {"rec.weight_ih_l0": [[-0.009395374916493893, 0.06235684081912041], [-2.4446963564628277e-08, 3.263085091020912e-07], [0.059087302535772324, 0.11563301831483841], [-0.12384101748466492, 0.38400986790657043], [-0.04156198352575302, -0.6157415509223938], [0.004731471184641123, 0.1372278481721878], [0.00015412397624459118, -0.1366593837738037], [0.004950318485498428, 0.17411459982395172], [0.03965577110648155, 0.09845416247844696], [2.0470068307076872e-08, 1.3401120213529794e-07], [0.0033036342356354, 0.37210920453071594], [-0.08345624804496765, 0.06282969564199448], [-2.0293123625947374e-08, 8.37305407230815e-08], [-6.231909210896447e-09, -6.3351542678447e-08], [0.005320897791534662, 0.3257400095462799], [-1.5592901192462705e-08, -3.0970429776289166e-08], [0.034777961671352386, 0.15641961991786957], [1.152534423454199e-08, 2.583060165761708e-07], [-0.008510629646480083, 0.08069790154695511], [-1.894318835127251e-08, 3.753638466719167e-08], [0.04662059247493744, 0.0712704285979271], [-1.4666998282564236e-08, 2.100332530119431e-08], [-3.328934994328847e-08, 4.413043370732339e-07], [0.02585444040596485, 0.13275600969791412], [0.013008284382522106, 0.1042681336402893], [-2.3820046379796622e-08, 3.3015751910170366e-07], [0.10707224905490875, 0.2708994448184967], [-0.10519002377986908, 0.1234942153096199], [-0.015185900032520294, 0.5193676352500916], [0.03231757506728172, -0.06110783666372299], [-0.0018519307486712933, 0.3233473300933838], [0.018772706389427185, -0.07080566883087158], [0.020993471145629883, 0.14758995175361633], [2.117080910579716e-08, 1.3991075320518576e-07], [-0.05231402441859245, 0.07087744027376175], [-0.15506738424301147, 0.13534343242645264], [-1.951100259134364e-08, 8.871009526956186e-08], [-5.674503089636573e-09, -6.910245531344117e-08], [-0.024227604269981384, 0.09196298569440842], [-1.4945319648518307e-08, -2.698930501310315e-08], [0.036081381142139435, 0.0012586705852299929], [1.2062222332076544e-08, 2.6038441092168796e-07], [0.0019481945782899857, 0.14758197963237762], [-1.8213354380236524e-08, 4.225054439643827e-08], [0.03043784759938717, -0.1038275957107544], [-1.4049413188388371e-08, 2.4904037942974355e-08], [-3.2262114757486415e-08, 4.4655496367340675e-07], [0.06240871548652649, 0.17943884432315826], [0.042642634361982346, -0.06382577121257782], [4.693015944212675e-05, -2.8849572117906064e-05], [-0.04046137258410454, 0.4015793204307556], [-1.5738402605056763, 0.2592625021934509], [-0.18547548353672028, 0.035941749811172485], [0.05947054177522659, 0.005514950025826693], [0.005456690210849047, -0.5888091921806335], [0.274754136800766, 0.19948840141296387], [-0.3483444154262543, 0.25079578161239624], [-3.921534153050743e-05, -9.598387805453967e-06], [1.5460803508758545, -0.12181485444307327], [0.07712622731924057, -0.2589418590068817], [-4.207073652651161e-05, 1.4246355931391008e-05], [-1.5215136045299005e-05, 6.938502338016406e-06], [0.6667102575302124, 0.2490086406469345], [3.329932951601222e-05, -3.3044252631952986e-06], [-0.039486054331064224, 0.013293672353029251], [-3.293293411843479e-05, -1.17157196655171e-05], [-0.23706309497356415, -0.1430208832025528], [-3.9212507545016706e-05, 1.0638633284543175e-05], [0.08794844150543213, 0.004419667646288872], [3.477999416645616e-05, -4.7994844862842e-06], [5.68734722037334e-05, -3.8534177292604e-05], [-0.32948243618011475, -0.5032010078430176], [0.01433896366506815, 0.22035932540893555], [-3.46641435555739e-08, 3.2478314437867084e-07], [0.15193936228752136, 0.2361724078655243], [-0.12454267591238022, 0.42391377687454224], [-0.004273252561688423, 0.07284605503082275], [0.06947791576385498, 0.027444103732705116], [0.03805025294423103, 0.09820134192705154], [-0.0080481031909585, 0.17739735543727875], [0.04586588963866234, 0.2284686118364334], [1.7506714300452586e-08, 1.340279851547166e-07], [-0.055236607789993286, 0.234954833984375], [-0.14073626697063446, 0.1618291735649109], [-2.7076447750573607e-08, 8.253553573922545e-08], [-7.514329602997805e-09, -6.384209427778842e-08], [0.0593634657561779, 0.34514835476875305], [-1.9435875131534885e-08, -3.1750101214811366e-08], [0.03950747475028038, 0.16296859085559845], [6.397090857035437e-09, 2.57692761351791e-07], [-0.0007956564659252763, 0.23735876381397247], [-2.4579088986342867e-08, 3.651614477462317e-08], [0.04009123891592026, -0.058175746351480484], [-1.9191523037420666e-08, 2.015413080869166e-08], [-4.7997378516129174e-08, 4.3907479607696587e-07], [-0.004482226446270943, 0.2543391287326813]], "rec.weight_hh_l0": [[-0.1001739427447319, 2.1481073417817242e-05, 0.023522796109318733, -0.014235650189220905, -0.0004921554354950786, 0.07559557259082794, 0.01891198381781578, -0.016196470707654953, 0.03392158821225166, 4.720148353953846e-06, -0.012062846682965755, -0.02712288685142994, -1.9874039935530163e-05, 9.169640179607086e-06, -0.02967739664018154, 1.6651134501444176e-05, -0.018832676112651825, 8.559841262467671e-06, -0.09049432724714279, -1.881825846794527e-05, -0.010894669219851494, 1.685005918261595e-05, 2.5782308512134477e-05, -0.0331524983048439], [-2.801225740256541e-08, -3.8543605807017656e-11, 5.976593797640817e-07, 1.6814425407574163e-07, -8.310026089475286e-08, -3.0741520617993956e-07, -4.3978991470794426e-07, 1.139988015097515e-08, 2.815662298871757e-07, -2.97828645426379e-12, -8.199823753329838e-08, -3.654623981219629e-07, 3.593936606649528e-11, -2.4754059912979187e-11, 9.615777685212379e-08, -3.0574501264091225e-11, -8.684455821139636e-09, -2.3922001532450388e-11, -6.232183125121082e-08, 3.40066690085461e-11, 1.7591676737538364e-07, -3.09079775662191e-11, -4.667811970282543e-11, -3.9721325606478786e-07], [-0.12106456607580185, 1.730906114971731e-05, 0.044440947473049164, -0.004679751582443714, 0.014779647812247276, -0.006870995741337538, 0.017073730006814003, -0.006407674867659807, 0.04296797141432762, 4.763709512189962e-06, 0.027669522911310196, -0.05768664926290512, -1.8587850718176924e-05, 1.6148582290043123e-05, -0.003375343745574355, 1.594237437529955e-05, -0.026323679834604263, 1.9226241420255974e-05, -0.12728048861026764, -1.7565715097589418e-05, -0.011847812682390213, 1.6255075024673715e-05, 2.224245690740645e-05, -0.0824909433722496], [-0.2794840931892395, -3.0024284569662996e-05, 0.3306333124637604, 0.024570103734731674, 0.07008518278598785, -0.053307872265577316, 0.005908571183681488, -0.027430765330791473, 0.4171072542667389, 1.0333706086385064e-05, -0.12001421302556992, -0.2251056581735611, 3.0315773983602412e-05, -1.705551585473586e-05, -0.04784123972058296, -2.7071473596151918e-05, -0.015168617479503155, -8.257459739979822e-06, -0.27476486563682556, 2.9254866603878327e-05, -0.014004058204591274, -2.6760924811242148e-05, -3.6494275263976306e-05, -0.2198318988084793], [0.35242196917533875, -1.835882358136587e-05, -0.3600640594959259, -0.06337042897939682, -0.036527007818222046, -0.48614782094955444, 0.04852516949176788, -0.08264665305614471, -0.2826985716819763, 5.1382798119448125e-05, 0.09753002226352692, 0.38710322976112366, 2.0334366581664653e-06, 1.600704672455322e-05, -0.09162739664316177, -3.0796391001786105e-06, -0.006137631833553314, 4.8122161388164386e-05, 0.5549051761627197, 2.8403046599123627e-06, 0.3644397258758545, -9.058140676643234e-06, -1.267930770154635e-06, 0.4367477595806122], [-0.17562273144721985, 3.428317722864449e-05, -0.050184790045022964, -0.003434200771152973, 0.032328519970178604, -0.06287012994289398, 0.07291840016841888, 0.02361622080206871, 0.05597742646932602, -1.0992064744641539e-05, -0.06814455986022949, 0.013235854916274548, -3.845784885925241e-05, 9.092500476981513e-06, -5.2953528211219236e-05, 3.571682100300677e-05, -0.02194688469171524, -5.803255135106156e-06, -0.18798930943012238, -3.7583886296488345e-05, -0.14472775161266327, 3.4348930057603866e-05, 4.326951238908805e-05, -0.053479015827178955], [0.07904573529958725, 3.2626981010253076e-06, -0.16878150403499603, -0.017404960468411446, 0.02090117335319519, -0.03794119134545326, -0.12062505632638931, -0.007760230917483568, -0.1268572062253952, -7.064991950755939e-05, 0.010524786077439785, 0.059685539454221725, -4.573545993480366e-06, 2.3861589397711214e-06, -0.020534489303827286, 1.0817426300491206e-05, -0.0178193561732769, -4.530883961706422e-05, 0.0673103928565979, -7.135392024792964e-06, 0.011571942828595638, 8.73167664394714e-06, -6.4976657085935585e-06, 0.06306403875350952], [-0.19826853275299072, -4.504847674979828e-05, 0.08161351084709167, -0.026295766234397888, 0.02430117130279541, -0.0023991495836526155, 0.05128491297364235, -0.007801043801009655, 0.1070542111992836, -1.0097261110786349e-05, 0.00520976772531867, -0.06697055697441101, 3.955163265345618e-05, -2.213840707554482e-05, -0.021714862436056137, -3.19104474328924e-05, 0.0034710934851318598, -2.7896010578842834e-05, -0.198633074760437, 3.680941154016182e-05, -0.0012490611989051104, -3.354622458573431e-05, -5.3310086514102295e-05, -0.1051439493894577], [-0.14438794553279877, 1.0751040463219397e-05, 0.0065579707734286785, -0.0021653210278600454, 0.03145070746541023, -0.023302631452679634, 0.05537184327840805, 0.021049605682492256, 0.012932595796883106, 4.473949502425967e-06, -0.047833994030952454, -0.01302151195704937, -8.831044397084042e-06, 1.24143866742088e-06, -0.020403439179062843, 6.127052529336652e-06, -0.013135150074958801, 6.123146704339888e-06, -0.13144691288471222, -7.814577656972688e-06, 0.010673475451767445, 6.835824933659751e-06, 1.4021353308635298e-05, -0.05679914727807045], [4.3445837150102307e-08, -4.847771142846291e-11, 3.0060238032092457e-07, 1.0419635287917117e-07, -7.667745904882395e-08, -1.271158822646612e-07, -1.9018082753063936e-07, 2.300688528578121e-08, 1.5830246979930962e-07, 6.526045762816901e-12, 4.758302907248435e-08, -1.8906578702626575e-07, 5.170210787275309e-11, -3.333487999523932e-11, 1.2448118980046274e-07, -4.632363589940347e-11, 2.951579958221373e-08, -2.252110303802013e-11, 2.4291436417911427e-08, 4.9746713692844224e-11, 1.6842145100781636e-07, -4.517547100291175e-11, -6.122025109078777e-11, -2.318109437737803e-07], [-0.37718698382377625, -1.2667466080529266e-06, 0.22412952780723572, -0.009152654558420181, 0.0550110749900341, 0.10717450827360153, 0.08781319111585617, -0.0029305070638656616, 0.32944515347480774, -3.343935986777069e-06, 0.05254683271050453, -0.2452457845211029, -7.429399033753725e-07, 4.3729082790378015e-06, 0.004588911775499582, 1.5009959497547243e-06, 0.0288502536714077, 8.721015660739795e-07, -0.40383827686309814, -1.0899611879722215e-06, 0.002577252918854356, 7.425819035233872e-07, -3.415032665543549e-07, -0.2974443733692169], [-0.07087366282939911, -5.1050945330644026e-05, -0.005924233701080084, -0.004708845634013414, 0.004412702284753323, -0.00019424107449594885, 0.013022358529269695, -0.04357573017477989, 0.047844815999269485, -1.1735397492884658e-05, -0.10230659693479538, -0.037265535444021225, 3.70548696082551e-05, -1.4630379155278206e-05, -0.13264377415180206, -2.6869845896726474e-05, -0.014277476817369461, -2.788912934192922e-05, -0.07385985553264618, 3.350508995936252e-05, 0.011393499560654163, -3.04539153148653e-05, -5.82646498514805e-05, 0.012995217926800251], [1.895850232358498e-07, 1.1555285808068083e-12, 4.0319139316125074e-07, 1.8083899533394288e-07, -7.926475120711984e-08, -3.505032282191678e-07, -3.133729933324503e-07, 3.143710713970904e-08, 1.3826446831899375e-07, 1.8702560333760943e-11, -8.448746058320467e-08, -2.5262153258154285e-07, 5.17789066831198e-12, -9.150209236141738e-12, 1.2943020522016013e-07, -7.445331677569111e-12, -8.948595642266355e-09, 4.551841542577151e-12, 1.5659180974125775e-07, 5.955976597332713e-12, 1.8829008752163645e-07, -5.748802042043755e-12, 2.4768829023393e-13, -2.2796365328758839e-07], [2.2637752294940583e-07, 1.7340108515728758e-11, 1.6675397773724399e-07, 1.275576693160474e-07, -5.6738450382454175e-08, -2.2458303305938898e-07, -1.1965408930336707e-07, 2.7253264534010668e-08, 2.948244848255399e-08, 2.6189116847374905e-11, -4.013055487916972e-08, -1.0755021406794185e-07, -7.611478287927742e-12, -5.566611082676032e-14, 1.0281819129431824e-07, 2.4046799707716504e-12, -1.7600223500835455e-09, 1.8433256657179875e-11, 2.0755560115048866e-07, -5.767452921495719e-12, 1.3517082209091313e-07, 4.910865117335739e-12, 1.9201537929114387e-11, -7.401959578601236e-08], [-0.24711045622825623, -1.2228182640683372e-05, 0.28734245896339417, 0.0007466567913070321, 0.04126308485865593, 0.0010970259318128228, -0.003956749103963375, -0.024761434644460678, 0.3072966933250427, 5.789827810076531e-06, 0.04166257381439209, -0.1852659285068512, 6.205749741639011e-06, 5.627475729852449e-06, -0.023827161639928818, -3.171138814650476e-06, 0.009953577071428299, 5.110536676511401e-06, -0.23803304135799408, 5.344204964785604e-06, -0.003998309839516878, -3.981111603934551e-06, -1.3503963600669522e-05, -0.22565503418445587], [2.511473269350972e-07, 1.4444975597605048e-11, 2.590359997611813e-07, 1.5727087543382368e-07, -6.76412952316241e-08, -3.02150994002659e-07, -2.1226362889592565e-07, 3.236017676044867e-08, 5.7905381822820345e-08, 2.5508829423759316e-11, -6.5146174677011e-08, -1.6471319952415797e-07, -4.980630925049967e-12, -3.1661500678181742e-12, 1.2265489601759327e-07, 1.7337581294674803e-13, -5.758709509251503e-09, 1.4840954853934107e-11, 2.246595158794662e-07, -3.2951772820782876e-12, 1.6815505432532518e-07, 2.5889149764951602e-12, 1.5809171680092327e-11, -1.2287905803987087e-07], [-0.1520698517560959, 2.294595560670132e-06, 0.017537200823426247, -0.015489579178392887, 0.016258740797638893, 0.021618599072098732, 0.05537516251206398, -0.000937007658649236, 0.10211052000522614, 1.3696281712327618e-05, -0.003342572832480073, -0.028582338243722916, 2.5842584818747127e-06, -9.43610484682722e-06, -0.0384095124900341, -5.089394107926637e-06, 0.006364805158227682, 4.611983968061395e-06, -0.1434411108493805, 3.5227399166615214e-06, -0.025210915133357048, -3.5177208701497875e-06, 1.998439302042243e-06, -0.10545280575752258], [-9.639633447022788e-08, -3.8420017167695164e-11, 3.659267804323463e-07, 8.731041134524276e-08, -4.677247034123866e-08, -1.458874407944677e-07, -2.0036482339946815e-07, 1.6271743064066868e-08, 2.2213301065221458e-07, -5.322662449680493e-12, -1.743398669873386e-08, -2.3537371873771917e-07, 3.541456017330802e-11, -2.211288270548284e-11, 6.400910024240147e-08, -2.975580892794483e-11, 7.791103762144758e-09, -2.274719301809114e-11, -1.1675042799197399e-07, 3.33850100342481e-11, 9.785624399683002e-08, -3.0223368946424856e-11, -4.677466747260439e-11, -2.893962687267049e-07], [-0.0991155132651329, 4.909521157969721e-05, -0.010211057960987091, -0.005843588151037693, 0.005436067935079336, -0.018501274287700653, 0.04178381711244583, -0.030510980635881424, 0.05380897596478462, -4.163056928518927e-06, -0.008236788213253021, -0.01583656668663025, -5.377686829888262e-05, 2.238234992546495e-05, -0.04072283208370209, 4.872684075962752e-05, -0.00730411009863019, 8.717767741472926e-06, -0.07454623281955719, -5.211949610384181e-05, 0.0025959752965718508, 4.703078593593091e-05, 6.164923252072185e-05, -0.04372773319482803], [2.130652774212649e-07, 6.729255607601514e-12, 3.4367073453722696e-07, 1.7050761869086273e-07, -7.371664167976633e-08, -3.3062164561670215e-07, -2.7237285848968895e-07, 3.1512893627905214e-08, 1.0499756797344162e-07, 2.1150664553104548e-11, -7.766460186076074e-08, -2.1624718726798164e-07, 7.411703087205346e-13, -6.503100141719287e-12, 1.254526864613581e-07, -4.024908444727471e-12, -8.117100769311492e-09, 8.664683553982755e-12, 1.8278899460710818e-07, 1.882709049425002e-12, 1.784563039564091e-07, -2.0738439177742096e-12, 6.826255272845971e-12, -1.840873551373079e-07], [-0.15738174319267273, -8.20631885289913e-06, -0.06437556445598602, -0.0608983039855957, 0.043822549283504486, 0.11054220795631409, 0.02200288511812687, -0.022949131205677986, 0.027236975729465485, -2.933502855739789e-06, 0.1101672351360321, 0.028457460924983025, 1.2062392670486588e-05, -9.879046956484672e-06, -0.01763901300728321, -1.2663670531765092e-05, 0.026291215792298317, -2.8377446597005473e-06, -0.14952966570854187, 1.2354691534710582e-05, -0.003638901049271226, -1.147956481872825e-05, -9.797699021873996e-06, -0.010310458019375801], [1.878074016303799e-07, 7.31667244152634e-12, 2.7951679726356815e-07, 1.429352494142222e-07, -6.202181879189084e-08, -2.7824688686450827e-07, -2.2257709986206464e-07, 2.765138518157073e-08, 8.152938590910708e-08, 1.859389031633185e-11, -6.56043681601659e-08, -1.7605155733235733e-07, -7.139087498247987e-13, -4.66823498260216e-12, 1.0522426663328588e-07, -2.351580302012435e-12, -6.6074972160379275e-09, 8.5408720026936e-12, 1.6245761003119696e-07, 3.5488512085610213e-13, 1.4931168834664277e-07, -6.342125175723412e-13, 7.71381569730778e-12, -1.4796583513998485e-07], [2.044661773226153e-09, -4.813476006670925e-11, 8.60799389101885e-07, 2.569618686720787e-07, -1.252866752565751e-07, -4.687253181145934e-07, -6.266159857659659e-07, 2.2311246183903677e-08, 3.9793025052858866e-07, 7.163884828235989e-13, -1.1080960149456587e-07, -5.280140840113745e-07, 4.623425947647419e-11, -3.341099619191823e-11, 1.6391830115480843e-07, -3.999412606647823e-11, -9.482563179119552e-09, -2.929046935551405e-11, -4.8991168455359e-08, 4.397280803369874e-11, 2.758382038337004e-07, -4.0068157125539017e-11, -5.8524116108849e-11, -5.653597554555745e-07], [-0.16013231873512268, -2.0872443201369606e-05, 0.01910354010760784, -0.04908177629113197, 0.0091904541477561, -0.0021029948256909847, 0.05651884153485298, -0.01745721697807312, 0.025068743154406548, 8.902711670089047e-06, -0.01620040461421013, 0.021760085597634315, 2.4209843104472384e-05, -2.6578441975289024e-05, 0.004966344218701124, -2.3485059500671923e-05, 0.017781993374228477, -1.4123663277132437e-05, -0.13061340153217316, 2.3903212422737852e-05, 0.0031178633216768503, -2.24486539082136e-05, -2.6298745069652796e-05, -0.03957116976380348], [-0.17283381521701813, 3.143108187941834e-05, 0.038272056728601456, -0.04223067685961723, -0.009287373162806034, 0.21386584639549255, 0.023807169869542122, -0.022358695045113564, 0.04640280082821846, 7.096627541613998e-06, 0.09940043091773987, -0.03152027726173401, -2.9491364330169745e-05, 1.0571829989203252e-05, 0.014376290142536163, 2.4274520910694264e-05, -0.003988096956163645, 1.0935039426840376e-05, -0.1556902825832367, -2.7764177502831444e-05, 0.038801632821559906, 2.444189703965094e-05, 3.902479511452839e-05, -0.06858641654253006], [-3.185941821470806e-08, -3.8773304011918697e-11, 5.971891710032651e-07, 1.663504320958964e-07, -8.18312528849674e-08, -3.0574079801226617e-07, -4.387571834740811e-07, 1.1468230809441593e-08, 2.8373116833790846e-07, -3.293402876802798e-12, -7.936342427683485e-08, -3.661646132968599e-07, 3.610086535266177e-11, -2.497449989868894e-11, 9.595905936521376e-08, -3.0689138730277676e-11, -7.984508165748139e-09, -2.430706677603034e-11, -6.6366830253628e-08, 3.4150994532300416e-11, 1.743792523711818e-07, -3.1042224346577996e-11, -4.6953468890720274e-11, -3.984317231697787e-07], [-0.24643072485923767, 9.859595593297854e-06, 0.16804595291614532, 0.018754644319415092, 0.03592785447835922, -0.044924527406692505, 0.014857226982712746, -0.028344102203845978, 0.1048106998205185, 8.449710549029987e-06, 0.016979482024908066, -0.14622142910957336, -1.1063166311942041e-05, 1.250017430720618e-05, 0.0006726065184921026, 7.995667147042695e-06, -0.07728691399097443, 2.2647691366728395e-05, -0.24699415266513824, -9.798990504350513e-06, -0.010968311689794064, 8.54715926834615e-06, 1.493973468313925e-05, -0.1887039989233017], [0.008571810089051723, 2.7823116397485137e-05, 0.35814693570137024, 0.04430996999144554, 0.02561616152524948, -0.17344588041305542, -0.032376453280448914, -0.047499727457761765, 0.23671802878379822, 2.6898465876001865e-05, -0.028748730197548866, -0.12064285576343536, -1.9252636775490828e-05, 1.6329535355907865e-05, 0.05138346925377846, 1.2036533007631078e-05, 0.02856958471238613, 3.6867993912892416e-05, 0.030607538297772408, -1.655134474276565e-05, 0.1815381795167923, 1.4259824638429563e-05, 3.3753316529328004e-05, -0.07086844742298126], [-0.6561182141304016, -5.3539664804702625e-05, 0.43632668256759644, -0.11055463552474976, 0.032689593732357025, 0.2719508111476898, -0.006528929807245731, 0.04790366813540459, 0.4707159101963043, 5.297873212839477e-05, 0.08861915022134781, -0.16193026304244995, 4.694520976045169e-05, -2.8762542569893412e-05, 0.10925868153572083, -4.5745287934551015e-05, -0.013170209713280201, 1.6045958545873873e-05, -0.43572574853897095, 4.663995059672743e-05, -0.15356677770614624, -4.604541027219966e-05, -5.068356404080987e-05, -0.31622400879859924], [0.018759218975901604, 3.860412471112795e-05, -0.14247076213359833, 0.018872961401939392, -0.011258729733526707, -0.16707949340343475, -0.0009791668271645904, 0.021560125052928925, -0.14105959236621857, -5.527117536985315e-06, -0.06389077752828598, 0.1307312250137329, -4.434858783497475e-05, 9.020532161230221e-06, 0.03389782831072807, 4.0611816075397655e-05, -0.020871782675385475, -2.9901509606133914e-06, 0.006343334913253784, -4.3089461541967466e-05, -0.07050301134586334, 3.875473339576274e-05, 5.072374187875539e-05, 0.043546512722969055], [-0.31627005338668823, 1.3478366781782825e-05, 0.17665091156959534, -0.0045979744754731655, 0.09602843225002289, -0.0017269978998228908, -0.17523448169231415, 0.00423645693808794, 0.2500648498535156, -7.913169974926859e-05, 0.014859933406114578, -0.18837116658687592, -1.6277119357255287e-05, 1.3826181202603038e-05, 0.005090002901852131, 2.3612226868863218e-05, -0.013080927543342113, -4.630940384231508e-05, -0.33990126848220825, -1.940367837960366e-05, -0.009154773317277431, 1.9774131942540407e-05, 3.999829914391739e-06, -0.32060644030570984], [0.008935283869504929, -4.1881594370352104e-05, -0.06447447836399078, -0.022301947697997093, -0.019379468634724617, -0.055454596877098083, 0.012958989478647709, -0.005168774165213108, -0.12206665426492691, -1.2789691027137451e-05, 0.08296167105436325, 0.07185431569814682, 3.940588067052886e-05, -2.8421518436516635e-05, 0.04704924672842026, -3.296287832199596e-05, 0.013140273280441761, -3.243536048103124e-05, 0.01304019894450903, 3.694101906148717e-05, 0.023434974253177643, -3.409344208193943e-05, -5.112429425935261e-05, 0.06411951780319214], [-0.1856435239315033, 1.7161984942504205e-05, 0.08716243505477905, 0.03333491086959839, 0.029765455052256584, -0.060494497418403625, 0.012764128856360912, 0.007528113666921854, 0.0037888202350586653, -1.7091269910451956e-06, -0.15699408948421478, -0.030543634667992592, -1.1742526112357154e-05, -2.0854497506661573e-06, -0.08906842023134232, 6.727458185196156e-06, -0.038297973573207855, 4.039296072733123e-06, -0.15264327824115753, -9.9644230431295e-06, 0.022774817422032356, 8.155258001352195e-06, 2.186579877161421e-05, -0.08966139703989029], [3.704169770912813e-08, -4.931666533480872e-11, 3.0074846790739684e-07, 1.0303840269898501e-07, -7.493159159821516e-08, -1.2370939828088012e-07, -1.8681403446407785e-07, 2.3921559844097828e-08, 1.631174342264785e-07, 6.117050876247587e-12, 5.0154120856404916e-08, -1.9078673574313143e-07, 5.230010868828572e-11, -3.3604386634467076e-11, 1.2650608027797716e-07, -4.673873441052301e-11, 3.0002770046166916e-08, -2.311558930379043e-11, 1.786964354266729e-08, 5.028055055644742e-11, 1.686657640220801e-07, -4.5645067586752575e-11, -6.22171342223865e-11, -2.3463444165372493e-07], [-0.01813572645187378, -2.054092510661576e-05, 0.08519522100687027, 0.014772801660001278, 0.022894827648997307, -0.09830190986394882, -0.01853237673640251, 0.07120829075574875, 0.0986773818731308, -3.396290776436217e-05, -0.021479511633515358, -0.17889714241027832, 1.990723831113428e-05, -2.4154312995960936e-05, 0.027332650497555733, -2.062480416498147e-05, -0.029157809913158417, -2.9261145755299367e-05, -0.04532206803560257, 2.0105297153349966e-05, 0.12450485676527023, -2.0224530089762993e-05, -1.9428725863690488e-05, -0.06155172735452652], [-0.1192886084318161, -6.214568566065282e-05, 0.08126791566610336, -0.013371718116104603, 0.023992417380213737, -0.04170381277799606, -0.01939976029098034, -0.06333055347204208, 0.10648912191390991, -1.33984303829493e-05, -0.18248313665390015, -0.09543245285749435, 4.926429392071441e-05, -2.09390782401897e-05, -0.22138458490371704, -3.777099846047349e-05, -0.024700406938791275, -3.265304258093238e-05, -0.12539783120155334, 4.522313975030556e-05, -0.020785920321941376, -4.1098330257227644e-05, -7.275257667060941e-05, 0.0016783259343355894], [1.8400906753868185e-07, 7.376201429168394e-13, 4.023826534194086e-07, 1.7854898715086165e-07, -7.777759947202867e-08, -3.4783630553647527e-07, -3.116328741725738e-07, 3.155463446091744e-08, 1.4108333346030122e-07, 1.8169805937606753e-11, -8.181608990298628e-08, -2.5335171471851936e-07, 5.425689845323101e-12, -9.374648626825355e-12, 1.2877323740667634e-07, -7.587615431792205e-12, -8.23948997918933e-09, 3.973809996338229e-12, 1.5083271875937498e-07, 6.16591977128933e-12, 1.8598736062358512e-07, -5.9364691981644846e-12, -2.417592222334758e-13, -2.2962068157994509e-07], [2.3028539430924866e-07, 1.8274775789861586e-11, 1.6066756813870597e-07, 1.262231563714522e-07, -5.754882792530225e-08, -2.2179450809289847e-07, -1.2117567393943318e-07, 2.7426809268149555e-08, 2.34364403439713e-08, 2.6174524353494988e-11, -3.794981751070736e-08, -1.0235255132329257e-07, -8.462566584988007e-12, 3.5257698995615205e-13, 1.0316505694163425e-07, 3.1134613116823306e-12, -1.598689625126326e-09, 1.881691850946776e-11, 2.118352568913906e-07, -6.568394265993316e-12, 1.335464787644014e-07, 5.634013221234024e-12, 2.0334052150405846e-11, -6.900206273030562e-08], [-0.022393692284822464, 5.6131804740289226e-05, 0.19945786893367767, 0.059436313807964325, 0.01827922649681568, -0.11480522155761719, 0.02606571651995182, -0.04124615341424942, 0.16645227372646332, 3.780626138905063e-05, 0.0023940831888467073, -0.049571458250284195, -5.190525189391337e-05, 3.8785463402746245e-05, 0.0016878517344594002, 4.231238199281506e-05, 0.011471678502857685, 5.417994179879315e-05, 0.0009487881907261908, -4.81851639051456e-05, 0.08447486907243729, 4.434037327882834e-05, 6.927973299752921e-05, -0.11451850086450577], [2.463127941609855e-07, 1.4108449651606403e-11, 2.578467501734849e-07, 1.5517440488110879e-07, -6.634554949869198e-08, -2.996548857936432e-07, -2.1057746835140279e-07, 3.245047608402274e-08, 5.998482777158642e-08, 2.500842935515557e-11, -6.314408551588713e-08, -1.6495204135935637e-07, -4.813456057350951e-12, -3.3068842802963516e-12, 1.2178698227671703e-07, 1.0254874071224593e-13, -5.253337320709761e-09, 1.4346823208610804e-11, 2.19711139948231e-07, -3.162450986846088e-12, 1.659048081137371e-07, 2.472947194243069e-12, 1.5421358634526428e-11, -1.239321392176862e-07], [0.029388461261987686, 2.696560841286555e-05, 0.03716818615794182, 0.021518561989068985, -0.02632465586066246, -0.025643175467848778, -0.051496006548404694, -0.009655949659645557, -0.032550323754549026, 1.7059068341040984e-05, 0.007799356710165739, 0.031470656394958496, -1.6816573406686075e-05, 1.2619557310245e-06, -0.003045119810849428, 9.740094355947804e-06, 0.013479592278599739, 1.885807068902068e-05, 0.04610266909003258, -1.4262617696658708e-05, 0.015539588406682014, 1.276459988730494e-05, 3.0302186132757924e-05, -0.0513964407145977], [-9.95181181906446e-08, -3.860018901735707e-11, 3.6366162703416194e-07, 8.615072033535398e-08, -4.609435322322497e-08, -1.4147357774163538e-07, -1.9915179905183322e-07, 1.6714368555881265e-08, 2.2317875902899686e-07, -5.583082173660214e-12, -1.4722732366578839e-08, -2.3446348507150105e-07, 3.547636143186317e-11, -2.2155619353037004e-11, 6.540025765389146e-08, -2.9755982400292424e-11, 8.055520694938423e-09, -2.2996495332994193e-11, -1.1965227031396353e-07, 3.342539439676884e-11, 9.665824052262906e-08, -3.025015654634089e-11, -4.698612679487901e-11, -2.8949000352440635e-07], [-0.20252875983715057, 4.1128063458018005e-05, -0.0011297859018668532, 0.0011718164896592498, -0.005823993124067783, -0.019238600507378578, 0.08894766122102737, -0.06216052919626236, 0.09409844130277634, -1.263025296793785e-06, -0.023719826713204384, -0.06076708063483238, -4.2193154513370246e-05, 3.9407186704920605e-06, -0.07595925033092499, 3.62202335963957e-05, -0.012255966663360596, -2.0661630060203606e-06, -0.168687641620636, -4.027785325888544e-05, -0.013048715889453888, 3.5282577300677076e-05, 5.198900180403143e-05, -0.11645253002643585], [2.0768085562394845e-07, 6.324481303249252e-12, 3.428211527989333e-07, 1.683035293353896e-07, -7.228254617075436e-08, -3.280551084117178e-07, -2.706327677515219e-07, 3.1618544227285383e-08, 1.0764801317009187e-07, 2.0627553484753314e-11, -7.526663381440812e-08, -2.1688538254238665e-07, 9.747961986217302e-13, -6.705791304184583e-12, 1.2471005561565107e-07, -4.153765005565635e-12, -7.485770225912347e-09, 8.107956146752304e-12, 1.7723793632740126e-07, 2.0787525346899205e-12, 1.7616541470033553e-07, -2.2482582202193457e-12, 6.353731343139435e-12, -1.8561102876901714e-07], [-0.029142562299966812, -9.87948715192033e-06, -0.13330061733722687, -0.05860386788845062, 0.014287726953625679, 0.057391900569200516, -0.05180615931749344, -0.07977043092250824, -0.1442325860261917, 1.5532355064351577e-06, 0.026739610359072685, 0.11043153703212738, 1.4905898751749191e-05, -7.926726539153606e-06, -0.0960601344704628, -1.6278174371109344e-05, 0.016182944178581238, 4.535849257081281e-06, -0.01709642820060253, 1.5550340322079137e-05, 0.08905737102031708, -1.4889578778820578e-05, -1.089697798306588e-05, 0.10654360800981522], [1.8315940053525992e-07, 6.991423499164151e-12, 2.784236698971654e-07, 1.4092024969158956e-07, -6.072853153682445e-08, -2.757460322300176e-07, -2.209959433230324e-07, 2.7702935057050126e-08, 8.359172198879605e-08, 1.8118879660522502e-11, -6.34170689295388e-08, -1.7632777371545671e-07, -5.473254770411995e-13, -4.814376761835826e-12, 1.0449054599348528e-07, -2.4269336540427844e-12, -6.0682574520853905e-09, 8.063674727942782e-12, 1.577043633460562e-07, 4.888639406480655e-13, 1.4727574182415992e-07, -7.519580119165481e-13, 7.337548103836244e-12, -1.490109866608691e-07], [-3.1847631198900217e-09, -4.8446087419495854e-11, 8.600611067777209e-07, 2.544352071254252e-07, -1.237321782809886e-07, -4.662593084958644e-07, -6.253844162529276e-07, 2.25170868617397e-08, 4.008166740732122e-07, 2.6757320859861766e-13, -1.0687413976029347e-07, -5.28933128407516e-07, 4.6453407093194343e-11, -3.372719811767233e-11, 1.6393315149798582e-07, -4.015017832093015e-11, -8.406540352723368e-09, -2.983731317574012e-11, -5.4522676151691485e-08, 4.4168696478052993e-11, 2.7366738208911556e-07, -4.0251090654974675e-11, -5.889785187340735e-11, -5.671506073667842e-07], [-0.23276248574256897, -2.3093258278095163e-05, 0.11183840781450272, -0.0824967622756958, -0.03924085944890976, -0.026941705495119095, 0.05723876878619194, -0.07226310670375824, -0.03357759490609169, 1.7708212908473797e-05, -0.022107165306806564, 0.04098344221711159, 3.0480769055429846e-05, -3.636297697084956e-05, 0.0054453094489872456, -3.157661558361724e-05, 0.07018338143825531, -1.2092579709133133e-05, -0.17446142435073853, 3.0782313842792064e-05, 0.042224735021591187, -2.9494272894226015e-05, -2.8749338525813073e-05, -0.08413480222225189], [0.16081388294696808, -2.69089996436378e-05, -0.04728754237294197, 0.027416791766881943, 0.013188274577260017, -0.24231229722499847, -0.010273492895066738, 0.06096364185214043, -0.008217982947826385, -6.889973064971855e-06, -0.008894303813576698, 0.03417804837226868, 2.5499079129076563e-05, -1.1647044630080927e-05, 0.0686887800693512, -2.1310352167347446e-05, 0.040419552475214005, -1.0509014828130603e-05, 0.1332520842552185, 2.4157869120244868e-05, 0.02385849691927433, -2.155147922167089e-05, -3.273477705079131e-05, 0.016274672001600266], [3.065308555960655e-05, 3.091838174373862e-10, -0.00010127991845365614, -9.469999349676073e-05, -7.996548447408713e-06, 0.00011294373689452186, 5.222937761573121e-05, -5.948338730377145e-05, -3.743440538528375e-05, -2.9944038715257193e-07, -1.4340467714646365e-05, 6.64210892864503e-05, -9.784209709096103e-08, 1.5532199881818087e-07, -2.274373036925681e-05, 1.334088750581941e-07, -1.3316955119080376e-05, -8.043267740731608e-08, 2.3627819246030413e-05, -1.100966073863674e-07, -8.20644199848175e-05, 1.053741840451039e-07, 1.8574283444650064e-08, 7.994534826138988e-05], [0.13987299799919128, -3.2071551686385646e-05, 0.16261719167232513, 0.14471426606178284, 0.206613689661026, 0.07088685780763626, -0.28424495458602905, 0.1441699117422104, 0.011190582066774368, 2.2185127818374895e-05, -0.05601729452610016, -0.09923673421144485, 4.384602652862668e-05, -4.387528315419331e-05, -0.027725666761398315, -4.336372876423411e-05, 0.10117312520742416, -1.834158319979906e-05, 0.20180733501911163, 4.334286859375425e-05, 0.059106722474098206, -4.163527410128154e-05, -4.256190368323587e-05, -0.11553103476762772], [0.06996926665306091, -6.88351719873026e-05, -0.3284006714820862, 0.15615840256214142, -0.5053243637084961, 0.033652208745479584, 0.2144930213689804, 0.8444315791130066, -0.30343031883239746, -3.3399483072571456e-05, -0.14780882000923157, -0.04778558760881424, 5.4033531341701746e-05, 7.531969913543435e-06, 0.18933455646038055, -3.966632721130736e-05, 0.20023855566978455, -2.6211951990262605e-05, -0.21798114478588104, 4.845381045015529e-05, 0.16794051229953766, -4.399831232149154e-05, -8.02585927885957e-05, -0.7305553555488586], [-0.02485485002398491, -5.9246725868433714e-05, -0.04807763919234276, -0.08954960852861404, 0.4794263243675232, -0.025370672345161438, 0.016089553013443947, -0.068827785551548, -0.10832440108060837, -3.469347575446591e-05, -0.20387336611747742, 0.009960300289094448, 5.120384957990609e-05, -3.0298169804154895e-05, 0.13884583115577698, -3.988660319009796e-05, 0.05035330727696419, -5.048081584391184e-05, 0.00661027617752552, 4.7086265112739056e-05, -0.057628095149993896, -4.2616633436409757e-05, -7.160170935094357e-05, -0.12919093668460846], [-0.04863584041595459, -9.516365025774576e-06, -0.09888510406017303, -0.28665781021118164, 0.05873852223157883, 0.3226448595523834, 0.057811811566352844, 0.12994739413261414, -0.178275465965271, -6.298904190771282e-05, 0.8719528913497925, 0.08085555583238602, 2.6054700356326066e-05, -7.392140832962468e-05, 0.31709861755371094, -3.2392857974627987e-05, 0.19085793197155, -7.461550558218732e-05, -0.10559507459402084, 2.7865928132086992e-05, -0.04815946891903877, -2.802163544401992e-05, -1.232025806530146e-05, 0.10656007379293442], [-0.03674375265836716, 6.599834159715101e-05, -0.055621881037950516, -0.011029545217752457, 0.006763560231775045, 0.07664582878351212, 0.3457917273044586, -0.023517414927482605, 0.02378109283745289, -3.8355105971277226e-06, -0.16265363991260529, -0.03968749940395355, -5.8716406783787534e-05, 3.2200594432652e-05, 0.06827179342508316, 5.010557288187556e-05, 0.031083058565855026, 2.6071911634062417e-05, -0.09564768522977829, -5.5734682973707095e-05, 0.11592555046081543, 5.146574039827101e-05, 7.575343624921516e-05, -0.06755808740854263], [0.09082590043544769, 2.123935701092705e-05, -0.02067754603922367, -0.7684889435768127, 0.03293001279234886, 0.012104896828532219, 0.034694869071245193, -0.05153203010559082, 0.12798038125038147, -3.2909581932472065e-05, -0.3665628731250763, 0.1036987379193306, -2.4726907213334925e-05, -3.580900965971523e-06, 0.44134432077407837, 2.5434879717067815e-05, -0.07411336898803711, -2.0734139980049804e-05, -0.0009664411772973835, -2.470047002134379e-05, -0.04689826816320419, 2.2577864001505077e-05, 2.099460834870115e-05, -0.11713080108165741], [-0.008530745282769203, -0.00013437688176054507, 0.16271324455738068, 0.33230575919151306, 0.28091439604759216, 0.08895504474639893, -0.0820513591170311, -0.0044413721188902855, 0.1514313817024231, -1.7852655219030567e-05, -0.026333047077059746, -0.04591122642159462, 0.0001595339854247868, -0.0001472220610594377, -0.04437139630317688, -0.00015958269068505615, 0.21952195465564728, -7.888994878157973e-05, 0.07393763959407806, 0.00015952881949488074, 0.034763485193252563, -0.00015465388423763216, -0.00015477515989914536, -0.2215626984834671], [2.506825330783613e-05, 9.504543072580418e-07, -5.762096043326892e-05, 2.4741086235735565e-05, -9.012521331897005e-06, 5.158350904821418e-05, 4.757102578878403e-05, -5.6819739256752655e-05, 5.020576645620167e-05, -1.0286427709615964e-07, -6.222927186172456e-05, 1.1784246453316882e-05, -9.999416761274915e-07, 6.854817229395849e-07, 2.5090885173995048e-05, 8.977867764770053e-07, -3.3861306292237714e-05, 4.649325546779437e-07, 3.523680061334744e-05, -9.62612944022112e-07, 4.121110032428987e-05, 8.773957915764186e-07, 1.1901379366463516e-06, 6.703666440444067e-05], [0.16233588755130768, -6.092194962548092e-05, 0.45145073533058167, -1.6943597793579102, 0.4594839811325073, -0.338155597448349, -0.21778172254562378, 0.28793877363204956, 0.4186393618583679, 8.705656910024118e-06, 0.39230504631996155, 0.16813276708126068, 6.328054587356746e-05, -3.113421917078085e-05, 0.8569709062576294, -5.750876880483702e-05, -0.26425424218177795, -1.664702722337097e-05, 0.26871195435523987, 6.155946175567806e-05, -0.2118849903345108, -5.352522202883847e-05, -7.641842239536345e-05, 0.34976696968078613], [-0.03207692503929138, 0.00011004622501786798, -0.0033144133631139994, -0.25454002618789673, 0.08934497833251953, -0.09518486261367798, 0.06894353032112122, 0.07050468772649765, -0.12823131680488586, 2.6140765839954838e-05, 0.09780850261449814, 0.2896684408187866, -0.00010279375419486314, 7.291263318620622e-05, 0.02455243468284607, 8.808433631202206e-05, -0.006287128198891878, 7.475112215615809e-05, 0.060974739491939545, -9.729233715916052e-05, -0.11677056550979614, 9.115698048844934e-05, 0.00013073821901343763, 0.12482354044914246], [-1.814373717934359e-05, 3.5309145118844754e-07, 9.461797890253365e-05, 8.269788668258116e-05, 1.137205799750518e-05, -0.00012490915833041072, -2.7444502848084085e-05, 6.815636152168736e-05, 2.2922236894373782e-05, 2.4990865199470136e-07, 1.8267899577040225e-05, -5.699686153093353e-05, -2.88287878902338e-07, 1.1181811743199432e-07, 2.0429926735232584e-05, 2.1853490750345372e-07, 1.3814819794788491e-05, 2.475375424637605e-07, -1.4618388377130032e-05, -2.634899658460199e-07, 5.500545375980437e-05, 2.3511488222993648e-07, 4.2896724039565015e-07, -7.118392386473715e-05], [8.483100941703015e-07, -6.08965706305753e-07, -5.833623436046764e-05, -6.467028288170695e-05, -7.277264558069874e-06, 0.00014933956845197827, -2.286400558659807e-05, -6.845221651019529e-05, 3.953772102249786e-05, -1.483158769133297e-07, -7.17079165042378e-05, 1.3710895473195706e-05, 5.839642653882038e-07, -3.4299307571927784e-07, -8.850538506521843e-06, -4.959514967595169e-07, -3.416091567487456e-05, -3.613225487697491e-07, 7.782558895996772e-06, 5.522682613445795e-07, 4.364097912912257e-05, -4.995142148800369e-07, -7.550919463028549e-07, 5.9369049267843366e-05], [-0.007378659211099148, 5.349325147108175e-05, 0.05342908948659897, -0.9196351766586304, 0.21430975198745728, -0.20195497572422028, -0.10866452753543854, 0.39065471291542053, 0.4841267466545105, 1.0434984687890392e-05, -0.18680505454540253, 0.03069326840341091, -6.71910383971408e-05, 9.572777344146743e-05, 0.867527186870575, 6.416256655938923e-05, 0.12171419709920883, 6.514541746582836e-05, 0.12713375687599182, -6.599891639780253e-05, -0.046054668724536896, 6.073683834983967e-05, 7.2365983214695e-05, 0.1839486062526703], [1.0994818694598507e-05, -4.952062795382517e-07, -8.010175952222198e-05, -7.047942199278623e-05, -9.704035619506612e-06, 0.00012018804409308359, 1.0899202607106417e-05, -6.232228042790666e-05, -1.042159510689089e-05, -2.0414350387909508e-07, -1.929519567056559e-05, 4.275110040907748e-05, 4.4861099013360217e-07, -2.299878758549312e-07, -1.409715332556516e-05, -3.6752749110746663e-07, -1.1807645933004096e-05, -3.0794748795415217e-07, 6.936246791156009e-06, 4.196067493467126e-07, -3.9609305531485006e-05, -3.779525457048294e-07, -6.089647399676323e-07, 5.704594514099881e-05], [-0.03763183206319809, 0.00011097886454081163, 0.01401461474597454, -0.4245445430278778, -0.09631557017564774, -0.2062256783246994, 0.11836197227239609, 0.13496647775173187, -0.08758548647165298, 0.00011160501162521541, 0.5007259845733643, -0.03962612897157669, -9.865871106740087e-05, 6.848191696917638e-05, -0.16272126138210297, 7.824374915799126e-05, -0.05686378851532936, 0.00013273603690322489, -0.017329413443803787, -9.061324817594141e-05, -0.154310941696167, 8.660773164592683e-05, 0.00013341174053493887, -0.2791401743888855], [1.817286465666257e-05, 2.9877503493480617e-07, -8.385479304706678e-05, -3.805654705502093e-05, -1.2315784260863438e-05, 0.00012707457062788308, 1.991403041756712e-05, -8.351034193765372e-05, 3.432377343415283e-05, -1.7530859963699186e-07, -9.104321361519396e-05, 3.432214361964725e-05, -3.505333268094546e-07, 2.725443266626826e-07, 9.962134299712488e-07, 3.334269536026113e-07, -4.7467579861404374e-05, 9.81465362315248e-08, 3.181606371072121e-05, -3.440489706463268e-07, 5.8829726185649633e-05, 3.161581503263733e-07, 3.781735529173602e-07, 9.442379086976871e-05], [0.09806754440069199, -4.753513348987326e-05, 0.13403315842151642, -0.03499629721045494, 0.2167898416519165, -0.029305249452590942, -0.02550915628671646, 0.012402134016156197, 0.1075059175491333, 5.89428236708045e-06, -0.038170408457517624, 0.11471287161111832, 5.857266660314053e-05, -2.160787880711723e-05, -0.0016838490264490247, -5.493803837453015e-05, 0.01993299461901188, -1.367782033412368e-06, 0.25934848189353943, 5.737051833420992e-05, -0.038210831582546234, -5.176995546207763e-05, -6.174553709570318e-05, 0.16676698625087738], [-1.5467787306988612e-05, 4.0230474951385986e-07, 8.891808101907372e-05, 7.894027658039704e-05, 1.0657469829311594e-05, -0.00012264912948012352, -2.217756446043495e-05, 6.523166666738689e-05, 1.986238385143224e-05, 2.3369076984636195e-07, 1.776435601641424e-05, -5.187575879972428e-05, -3.4378129498691123e-07, 1.5265612773873727e-07, 1.8309548977413215e-05, 2.701170274121978e-07, 1.2977233382116538e-05, 2.6820455900633533e-07, -1.0993504474754445e-05, -3.175324252424616e-07, 5.0600723625393584e-05, 2.8456418021960417e-07, 4.912585609417874e-07, -6.488192593678832e-05], [0.04086405783891678, 2.244915049232077e-05, 0.12586088478565216, -0.23441316187381744, -0.015469202771782875, 0.03519797325134277, -0.13362503051757812, 0.13354015350341797, 0.05757218971848488, -5.23300732311327e-05, 0.7819844484329224, -0.07153794169425964, -1.346182034467347e-05, -1.8010343410423957e-05, 0.20683768391609192, 5.313046131050214e-06, 0.20130811631679535, -2.0104942450416274e-05, 0.07476107031106949, -1.0621936780808028e-05, 0.4225768446922302, 8.47511546453461e-06, 2.941176171589177e-05, -0.06623893976211548], [1.4877481589792296e-05, -3.903528806858958e-07, -8.073578646872193e-05, -7.367967191385105e-05, -8.40405573399039e-06, 0.00012133420386817306, 1.6761230654083192e-05, -6.13179145148024e-05, -9.257695637643337e-06, -2.1514050274618057e-07, -2.4640241463202983e-05, 4.644113141694106e-05, 3.3578163538550143e-07, -1.532099247469887e-07, -1.255702864000341e-05, -2.653858928169939e-07, -1.0669751645764336e-05, -2.574077484496229e-07, 1.1488154086691793e-05, 3.1068324801708513e-07, -4.4235901441425085e-05, -2.787465689380042e-07, -4.7665830038567947e-07, 6.39258068986237e-05], [3.2338710298063233e-05, -6.304971833515083e-08, -0.0001218554243678227, -0.00010731169459177181, -1.4718074453412555e-05, 0.00013024064537603408, 5.846811109222472e-05, -7.66852026572451e-05, -5.349374623619951e-05, -3.4826518913178006e-07, -1.4393039236892946e-05, 8.375444303965196e-05, -4.2229121532955105e-08, 1.3262076947739843e-07, -3.4346892789471895e-05, 8.975904819408242e-08, -2.0360181224532425e-05, -1.26339529060715e-07, 2.705398219404742e-05, -5.874658626225937e-08, -8.764668746152893e-05, 5.978316863775035e-08, -6.05169816481066e-08, 9.408855839865282e-05], [0.0925542488694191, 2.0067514924448915e-05, -0.02436170168220997, 0.17242495715618134, 0.4356100261211395, 0.02486048825085163, 0.18263734877109528, 0.22246648371219635, 0.04380214214324951, -6.344222492771223e-05, -0.00508806761354208, 0.12441465258598328, 2.434660018479917e-06, -2.5874869606923312e-05, -0.07808239758014679, -6.925091383891413e-06, 0.1558035910129547, -5.430288365460001e-05, 0.09153755754232407, 3.012592969753314e-06, 0.04603261500597, -3.736607823157101e-06, 1.3215560102253221e-05, 0.015232597477734089], [-0.2767240107059479, 3.82293073926121e-05, 0.10371676087379456, -0.023315364494919777, 0.006975043565034866, 0.075047567486763, 0.05970060080289841, -0.009191523306071758, 0.15025146305561066, 9.144661817117594e-06, 0.05586526542901993, -0.09995006769895554, -3.7911122490186244e-05, 1.8041289877146482e-05, -0.012243215925991535, 3.257252319599502e-05, -0.0019922140054404736, 1.5466788681806065e-05, -0.2579890191555023, -3.6082929000258446e-05, -0.031169798225164413, 3.243488754378632e-05, 4.766366691910662e-05, -0.1643694043159485], [-2.8024764731071627e-08, -3.832604372755455e-11, 5.971639325252909e-07, 1.7681728081697656e-07, -8.298004416928961e-08, -2.791055351281102e-07, -4.4168967860969133e-07, 3.6660785518449757e-09, 2.8073949920326413e-07, -2.15739578979246e-12, -7.291651371588159e-08, -3.5988065860692586e-07, 3.5471684617371935e-11, -2.404502985609014e-11, 1.0951415418958277e-07, -3.004578183474216e-11, -7.73828734423887e-09, -2.3073079905011618e-11, -6.044671607696728e-08, 3.352475935747279e-11, 1.963462494813939e-07, -3.044615254355065e-11, -4.637659353767809e-11, -3.94676135329064e-07], [-0.2187347412109375, -4.273733793525025e-06, 0.1302974820137024, -0.06312359869480133, 0.010406731627881527, 0.004301028326153755, 0.0011458622757345438, 0.021864671260118484, 0.14593511819839478, -1.414981215930311e-05, 0.14719614386558533, -0.13637210428714752, 3.583510988391936e-06, -7.962264589878032e-07, -0.0002777022891677916, -3.194862983946223e-06, 0.028269654139876366, -5.459217845782405e-06, -0.24372990429401398, 3.3632672966632526e-06, 0.011456085368990898, -3.681474709082977e-06, -4.5929964471724816e-06, -0.19649212062358856], [-0.2737017869949341, -3.33825773850549e-05, 0.36181339621543884, 0.02118317410349846, 0.08170884102582932, -0.06786741316318512, -0.009486636146903038, -0.01842307858169079, 0.4887565076351166, 1.0654739526216872e-05, -0.14556509256362915, -0.24254636466503143, 3.34114592988044e-05, -1.8571898181107827e-05, -0.027529893442988396, -2.9818749680998735e-05, -0.015118150040507317, -9.462258276471402e-06, -0.2682107090950012, 3.225416730856523e-05, 0.00959840789437294, -2.9431736038532108e-05, -4.063813321408816e-05, -0.2405041605234146], [-0.19675575196743011, -6.906624093971914e-06, 0.042379289865493774, -0.05642140284180641, 0.06900075078010559, 0.0035284939222037792, 0.08959441632032394, 0.02428358979523182, 0.06039061024785042, -2.5402705432497896e-06, -0.03129086643457413, 0.02761092036962509, 9.16355838853633e-06, -4.509862719714874e-06, 0.011973670683801174, -9.803776265471242e-06, 0.0004594546335283667, 8.998832186080108e-07, -0.08961816132068634, 9.357882845506538e-06, -0.05132100731134415, -9.909688742482103e-06, -6.206898888194701e-06, -0.04076552018523216], [-0.12996238470077515, 2.2814916519564576e-05, -0.18141043186187744, -0.018599770963191986, 0.022394303232431412, 0.017807617783546448, 0.14634573459625244, 0.0669870376586914, -0.06514251232147217, 4.81269898955361e-06, 0.016249805688858032, 0.11237633228302002, -2.617386417114176e-05, -1.8975457578562782e-06, 0.08053098618984222, 2.3800061171641573e-05, 0.003745723981410265, -5.4369211284210905e-06, -0.13922755420207977, -2.544051494624e-05, -0.16425329446792603, 2.2788959540775977e-05, 3.035254485439509e-05, -0.016756679862737656], [-0.12906117737293243, -2.167066895708558e-06, 0.04796098172664642, -0.013280978426337242, -0.0100503945723176, -0.09390497207641602, -0.0660022422671318, 0.014553098939359188, 0.054469794034957886, -4.444586738827638e-05, 0.008223077282309532, -0.06595597416162491, -2.092331897074473e-06, 5.4218971854425035e-06, 0.04444090276956558, 7.3030469138757326e-06, -0.021450553089380264, -2.446313010295853e-05, -0.14168186485767365, -4.140162673138548e-06, -0.06737407296895981, 5.384470114222495e-06, -7.780513442412484e-06, -0.13621780276298523], [-0.200751394033432, -5.031192267779261e-05, 0.0826108306646347, -0.01722867228090763, 0.02268969640135765, -0.009005575440824032, 0.05012846738100052, -0.015351397916674614, 0.11062273383140564, -1.230662292073248e-05, 0.0157444067299366, -0.07008258998394012, 4.403921411721967e-05, -2.4943743483163416e-05, -0.020246287807822227, -3.546736479620449e-05, 0.0016328215133398771, -3.2052128517534584e-05, -0.2014140784740448, 4.0972590795718133e-05, 0.0024608320090919733, -3.741869659279473e-05, -5.928443351876922e-05, -0.10477282106876373], [-0.26532870531082153, 1.1262425687164068e-05, 0.0877007246017456, -0.06320135295391083, 0.08294335752725601, 0.09745220094919205, 0.027585607022047043, -0.02420201525092125, 0.16032041609287262, -1.1695228749886155e-06, -0.001926775323227048, -0.06835053861141205, -6.286907591857016e-06, -1.9883632376149762e-06, -0.05208335444331169, 1.4869283404550515e-06, 0.004965633153915405, 6.448962267313618e-06, -0.2368852198123932, -4.583950158121297e-06, 0.06777086853981018, 2.4100670543703018e-06, 1.6002679330995306e-05, -0.07684297859668732], [4.350658144858244e-08, -4.8596827950664334e-11, 3.0120455107862654e-07, 1.0729997512726186e-07, -7.717927275052716e-08, -1.2260682069609175e-07, -1.906461193357245e-07, 2.1723446153032455e-08, 1.588407911867762e-07, 6.624543795463733e-12, 4.9061380735793136e-08, -1.886624687585936e-07, 5.179926973464255e-11, -3.340490731251755e-11, 1.284985415850315e-07, -4.639358341940181e-11, 2.954139155519897e-08, -2.255285541652441e-11, 2.4435024670310668e-08, 4.983433110616886e-11, 1.7087941728277656e-07, -4.525348498707338e-11, -6.137436392439355e-11, -2.3150499828261673e-07], [-0.3576827645301819, -6.969846708670957e-06, 0.09782546013593674, 0.005516299046576023, 0.04555496573448181, 0.08099076896905899, 0.08395504951477051, -0.026921678334474564, 0.16702917218208313, -2.12390223168768e-05, 0.013169404119253159, -0.14828431606292725, 7.008526154095307e-06, -7.173894118750468e-06, -0.019936904311180115, -5.103740477352403e-06, -0.008728623390197754, -1.6573410903220065e-05, -0.37536996603012085, 6.0933530221518595e-06, -0.05694852024316788, -5.886973667657003e-06, -9.563376806909218e-06, -0.1436263769865036], [-0.1430387645959854, -3.730111347977072e-05, 0.09772235155105591, 0.011595329269766808, 0.026477044448256493, 0.01460275612771511, -0.003040692303329706, -0.04575429856777191, 0.1375555694103241, -3.6947828903066693e-06, -0.1493932455778122, -0.10224327445030212, 2.8253256459720433e-05, -7.226222805911675e-06, -0.1392466276884079, -2.1122823454788886e-05, -0.024423709139227867, -1.3370337001106236e-05, -0.14345069229602814, 2.581186345196329e-05, 0.010459339246153831, -2.333224256290123e-05, -4.311908196541481e-05, -0.05188862979412079], [1.899900610169425e-07, 1.1109255876329271e-12, 4.0248480104310147e-07, 1.882709597111898e-07, -7.91074796779867e-08, -3.3062931947824836e-07, -3.146636231576849e-07, 2.552505939945604e-08, 1.3685273358987615e-07, 1.9138819001840446e-11, -7.141675695265803e-08, -2.4822028876769764e-07, 5.093120803573159e-12, -9.025342105617451e-12, 1.4213323140666034e-07, -7.314734755403673e-12, -7.1735444251430636e-09, 4.811363113477185e-12, 1.5794522312262416e-07, 5.857627750904815e-12, 2.0353962781882728e-07, -5.664922957809848e-12, 2.2086510138158433e-13, -2.265379066557216e-07], [2.2705057745042723e-07, 1.7209501185222464e-11, 1.6629866195216891e-07, 1.304414496416939e-07, -5.674897707308446e-08, -2.2131371224531904e-07, -1.1988031189957837e-07, 2.4422453392958232e-08, 2.848597624449667e-08, 2.620941484676731e-11, -3.287695449216699e-08, -1.0673019090745584e-07, -7.434803640793408e-12, -3.7440799701034255e-13, 1.0583890741600044e-07, 2.2205330022645464e-12, -9.490452868021748e-10, 1.8232632417736205e-11, 2.080706167362223e-07, -5.589527105054337e-12, 1.3747934701768827e-07, 4.7253195280261284e-12, 1.904835490729173e-11, -7.379042443744765e-08], [-0.24503907561302185, 5.655642212332168e-07, 0.2386559545993805, -0.022127671167254448, 0.06029858812689781, -0.023243077099323273, 0.04435032978653908, 0.010872592218220234, 0.31979790329933167, 1.3678124560101423e-05, 0.0306694395840168, -0.1938469409942627, -4.573292244458571e-06, 1.1453324077592697e-05, -0.037266287952661514, 4.649030415748712e-06, 0.009612069465219975, 1.7302852938883007e-05, -0.24520650506019592, -4.312847977416823e-06, -0.027551662176847458, 4.668365363613702e-06, 2.6890120352618396e-06, -0.24022342264652252], [2.51593974098796e-07, 1.433077181228759e-11, 2.5845611162367277e-07, 1.6227963328674377e-07, -6.753433012818277e-08, -2.904088489685819e-07, -2.1300336072727077e-07, 2.8562581633195805e-08, 5.669024005783285e-08, 2.5733545502837352e-11, -5.478893783106287e-08, -1.6192382190638455e-07, -4.922149059866099e-12, -3.245209656554948e-12, 1.3148667221685173e-07, 1.4261802730539813e-13, -4.34127533921469e-09, 1.4873683881755362e-11, 2.2550293010681344e-07, -3.2458066182711187e-12, 1.7759762727109774e-07, 2.531529239707675e-12, 1.568823196351765e-11, -1.2221404688261828e-07], [-0.15864026546478271, 2.6663772132451413e-06, 0.012375648133456707, -0.022787418216466904, 0.019305994734168053, 0.02467213198542595, 0.06181268021464348, -0.0015996716683730483, 0.10386811196804047, 1.398990298184799e-05, -0.001388896955177188, -0.0289970263838768, 2.174177325287019e-06, -9.062900971912313e-06, -0.045157961547374725, -4.7780026761756744e-06, 0.005504710599780083, 5.18410888616927e-06, -0.14942367374897003, 3.1523268262390047e-06, -0.029170231893658638, -3.1861040952207986e-06, 2.5394599560968345e-06, -0.10533423721790314], [-9.577482273925852e-08, -3.8551026954047884e-11, 3.6584822282748064e-07, 9.31447345919878e-08, -4.693487198892399e-08, -1.350554299506257e-07, -2.0111949083911895e-07, 1.1692915080629973e-08, 2.2160956802963483e-07, -5.238143252483951e-12, -6.828217546939186e-09, -2.3349467426214687e-07, 3.554435912267451e-11, -2.2408075395219385e-11, 7.234613974560489e-08, -2.987018618560988e-11, 9.432731928882276e-09, -2.294954157266993e-11, -1.15949539747362e-07, 3.3507918661968006e-11, 1.045816588884918e-07, -3.0357501235034334e-11, -4.693462285487726e-11, -2.8829347797909577e-07], [-0.2845560312271118, 4.859887849306688e-05, 0.07898682355880737, -0.05402519553899765, -0.0020813262090086937, 0.0762292668223381, 0.08368372172117233, -0.0245871189981699, 0.13911989331245422, 9.534381206321996e-06, 0.049390822649002075, -0.09166175872087479, -4.683643419411965e-05, 1.846223858592566e-05, -0.017792318016290665, 3.960441244998947e-05, -0.006299868226051331, 1.8955624909722246e-05, -0.26072320342063904, -4.433478170540184e-05, -0.04423186182975769, 3.990995901403949e-05, 5.968631012365222e-05, -0.17466792464256287], [2.1345887546431186e-07, 6.6587776959003975e-12, 3.4302823337384325e-07, 1.7699571230878064e-07, -7.356965170401963e-08, -3.137670319119934e-07, -2.734604436227528e-07, 2.639506746504594e-08, 1.0367892855356331e-07, 2.150791003630026e-11, -6.562729737424888e-08, -2.1245573122996575e-07, 7.084142300550766e-13, -6.450587026335386e-12, 1.3667821008311876e-07, -3.9525249392879935e-12, -6.486504666725068e-09, 8.841469223419551e-12, 1.839324710317669e-07, 1.837883144284458e-12, 1.915252880735352e-07, -2.0408594519211176e-12, 6.764526872676813e-12, -1.8295889958608313e-07], [-0.09183396399021149, -5.2114100981270894e-06, -0.1421954333782196, -0.07104139029979706, 0.061682868748903275, 0.13175559043884277, -0.02821454033255577, -0.018756670877337456, -0.05788419395685196, 1.1188288226549048e-05, 0.05185993015766144, 0.09989642351865768, 7.993100552994292e-06, -2.3573782073071925e-06, -0.014763571321964264, -8.58491057442734e-06, 0.001344036776572466, 9.288905857829377e-06, -0.07644739747047424, 8.338060979440343e-06, -0.035694561898708344, -7.5770913099404424e-06, -5.619698640657589e-06, 0.09694796800613403], [1.8819980596163077e-07, 7.241153857084903e-12, 2.7893798915101797e-07, 1.4833263151103893e-07, -6.191474710703915e-08, -2.6484781301405746e-07, -2.2343211014685949e-07, 2.3527201520323615e-08, 8.035645038262373e-08, 1.8855641006898516e-11, -5.5197673987095186e-08, -1.7295550946982985e-07, -7.09778210598172e-13, -4.685550124977622e-12, 1.1459120941026413e-07, -2.3263092840952737e-12, -5.109126899327521e-09, 8.629734947473988e-12, 1.6339514274932299e-07, 3.49712148345685e-13, 1.5972396738561656e-07, -6.394993584159236e-13, 7.640655469431934e-12, -1.4710796847339225e-07], [2.173486945977743e-09, -4.788892199458772e-11, 8.600100613875838e-07, 2.6984807277585787e-07, -1.2512454361512937e-07, -4.277216874015721e-07, -6.293916499089391e-07, 1.0804962258248452e-08, 3.96504248101337e-07, 1.8689498733348575e-12, -9.562959490949652e-08, -5.198388635108131e-07, 4.563415617608868e-11, -3.248851188075719e-11, 1.841939223368172e-07, -3.9301509963118875e-11, -7.903048881985342e-09, -2.815578152570719e-11, -4.6262538688779387e-08, 4.335024700319323e-11, 3.0600605782638013e-07, -3.947387208769193e-11, -5.8170364358733906e-11, -5.61718820790702e-07], [-0.27685311436653137, 1.7097854652092792e-06, 0.04833151400089264, -0.11008506268262863, 0.035220321267843246, 0.010258176364004612, 0.14140181243419647, 0.010501865297555923, 0.12286154925823212, 1.4162078514345922e-05, -0.03613678738474846, -0.024598708376288414, 2.0868928913841955e-06, -1.3205962204665411e-05, 0.004373949486762285, -3.1534095796814654e-06, -0.010214698500931263, -3.613269655033946e-06, -0.24847529828548431, 2.418398025838542e-06, -0.02305455692112446, -1.984428536161431e-06, -2.9074377039250976e-07, -0.15533985197544098]], "rec.bias_ih_l0": [0.14985249936580658, -5.883722398181135e-09, 0.1396549642086029, 0.3471145033836365, -0.4531431496143341, 0.2840701937675476, -0.08222977072000504, 0.2746783494949341, 0.2184116393327713, -1.1129693433531429e-07, 0.45328742265701294, 0.11711231619119644, -2.967896364225453e-07, -3.3869909543682297e-07, 0.29240643978118896, -3.7492392834792554e-07, 0.2129240185022354, 9.359526131902385e-08, 0.17074820399284363, -3.2571833230576885e-07, 0.23569324612617493, -2.8585392897184647e-07, -6.900881288629535e-08, 0.24843546748161316, 0.24772892892360687, 2.8164887089232593e-10, 0.3021560609340668, -0.03783807530999184, 0.9652231931686401, 0.048892006278038025, 0.40659189224243164, 0.022274991497397423, 0.30547186732292175, -1.0287362783856224e-07, -0.10679364949464798, 0.1972638964653015, -2.8828478093601007e-07, -3.429991011216771e-07, -0.00911798607558012, -3.675482105336414e-07, -0.03130239620804787, 9.815440904503703e-08, 0.3356075584888458, -3.175453002768336e-07, 0.0855710431933403, -2.787616892874212e-07, -6.056963286482642e-08, 0.3406444191932678, -0.25242525339126587, -2.3127859094529413e-05, -0.010931885801255703, -0.19762614369392395, -0.0753745585680008, 0.14801160991191864, 0.22150146961212158, -0.10774039477109909, 0.05840277299284935, -3.1588857382303104e-05, 0.08572174608707428, 0.05538010224699974, 1.3490228411683347e-05, -1.714953759801574e-05, -0.206666499376297, -9.431871148990467e-06, -0.089924156665802, -3.176909012836404e-05, -0.1740923672914505, 1.2396887541399337e-05, -0.10192163288593292, -1.1806494512711652e-05, -2.4545150154153816e-05, 0.10047568380832672, 0.3679940402507782, -7.814186631094344e-09, 0.27506300806999207, 0.3253365457057953, 0.3499232828617096, 0.22747644782066345, 0.15711767971515656, 0.28079208731651306, 0.3826677203178406, -1.1154691748060941e-07, 0.46482565999031067, 0.2005954086780548, -2.983739193496149e-07, -3.3946915323213034e-07, 0.28431323170661926, -3.76036581428707e-07, 0.22266392409801483, 9.274513956825103e-08, 0.37998783588409424, -3.2711605513213726e-07, 0.16553571820259094, -2.870124546916486e-07, -7.184501527035536e-08, 0.3878193199634552], "rec.bias_hh_l0": [0.14985249936580658, -5.883722398181135e-09, 0.1396549642086029, 0.3471145033836365, -0.4530365765094757, 0.2840701937675476, -0.08222977072000504, 0.2746783494949341, 0.2184116393327713, -1.1129693433531429e-07, 0.45328742265701294, 0.11711231619119644, -2.967896364225453e-07, -3.3869909543682297e-07, 0.29240643978118896, -3.7492392834792554e-07, 0.2129240185022354, 9.359526131902385e-08, 0.17074820399284363, -3.2571833230576885e-07, 0.23569324612617493, -2.8585392897184647e-07, -6.900881288629535e-08, 0.24843546748161316, 0.24772892892360687, 2.8164887089232593e-10, 0.3021560609340668, -0.03783807530999184, 0.9652231931686401, 0.048892006278038025, 0.40659189224243164, 0.022274991497397423, 0.30547186732292175, -1.0287362783856224e-07, -0.10679364949464798, 0.1972638964653015, -2.8828478093601007e-07, -3.429991011216771e-07, -0.00911798607558012, -3.675482105336414e-07, -0.03130239620804787, 9.815440904503703e-08, 0.3356075584888458, -3.175453002768336e-07, 0.0855710431933403, -2.787616892874212e-07, -6.056963286482642e-08, 0.3406444191932678, -0.25242525339126587, -2.3127859094529413e-05, -0.009811836294829845, -0.20114673674106598, 0.05954438075423241, 0.14799705147743225, 0.2024211287498474, -0.10773998498916626, 0.05840277299284935, -3.1588857382303104e-05, 0.08787457644939423, 0.0553320087492466, 1.3490228411683347e-05, -1.714953759801574e-05, -0.20240189135074615, -9.431871148990467e-06, -0.08940301835536957, -3.176909012836404e-05, -0.17409242689609528, 1.2396887541399337e-05, -0.1019062027335167, -1.1806494512711652e-05, -2.4545150154153816e-05, 0.09986024349927902, 0.3679940402507782, -7.814186631094344e-09, 0.27506300806999207, 0.3253365457057953, 0.3499232828617096, 0.22747647762298584, 0.15711767971515656, 0.28079208731651306, 0.3826677203178406, -1.1154691748060941e-07, 0.46482565999031067, 0.2005954086780548, -2.983739193496149e-07, -3.3946915323213034e-07, 0.28431323170661926, -3.76036581428707e-07, 0.22266392409801483, 9.274513956825103e-08, 0.37998783588409424, -3.2711605513213726e-07, 0.16553571820259094, -2.870124546916486e-07, -7.184501527035536e-08, 0.3878193199634552], "lin.weight": [[0.12822824716567993, -0.000138460352900438, 0.12318490445613861, 0.3242548704147339, 0.29441723227500916, -0.09330036491155624, -0.08197071403265, 0.07895597070455551, 0.32734087109565735, -3.670428486657329e-05, 1.2607005834579468, -0.27329766750335693, 9.192825382342562e-05, 6.12616422586143e-05, -0.7360125184059143, -5.7615186960902065e-05, -0.6688574552536011, 1.2671021977439523e-05, 0.1792362779378891, 8.117174002109095e-05, -0.13029316067695618, -6.724936974933371e-05, -0.0001572376349940896, 0.474787175655365]], "lin.bias": [0.07247737050056458]}}