{"model_data": {"model": "SimpleRNN", "input_size": 2, "skip": 1, "output_size": 1, "unit_type": "LSTM", "num_layers": 1, "hidden_size": 24, "bias_fl": true}, "state_dict": {"rec.weight_ih_l0": [[-0.009433158673346043, 0.062407348304986954], [1.353281575688925e-08, -7.202581997489688e-08], [0.0590687058866024, 0.11565529555082321], [-0.12387679517269135, 0.3840474784374237], [-0.041501108556985855, -0.6159117221832275], [0.004633574280887842, 0.13720424473285675], [0.00010033885337179527, -0.13670776784420013], [0.004999414552003145, 0.17417728900909424], [0.03953187167644501, 0.09854713827371597], [3.414280769220568e-08, -1.5686319443375396e-07], [0.0034027693327516317, 0.37206628918647766], [-0.0835375115275383, 0.06284833699464798], [1.8439399340763885e-08, -9.338612727560758e-08], [3.161438755228119e-08, -8.767872827775136e-08], [0.005245388485491276, 0.325628399848938], [2.1974774000455e-08, -1.049263147478996e-07], [0.034675613045692444, 0.1564229130744934], [4.7655166923732395e-08, -1.6674331959620758e-07], [-0.008500192314386368, 0.08071210980415344], [1.9223076463958932e-08, -9.455986571538233e-08], [0.046549562364816666, 0.0712735578417778], [1.560725237936822e-08, -9.257033894982669e-08], [1.7938113217041973e-08, -8.684354924071158e-08], [0.025792982429265976, 0.13274922966957092], [0.012953515164554119, 0.10432132333517075], [1.3941328980138223e-08, -7.335896157201205e-08], [0.10704248398542404, 0.2708826959133148], [-0.10525692999362946, 0.12348704785108566], [-0.015267670154571533, 0.5194687247276306], [0.03221200034022331, -0.061156656593084335], [-0.0018940531881526113, 0.32343265414237976], [0.01882178522646427, -0.07072048634290695], [0.02089993841946125, 0.1476181000471115], [3.438508855424516e-08, -1.6011929915293877e-07], [-0.05225962772965431, 0.07088063657283783], [-0.15509957075119019, 0.13536866009235382], [1.885196709849879e-08, -9.51691419004419e-08], [3.1432392688657274e-08, -9.021702140898924e-08], [-0.02433808520436287, 0.09193111211061478], [2.2429841095572556e-08, -1.0653771909119314e-07], [0.03597239404916763, 0.0012680322397500277], [4.7218385645919625e-08, -1.718663185101832e-07], [0.001967591466382146, 0.14761397242546082], [1.9653096927640945e-08, -9.657553334818658e-08], [0.030360082164406776, -0.10383906215429306], [1.6080772269333465e-08, -9.363320430111344e-08], [1.829685558618621e-08, -8.944802232235816e-08], [0.06236133351922035, 0.17946842312812805], [0.04269440099596977, -0.06390946358442307], [5.2100742323091254e-05, 9.503928026788344e-07], [-0.040475696325302124, 0.4016761779785156], [-1.5738346576690674, 0.25927045941352844], [-0.1856461465358734, 0.035927023738622665], [0.05951325595378876, 0.00563933327794075], [0.005500264000147581, -0.5888732075691223], [0.27480390667915344, 0.1995265930891037], [-0.34847161173820496, 0.2508600950241089], [-7.444350194418803e-05, 6.908630439284025e-06], [1.5460020303726196, -0.12186303734779358], [0.07716304808855057, -0.259014755487442], [-5.31395708094351e-05, -5.813231837237254e-06], [-9.635808237362653e-05, -2.1992198526277207e-05], [0.6667694449424744, 0.24907121062278748], [5.098910696688108e-05, -1.0933001703961054e-06], [-0.03931385651230812, 0.013308437541127205], [-0.00012991996482014656, -1.041728046402568e-05], [-0.237197607755661, -0.14297643303871155], [-4.643117426894605e-05, -1.5689155361542362e-06], [0.08810696005821228, 0.004455816000699997], [4.155282294959761e-05, 5.5260998124140315e-06], [4.8880770918913186e-05, 4.0835884647094645e-06], [-0.329498291015625, -0.5032504200935364], [0.014353372156620026, 0.2203807532787323], [1.3314601865488385e-08, -7.203266250144225e-08], [0.15191322565078735, 0.2361445128917694], [-0.12451356649398804, 0.4239533841609955], [-0.004329024814069271, 0.07283098250627518], [0.06939423084259033, 0.02736544981598854], [0.03800858184695244, 0.09820101410150528], [-0.008001962676644325, 0.17744413018226624], [0.04583847522735596, 0.228473499417305], [3.386521285619892e-08, -1.5728858215879882e-07], [-0.055182117968797684, 0.23497121036052704], [-0.14074622094631195, 0.16181297600269318], [1.781843295134422e-08, -9.366329578597288e-08], [3.0384406102257344e-08, -8.8085315042008e-08], [0.059304170310497284, 0.34508031606674194], [2.152736122695842e-08, -1.0521608118096992e-07], [0.03940599784255028, 0.16297082602977753], [4.5689187544439847e-08, -1.6776400002527225e-07], [-0.0007879358599893749, 0.23737289011478424], [1.8600074369601316e-08, -9.484178775664986e-08], [0.04001225531101227, -0.05827364698052406], [1.4932643566112347e-08, -9.289600910733498e-08], [1.7237969274219722e-08, -8.709676535545441e-08], [-0.0045316810719668865, 0.2543591856956482]], "rec.weight_hh_l0": [[-0.10019949823617935, -5.342088570614578e-06, 0.023528238758444786, -0.014232276007533073, -0.00043660204391926527, 0.0755809098482132, 0.01885887235403061, -0.016172513365745544, 0.033949729055166245, -2.0761196992680198e-06, -0.012037672102451324, -0.027141643688082695, 2.401121719231014e-06, -3.257480102547561e-06, -0.029645465314388275, -1.5369504353657248e-06, -0.01888461969792843, -3.5881025723938365e-06, -0.0905185118317604, 2.0870272692263825e-06, -0.01094004139304161, -3.1526569728157483e-06, -2.30279988500115e-06, -0.033144380897283554], [6.655691464629854e-08, 4.9887459614705865e-12, -3.4081949706887826e-08, -2.688918809834462e-10, -3.3490916706568896e-08, 1.2033645191422693e-08, -3.870417941698179e-08, -6.642722816252444e-09, -6.548855679966437e-08, -6.199690066877039e-12, 2.2642524299953948e-08, 4.006140841283923e-08, -5.2518718540728315e-12, -4.506939960124967e-12, -1.9969336947922578e-11, 5.661851196214762e-12, 1.0597410948776087e-08, -5.3375875767869285e-12, 6.944846830947426e-08, -5.209373297315745e-12, 3.2575890429598076e-08, 5.134392043470992e-12, 5.014059480112909e-12, 2.906702789573501e-08], [-0.12105810642242432, 9.972767657018267e-06, 0.04444310814142227, -0.00472016679123044, 0.014915375038981438, -0.006891079246997833, 0.0171462744474411, -0.006375405006110668, 0.04300912097096443, -3.2764457955636317e-06, 0.027691643685102463, -0.05774940550327301, -1.4270040992414579e-05, -9.078417861019261e-06, -0.003322098171338439, 1.2971579963050317e-05, -0.026369431987404823, -2.8889380701002665e-05, -0.12727120518684387, -1.5744442862342112e-05, -0.011846855282783508, 1.6833939298521727e-05, 1.5869738490437157e-05, -0.0824599638581276], [-0.2795211672782898, -1.657196116866544e-05, 0.33072397112846375, 0.024576084688305855, 0.07014034688472748, -0.053266290575265884, 0.005911991931498051, -0.027488335967063904, 0.41716325283050537, 2.549188502598554e-05, -0.12007669359445572, -0.22508595883846283, 1.5563229680992663e-05, 2.5298610125901178e-05, -0.0479118637740612, -1.7935204596142285e-05, -0.015225504525005817, 2.93556549877394e-05, -0.2747741937637329, 1.580520620336756e-05, -0.01405955571681261, -1.2774756214639638e-05, -1.579179661348462e-05, -0.2198987752199173], [0.35254865884780884, -7.698837180214468e-06, -0.3600097596645355, -0.06335750967264175, -0.03654409945011139, -0.4861862063407898, 0.0484887920320034, -0.0826089009642601, -0.2827705442905426, 1.9577599232434295e-05, 0.09753149002790451, 0.3871542811393738, -4.084988631802844e-07, 4.578348307404667e-05, -0.09164745360612869, -9.526522717351327e-07, -0.006089555099606514, 4.731452281703241e-05, 0.5550832152366638, 1.3459236924973084e-06, 0.36447834968566895, 5.544861323869554e-06, -4.0480654206476174e-06, 0.4367494583129883], [-0.1756243258714676, -6.9709540184703656e-06, -0.05021405965089798, -0.003445724258199334, 0.032298218458890915, -0.06290256232023239, 0.07291319221258163, 0.0235651396214962, 0.05598646029829979, 1.7815882529248483e-05, -0.0681857168674469, 0.013198630884289742, 1.890030580398161e-05, 1.4256097529141698e-05, -7.36896472517401e-05, -1.918165980896447e-05, -0.021995801478624344, 1.899635390145704e-05, -0.1879924088716507, 2.024412424361799e-05, -0.14476913213729858, -2.1601663320325315e-05, -1.8205351807409897e-05, -0.05348406732082367], [0.07904757559299469, 4.7264846216421574e-05, -0.168765127658844, -0.01745743677020073, 0.02121555432677269, -0.03779035806655884, -0.12048187106847763, -0.0077847628854215145, -0.12687258422374725, -1.8972639736603014e-05, 0.01062407623976469, 0.059709880501031876, -4.332941898610443e-05, -3.9620939787710086e-05, -0.020416192710399628, 3.684472540044226e-05, -0.017718223854899406, -6.837152614025399e-05, 0.0673314705491066, -4.0669972804607823e-05, 0.01166265644133091, 4.7355249989777803e-05, 4.315974729252048e-05, 0.06308434158563614], [-0.19830746948719025, -1.3346670129976701e-05, 0.08163443952798843, -0.026310188695788383, 0.024227116256952286, -0.0023969882167875767, 0.05118626728653908, -0.00777666550129652, 0.10713864117860794, 1.2657833394769114e-05, 0.0052297986112535, -0.06703199446201324, 1.5696479749749415e-05, 1.4783865481149405e-05, -0.021690376102924347, -1.5204673218249809e-05, 0.0035081023816019297, 1.4126698260952253e-05, -0.19868601858615875, 1.6138015780597925e-05, -0.0011748153483495116, -1.6286474419757724e-05, -1.6146907000802457e-05, -0.10521568357944489], [-0.14443853497505188, 3.302464392618276e-06, 0.006593775469809771, -0.0022012745030224323, 0.031463414430618286, -0.023194938898086548, 0.05541187524795532, 0.020909905433654785, 0.013009794987738132, -9.046807463164441e-06, -0.04781913012266159, -0.01299955602735281, -8.2935630416614e-06, -1.8475773686077446e-05, -0.020467782393097878, 7.471409389836481e-06, -0.013120339252054691, -2.289264193677809e-05, -0.13146066665649414, -6.942437266843626e-06, 0.010696380399167538, 7.068117156450171e-06, 6.2166404859453905e-06, -0.05683872476220131], [1.403682858835964e-07, 9.18995435306158e-12, -8.711109700243469e-08, -1.4287780736310651e-08, -7.484793940193413e-08, 4.694765465274031e-08, -6.325087298364451e-08, -1.8259830980582592e-08, -1.4422259653201763e-07, -1.3939855346423169e-11, 8.01089328206217e-08, 9.474828743805119e-08, -9.90840916259561e-12, -7.136018772418984e-12, -9.89141835106011e-09, 1.1630928858918921e-11, 3.3995554815646756e-08, -1.078944138893645e-11, 1.449592872404537e-07, -9.650147868300873e-12, 8.944446960867936e-08, 9.756443049291352e-12, 8.723697979273748e-12, 6.726254042632718e-08], [-0.37711456418037415, 1.2644230082514696e-05, 0.2242038995027542, -0.009042738936841488, 0.05472889170050621, 0.10721364617347717, 0.08761478215456009, -0.00300494278781116, 0.32937875390052795, -1.1810009709734004e-05, 0.05266180261969566, -0.2451666295528412, -1.8980812455993146e-05, -1.993024125113152e-05, 0.004691573325544596, 1.7703476260066964e-05, 0.028996292501688004, -2.775807661237195e-05, -0.4037567675113678, -2.099478297168389e-05, 0.0027090837247669697, 2.130701977876015e-05, 2.0612253138097003e-05, -0.2974872291088104], [-0.07087261229753494, -6.856477739347611e-06, -0.005890946369618177, -0.0046142153441905975, 0.004357345402240753, -0.0002737154718488455, 0.012866630218923092, -0.04359631612896919, 0.04787164926528931, 2.1898094928474165e-05, -0.10238368809223175, -0.037289731204509735, 9.012736882141326e-06, 1.633769898035098e-05, -0.13271060585975647, -1.1595732757996302e-05, -0.014351706020534039, 2.65396465692902e-05, -0.07385683804750443, 8.891151992429513e-06, 0.011306948959827423, -6.965860848140437e-06, -8.997727491077967e-06, 0.013003877364099026], [8.918259908341497e-08, 5.803800148806992e-12, -3.792574787553349e-08, -7.07325198412434e-10, -4.925459862192838e-08, 1.9864181410866877e-08, -5.5341359939120593e-08, -1.0584263243629266e-08, -8.441725896091157e-08, -7.889449510356528e-12, 3.768005640836236e-08, 5.0258826433946524e-08, -6.279059303754275e-12, -4.780669783654989e-12, -1.2869574295137909e-09, 7.02666874338731e-12, 1.7021605458467093e-08, -6.541996545178508e-12, 9.232779518697498e-08, -6.221575771930832e-12, 5.204680775250381e-08, 6.221493372565723e-12, 5.829695667175505e-12, 3.407849646919203e-08], [8.739625911857729e-08, 5.111848444538936e-12, -1.2965707618661781e-08, -6.048511913547827e-09, -7.350412545292784e-08, 2.1974967623350494e-08, -8.412479246544535e-08, -1.635389601517545e-08, -9.164355674329272e-08, -6.716733506190176e-12, 4.817864862616261e-08, 4.920933349694678e-08, -4.9022812718957365e-12, -1.6658771801250638e-12, -2.0118696042459305e-08, 6.031372883769093e-12, 2.6442588563213576e-08, -3.4360036517411263e-12, 9.074950924059522e-08, -4.905189535803212e-12, 7.911658883585915e-08, 4.98857639225081e-12, 4.335309888858774e-12, 1.172961905382408e-08], [-0.2470201551914215, -1.5652563888579607e-05, 0.2872013449668884, 0.000740031071472913, 0.04130379110574722, 0.0010131916496902704, -0.0038930142764002085, -0.024815326556563377, 0.30719617009162903, 2.1420108168968e-05, 0.041603390127420425, -0.18512268364429474, 1.3712088730244432e-05, 2.7603957278188318e-05, -0.02390008233487606, -1.3923708138463553e-05, 0.009835522621870041, 2.669437526492402e-05, -0.23792928457260132, 1.2992338270123582e-05, -0.0041060131043195724, -1.0001239388657268e-05, -1.403627720719669e-05, -0.22555780410766602], [9.793545530101255e-08, 6.601803305417153e-12, -4.9218801478900787e-08, -3.276046101063912e-09, -5.219999010819265e-08, 2.7107766698009073e-08, -5.3702986946291276e-08, -1.126280668728441e-08, -9.50448608705301e-08, -9.301701769937054e-12, 4.985641766097615e-08, 5.912720979495134e-08, -7.186818848370358e-12, -5.728458939840975e-12, 1.542207694882336e-09, 8.087163751169246e-12, 2.0876543160852634e-08, -7.893769839173448e-12, 1.0137948436295119e-07, -7.081629553595814e-12, 5.937091529517602e-08, 7.0711908550791236e-12, 6.606981888673813e-12, 4.067563352805337e-08], [-0.1520809382200241, 1.3081739780318458e-06, 0.017554497346282005, -0.015573687851428986, 0.016377421095967293, 0.0214802585542202, 0.055479828268289566, -0.0009573237039148808, 0.10215073078870773, -4.627072485163808e-06, -0.003520786762237549, -0.028601637110114098, 1.047844989443547e-06, -1.1280278158665169e-05, -0.03861519321799278, -1.5015807548479643e-06, 0.006226940546184778, -1.002342742140172e-05, -0.14344091713428497, 2.5400704544153996e-06, -0.025403600186109543, -3.7362140119512333e-06, -1.1299988500468316e-06, -0.1054466962814331], [1.631177184435728e-07, 6.536970617587734e-12, -4.668334696589227e-08, -1.6865509877561635e-08, -1.348768847719839e-07, 4.633764305594923e-08, -1.677856289461488e-07, -3.355497923962503e-08, -1.7524402551316598e-07, -9.148570789818677e-12, 7.11366112682299e-08, 9.831425273887362e-08, -5.645571683754458e-12, 2.7131823263776278e-12, -5.977452133265615e-08, 8.185719463371655e-12, 4.249942620049296e-08, -1.2844426043601143e-12, 1.7075407754418848e-07, -5.671414293056953e-12, 1.227597152819726e-07, 6.142973282829978e-12, 4.41389850017182e-12, 3.987026886420608e-08], [-0.09911122918128967, -1.6578967915847898e-05, -0.010216367430984974, -0.005821411497890949, 0.0054128533229231834, -0.018538011237978935, 0.04185561090707779, -0.030479559674859047, 0.05382978171110153, 1.8415292288409546e-05, -0.00825270265340805, -0.015875816345214844, 1.6919406334636733e-05, 1.2966933354618959e-05, -0.040688272565603256, -1.9005368812941015e-05, -0.007346763275563717, 2.1488385755219497e-05, -0.0745362937450409, 1.9635619537439197e-05, 0.0025918488390743732, -1.8349532183492556e-05, -1.9575043552322313e-05, -0.043709900230169296], [9.124597966092551e-08, 5.853432755859034e-12, -3.829700290225446e-08, 1.0804647176954063e-09, -4.9449592864903025e-08, 1.8136763202392103e-08, -5.545742354229333e-08, -9.365153985640973e-09, -8.457729450128681e-08, -7.943442778546306e-12, 3.7486582726842244e-08, 5.0416655739127236e-08, -6.334508872302136e-12, -4.98917140240307e-12, 2.4233153261832285e-09, 7.058599798409615e-12, 1.666154325619118e-08, -6.7829318550760576e-12, 9.391798982960609e-08, -6.267121804154341e-12, 5.1939426981562065e-08, 6.249012158426881e-12, 5.889621689653124e-12, 3.3805935828468137e-08], [-0.15740294754505157, 8.420229846706206e-07, -0.06436152756214142, -0.06094759330153465, 0.043808311223983765, 0.11050153523683548, 0.022026333957910538, -0.023037612438201904, 0.02723112888634205, 1.086378233594587e-06, 0.11010929197072983, 0.02843691222369671, 3.4698271065281006e-06, -9.672392479842529e-06, -0.017735308036208153, -4.885865109827137e-06, 0.0262672808021307, -9.072834473045077e-06, -0.14956213533878326, 5.099912868899992e-06, -0.0036957799457013607, -6.367311470967252e-06, -3.014660478584119e-06, -0.010320269502699375], [8.936806494830307e-08, 5.528130470749959e-12, -3.680080240542338e-08, 1.6102795763472955e-09, -4.554081201035842e-08, 1.620734302321125e-08, -5.249322398981349e-08, -9.617632912295448e-09, -8.173734045158199e-08, -7.497924156552038e-12, 3.320161567899049e-08, 4.7929635371701806e-08, -6.027078575804312e-12, -4.7606974785951994e-12, 1.2193676068861237e-09, 6.681900258792561e-12, 1.4679049087362728e-08, -6.425516802660569e-12, 9.235778009042406e-08, -5.971041803359833e-12, 4.7765436050895005e-08, 5.959093028057305e-12, 5.6364028028221824e-12, 3.5520425711865755e-08], [8.61218580894274e-08, 5.394034177652607e-12, -2.9892447628299124e-08, 2.53103271674604e-09, -4.932388009137867e-08, 1.4346550614163789e-08, -5.952835380185206e-08, -9.280505253173033e-09, -7.797292056466176e-08, -7.090605446541387e-12, 3.1608088590928674e-08, 4.4714983715721246e-08, -5.738215458350737e-12, -4.147251552594211e-12, 2.836344770162924e-10, 6.426302198714318e-12, 1.5120727780981724e-08, -5.698885807703391e-12, 8.846149768260148e-08, -5.697324990255881e-12, 4.978515022457941e-08, 5.702478420022139e-12, 5.3361737771540074e-12, 2.7842792960086626e-08], [-0.16014589369297028, 6.322560693661217e-06, 0.019115669652819633, -0.04913340136408806, 0.009178483858704567, -0.002148900181055069, 0.05653853341937065, -0.017468908801674843, 0.02502804435789585, -2.872885261240299e-06, -0.016254007816314697, 0.021774636581540108, -1.7067306998796994e-06, -6.832268809375819e-06, 0.004895432852208614, 2.133792122549494e-06, 0.01772412098944187, -2.2585547867493005e-06, -0.13061942160129547, -1.5955552044033539e-06, 0.0030661143828183413, -1.904930968521512e-07, 1.7205042013301863e-06, -0.039549414068460464], [-0.17285646498203278, -3.548486574800336e-06, 0.03830724209547043, -0.04221860319375992, -0.009230026975274086, 0.2138267159461975, 0.02370932698249817, -0.02235194481909275, 0.0464240238070488, -7.809858288965188e-06, 0.0994100570678711, -0.03154085576534271, 1.309472708044268e-07, -5.534152023756178e-06, 0.014389649033546448, 2.0945399228367023e-06, -0.004043615888804197, -5.4719639592804015e-06, -0.15570835769176483, 4.475998949260429e-08, 0.038731083273887634, -1.5855454194024787e-06, -1.0871702897929936e-06, -0.068574458360672], [6.786578410356015e-08, 5.076836520623296e-12, -3.40792389863509e-08, -6.766521232215439e-10, -3.340675291951811e-08, 1.1040556024966008e-08, -3.915094026751831e-08, -5.8635563071618435e-09, -6.682621034315162e-08, -6.328953854051189e-12, 2.3187027409221628e-08, 4.062634673118737e-08, -5.353358381587903e-12, -4.681540745343771e-12, 9.524727673237976e-10, 5.757697270347695e-12, 1.0829891650132595e-08, -5.549398180565435e-12, 7.065954577001321e-08, -5.329477744536737e-12, 3.153090943897041e-08, 5.224967160322169e-12, 5.152651742779124e-12, 2.958783085205141e-08], [-0.24634601175785065, 2.6089526727446355e-05, 0.1680794209241867, 0.018695373088121414, 0.036073409020900726, -0.044984571635723114, 0.014867710880935192, -0.028246978297829628, 0.10482744872570038, -1.871542372100521e-05, 0.01696627028286457, -0.146292045712471, -3.3068306947825477e-05, -3.850768189295195e-05, 0.0007057959446683526, 3.054943954339251e-05, -0.07735330611467361, -5.343081647879444e-05, -0.24690364301204681, -3.506391658447683e-05, -0.010958461090922356, 3.4011362004093826e-05, 3.6012315831612796e-05, -0.18864396214485168], [0.008610625751316547, 4.935761899105273e-05, 0.3581302762031555, 0.04431430622935295, 0.025720661506056786, -0.1733427345752716, -0.032209765166044235, -0.0475064255297184, 0.23671701550483704, -3.5547269362723455e-05, -0.028825832530856133, -0.12058300524950027, -6.411076901713386e-05, -4.1981063986895606e-05, 0.05131455883383751, 5.8385317970532924e-05, 0.028510697185993195, -6.226597906788811e-05, 0.030652625486254692, -6.665054388577119e-05, 0.18142524361610413, 7.236663077492267e-05, 6.627736729569733e-05, -0.07085178047418594], [-0.6562406420707703, 7.953769090818241e-05, 0.43635380268096924, -0.11054933071136475, 0.03277416154742241, 0.2720625400543213, -0.00645816046744585, 0.04787667095661163, 0.4707489609718323, -4.676287426264025e-05, 0.08864197134971619, -0.1618255078792572, -6.698875222355127e-05, 1.8732623630057788e-06, 0.10920241475105286, 7.3099865403492e-05, -0.013249006122350693, 1.5005401110101957e-05, -0.43580907583236694, -7.395526336040348e-05, -0.15349550545215607, 7.588616426801309e-05, 6.992967973928899e-05, -0.316291868686676], [0.018773866817355156, -1.621886985958554e-05, -0.14251495897769928, 0.018893176689743996, -0.011285037733614445, -0.16707825660705566, -0.0010416231816634536, 0.021488575264811516, -0.14106275141239166, 3.698860382428393e-05, -0.06390781700611115, 0.13066555559635162, 3.5550310713006184e-05, 3.72643735317979e-05, 0.03391142189502716, -3.599492265493609e-05, -0.02091437764465809, 4.197714588372037e-05, 0.006349277216941118, 3.7739649997092783e-05, -0.07053042203187943, -3.8087386201368645e-05, -3.504380219965242e-05, 0.043557990342378616], [-0.31636860966682434, 7.59222821216099e-05, 0.17677083611488342, -0.004638229962438345, 0.09628494083881378, -0.0016829560045152903, -0.1751537024974823, 0.004226795397698879, 0.2501586973667145, -3.6470395571086556e-05, 0.01487240381538868, -0.18842922151088715, -6.934996054042131e-05, -7.653350621694699e-05, 0.005119103938341141, 6.156245217425749e-05, -0.013019068166613579, -0.00010185842984355986, -0.33998963236808777, -6.846284668426961e-05, -0.00916153471916914, 7.416987500619143e-05, 7.226887828437611e-05, -0.32071012258529663], [0.008884929120540619, -2.6300664103473537e-05, -0.06448499858379364, -0.022314416244626045, -0.019397584721446037, -0.05541747435927391, 0.01293870247900486, -0.005136803258210421, -0.12195061147212982, 2.73246769211255e-05, 0.08297841995954514, 0.07174738496541977, 3.2550047762924805e-05, 3.517458389978856e-05, 0.04707067832350731, -3.1849980587139726e-05, 0.013180415146052837, 3.461881715338677e-05, 0.012964291498064995, 3.336968075018376e-05, 0.02355830743908882, -3.350504630361684e-05, -3.258191645727493e-05, 0.06406965106725693], [-0.1856391280889511, 2.782601040962618e-05, 0.08714678883552551, 0.03335580229759216, 0.029722586274147034, -0.060435667634010315, 0.012786186300218105, 0.007379657123237848, 0.0038223268929868937, -3.395444946363568e-05, -0.15701760351657867, -0.03049289435148239, -3.981332338298671e-05, -5.04616073158104e-05, -0.0891486257314682, 3.748492963495664e-05, -0.03825804591178894, -5.692374907084741e-05, -0.15260016918182373, -4.000377157353796e-05, 0.022822842001914978, 3.971011392422952e-05, 3.957069566240534e-05, -0.08967642486095428], [1.4329923203604267e-07, 9.327569099049082e-12, -8.776338944471718e-08, -1.4383831015152282e-08, -7.507935606554383e-08, 4.5879136933990594e-08, -6.430432364368244e-08, -1.7533523077872815e-08, -1.4694271044390916e-07, -1.4148547784753607e-11, 8.037738297161923e-08, 9.611472506776408e-08, -1.007791940177416e-11, -7.370934591854894e-12, -8.981437815691606e-09, 1.1803139195187828e-11, 3.4211176114240516e-08, -1.109181062969311e-11, 1.4786699864544062e-07, -9.84387484720406e-12, 8.843991139428908e-08, 9.920302426746908e-12, 8.9322377619383e-12, 6.858051193603387e-08], [-0.01806870475411415, -4.294869359000586e-05, 0.08532912284135818, 0.014850549399852753, 0.022796640172600746, -0.0982281044125557, -0.018660327419638634, 0.0711406022310257, 0.0986599251627922, 4.0029197407420725e-05, -0.02135569043457508, -0.17886298894882202, 4.6369052142836154e-05, 5.828447319800034e-05, 0.027427829802036285, -4.131449531996623e-05, -0.029008401557803154, 6.846911128377542e-05, -0.04524616152048111, 4.578463631332852e-05, 0.12464191764593124, -4.473865919862874e-05, -4.878168329014443e-05, -0.06159816309809685], [-0.11929868161678314, 5.342527401808184e-06, 0.08128562569618225, -0.013287641108036041, 0.0239515732973814, -0.041747141629457474, -0.01951676234602928, -0.06331079453229904, 0.10651160031557083, 8.697735211171675e-06, -0.18253444135189056, -0.09543143212795258, -1.0399548955319915e-05, -8.350756615982391e-06, -0.2214251607656479, 5.15525334776612e-06, -0.024758659303188324, 1.935048658197047e-06, -0.12540125846862793, -1.1742589776986279e-05, -0.020871736109256744, 1.3527756891562603e-05, 1.247974159923615e-05, 0.0016790040535852313], [9.035004921997825e-08, 5.892005633389985e-12, -3.9165730214563155e-08, -1.22472443297994e-09, -4.901227157461108e-08, 1.9230997239105818e-08, -5.502695188397411e-08, -9.850567472824423e-09, -8.618825830808419e-08, -8.023338070317632e-12, 3.8013165948314054e-08, 5.148251247533153e-08, -6.374728436092658e-12, -4.947361530865946e-12, -6.200580604520667e-10, 7.1237755278064085e-12, 1.717426201253147e-08, -6.758042042642742e-12, 9.343074225398595e-08, -6.329332457449821e-12, 5.1023985037090824e-08, 6.305002960699246e-12, 5.9497090414140086e-12, 3.518628943766089e-08], [8.960812891700698e-08, 5.289177949785451e-12, -1.3590802261376211e-08, -5.297978944440729e-09, -7.383703604091352e-08, 2.104117768908509e-08, -8.524135353127349e-08, -1.6055540896786624e-08, -9.4158153274293e-08, -7.001822299040894e-12, 4.743553816410895e-08, 5.07327264642754e-08, -5.1336261630563484e-12, -2.0467822315489714e-12, -1.9789879956988443e-08, 6.259404886771458e-12, 2.6272411801642193e-08, -3.894991534164616e-12, 9.29012173855881e-08, -5.153643137245645e-12, 7.856803563299763e-08, 5.205893008342066e-12, 4.603219281446025e-12, 1.2547580752197973e-08], [-0.02232981100678444, -3.458904393482953e-05, 0.19941964745521545, 0.05946851521730423, 0.018337596207857132, -0.11488564312458038, 0.02601371519267559, -0.04130725935101509, 0.1664048135280609, 4.452281064004637e-05, 0.0023259727749973536, -0.049520570784807205, 4.064329914399423e-05, 7.655858644284308e-05, 0.0015840405831113458, -3.607758480939083e-05, 0.011352881789207458, 9.319970558863133e-05, 0.0010004790965467691, 3.946455763070844e-05, 0.08437066525220871, -3.5674296668730676e-05, -4.3267191358609125e-05, -0.11448537558317184], [9.907363107686251e-08, 6.6924326323769545e-12, -4.999768776769997e-08, -3.770673551173331e-09, -5.200989505738107e-08, 2.6560940113995457e-08, -5.35880033680769e-08, -1.0492271051987245e-08, -9.656952215664205e-08, -9.433271871972515e-12, 5.03771282467369e-08, 6.009671693618657e-08, -7.28489404216992e-12, -5.888550497906708e-12, 2.4437070145211237e-09, 8.186481006977608e-12, 2.110150454370796e-08, -8.100392752397045e-12, 1.0246247938994202e-07, -7.193749068656885e-12, 5.84602126707523e-08, 7.159053298094742e-12, 6.731012015120941e-12, 4.14933083447977e-08], [0.029363185167312622, 7.73616829974344e-06, 0.03717019781470299, 0.021453354507684708, -0.026170693337917328, -0.025764675810933113, -0.0514049306511879, -0.00965987890958786, -0.03250996395945549, -1.1546542737050913e-05, 0.007618220057338476, 0.031430840492248535, -5.33527691004565e-06, -1.5801007975824177e-05, -0.0032264399342238903, 4.8703168431529775e-06, 0.013345334678888321, -1.517071905254852e-05, 0.04608305171132088, -4.293243364372756e-06, 0.015352144837379456, 2.998185664182529e-06, 6.188354291225551e-06, -0.05136677250266075], [1.6795921453649498e-07, 6.846454826681114e-12, -4.7570722472300986e-08, -1.5145552367812343e-08, -1.3558073419517314e-07, 4.4236440288614176e-08, -1.702844514284152e-07, -3.298686124253436e-08, -1.7996860890434618e-07, -9.617751907387007e-12, 7.057732176463105e-08, 1.0118548487980661e-07, -6.036956524957393e-12, 2.0874907705192847e-12, -5.802890612471856e-08, 8.568167009226357e-12, 4.2176374392965954e-08, -2.0849415943713367e-12, 1.7550594577642187e-07, -6.089170400541688e-12, 1.2216402467402077e-07, 6.5097835975913565e-12, 4.8689169016014056e-12, 4.1822644902822503e-08], [-0.20252729952335358, -6.74359898766852e-06, -0.0011162523878738284, 0.001207952038384974, -0.005868337582796812, -0.019261986017227173, 0.08902779221534729, -0.06211112439632416, 0.09413742274045944, 1.319182320003165e-05, -0.023733699694275856, -0.06083351746201515, 6.2507419897883665e-06, -1.1951881333516212e-06, -0.07591301202774048, -1.0307394404662773e-05, -0.012300812639296055, 9.979352398659103e-06, -0.1686849743127823, 9.9343105830485e-06, -0.013042307458817959, -8.462891855742782e-06, -9.422627954336349e-06, -0.11644929647445679], [9.267061784612451e-08, 5.9548030569012145e-12, -3.955231875352183e-08, 6.423193088522794e-10, -4.929953334453785e-08, 1.7455189293968942e-08, -5.533689773074002e-08, -8.63157634256595e-09, -8.652803984432467e-08, -8.09597961587416e-12, 3.785563862379604e-08, 5.172940831243977e-08, -6.445995213294475e-12, -5.1695999911394175e-12, 3.18145110256296e-09, 7.172957106754696e-12, 1.6804014180138438e-08, -7.024365464292082e-12, 9.528272215675315e-08, -6.390766388308933e-12, 5.0976119325696345e-08, 6.348354134044776e-12, 6.024976524632297e-12, 3.500593592775658e-08], [-0.02914148010313511, -2.4109144760586787e-06, -0.13329872488975525, -0.05857899785041809, 0.014251932501792908, 0.05732981860637665, -0.05179218947887421, -0.07985097914934158, -0.1442628651857376, 2.485704953869572e-06, 0.02662213332951069, 0.11039037257432938, 5.384091764426557e-06, -6.4578730416542385e-06, -0.09615687280893326, -6.675604254269274e-06, 0.016135117039084435, -7.514209301007213e-06, -0.01711883768439293, 7.771322088956367e-06, 0.0889580026268959, -7.929941602924373e-06, -6.158348242024658e-06, 0.10653774440288544], [8.975955978485217e-08, 5.5922649323802975e-12, -3.801170578299207e-08, 9.82101511226574e-10, -4.5133489834370266e-08, 1.59579354175321e-08, -5.173955130999275e-08, -8.915463922676281e-09, -8.290156472412491e-08, -7.59753024381915e-12, 3.3661731180245624e-08, 4.891679594720699e-08, -6.091292401033677e-12, -4.889954760556314e-12, 1.8593596662341838e-09, 6.748223507768714e-12, 1.4846568419102368e-08, -6.595691440930418e-12, 9.269551526358555e-08, -6.043082700912805e-12, 4.689135124635868e-08, 6.011169426806129e-12, 5.717639903202176e-12, 3.632768041939016e-08], [8.813763230364202e-08, 5.517512662034374e-12, -3.13787111849706e-08, 2.2374666563962364e-09, -4.925302476976867e-08, 1.3319392699884247e-08, -5.958079540846484e-08, -8.561685582719747e-09, -8.043070209851066e-08, -7.280867748982178e-12, 3.1834836988764437e-08, 4.6294264421931075e-08, -5.8796309834741045e-12, -4.3707086561095565e-12, 1.0198024646967951e-09, 6.5704412396949685e-12, 1.5198628133816783e-08, -5.997799045615038e-12, 9.04055283967864e-08, -5.851346317198303e-12, 4.8753740600204765e-08, 5.8298175314996925e-12, 5.503765845848996e-12, 2.9413218527452045e-08], [-0.2327885627746582, 3.2031050068326294e-05, 0.11187870055437088, -0.0825519785284996, -0.039255205541849136, -0.026939479634165764, 0.05723411962389946, -0.07228778302669525, -0.033641938120126724, -3.771866613533348e-05, -0.022140106186270714, 0.040997471660375595, -2.6080855604959652e-05, -3.5840217606164515e-05, 0.005390144884586334, 2.9213653760962188e-05, 0.07010963559150696, -2.874684469134081e-05, -0.1744815856218338, -2.652932016644627e-05, 0.04219282791018486, 2.2626085410593078e-05, 2.562945337558631e-05, -0.08412136882543564], [0.16084836423397064, 1.441503354726592e-05, -0.047305237501859665, 0.027435673400759697, 0.013095341622829437, -0.2423187643289566, -0.01020463090389967, 0.0609416700899601, -0.008259698748588562, -1.8986589793712483e-06, -0.008962221443653107, 0.03421888127923012, -9.265233529731631e-06, -8.528769285476301e-06, 0.06866361200809479, 6.580977697012713e-06, 0.0404430516064167, -6.188745373947313e-06, 0.13328662514686584, -8.083311513473745e-06, 0.023906566202640533, 8.88890372152673e-06, 9.390692866872996e-06, 0.016269423067569733], [1.129182055592537e-05, -9.32075963078205e-08, -1.480019636801444e-05, 5.742522989748977e-05, -1.9404709746595472e-05, -3.885606201947667e-05, 8.046343282330781e-05, 9.307864820584655e-05, 1.4723405911354348e-05, 1.1420884504786954e-07, 5.762467480963096e-06, 8.618264359938621e-07, 9.744361761931941e-08, 6.284404463485771e-08, 4.690704372478649e-05, -1.0767950442414076e-07, -3.2836727768881246e-05, 8.908936877105589e-08, 2.2705032165504235e-07, 9.747495965939379e-08, 1.3197765838413034e-05, -9.884760032718987e-08, -9.262301858825595e-08, -2.774198401311878e-05], [0.13986825942993164, -1.4985100733611034e-06, 0.16260187327861786, 0.14472265541553497, 0.20676125586032867, 0.07099712640047073, -0.2842054069042206, 0.1442466676235199, 0.011157533153891563, 4.5934052650409285e-06, -0.056049950420856476, -0.09931018203496933, 6.566158390342025e-06, 1.133633304561954e-05, -0.0277614276856184, -4.407926553540165e-06, 0.1010933667421341, 1.2977548976778053e-05, 0.20185106992721558, 4.402488684718264e-06, 0.059117820113897324, -7.984641342773102e-06, -4.77969342682627e-06, -0.11553078144788742], [0.0699186772108078, -3.38165154971648e-05, -0.3283119797706604, 0.15605667233467102, -0.5053374171257019, 0.03363722190260887, 0.21452482044696808, 0.8444690704345703, -0.3033927083015442, 2.1486461264430545e-05, -0.1478169709444046, -0.047800932079553604, 3.7302557757357135e-05, 2.391519956290722e-05, 0.1893748939037323, -2.9908778742537834e-05, 0.20021933317184448, 3.721324173966423e-05, -0.21802052855491638, 2.9927652576589026e-05, 0.16792088747024536, -4.1121609683614224e-05, -3.401982394279912e-05, -0.7305962443351746], [-0.024891892448067665, -5.707519449060783e-06, -0.048104774206876755, -0.0895514115691185, 0.4794537127017975, -0.0253921989351511, 0.01596621423959732, -0.06874438375234604, -0.10836421698331833, 1.1836024896183517e-05, -0.2040015012025833, 0.01000860147178173, 1.3297139048518147e-05, 2.285434129589703e-05, 0.1388806253671646, -1.2429983144102152e-05, 0.05036874860525131, 1.6146068446687423e-05, 0.006564670242369175, 1.3473601029545534e-05, -0.05767607316374779, -1.432284898328362e-05, -1.2157467608631123e-05, -0.12920962274074554], [-0.048705972731113434, 5.7225530326832086e-05, -0.098830446600914, -0.2865903377532959, 0.058762870728969574, 0.32268834114074707, 0.05782868340611458, 0.12998728454113007, -0.17817406356334686, -4.974618786945939e-05, 0.8720139265060425, 0.08078557997941971, -6.806464080000296e-05, -7.524319516960531e-05, 0.317118376493454, 5.490818512043916e-05, 0.19083334505558014, -9.904266335070133e-05, -0.10568702965974808, -6.833014776930213e-05, -0.048294324427843094, 6.0553149523912e-05, 7.543634274043143e-05, 0.10648877918720245], [-0.03671605885028839, 1.893198896141257e-05, -0.05565249174833298, -0.01104946993291378, 0.006698554381728172, 0.07665380835533142, 0.34585538506507874, -0.02343856915831566, 0.023749403655529022, -3.6723602534038946e-05, -0.1626981794834137, -0.03964492678642273, -2.0350618797237985e-05, -4.030837590107694e-05, 0.06829576194286346, 2.137256888090633e-05, 0.031058648601174355, -5.7096989621641114e-05, -0.09561162441968918, -1.9169181541656144e-05, 0.11596343666315079, 1.6191781469387934e-05, 2.1091873350087553e-05, -0.06753028184175491], [0.09080570191144943, 6.712269623676548e-06, -0.020620198920369148, -0.7685855031013489, 0.03300265222787857, 0.012089208699762821, 0.034818824380636215, -0.051450978964567184, 0.12806180119514465, -6.2280337260745e-06, -0.3665834963321686, 0.10366777330636978, -8.824806172924582e-06, -4.517841080087237e-05, 0.44124048948287964, -7.0462060648424085e-06, -0.07392895966768265, -6.555584695888683e-05, -0.0009849518537521362, -3.3334065392409684e-06, -0.04693698510527611, 1.4107163224252872e-06, 1.897854235721752e-05, -0.11717569828033447], [-0.00847922544926405, 6.420807039830834e-06, 0.16277684271335602, 0.3324289321899414, 0.28093087673187256, 0.08896265178918839, -0.08213973790407181, -0.004541165195405483, 0.1513543426990509, 1.1148227713420056e-05, -0.026406317949295044, -0.045761555433273315, -5.650609637086745e-06, 9.199239912049961e-07, -0.04448029771447182, -3.3212579637620365e-06, 0.21940243244171143, 4.987376996723469e-06, 0.07398417592048645, -8.286056072392967e-06, 0.03474121540784836, 4.165920017840108e-06, 1.5954103218973614e-05, -0.22160346806049347], [-9.597687494533602e-06, 1.165418836990284e-07, -1.0601692338241264e-05, -4.982078098692e-05, 1.9669270841404796e-05, 3.9194157579913735e-05, -0.0001635769585845992, -0.00012359618267510086, -3.395523890503682e-05, -1.9685531071900186e-07, -1.65102283062879e-05, 2.5187355277012102e-05, -1.3837450296705356e-07, -7.665931178735264e-08, -3.915926572517492e-05, 1.6632488097911846e-07, 2.6900677767116576e-05, -1.559667452966096e-07, -2.296990714967251e-06, -1.3611602867058537e-07, -2.7703023079084232e-05, 1.427470834869382e-07, 1.209008502200959e-07, 4.0854229155229405e-05], [0.1623355895280838, -3.21206207445357e-05, 0.4513664245605469, -1.694383144378662, 0.45957282185554504, -0.3380832076072693, -0.21763522922992706, 0.2880481481552124, 0.4185503423213959, 1.7371939975419082e-05, 0.39226242899894714, 0.16822795569896698, 2.721030432439875e-05, 4.8390567826572806e-05, 0.857090950012207, -2.561321343819145e-05, -0.2641751766204834, 3.5955999919679016e-05, 0.26874688267707825, 3.011436274391599e-05, -0.21181072294712067, -2.7087437047157437e-05, -3.221156293875538e-05, 0.34981268644332886], [-0.032067153602838516, -6.372119514708174e-06, -0.003279472002759576, -0.25456130504608154, 0.08936633169651031, -0.09512130916118622, 0.06905537843704224, 0.07043719291687012, -0.1282629817724228, -1.61456464411458e-05, 0.09782760590314865, 0.2897089123725891, 1.5823126886971295e-05, -6.903342182340566e-06, 0.024592652916908264, -6.546936219820054e-06, -0.006162398494780064, -1.9188615624443628e-05, 0.06098316237330437, 1.639535912545398e-05, -0.1166977733373642, -1.9846836949000135e-05, -1.8310000086785294e-05, 0.12480853497982025], [-1.0477922842255794e-05, 1.0455728727265523e-07, 7.607538464071695e-06, -5.0463822844903916e-05, 1.4196775737218559e-05, 4.113423710805364e-05, -0.00010962735541397706, -0.00010515219764783978, -3.766363806789741e-05, -1.5912586093236314e-07, 4.342254214861896e-06, 1.4473613191512413e-05, -1.255385910781115e-07, -8.720863320377248e-08, -4.421109042596072e-05, 1.4261550518313015e-07, 4.047514812555164e-05, -1.5609515457981615e-07, -6.970810773054836e-06, -1.2589433140419715e-07, -4.0822480514179915e-05, 1.2945761795890576e-07, 1.1732880267345536e-07, 2.4778586521279067e-05], [-6.490779924206436e-06, 1.3261870890346472e-07, 2.4412485799985006e-05, -8.440484089078382e-05, -1.941869777510874e-05, 8.728651300771162e-05, -0.0001752945827320218, -0.00017389003187417984, -5.072645581094548e-05, -2.43604006300302e-07, -2.51003002631478e-05, 3.5109078453388065e-05, -1.746178242001406e-07, -1.2503423363341426e-07, -7.081544754328206e-05, 2.052439640465309e-07, 1.5121104297577403e-05, -2.728056358591857e-07, 1.220592275785748e-05, -1.7435155541534186e-07, -5.1542137953219935e-05, 1.8105602350715344e-07, 1.6268785429929267e-07, 5.612885797745548e-05], [-0.00736462976783514, -2.761925134109333e-05, 0.05342892184853554, -0.9195024967193604, 0.21427485346794128, -0.2020183801651001, -0.1087886169552803, 0.39062413573265076, 0.4841659963130951, 3.9755461330059916e-05, -0.1868131458759308, 0.030720528215169907, 6.372789812303381e-06, 3.4548563689895673e-06, 0.867361843585968, -1.304880152019905e-05, 0.12162788957357407, 1.9994628019048832e-05, 0.12709715962409973, -5.189145213080337e-06, -0.04607504606246948, 5.5039586186467204e-06, 5.209593837207649e-06, 0.1839136928319931], [9.187524483422749e-06, -1.0195792299327877e-07, -2.505743452729803e-07, 4.456128226593137e-05, -1.8211474525742233e-05, -2.7727130145649426e-05, 0.00011605703184613958, 0.00010636085789883509, 2.3784581571817398e-05, 1.538544864843061e-07, -7.384579930658219e-06, -1.4858647773507982e-05, 1.1988431936060806e-07, 7.789201816876812e-08, 3.732414188561961e-05, -1.3744097770995722e-07, -4.1978088120231405e-05, 1.3808012511162815e-07, 1.67232349213009e-06, 1.195970042999761e-07, 3.822216240223497e-05, -1.2350285771844938e-07, -1.0989486298740303e-07, -3.340152761666104e-05], [-0.03758041188120842, 3.6880977859254926e-05, 0.014049538411200047, -0.4244803488254547, -0.09628107398748398, -0.20621541142463684, 0.11826194822788239, 0.13490086793899536, -0.08755691349506378, -3.6777819332201034e-05, 0.5007363557815552, -0.039645835757255554, -4.107315180590376e-05, -1.3290100469021127e-05, -0.16282235085964203, 4.1359118768014014e-05, -0.056820858269929886, 4.446935690793907e-06, -0.01732688583433628, -2.533847509766929e-05, -0.15438972413539886, 3.954849307774566e-05, 1.5221823559841141e-05, -0.2791403532028198], [-1.6307410987792537e-05, 9.406270606859835e-08, 6.964081876503769e-06, -0.00010277236287947744, -2.3975376279850025e-06, 9.572070121066645e-05, -0.00020996671810280532, -0.000192440245882608, -3.06179717881605e-05, -2.076711922427421e-07, -3.8763646443840116e-05, 1.5515033737756312e-05, -1.4150383265132405e-07, -5.094511479342145e-08, -0.000101416815596167, 1.799022442128262e-07, 1.2259141840331722e-05, -2.3131141801968624e-07, 8.256452019850258e-06, -1.441277817093578e-07, -1.1399288268876262e-05, 1.568884755442923e-07, 1.2649758218685747e-07, 5.559101919061504e-05], [0.09802669286727905, -1.3269781447888818e-05, 0.1340872198343277, -0.03501075878739357, 0.21695050597190857, -0.02926492504775524, -0.025571530684828758, 0.012385857291519642, 0.10759300738573074, -2.2335871108225547e-05, -0.03815934807062149, 0.11473221331834793, 1.1046423423977103e-05, 3.916468813258689e-06, -0.0017050554743036628, -3.115480012638727e-06, 0.019926251843571663, -1.0975368240906391e-05, 0.2592935264110565, 1.0037042557087261e-05, -0.03820475563406944, -1.4110023585089948e-05, -1.269102722289972e-05, 0.16675809025764465], [-8.972147952590603e-06, 1.0618552437335893e-07, -9.233544005837757e-06, -3.617890251916833e-05, 6.0381476032489445e-06, 3.062143878196366e-05, -0.00010701252176659182, -0.00010664267756510526, -1.8901066141552292e-05, -1.6191005158816552e-07, 7.047374765534187e-06, 1.37467504828237e-05, -1.2837456608849607e-07, -9.281473722921874e-08, -4.2821269744308665e-05, 1.450515583201195e-07, 4.161953620496206e-05, -1.6334189467670512e-07, 2.141236791430856e-06, -1.2875941024503845e-07, -2.8990782084292732e-05, 1.3207022675487678e-07, 1.2030578488975152e-07, 3.574867878342047e-05], [0.040824852883815765, 6.0119979025330395e-05, 0.12600143253803253, -0.23442469537258148, -0.015469894744455814, 0.03519289940595627, -0.13359057903289795, 0.13341329991817474, 0.0576491616666317, -7.354638364631683e-05, 0.7820584774017334, -0.07164137810468674, -7.801024912623689e-05, -0.0001188248788821511, 0.206685870885849, 6.622437649639323e-05, 0.20135875046253204, -0.00014946571900509298, 0.07473539561033249, -7.765590999042615e-05, 0.42264431715011597, 6.896416743984446e-05, 8.326757961185649e-05, -0.06634075194597244], [1.105159753933549e-05, -9.961817681869434e-08, 5.156290967534005e-07, 4.6516393922502175e-05, -1.377807348035276e-05, -2.642593244672753e-05, 0.00010165226558456197, 9.806566959014162e-05, 3.174201992806047e-05, 1.493901464755254e-07, -1.269182757823728e-05, -1.3150760423741303e-05, 1.205627455647118e-07, 8.704161302830471e-08, 3.5761597246164456e-05, -1.356325896040289e-07, -4.5460194087354466e-05, 1.5307973910694272e-07, 7.4718550422403496e-06, 1.213685294487732e-07, 4.1752351535251364e-05, -1.2455943476652465e-07, -1.1358481089018824e-07, -2.2398035071091726e-05], [9.609971129975747e-06, -1.0770605030074876e-07, 1.1198237189091742e-05, 4.1509836592013016e-05, 1.6744302229199093e-06, -3.764233406400308e-05, 0.00010306463082088158, 0.000107825399027206, 1.612562482478097e-05, 1.6368750266337884e-07, 9.559589670971036e-07, -9.763513844518457e-06, 1.3016817490552057e-07, 9.25922734040796e-08, 4.955428812536411e-05, -1.4723137553573906e-07, -3.815526360995136e-05, 1.673403886570668e-07, -3.5214559375162935e-06, 1.3087600336803007e-07, 1.6218407836277038e-05, -1.3427229816898034e-07, -1.228273873721264e-07, -3.527892840793356e-05], [0.09254112094640732, 4.3153871956747025e-05, -0.024479873478412628, 0.17252199351787567, 0.4355744421482086, 0.02494335174560547, 0.18267351388931274, 0.2222566455602646, 0.04377758502960205, -7.493302837247029e-05, -0.005080981180071831, 0.12445894628763199, -5.292598143569194e-05, -8.098086254904047e-05, -0.07813876122236252, 5.86173810006585e-05, 0.15591289103031158, -9.938287985278293e-05, 0.09150416404008865, -5.9149093431187794e-05, 0.04606416076421738, 4.878722029388882e-05, 5.8415062085259706e-05, 0.01514341402798891], [-0.27672988176345825, 1.85235353455937e-06, 0.10371927917003632, -0.023309411481022835, 0.006950407288968563, 0.0750456154346466, 0.05960114672780037, -0.009190891869366169, 0.15024514496326447, -5.4742226893722545e-06, 0.05588845536112785, -0.09991984814405441, -2.9723646548518445e-06, -6.380677405104507e-06, -0.012198502197861671, 4.334395271143876e-06, -0.002034676494076848, -5.966819571767701e-06, -0.25799086689949036, -3.347832034705789e-06, -0.03117082267999649, 2.1566750092461007e-06, 2.7781486551248236e-06, -0.16436050832271576], [6.667826113471165e-08, 4.9429657415778205e-12, -3.393980563259902e-08, -4.1128958572222984e-10, -3.365796175103242e-08, 9.97790472467841e-09, -3.851562979662049e-08, -6.625479720412386e-09, -6.500418692212406e-08, -6.1157585072579845e-12, 1.803781835008067e-08, 3.9399864704137144e-08, -5.218204340851074e-12, -4.38904078012281e-12, -2.0913861753513174e-09, 5.626318855256329e-12, 8.936418716132266e-09, -5.171027234879277e-12, 6.945652586409778e-08, -5.164125203849235e-12, 3.096500122978796e-08, 5.117155397332818e-12, 4.9541815962117486e-12, 2.92736697105056e-08], [-0.21870383620262146, 7.181913588283351e-06, 0.1302933692932129, -0.06309880316257477, 0.010428606532514095, 0.004355244338512421, 0.0011994465021416545, 0.021753370761871338, 0.14590603113174438, -1.9356506527401507e-05, 0.14721781015396118, -0.13633756339550018, -1.9110691937385127e-05, -1.866589445853606e-05, -0.00021640081831719726, 1.9919158148695715e-05, 0.028264885768294334, -3.251715315855108e-05, -0.2436780482530594, -1.9824004994006827e-05, 0.011581363156437874, 1.959431028808467e-05, 1.7339967598672956e-05, -0.1964690089225769], [-0.27374717593193054, -1.571872599015478e-05, 0.3618828356266022, 0.02118128351867199, 0.08175651729106903, -0.06784536689519882, -0.009463504888117313, -0.018452391028404236, 0.48879948258399963, 2.594820034573786e-05, -0.1456107199192047, -0.24252253770828247, 1.3875512195227202e-05, 2.355534343223553e-05, -0.0275834109634161, -1.7067475710064173e-05, -0.01516791433095932, 2.7904172384296544e-05, -0.26822978258132935, 1.4195994481269736e-05, 0.00954962708055973, -1.0809331797645427e-05, -1.397378491674317e-05, -0.24058964848518372], [-0.19680164754390717, 2.603453685878776e-05, 0.042324721813201904, -0.05645670369267464, 0.06895270198583603, 0.003663452574983239, 0.08957745134830475, 0.02412961609661579, 0.060335204005241394, -3.086603101110086e-05, -0.031198835000395775, 0.027739224955439568, -2.5553697923896834e-05, -1.0338965694245417e-05, 0.011948483064770699, 3.097686203545891e-05, 0.0004676462267525494, -2.7001588023267686e-05, -0.08961717039346695, -2.7897554900846444e-05, -0.051270097494125366, 2.6717827495303936e-05, 2.6591678761178628e-05, -0.04075516760349274], [-0.12993213534355164, 1.9040584220419987e-06, -0.1814882457256317, -0.018628325313329697, 0.022343501448631287, 0.017800094559788704, 0.1462307572364807, 0.06693956255912781, -0.06517921388149261, 2.4910050342441536e-05, 0.01625007577240467, 0.11236266791820526, 1.518803219369147e-05, 2.073100404231809e-05, 0.08051694929599762, -1.710413744149264e-05, 0.0037023713812232018, 1.3806959032081068e-05, -0.13920480012893677, 1.6336467524524778e-05, -0.16427601873874664, -1.5950332453940064e-05, -1.3328659406397492e-05, -0.01673358678817749], [-0.12906476855278015, 1.7254522390430793e-05, 0.04800067096948624, -0.01324539352208376, -0.009882096201181412, -0.09387662261724472, -0.06591751426458359, 0.01449381560087204, 0.0544859953224659, -7.634200301254168e-06, 0.008206101134419441, -0.06595556437969208, -1.7787218894227408e-05, -1.438586423319066e-05, 0.04448086768388748, 1.3978136848891154e-05, -0.0214324239641428, -3.984413342550397e-05, -0.1416822224855423, -1.527465065009892e-05, -0.06736132502555847, 1.8909408026956953e-05, 1.654537300055381e-05, -0.13622768223285675], [-0.20077328383922577, -1.5365088984253816e-05, 0.0826210007071495, -0.01724066026508808, 0.02260146290063858, -0.008999609388411045, 0.05002743378281593, -0.015329001471400261, 0.11069568246603012, 1.444121608074056e-05, 0.015753421932458878, -0.07013892382383347, 1.810504363675136e-05, 1.7893633412313648e-05, -0.020226236432790756, -1.7535076040076092e-05, 0.0016626922879368067, 1.8198199541075155e-05, -0.20145133137702942, 1.8917960915132426e-05, 0.0025291170459240675, -1.877027898444794e-05, -1.8964359696838073e-05, -0.10482991486787796], [-0.2653323709964752, 3.672094317153096e-05, 0.08766103535890579, -0.06311313807964325, 0.08290398120880127, 0.09751226752996445, 0.02774079330265522, -0.024309195578098297, 0.16031277179718018, -5.0499638746259734e-05, -0.0019131730077788234, -0.06830185651779175, -5.4793381423223764e-05, -6.951559771550819e-05, -0.05207509547472, 5.160789078217931e-05, 0.004929365124553442, -7.156984793255106e-05, -0.23687244951725006, -5.414504266809672e-05, 0.06783886253833771, 5.385489930631593e-05, 5.3037729230709374e-05, -0.07685374468564987], [1.4061930642128573e-07, 9.12723889523459e-12, -8.721759314767041e-08, -1.4246671398154831e-08, -7.541265034660682e-08, 4.468125780476839e-08, -6.288014731126168e-08, -1.8745742735859494e-08, -1.4391488889486936e-07, -1.3859485607781163e-11, 7.474269381191334e-08, 9.414598167722943e-08, -9.868183527272922e-12, -6.994185612618775e-12, -1.2891474554521665e-08, 1.1594286294935863e-11, 3.226372413678291e-08, -1.0592902423278705e-11, 1.4516115243168315e-07, -9.592514282896758e-12, 8.788305194684654e-08, 9.736365359780397e-12, 8.643082777259892e-12, 6.756640402727498e-08], [-0.3576726019382477, 5.71159375795105e-07, 0.09789769351482391, 0.005548146553337574, 0.04536667466163635, 0.08111941069364548, 0.08380138874053955, -0.02693813666701317, 0.1670207977294922, -6.278980890783714e-06, 0.013316760770976543, -0.14821413159370422, -1.9246367628511507e-06, -1.3987868442200124e-05, -0.01979341171681881, 2.750735802692361e-06, -0.008594558574259281, -2.1520307200262323e-05, -0.37534409761428833, -3.369940941411187e-06, -0.05682368203997612, 8.429735771642299e-07, 4.062711013830267e-06, -0.14365093410015106], [-0.14301002025604248, 7.622341854585102e-06, 0.097737155854702, 0.011678600683808327, 0.02643771283328533, 0.014538051560521126, -0.003063452197238803, -0.04573750123381615, 0.13754719495773315, -2.2291712866717717e-06, -0.14943073689937592, -0.10222718119621277, -1.2009831152681727e-05, -1.4320085938379634e-05, -0.139258474111557, 9.007806511363015e-06, -0.024460790678858757, -7.033264409983531e-06, -0.1434178203344345, -1.3236688573670108e-05, 0.010412748903036118, 1.3479081644618418e-05, 1.3693008440895937e-05, -0.0518670417368412], [8.945564644591286e-08, 5.744879398583702e-12, -3.791084424165092e-08, -7.190396056344639e-10, -4.9540695101768506e-08, 1.7442705058101637e-08, -5.50196794790736e-08, -1.0853149490230862e-08, -8.396654749276422e-08, -7.805033529206806e-12, 3.1793700117077606e-08, 4.958413057920552e-08, -6.246706277246439e-12, -4.643359047956652e-12, -4.1941468076345245e-09, 6.996209167553502e-12, 1.5017793231208998e-08, -6.339938990462812e-12, 9.251228050288773e-08, -6.172416310706863e-12, 5.0736801426864986e-08, 6.21137906733904e-12, 5.756839883269693e-12, 3.449633467766944e-08], [8.769863057978e-08, 5.039403356416061e-12, -1.287954987105877e-08, -5.252998036553436e-09, -7.395146184308032e-08, 1.9515230320621413e-08, -8.373063309363715e-08, -1.7292578036176565e-08, -9.125663069653456e-08, -6.632937688683116e-12, 4.273252685038642e-08, 4.861342617346054e-08, -4.86501724322741e-12, -1.5263521783298595e-12, -2.311057478721068e-08, 5.9962408302527415e-12, 2.4513690632943508e-08, -3.215756654018076e-12, 9.112053334092707e-08, -4.843177074664862e-12, 7.811280511305085e-08, 4.974119640482888e-12, 4.245040083339369e-12, 1.2296091256303043e-08], [-0.24497532844543457, -7.049738087516744e-06, 0.23857548832893372, -0.022109735757112503, 0.06032942235469818, -0.023333095014095306, 0.04442676901817322, 0.010835480876266956, 0.3197456896305084, 1.5740570233901963e-05, 0.030606547370553017, -0.1937658041715622, 3.0396790862141643e-06, 1.7278158338740468e-05, -0.037349700927734375, -4.0382160477747675e-06, 0.009518148377537727, 1.6249390682787634e-05, -0.24512620270252228, 2.2099595753388712e-06, -0.02763940580189228, 1.0120224942511413e-06, -3.752441898541292e-06, -0.24019475281238556], [9.816007917606839e-08, 6.543941170195078e-12, -4.923111163179783e-08, -3.409416748922922e-09, -5.255618873434287e-08, 2.5212750998093725e-08, -5.3414151324204795e-08, -1.1678248590385465e-08, -9.46289162584435e-08, -9.221567953687781e-12, 4.433493572264524e-08, 5.8529177948685174e-08, -7.152438797480842e-12, -5.592804865062195e-12, -1.3840895096706163e-09, 8.055408770579753e-12, 1.899134716154549e-08, -7.699943981032131e-12, 1.0154199259204688e-07, -7.030377148498079e-12, 5.831028460079324e-08, 7.058042952173826e-12, 6.533366295885523e-12, 4.10318463650583e-08], [-0.15865102410316467, 6.964519343455322e-07, 0.012394293211400509, -0.022868679836392403, 0.01942499168217182, 0.024528920650482178, 0.061916809529066086, -0.001625397359021008, 0.10390815883874893, -3.97455005440861e-06, -0.0015615526353940368, -0.029017232358455658, 1.3911101177654928e-06, -1.0672894859453663e-05, -0.04535878822207451, -1.8735088360699592e-06, 0.005367766134440899, -9.3857697720523e-06, -0.1494222730398178, 2.8487900181062287e-06, -0.029344599694013596, -3.92705760532408e-06, -1.506822854935308e-06, -0.10532714426517487], [1.63867227342962e-07, 6.430615588637334e-12, -4.685672294613141e-08, -1.515213199354548e-08, -1.3561235334691446e-07, 4.182436441624304e-08, -1.6712769479454437e-07, -3.478024268588342e-08, -1.751007516759273e-07, -9.041922592600837e-12, 6.211959657775878e-08, 9.753563290360034e-08, -5.600133638067328e-12, 2.918413557692623e-12, -6.435760724343709e-08, 8.147952798576164e-12, 3.9206870638963665e-08, -9.670273479547853e-13, 1.7166102850296738e-07, -5.588395631667131e-12, 1.2023389217574731e-07, 6.134140504571173e-12, 4.285194161318673e-12, 4.100577299936958e-08], [-0.28455275297164917, 1.2281597264518496e-05, 0.07900294661521912, -0.054035384207963943, -0.002109163673594594, 0.07621172070503235, 0.08372577279806137, -0.02452687919139862, 0.13913357257843018, -1.606363912287634e-05, 0.049412474036216736, -0.09166005998849869, -1.374984913127264e-05, -2.6685374905355275e-05, -0.017733067274093628, 1.2480571967898868e-05, -0.006301736459136009, -2.4269495042972267e-05, -0.2607138156890869, -1.1814679965027608e-05, -0.04423144459724426, 1.0944175301119685e-05, 1.2253422937646974e-05, -0.17466075718402863], [9.151392532658065e-08, 5.792972438550814e-12, -3.827672756528955e-08, 1.0340553968646304e-09, -4.972227074517832e-08, 1.5898125482749492e-08, -5.514804257700234e-08, -9.728470473646667e-09, -8.412006025082519e-08, -7.857210541917237e-12, 3.162749351304228e-08, 4.9749178998581556e-08, -6.301601601643725e-12, -4.849332740919365e-12, -5.625467314196442e-10, 7.026869537629654e-12, 1.4582441920651945e-08, -6.578403186768833e-12, 9.411346013621369e-08, -6.2159860592103655e-12, 5.065744090870794e-08, 6.238838438921146e-12, 5.8148624804132965e-12, 3.4248049729512786e-08], [-0.09179937839508057, -1.6839299860293977e-05, -0.1422520875930786, -0.0710475817322731, 0.061616454273462296, 0.13169226050376892, -0.028151173144578934, -0.018837014213204384, -0.05796248838305473, 2.234880048490595e-05, 0.05177327245473862, 0.09990245848894119, 2.3576561943627894e-05, 1.2107194379495922e-05, -0.014872035011649132, -2.484518518031109e-05, 0.0012961355969309807, 1.2960120329807978e-05, -0.07642949372529984, 2.4994462364702486e-05, -0.03579658642411232, -2.6127421733690426e-05, -2.2686623196932487e-05, 0.09701796621084213], [8.964953224221972e-08, 5.466795852809847e-12, -3.6822356719312666e-08, 1.4332292019858528e-09, -4.579258217063398e-08, 1.4168011652770929e-08, -5.21853351642676e-08, -9.924066901589867e-09, -8.133410744903813e-08, -7.418748775023243e-12, 2.741100502134941e-08, 4.732884661962089e-08, -5.995916870643603e-12, -4.623861623448411e-12, -1.7821413234031525e-09, 6.654563185215512e-12, 1.2721381281721733e-08, -6.222061060823236e-12, 9.257701094611548e-08, -5.923555049247575e-12, 4.687299082206664e-08, 5.951455040592579e-12, 5.563674087410986e-12, 3.59679361849885e-08], [8.639381121611223e-08, 5.3283835677042646e-12, -2.9835071302386496e-08, 2.5646154089287165e-09, -4.9559417902855785e-08, 1.1803881427852048e-08, -5.920635715028766e-08, -9.540846335198694e-09, -7.74905544176363e-08, -6.995972377799031e-12, 2.5511578627401832e-08, 4.397557518132089e-08, -5.7021418836677995e-12, -3.999117443448386e-12, -2.7034476879350677e-09, 6.390813659523653e-12, 1.2923539571829679e-08, -5.4811272708066294e-12, 8.865751510711561e-08, -5.643018604478689e-12, 4.817860599359847e-08, 5.690526608953528e-12, 5.257298069105687e-12, 2.830302214817948e-08], [-0.27689701318740845, 1.8969341908814386e-05, 0.0483570359647274, -0.11017227917909622, 0.035210080444812775, 0.010208633728325367, 0.1413499414920807, 0.010547388345003128, 0.12285944074392319, -8.283435818157159e-06, -0.03617699444293976, -0.024586623534560204, -6.119863428466488e-06, -1.3722727999265771e-05, 0.004324407782405615, 6.479022886196617e-06, -0.010217148810625076, -1.017940667225048e-05, -0.24851323664188385, -4.636433004634455e-06, -0.023133620619773865, 3.496885938147898e-06, 6.406249212886905e-06, -0.15536293387413025]], "rec.bias_ih_l0": [0.14988383650779724, -9.162776848370413e-08, 0.13966168463230133, 0.34711986780166626, -0.4533320665359497, 0.2840632498264313, -0.08227603137493134, 0.27469155192375183, 0.21848608553409576, -1.9277949547813478e-07, 0.4531779885292053, 0.1171073168516159, -1.2413417493917223e-07, -1.2196898069305462e-07, 0.29231181740760803, -1.3595747816452786e-07, 0.21292844414710999, -2.2481978589894425e-07, 0.1707565188407898, -1.270018401555717e-07, 0.2357085645198822, -1.241693041720282e-07, -1.2036579732921382e-07, 0.2484368532896042, 0.24775412678718567, -9.320847027538548e-08, 0.30207109451293945, -0.03789226710796356, 0.9653382301330566, 0.04887329414486885, 0.4066725969314575, 0.022307489067316055, 0.30547618865966797, -1.968612224345634e-07, -0.10688510537147522, 0.19725830852985382, -1.2554643546991429e-07, -1.2503626578563853e-07, -0.009165060706436634, -1.3744026716722146e-07, -0.031260520219802856, -2.3132551518756372e-07, 0.3355989456176758, -1.2876083133050997e-07, 0.08556246012449265, -1.2455809894618142e-07, -1.228319632673447e-07, 0.3406621217727661, -0.2524571716785431, -1.841705307015218e-05, -0.010950744152069092, -0.19760127365589142, -0.07538165897130966, 0.1480797678232193, 0.2214897722005844, -0.10770761966705322, 0.05838976055383682, 3.144656147924252e-05, 0.08570943772792816, 0.05538126081228256, 2.2648013327852823e-05, 1.7630656657274812e-05, -0.20661838352680206, -2.9778417228953913e-05, -0.0899176225066185, 1.9185627024853602e-05, -0.1740889847278595, 2.6226674890494905e-05, -0.10185045003890991, -2.526761090848595e-05, -2.1581014152616262e-05, 0.10050283372402191, 0.3680056929588318, -9.163275649370917e-08, 0.2750159800052643, 0.3253501355648041, 0.3499543368816376, 0.22743451595306396, 0.15710963308811188, 0.2807888686656952, 0.38267800211906433, -1.9321477395806141e-07, 0.46477872133255005, 0.2005540430545807, -1.244190741545026e-07, -1.223790633275712e-07, 0.2842349112033844, -1.3626596739868546e-07, 0.2226681113243103, -2.258754250306083e-07, 0.3799790143966675, -1.2729680065604043e-07, 0.16549329459667206, -1.2451145892100612e-07, -1.206276181164867e-07, 0.3878609538078308], "rec.bias_hh_l0": [0.14988383650779724, -9.162776848370413e-08, 0.13966168463230133, 0.34711986780166626, -0.45322543382644653, 0.2840632498264313, -0.08227603137493134, 0.27469155192375183, 0.21848608553409576, -1.9277949547813478e-07, 0.4531779885292053, 0.1171073168516159, -1.2413417493917223e-07, -1.2196898069305462e-07, 0.29231181740760803, -1.3595747816452786e-07, 0.21292844414710999, -2.2481978589894425e-07, 0.1707565188407898, -1.270018401555717e-07, 0.2357085645198822, -1.241693041720282e-07, -1.2036579732921382e-07, 0.2484368532896042, 0.24775412678718567, -9.320847027538548e-08, 0.30207109451293945, -0.03789226710796356, 0.9653382301330566, 0.04887329414486885, 0.4066725969314575, 0.022307489067316055, 0.30547618865966797, -1.968612224345634e-07, -0.10688510537147522, 0.19725830852985382, -1.2554643546991429e-07, -1.2503626578563853e-07, -0.009165060706436634, -1.3744026716722146e-07, -0.031260520219802856, -2.3132551518756372e-07, 0.3355989456176758, -1.2876083133050997e-07, 0.08556246012449265, -1.2455809894618142e-07, -1.228319632673447e-07, 0.3406621217727661, -0.2524571716785431, -1.841705307015218e-05, -0.009830021299421787, -0.20112355053424835, 0.05954243242740631, 0.1480652093887329, 0.20240861177444458, -0.10770720988512039, 0.05838976055383682, 3.144656147924252e-05, 0.08786314725875854, 0.05533313378691673, 2.2648013327852823e-05, 1.7630656657274812e-05, -0.20235252380371094, -2.9778417228953913e-05, -0.08939623832702637, 1.9185627024853602e-05, -0.17408904433250427, 2.6226674890494905e-05, -0.10183499753475189, -2.526761090848595e-05, -2.1581014152616262e-05, 0.09988710284233093, 0.3680056929588318, -9.163275649370917e-08, 0.2750159800052643, 0.3253501355648041, 0.3499543368816376, 0.22743454575538635, 0.15710963308811188, 0.2807888686656952, 0.38267800211906433, -1.9321477395806141e-07, 0.46477872133255005, 0.2005540430545807, -1.244190741545026e-07, -1.223790633275712e-07, 0.2842349112033844, -1.3626596739868546e-07, 0.2226681113243103, -2.258754250306083e-07, 0.3799790143966675, -1.2729680065604043e-07, 0.16549329459667206, -1.2451145892100612e-07, -1.206276181164867e-07, 0.3878609538078308], "lin.weight": [[0.1281646490097046, -9.56946169026196e-05, 0.1231723502278328, 0.32423949241638184, 0.2944495975971222, -0.09326814115047455, -0.08189043402671814, 0.07892962545156479, 0.3273383677005768, 7.866204396123067e-05, 1.2605513334274292, -0.2732434570789337, 6.955439312150702e-05, 5.440088716568425e-05, -0.7359387874603271, -7.251650094985962e-05, -0.6689281463623047, 9.383629367221147e-05, 0.17916417121887207, 7.104491669451818e-05, -0.1303204745054245, -6.293617479968816e-05, -7.645365985808894e-05, 0.47472846508026123]], "lin.bias": [0.07253552973270416]}}