{"model_data": {"model": "SimpleRNN", "input_size": 2, "skip": 1, "output_size": 1, "unit_type": "LSTM", "num_layers": 1, "hidden_size": 32, "bias_fl": true}, "state_dict": {"rec.weight_ih_l0": [[2.887522327910119e-07, -6.2485028138326015e-06], [1.5714482515249983e-06, -1.606346086191479e-05], [3.647645598903182e-07, -8.940200132201426e-06], [6.558310019499913e-07, -2.894635144912172e-05], [-0.009325145743787289, 0.153965562582016], [8.103015147753467e-07, -3.8109039451228455e-05], [3.082401178744476e-07, -1.8874765373766422e-05], [4.6251017238319037e-07, -1.3686929378309287e-05], [0.020009836181998253, -0.07979258894920349], [0.019742604345083237, 0.044304605573415756], [-0.055636078119277954, 0.27368855476379395], [0.009128947742283344, 0.08952918648719788], [8.675680760461546e-07, -3.2728839869378135e-05], [-0.0016532109584659338, 0.1232634112238884], [-9.871244799342094e-08, -1.0519144097997923e-06], [-1.8536124457568803e-07, -1.4073143574933056e-06], [-0.022075535729527473, 0.10099297016859055], [4.7682263470960606e-07, -2.0786158074770356e-06], [0.030086006969213486, 0.09570220857858658], [-0.030492223799228668, 0.14942429959774017], [0.010748679749667645, 0.1268601417541504], [-8.738169299249421e-09, -1.5548861483694054e-05], [4.452134021448728e-07, -2.1037425540271215e-05], [8.98029895779473e-07, -1.0820338502526283e-05], [8.795541930339823e-07, -3.908100916305557e-05], [0.014405656605958939, -0.5041677355766296], [-0.07045584917068481, 0.3925735056400299], [0.02864365093410015, 0.3383561074733734], [1.5848780776650528e-06, 3.5771929560723947e-06], [0.03855789452791214, 0.12793467938899994], [4.781425673172635e-07, -3.0196886200428708e-06], [0.05209266394376755, 0.3014114201068878], [2.6888565685112553e-07, -6.038285846443614e-06], [1.5521571867793682e-06, -1.6271891581709497e-05], [3.423549514991464e-07, -8.699897989572491e-06], [6.476453222603595e-07, -2.861577922885772e-05], [-0.0018133766716346145, -0.06533323973417282], [7.855280159674294e-07, -3.802847641054541e-05], [2.987650589147961e-07, -1.8755341443466023e-05], [4.587066939620854e-07, -1.3441570445138495e-05], [-0.014806614257395267, 0.26571381092071533], [-0.01992110162973404, 0.14185890555381775], [-0.08931691944599152, 0.04176713153719902], [-0.04091319441795349, 0.14078389108181], [7.36566505565861e-07, -3.127014861092903e-05], [-0.07567158341407776, 0.11391577869653702], [-8.963822040186642e-08, -9.731123782330542e-07], [-1.8658305123153696e-07, -1.4000553392179427e-06], [-0.0201051514595747, 0.1704249083995819], [4.448767469966697e-07, -1.6245126062131021e-06], [0.06523685157299042, 0.20800864696502686], [-0.03855409100651741, -0.06654428690671921], [0.02456432580947876, 0.20696845650672913], [-3.946585991343454e-08, -1.541279925731942e-05], [4.3303595020915964e-07, -2.0939798559993505e-05], [8.950599976742524e-07, -1.1123358490294777e-05], [8.516543630321394e-07, -3.9020207623252645e-05], [-0.0008095972589217126, 0.5102607607841492], [-0.06996437907218933, 0.11426753550767899], [-0.012945057824254036, -0.010359778068959713], [1.570205313328188e-06, 3.4671236335270805e-06], [0.06848448514938354, 0.02997739426791668], [4.520484537806624e-07, -2.6860252546612173e-06], [0.04395732656121254, 0.04277314618229866], [7.286668551387265e-05, -7.112092862371355e-05], [-0.00035939423833042383, -9.1442034317879e-06], [0.00031610691803507507, -4.476802860153839e-05], [4.367831570561975e-05, 1.012466054817196e-05], [-0.004682058934122324, -0.04698795825242996], [0.0002632910618558526, 2.7645954105537385e-05], [2.523542570997961e-05, 1.9703698853845708e-05], [-6.371185736497864e-05, -1.1047724001400638e-05], [-0.0070276218466460705, -0.7117430567741394], [-0.31202825903892517, 0.022828157991170883], [0.8941277861595154, -0.16483011841773987], [-0.2946201264858246, 0.31317758560180664], [-0.0005237432778812945, -2.7138448785990477e-05], [0.09494520723819733, -0.08532250672578812], [0.00036768396967090666, -4.215741137159057e-05], [0.0003802634892053902, -3.2713316613808274e-05], [-0.16041399538516998, -0.232890322804451], [-0.00021380948601290584, -4.461899516172707e-05], [0.06106824800372124, -0.2506730556488037], [0.32547980546951294, 0.07249704003334045], [-0.2657226026058197, -0.4270455241203308], [1.3590101843874436e-05, -8.873645856510848e-05], [-3.3111386983364355e-06, 6.302622068687924e-08], [0.0002967187901958823, -6.100749487814028e-06], [0.0002688808599486947, 2.8804997782572173e-05], [0.20159806311130524, -0.00043489402742125094], [-1.5599690675735474, 0.1827099472284317], [1.4768377542495728, -0.05143073946237564], [0.00037129095289856195, -0.00016902567585930228], [-0.016032099723815918, -0.000732750806491822], [0.00024600603501312435, 3.603102595661767e-05], [0.647336483001709, 0.21664971113204956], [3.0412900287046796e-07, -6.277894954109797e-06], [1.6472386050736532e-06, -1.6068843251559883e-05], [2.929298545950587e-07, -8.965826964413282e-06], [5.093162371849758e-07, -2.8959653718629852e-05], [-0.022934557870030403, 0.045775674283504486], [6.723639671690762e-07, -3.810223643085919e-05], [2.3337386778621294e-07, -1.8879429262597114e-05], [3.85729919116784e-07, -1.369094206893351e-05], [0.035776861011981964, 0.12811902165412903], [-0.00011759506742237136, 0.2062598466873169], [-0.15822568535804749, 0.2811470925807953], [0.032543353736400604, 0.23957869410514832], [6.956482252462592e-07, -3.2816577004268765e-05], [0.0104210264980793, 0.218935027718544], [-1.0612976808488384e-07, -1.0515815347389434e-06], [-1.8517067701395717e-07, -1.4068152722757077e-06], [-0.03084075264632702, 0.22938548028469086], [4.542517899608356e-07, -2.1148871383047663e-06], [0.040563661605119705, 0.20114766061306], [-0.04591751843690872, 0.15732957422733307], [-0.006330551579594612, 0.2227727174758911], [-1.2161240192654077e-07, -1.5611682101734914e-05], [3.104109964624513e-07, -2.103177030221559e-05], [9.119844435190316e-07, -1.0841720722964965e-05], [7.435058932969696e-07, -3.907112841261551e-05], [-0.02619805559515953, 0.07888304442167282], [-0.07214094698429108, 0.4090555012226105], [0.033994268625974655, 0.1882336288690567], [1.614630605217826e-06, 3.5852585824613925e-06], [0.04876837506890297, 0.1390976458787918], [4.236962354298157e-07, -3.0601324851886602e-06], [0.11012236028909683, 0.32010236382484436]], "rec.weight_hh_l0": [[-2.454146885710884e-09, -3.0660718408626053e-09, 4.98022956207933e-10, -9.32805166442563e-10, -4.714532224170398e-06, 4.6460904568057515e-10, 5.863297070085594e-10, 1.172286712147752e-09, -6.153263711894397e-06, -1.0490115528227761e-05, -6.330058113235282e-06, -1.6296123703796184e-06, -3.9948986341187265e-09, 9.386139026901219e-06, -2.1297233074313304e-11, 4.15529693986727e-11, 8.388570677198004e-06, -2.153257572246048e-09, -8.085197009677358e-07, 5.92519370457012e-07, 1.069153540811385e-06, -1.521807541093878e-10, -3.626730582517723e-10, 3.572521611872048e-09, 6.913279393394589e-10, -3.785548585710785e-07, 2.5887484298436902e-06, 2.748007091213367e-06, 3.676724924517316e-09, 4.035664247226123e-08, 1.641115021655537e-09, 6.919031875440851e-06], [-1.9882160362527657e-09, -1.1940480604266668e-08, -3.091639610985908e-09, 7.508283772494906e-09, 3.774271135625895e-06, 1.0438339081986214e-08, 6.9821362025379585e-09, -4.395102060072986e-09, -2.733040219027316e-06, -1.6180521924979985e-05, 2.0295581180107547e-06, -1.3235908227215987e-05, 4.0984975413493885e-09, 1.5715515473857522e-05, -1.0227774183135807e-09, -1.2365031221150957e-09, 1.4830237887508702e-05, -6.95043300691367e-10, 9.311907888331916e-06, 7.885287800490914e-08, 1.1044233360735234e-05, -1.5423073929099473e-10, 7.075245278542752e-09, 6.1852585275801175e-09, 1.0919971593637001e-08, 1.1383953051335993e-06, -5.9503406646399526e-08, 1.0859640497073997e-05, 9.488513086353123e-09, -6.329106554403552e-07, -4.715532964105762e-10, 8.666299436299596e-06], [4.530401054303468e-10, -3.090066647004619e-09, -3.2768416868833583e-09, 3.825296079895679e-09, -1.464588024191471e-07, 4.635460904012234e-09, 3.0609523804514538e-09, -2.4463828740550753e-09, -8.54479310419265e-07, -8.768472980591469e-06, -4.837619371755864e-07, -6.858326287328964e-06, 2.558459888390985e-09, 7.793461008986924e-06, -3.5210817594943933e-10, -4.4777087593317333e-10, 8.09614357422106e-06, 1.1636815955284874e-09, 5.661701379722217e-06, -5.196440611143771e-07, 5.549472916754894e-06, -5.209804809780394e-10, 3.741406739976583e-09, 7.640466037628357e-10, 4.7881685283357456e-09, 1.4971424207033124e-06, 7.284915000127512e-07, 1.019911337607482e-06, 2.2212423012035742e-09, 3.0278428653218725e-07, -1.7189689671681663e-09, 6.411802928596444e-07], [-4.709672651870278e-10, -9.30020771505724e-09, -3.877550280861897e-09, 7.692119829982857e-09, 6.647561804129509e-06, 1.0221617330330446e-08, 6.522291595700835e-09, -4.5129082693051714e-09, -4.0165032260119915e-06, -2.5509623810648918e-05, 4.882951088802656e-06, -2.5129174900939688e-05, 4.474096648721115e-09, 2.248682540084701e-05, -1.4604468745460508e-09, -1.0368408354111125e-09, 2.5413832190679386e-05, 3.269370885128353e-10, 1.848246029112488e-05, -1.981431523745414e-06, 2.0838451746385545e-05, 3.325689501565421e-09, 7.321204531507419e-09, 1.874566724069382e-09, 1.0754363621856555e-08, 3.875092716043582e-06, 4.581573023187957e-07, 9.490830052527599e-06, 8.50874748437036e-09, 3.603235256832704e-07, -1.264910509668482e-09, 4.44891202278086e-06], [7.459893822669983e-05, 0.00023006625997368246, -0.00018121112952940166, 0.00012277239875402302, 0.024200575426220894, 0.0001043003867380321, 0.00014173150702845305, -7.325112528633326e-05, -0.05587923899292946, 0.15174470841884613, 0.017322052270174026, 0.04232773184776306, 0.00021152695990167558, -0.1769661009311676, -9.033310925588012e-05, -7.975078915478662e-05, -0.11806857585906982, 0.00011566656758077443, -0.1512148529291153, -0.008460075594484806, -0.10686755180358887, 1.2506417988333851e-05, 0.00010379535524407402, -0.00025040601030923426, 0.00011567540786927566, 0.0135120814666152, -0.01244146004319191, -0.02609265223145485, -0.0002995312388520688, -0.017230842262506485, -0.00014477985678240657, -0.056019965559244156], [-4.292970978703181e-10, -1.6357875054495707e-08, -7.030950932573887e-09, 1.4271855697245428e-08, 6.963687610550551e-06, 1.804652249859373e-08, 1.1588690007613422e-08, -8.677321083894185e-09, -5.819866601086687e-06, -3.397521504666656e-05, 5.1540419008233584e-06, -3.3405074645997956e-05, 1.0429232588649029e-08, 3.0139102818793617e-05, -2.0018564583779153e-09, -1.980176467242245e-09, 3.388553886907175e-05, 1.5390709817708625e-09, 2.4198341634473763e-05, -2.737417389653274e-06, 2.8051548724761233e-05, 3.0490712177311252e-09, 1.3062809500752337e-08, 4.848407897384277e-09, 1.8812935209666648e-08, 5.228259851719486e-06, 1.8986204963766795e-07, 1.1150243153679185e-05, 1.439568197980634e-08, 1.2155094282206846e-06, -3.0627900216018134e-09, 5.1308111324033234e-06], [-5.197953734104033e-10, -6.804828700524013e-09, -3.8801544199884574e-09, 6.715228817455454e-09, 3.350844963279087e-06, 8.475858237488865e-09, 5.8777169797963325e-09, -4.077476578601136e-09, -1.7108155816458748e-06, -1.7070349713321775e-05, 3.6143194392934674e-06, -1.648325633141212e-05, 4.73833816627689e-09, 1.5082173376868013e-05, -1.2966403506453617e-09, -1.0981500153661727e-09, 1.7179681890411302e-05, 9.144100476810024e-10, 1.2497622265073005e-05, -1.1706646318998537e-06, 1.4285973520600237e-05, 7.778448440909358e-10, 6.2833218628099985e-09, 1.9202894829817296e-09, 8.814716068172856e-09, 2.2903200260770973e-06, 2.2679476785469888e-07, 5.012607743992703e-06, 5.2216710955121926e-09, 5.391874537963304e-07, -1.7984508327018034e-09, 2.6980876555171562e-06], [-2.9125962752729606e-10, -4.303295053631473e-09, -1.6193067997605226e-09, 3.3707256985593403e-09, 3.4869231058110017e-06, 4.613680548715138e-09, 2.7821080994527847e-09, -2.0199704131584895e-09, -2.384107801844948e-06, -1.2148315363447182e-05, 2.222951025032671e-06, -1.2032622180413455e-05, 1.631890511610834e-09, 1.0621808542055078e-05, -6.13430861662323e-10, -3.517721391954609e-10, 1.2057229469064623e-05, -1.745897523774964e-11, 8.712453563930467e-06, -9.894370123220142e-07, 9.817091267905198e-06, 1.8730521578191883e-09, 3.2364717572619384e-09, 7.634917698062793e-10, 4.885262416820524e-09, 2.1093776467751013e-06, 1.644481244511553e-07, 4.69317728857277e-06, 4.215037208155081e-09, 9.949174994972054e-08, -3.7582731371443856e-10, 2.082333139696857e-06], [-0.0004535852058324963, -0.00016411046090070158, -1.554472510179039e-05, 5.622596654575318e-05, -0.11386984586715698, 0.0001536757918074727, 0.00011837008059956133, -4.980627272743732e-05, -0.09615926444530487, -0.05566815286874771, 0.012029190547764301, -0.07539606094360352, -0.00021318472863640636, 0.06729112565517426, 8.015590719878674e-05, 6.270169251365587e-05, 0.03438708558678627, -0.00015886845358181745, 0.07185602188110352, 0.005860742647200823, 0.04249483346939087, -7.809364615241066e-05, 6.491231761174276e-05, 0.00025320876738987863, 0.00015935678675305098, 0.009841402061283588, -0.017587613314390182, -0.017852354794740677, -2.324636807315983e-05, 0.015956679359078407, 0.00011929851461900398, -0.04034856706857681], [6.332529301289469e-05, 0.00011918594100279734, -0.00017811152793001384, 0.00011384489334886894, 0.0062294029630720615, 8.73967946972698e-05, 9.740144741954282e-05, -0.00012751290341839194, 0.012790542095899582, 0.07650675624608994, 0.012584319338202477, 0.019316470250487328, 8.444327977485955e-05, -0.028392093256115913, 6.823398143751547e-05, 5.425873678177595e-05, -0.05626785382628441, 0.00016397167928516865, -0.036454517394304276, -0.011379215866327286, -0.029460469260811806, -0.00020948566088918597, 0.0001134767007897608, 8.0936610174831e-05, 8.426551357842982e-05, -0.01804640330374241, -0.06668895483016968, 0.03599834442138672, -3.740394095075317e-05, -0.011078939773142338, -0.0001860290503827855, -0.04623947665095329], [0.00017632683739066124, -1.7004900655592792e-05, -0.00021159020252525806, 0.00020830229914281517, 0.042537592351436615, 0.00015277316560968757, 0.00018337497022002935, -0.00015986469225026667, 0.034442268311977386, 0.2579609751701355, 0.028020482510328293, 0.2524687945842743, 0.0003092317783739418, -0.20431114733219147, 2.0129493350395933e-05, -1.0734567695180885e-05, -0.21545808017253876, 0.00024013487563934177, -0.15499231219291687, -0.022970451042056084, -0.18150107562541962, -0.0002790285216178745, 0.0002190998347941786, 0.00011348268162691966, 0.0001416859740857035, -0.031010335311293602, 0.023216834291815758, -0.09375597536563873, 8.910454926081002e-05, -0.021209819242358208, -0.0002551040379330516, -0.06852312386035919], [5.381704249884933e-05, 2.6229079594486393e-05, -0.0002418575604679063, 0.0002027836162596941, 0.009011366404592991, 0.00010555368498899043, 0.00016419963503722101, -0.00017894874326884747, 0.060966748744249344, 0.11893249303102493, 0.039410606026649475, -0.00510060740634799, 0.00031156226759776473, -0.08475140482187271, 0.00015067070489749312, 7.277110853465274e-05, -0.07923529297113419, 0.00024498088168911636, -0.03491479530930519, -0.00880877673625946, -0.015051421709358692, -6.757728988304734e-05, 0.00018242080113850534, -2.963826091217925e-06, 8.606648043496534e-05, -0.008951828815042973, -0.0352226197719574, 0.054066937416791916, -1.6138752698680037e-06, -9.598244650987908e-05, -0.00026688657817430794, -0.045049868524074554], [-1.341111444119747e-09, -7.08606284760549e-09, -1.1861197579676741e-09, 3.2505700353624434e-09, 3.89196384276147e-06, 5.843171724251306e-09, 3.6551652815575153e-09, -1.255662462895657e-09, -5.5286750466621015e-06, -3.203765663783997e-05, 4.565368385556212e-07, -2.8660244424827397e-05, -1.1912962838422914e-09, 2.8216682039783336e-05, -7.50171147423373e-10, -5.009651027343409e-11, 3.0601346225012094e-05, -1.6959083026790722e-09, 1.942202288773842e-05, -1.9541962501534726e-06, 2.296381353517063e-05, 5.39402833510394e-09, 3.5199927417295385e-09, 1.2920138292571437e-09, 6.3598641908413356e-09, 3.5513858165359125e-06, 1.2468408385757357e-06, 9.894714821712114e-06, 8.040030863298853e-09, 1.2567094245241606e-06, 9.527063582481787e-10, 4.995546078134794e-06], [4.835644631384639e-06, 8.041020191740245e-05, -4.6960925828898326e-05, 8.09163466328755e-05, 0.1656160205602646, 0.00011196645209565759, 9.760414832271636e-05, -6.2007580709178e-05, 0.03487164527177811, 0.16699938476085663, 0.09205415844917297, 0.06154468655586243, 3.725382703123614e-05, -0.09097061306238174, -6.556282460223883e-05, -2.371468326600734e-05, -0.14004282653331757, 4.224675285513513e-05, -0.00887363776564598, -0.042527973651885986, -0.03979486972093582, -9.139599569607526e-05, 6.410179776139557e-05, -3.8942812352615874e-07, 0.00011308253306197003, -0.026926454156637192, -0.05587122589349747, 0.11640951037406921, -0.00010986266715917736, -0.04444281756877899, -5.590280125034042e-05, -0.057369913905858994], [2.1416829421028183e-10, -3.2576574771070455e-10, -2.7466709462409256e-10, 4.127225228245379e-10, -3.6804706837756385e-07, 5.685156234669364e-10, 3.8126352075451564e-10, -2.067202520272815e-10, -8.265388373729365e-07, -1.4304782780527603e-06, -5.477874651660386e-07, -3.458377477727481e-07, 2.8071212021529846e-10, 1.3068914768155082e-06, -2.24272100890488e-10, -2.399403176145398e-10, 1.3663507161254529e-06, 8.197525991349153e-11, 1.1995884108273458e-07, -4.1199413658432604e-08, 6.012703579472145e-07, 1.3094640649580214e-10, 4.485103399787249e-10, -1.436245705699335e-10, 5.997184415740264e-10, -9.725213345745942e-08, 2.587156302524818e-07, 6.007542197039584e-07, 2.4494847816747267e-10, 1.1552106826684394e-08, -1.2136923410732692e-10, 1.0580030220808112e-06], [2.389505537880865e-10, -1.8278953350936433e-10, -4.07809827573935e-11, 2.3036557383893097e-10, -7.186939683379023e-07, 2.8388552619773577e-10, 1.6955900572490634e-10, -1.0576022002606322e-10, -7.615763593094016e-07, -1.755832613525854e-06, -8.206229722418357e-07, -5.475344551086891e-07, 2.8682906050292445e-10, 1.513773895567283e-06, -1.4354366306701394e-10, -1.9892636149432263e-10, 1.6902625930015347e-06, 6.375749234122097e-11, 9.619176921660255e-08, -8.0823731707369e-08, 7.600118010486767e-07, 1.4101801670829417e-10, 2.2068409599729222e-10, -1.695118906352988e-10, 2.9572103099617664e-10, -1.737788437594645e-07, 1.7695019494112785e-07, 2.1647173298333655e-07, 2.1258722560091314e-10, 1.8200174167759542e-07, -4.4276974447976514e-11, 7.839697104827792e-07], [-1.2507021892815828e-05, -0.00014380132779479027, 8.436889766016975e-05, -3.726333306985907e-05, 0.027547335252165794, -7.109895523171872e-05, -5.47923737030942e-05, 2.4662987925694324e-05, 0.05040845274925232, 0.11230584979057312, 0.005416191183030605, 0.07821441441774368, 1.941366099345032e-05, -0.08658764511346817, -4.9683472752803937e-05, -4.415633884491399e-05, -0.08889347314834595, -4.2113661038456485e-05, -0.01597432792186737, -0.02745566889643669, -0.03833878040313721, 0.00015213129518087953, -3.231483424315229e-05, 1.944652694874094e-06, -7.05695420037955e-05, -0.010496316477656364, -0.010835222899913788, -0.01411418803036213, 0.00015016236284282058, 0.012652488425374031, 6.182563083712012e-05, -0.02729155495762825], [-4.713097689901247e-10, 9.714856696874108e-10, 1.8103366028476842e-10, -1.2480954048044168e-09, 7.588677135572652e-07, -1.0424494600869139e-09, -5.430482175050599e-10, 9.349997442953395e-10, -6.43740179384622e-07, -2.2689612251269864e-06, 1.4565453909654025e-07, -1.260829435523192e-06, -2.138220267511315e-09, 1.958000211743638e-06, 1.620911217747878e-11, 2.794368902936384e-10, 1.884971766230592e-06, -5.459981355926402e-10, 8.464098186777846e-07, 2.4443801294182776e-07, 6.170392339299724e-07, 8.763577641346387e-10, -8.029677478482711e-10, -5.798875823970207e-10, -1.0033305297696415e-09, 2.629342361615272e-07, 3.827766761332896e-07, 1.3652741017722292e-06, -5.633176702879439e-10, -5.764590014223359e-07, 4.343291004627048e-10, 1.1709944374160841e-06], [0.00016053278523031622, -6.959890015423298e-05, 1.3297605619300157e-05, 0.00010802564793266356, -0.010595005005598068, 9.299682278651744e-05, 5.1543476729420945e-05, -0.0001212068455060944, 0.020998166874051094, 0.09973026067018509, 0.010950627736747265, 0.072044737637043, 3.7940943002467975e-05, -0.07386767119169235, 0.00018175202421844006, 0.0001328612124780193, -0.07985223084688187, 0.00010902052599703893, -0.11584560573101044, 0.0386933870613575, -0.03985101729631424, -6.733336340403184e-05, 6.669350113952532e-05, 0.00010435542208142579, 8.227870421251282e-05, -0.04344596713781357, -0.06271865963935852, 0.021858476102352142, 0.00020538127864710987, -0.011313382536172867, -8.838885696604848e-05, 0.014829574152827263], [0.00011408136924728751, -1.5811630873940885e-05, -7.567856664536521e-05, 4.677517426898703e-05, -0.020207149907946587, -2.58868167293258e-05, 4.5690259867114946e-05, -6.159512849990278e-05, 0.09720155596733093, 0.18664267659187317, 0.06373977661132812, 0.11443297564983368, 5.957166649750434e-05, -0.1841197907924652, 1.2237803275638726e-05, -7.671418416066444e-07, -0.1488265097141266, 0.00012633502774406224, -0.033749017864465714, -0.006433230359107256, -0.05261780321598053, -1.4624803043261636e-05, 6.556996231665835e-05, -2.7862224669661373e-05, -4.163889025221579e-05, -0.0041790008544921875, -0.0018111680401489139, -0.04914788156747818, 9.939885785570368e-05, -0.0013436130248010159, -0.00012052175588905811, -0.03316814824938774], [-0.00021055788965895772, -9.679766662884504e-05, 9.402404248248786e-05, -0.00013937910262029618, 0.005738168489187956, -0.00010558006761129946, 3.588412801036611e-05, 0.0001107099378714338, 0.05015892535448074, 0.09396205842494965, 0.012066286988556385, 0.054971810430288315, -0.00016143203538376838, -0.044843439012765884, -8.609289943706244e-05, -8.86577254277654e-05, -0.09891307353973389, -0.00016391502867918462, -0.08224816620349884, -0.01636580377817154, 0.007279941346496344, 0.0001781168975867331, -9.12134928512387e-05, 1.7561880667926744e-05, -0.00010428218229208142, -0.02229016087949276, -0.05911919102072716, 0.05724570155143738, 3.045716766791884e-05, -0.016519557684659958, 0.000151878732140176, -0.028062187135219574], [-2.724762859784846e-09, -8.105008886261089e-10, 1.6508442390872347e-09, -1.9265011808045074e-09, 2.5015438609443663e-07, -6.0064825335715e-10, -7.671537294307029e-10, 1.5014259835410826e-09, -5.415322235080566e-08, -1.3922560356149916e-05, 1.0449579121996067e-06, -1.2518748917500488e-05, -4.480424031783059e-09, 1.2200108358229045e-05, -4.80721351614477e-10, 2.546563515615219e-10, 1.3906375897931866e-05, -2.600964776888759e-09, 1.0255599590891507e-05, -7.221455007311306e-07, 1.0933994417428039e-05, 9.271893253171015e-10, -1.3060246217833082e-09, 9.06304031822458e-10, -4.442333723098102e-10, 1.3813537407258991e-06, 1.5047826309455559e-06, 2.583940613476443e-06, 1.0805603078978265e-09, 1.049445472744992e-06, 2.417256839137849e-09, 3.0704982236784417e-06], [-4.784123097678616e-10, -7.361590892429604e-09, -3.6443870143898494e-09, 6.48845421835631e-09, 5.261494152364321e-06, 8.422424535581285e-09, 5.600205632561028e-09, -3.861846398223179e-09, -1.7538415022499976e-06, -1.835262810345739e-05, 4.095658368896693e-06, -1.803166924219113e-05, 4.112978846393389e-09, 1.644847907300573e-05, -1.2719468811539514e-09, -9.917543453141775e-10, 1.8265360267832875e-05, 5.736811581336099e-10, 1.3815995771437883e-05, -1.4533312651110464e-06, 1.5249358511937317e-05, 1.5503774930536451e-09, 6.213642489427684e-09, 1.895219758907274e-09, 8.809099227846673e-09, 2.6939992494590115e-06, 4.04484438831787e-07, 7.298871878447244e-06, 6.127253815435552e-09, 8.316204969105456e-08, -1.4367479428400998e-09, 3.4628719731699675e-06], [-5.529483981803196e-09, -5.8393139212853384e-09, 5.152533955055105e-10, 4.106716910978747e-10, 1.921644070534967e-06, 3.1484579388063594e-09, 2.040289492910574e-09, -5.4461352094747895e-11, -2.5914698653650703e-06, -1.1569847629289143e-05, 1.152169716078788e-06, -8.162578524206765e-06, -4.210797932557853e-09, 1.0806208592839539e-05, -1.2111174285678317e-09, -2.7953520054246894e-10, 1.0922951332759112e-05, -3.9193421841332565e-09, 6.40748794467072e-06, 3.294578618806554e-07, 7.360697964031715e-06, -5.919930101683235e-10, 9.961530489377424e-10, 4.906728801046256e-09, 3.5568585854406365e-09, 4.153364727699227e-07, 1.0123392257810337e-06, 7.453329089912586e-06, 3.1639086905954628e-09, -3.1100108799364534e-07, 2.960598433077166e-09, 8.48905347083928e-06], [-4.845227552507936e-10, -1.7384072847903553e-08, -7.4428876395415955e-09, 1.5131893960074194e-08, 7.142644790292252e-06, 1.912311908824904e-08, 1.2284179895516445e-08, -9.22743481623911e-09, -6.246112661756342e-06, -3.501642640912905e-05, 5.208166840020567e-06, -3.4294542274437845e-05, 1.1081627171449782e-08, 3.1150579161476344e-05, -2.095048579064951e-09, -2.1125772242669427e-09, 3.486666901153512e-05, 1.6231322952364735e-09, 2.476549707353115e-05, -2.801720256684348e-06, 2.8827864298364148e-05, 3.0312163890044985e-09, 1.3838339363303476e-08, 5.279475079333906e-09, 1.993167231262305e-08, 5.387256805988727e-06, 1.7338857105642091e-07, 1.1690580322465394e-05, 1.522763248829051e-08, 1.2386022945065633e-06, -3.236656942462446e-09, 5.5255195547943e-06], [0.0002025887806667015, 0.00022654929489362985, -0.0005068990285508335, 0.0005984096205793321, -0.30871790647506714, 0.0006761726690456271, 0.0006345573347061872, -0.0004856945597566664, 0.04695224016904831, -0.5936792492866516, 0.09063611179590225, -0.2899591624736786, 0.0005285173538140953, 0.6206638216972351, 0.00019369475194253027, 0.0001253333466593176, 0.4968733787536621, 0.0003919172449968755, 0.10077472776174545, -0.10573289543390274, 0.39000874757766724, -0.0002862852707039565, 0.0005415845080278814, -0.00018737702339421958, 0.0006708137225359678, -0.009106140583753586, -0.11970708519220352, 0.20612728595733643, -0.0004246151074767113, 0.016291316598653793, -0.00047359211021102965, -0.0563516803085804], [7.769362127874047e-05, -1.0158621080336161e-05, -0.00010971786105073988, 9.476554987486452e-05, -0.018645409494638443, 6.747613952029496e-05, 4.836581865674816e-05, -4.4672917283605784e-05, 0.03264098986983299, 0.3077927827835083, -0.01203463040292263, 0.43869829177856445, 0.00016613345360383391, -0.24556392431259155, -3.7351271657826146e-06, -3.500208185869269e-05, -0.3097100555896759, 0.00010395753633929417, -0.21243822574615479, 0.0005208164802752435, -0.29181987047195435, -6.118199962656945e-05, 9.066917118616402e-05, 2.8152428058092482e-05, 6.633249722654e-05, -0.055783677846193314, 0.04490487650036812, -0.06235331669449806, 4.3123836803715676e-05, -0.03238788619637489, -0.0001166144065791741, 0.022166037932038307], [0.0001705207978375256, -0.00021757715148851275, -0.0001460299245081842, 0.00025006543728522956, 0.0953572615981102, 0.00024063441378530115, 0.00018823657592292875, -0.0001519336801720783, 0.1119283139705658, 0.36624494194984436, 0.021859247237443924, 0.27023446559906006, 0.0003325822181068361, -0.2804705798625946, -7.253677176777273e-05, -6.746060535078868e-05, -0.3492412567138672, 0.00014438782818615437, -0.16885824501514435, 0.032437387853860855, -0.2683632969856262, -6.390822090907022e-05, 0.0002550484496168792, 4.457962859305553e-05, 0.00023632297234144062, -0.014228706248104572, 0.02249985933303833, 0.027973420917987823, 0.0001427696697646752, -0.04924991354346275, -0.00016343474271707237, 0.024584773927927017], [1.8855890182578605e-09, 1.9946726492747757e-09, 3.2224445334350094e-09, -4.7954431536822995e-09, -7.273443429767212e-07, -4.628106786697117e-09, -3.093647116259035e-09, 3.5633118677935727e-09, -3.029964545930852e-06, -2.1638838916260283e-06, -4.901067768514622e-06, 6.935536021046573e-06, -6.27626706162232e-09, 2.3508412141381996e-06, 1.8243330457412554e-10, 2.2027513146838373e-10, -8.781133828961174e-07, -1.6834185156966441e-09, -7.67858546169009e-06, 2.0286552171455696e-06, -7.0880055318411905e-06, 7.79340592060862e-10, -3.595594710859018e-09, -8.95769403097546e-10, -4.6300221434592e-09, -1.721318199088273e-06, 2.5878016458591446e-06, 8.349054041900672e-06, -2.0153395619004755e-10, -2.9834991437382996e-06, 2.1441122211030006e-09, 1.1176868611073587e-05], [-0.0001284627360291779, -0.00012691188021562994, 6.049686635378748e-05, -5.1294806326041e-05, 0.0008187655475921929, 6.036610102455597e-06, -8.525415978510864e-06, 4.1202230931958184e-05, 0.044428661465644836, 0.11146620661020279, 0.04310593008995056, 0.10039319843053818, -0.00017107449821196496, -0.11682645976543427, -4.3877244024770334e-06, 3.1304866752179805e-06, -0.12233870476484299, -0.00013543489330913872, -0.04570705443620682, 0.028057850897312164, -0.08653631061315536, -4.3764419388026e-05, -3.293240661150776e-05, 0.0001440743071725592, 1.566408718645107e-05, 0.005139487329870462, -0.042609501630067825, 0.0015820675762370229, 1.625662662263494e-05, -0.0361185297369957, 0.00012004777090623975, -0.07375047355890274], [1.0023907398570842e-10, 9.550824575654815e-10, -5.148494963691519e-10, -4.5032005902001515e-10, 9.818750186241232e-07, -2.6307747647003055e-10, -1.4865782216322287e-11, 3.9883049640643264e-10, -2.697270247153938e-07, -2.972777792820125e-06, 5.284792905513314e-07, -1.998247398660169e-06, -1.2410875660506804e-09, 2.5259869289584458e-06, -9.966857200671697e-11, 1.400310284394024e-10, 2.572211997176055e-06, 2.8616488519095373e-12, 1.7025107581503107e-06, 1.5916924667180865e-07, 1.1969449360549334e-06, 8.412442409344578e-10, -5.421029944385758e-11, -1.0758076651740112e-09, -2.2520066367270886e-10, 5.281447101879166e-07, 5.482777964971319e-07, 1.387143811371061e-06, -7.447609196020721e-10, -6.14158693679201e-07, -1.50733356352184e-10, 1.0791708291435498e-06], [7.918617484392598e-05, 4.416450610733591e-05, -8.261501352535561e-05, 4.936056211590767e-05, 0.041262052953243256, 1.5389554391731508e-05, 2.2850741515867412e-05, -2.0636227418435737e-05, -0.004678160417824984, 0.24594520032405853, -0.02072817273437977, 0.268667608499527, 0.00016583566321060061, -0.1803724616765976, 2.2964795789448544e-05, -1.9706189050339162e-05, -0.262109637260437, 0.00011345973325660452, -0.2013406753540039, -0.013634131290018559, -0.23696231842041016, -0.00023809341655578464, 3.6923873267369345e-05, 0.00010299374116584659, 9.269523616239894e-06, -0.011452892795205116, -0.01685144193470478, 0.048553548753261566, -4.888926923740655e-05, -0.044406745582818985, -0.00012016251275781542, -0.03953080624341965], [-2.3641233415361285e-09, -3.0141038553921362e-09, 5.310261119717552e-10, -9.413041457406734e-10, -4.924399036099203e-06, 4.1423622865188747e-10, 5.498644872758973e-10, 1.1733962690385624e-09, -6.201512860570801e-06, -1.0320134606445208e-05, -6.434168881241931e-06, -1.5003021189841093e-06, -3.964034878123357e-09, 9.209930794895627e-06, 8.475320271983389e-12, 6.312119577023267e-11, 8.229604645748623e-06, -2.1075183820329357e-09, -9.057283705260488e-07, 5.866806418453052e-07, 9.440640269531286e-07, -1.5597421965107827e-10, -3.923206481903918e-10, 3.5334073444914793e-09, 6.349380465842103e-10, -3.4967357009918487e-07, 2.614660388644552e-06, 2.458572453178931e-06, 3.6664116187523632e-09, 1.0724927790306538e-07, 1.613930211696868e-09, 6.7728833528235555e-06], [-1.905571034299669e-09, -1.2024568896151777e-08, -3.1985478710083726e-09, 7.692620762611568e-09, 3.873276455124142e-06, 1.0612398959608527e-08, 7.113090116916965e-09, -4.516949037025597e-09, -2.527692686271621e-06, -1.6293031876557507e-05, 2.211624178016791e-06, -1.3407066944637336e-05, 4.319131274854726e-09, 1.584141682542395e-05, -1.0517628989958894e-09, -1.2648885272525945e-09, 1.4964250112825539e-05, -5.873931341326966e-10, 9.623306141293142e-06, 3.521052249766399e-08, 1.1219995940336958e-05, -2.60885785197118e-10, 7.224965514751602e-09, 6.223864090770803e-09, 1.1091236373772517e-08, 1.1879598105224431e-06, -2.8918535122102185e-08, 1.09037591755623e-05, 9.507517439999447e-09, -6.112568939897756e-07, -5.893895926867287e-10, 8.617524144938216e-06], [5.17849541026294e-10, -3.0552909091596803e-09, -3.242541346537564e-09, 3.796492009655594e-09, -3.221949214093911e-07, 4.598402991717876e-09, 3.035571793930103e-09, -2.4203630211161453e-09, -1.0041741234090296e-06, -8.675285243953113e-06, -6.975631663408421e-07, -6.575911356776487e-06, 2.539651378086205e-09, 7.720555913692806e-06, -3.5434338796491716e-10, -4.661611097134255e-10, 7.971448212629184e-06, 1.1674317068610662e-09, 5.428977601695806e-06, -5.040505470788048e-07, 5.316192527970998e-06, -5.146466586225529e-10, 3.7110037265364326e-09, 7.203725393978289e-10, 4.7500794408961156e-09, 1.4492534319288097e-06, 7.937474038044456e-07, 9.91957222140627e-07, 2.207165339385142e-09, 3.0605028200625384e-07, -1.7096634108426656e-09, 7.671961839150754e-07], [-4.4751266581322113e-10, -9.327470351649936e-09, -3.904054857173378e-09, 7.738988117012013e-09, 6.465821570600383e-06, 1.0266806960146369e-08, 6.564746524162501e-09, -4.548028176287744e-09, -4.17005594499642e-06, -2.531692553020548e-05, 4.7351054490718525e-06, -2.4865605155355297e-05, 4.510329887352782e-09, 2.232760380138643e-05, -1.4586153396223267e-09, -1.051489895154134e-09, 2.5210918465745635e-05, 3.4753952493637996e-10, 1.828877066145651e-05, -1.9696401523106033e-06, 2.0606068574124947e-05, 3.2768652236114804e-09, 7.358181175476375e-09, 1.8784771516067167e-09, 1.079966338579652e-08, 3.8554253478650935e-06, 4.988199862054898e-07, 9.328666237706784e-06, 8.494780878720576e-09, 3.850761913781753e-07, -1.2857209741312658e-09, 4.484191777009983e-06], [0.00020837248302996159, 0.0002747532562352717, -0.0003081868926528841, 0.0002628241782076657, -0.0009263002430088818, 0.00024132864200510085, 0.00023335749574471265, -0.00017954673967324197, -0.04786325618624687, -0.025395499542355537, 0.07943529635667801, -0.18791168928146362, 0.00039356935303658247, -0.008492075838148594, -1.5829027688596398e-05, -1.7525047951494344e-05, 0.10011697560548782, 0.00024870733614079654, -0.06855126470327377, -0.015916913747787476, 0.07426605373620987, -8.318763138959184e-05, 0.00023491695174016058, -0.00032477392232976854, 0.0002445446152705699, -0.013329296372830868, -0.08852081745862961, 0.03707044944167137, -0.0003656117769423872, 0.006552795879542828, -0.0002824029070325196, -0.0800943374633789], [-4.2858605553419693e-10, -1.6462617935530943e-08, -7.163985404901041e-09, 1.4455753039044339e-08, 6.860569101263536e-06, 1.8237315657643194e-08, 1.1742509187229189e-08, -8.805150386592686e-09, -5.841900474479189e-06, -3.391848076716997e-05, 5.154705831955653e-06, -3.33643147314433e-05, 1.0628288471536962e-08, 3.0098473871476017e-05, -2.0145654033854044e-09, -2.014915345682766e-09, 3.384614683454856e-05, 1.6150453197028014e-09, 2.4203201974160038e-05, -2.74531544164347e-06, 2.8030306566506624e-05, 2.9300704085244433e-09, 1.3222935635326394e-08, 4.911800299822744e-09, 1.900381718655808e-08, 5.224201686360175e-06, 2.0991603832953842e-07, 1.1055400136683602e-05, 1.4400936443337287e-08, 1.254909534509352e-06, -3.158920458545822e-09, 5.131665147928288e-06], [-5.317355444844907e-10, -6.93646029503725e-09, -3.980476392939636e-09, 6.87082613026746e-09, 3.2230423130386043e-06, 8.646495963660072e-09, 6.00543925699526e-09, -4.1850927168241014e-09, -1.82199607934308e-06, -1.6994061297737062e-05, 3.533121116561233e-06, -1.6410695025115274e-05, 4.883891513429717e-09, 1.4998520782683045e-05, -1.2936800519725011e-09, -1.117889780744008e-09, 1.711457662167959e-05, 9.621917707036687e-10, 1.241108293470461e-05, -1.1731565336958738e-06, 1.4215792361937929e-05, 7.116442990451333e-10, 6.420577847165987e-09, 1.994174825270534e-09, 8.988162214507156e-09, 2.293619900228805e-06, 2.439948616483889e-07, 4.899798568658298e-06, 5.2982995768502406e-09, 5.707404397981009e-07, -1.8635204490635715e-09, 2.696061756068957e-06], [-2.815347677209701e-10, -4.2956012080708206e-09, -1.6248221657022555e-09, 3.377829127515497e-09, 3.424482656555483e-06, 4.616838022997172e-09, 2.7951994052699547e-09, -2.0274220080551686e-09, -2.4692255919944728e-06, -1.1986836398136802e-05, 2.175733243348077e-06, -1.1843471838801634e-05, 1.6333304708737728e-09, 1.0484238373464905e-05, -6.153265119657192e-10, -3.5968830691679443e-10, 1.189114755106857e-05, -1.0373470311908495e-11, 8.584533134126104e-06, -9.789853265829151e-07, 9.650203537603375e-06, 1.8503499843447457e-09, 3.2416849204963682e-09, 7.513373256884393e-10, 4.888136118097464e-09, 2.0936365672241664e-06, 1.8971053350469447e-07, 4.651083600037964e-06, 4.183781765476624e-09, 9.833455294483429e-08, -3.815866789214084e-10, 2.1357634523155866e-06], [-0.00048564901226200163, -0.00014450435992330313, 4.8267229431075975e-06, 3.323605051264167e-05, -0.09940022230148315, 0.0001209128022310324, 7.862578058848158e-05, -1.732044074742589e-05, -0.24366098642349243, 0.24393552541732788, -0.04282672330737114, 0.2223445326089859, -0.0003111471305601299, -0.2144797146320343, 8.383704698644578e-05, 7.428454409819096e-05, -0.2563712000846863, -0.00018117322179023176, -0.19821052253246307, -0.01938459649682045, -0.23980940878391266, -0.00010174341878155246, 7.929492312541697e-06, 0.0002576883416622877, 0.0001127729847212322, -0.03335283696651459, -0.004796149674803019, 0.11641314625740051, -3.562761776265688e-05, -0.027970070019364357, 0.00015928837819956243, 0.05664034187793732], [0.00013489957200363278, 0.00020381915965117514, -0.0002246257645310834, 0.00017049418238457292, -0.008640066720545292, 0.00014393360470421612, 0.0001835803996073082, -0.0001650853519095108, 0.02897701971232891, 0.19432561099529266, 0.010356662794947624, 0.13529442250728607, 0.0001775637938408181, -0.09069102257490158, -6.528494122903794e-05, -4.718336640507914e-05, -0.14031323790550232, 0.00022314312809612602, -0.08371344208717346, -0.035725537687540054, -0.08905093371868134, -0.00017242551257368177, 0.00017978038522414863, -1.3093631423544139e-05, 0.00014446672867052257, -0.05673311650753021, -0.10484854131937027, 0.006025208160281181, -7.842652121325955e-05, -0.0016589073929935694, -0.00025317445397377014, -0.06863995641469955], [0.00010119524085894227, -0.00019566219998523593, 0.00012039327702950686, -3.277404903201386e-05, 0.09080564975738525, 3.964050847571343e-05, 9.530298848403618e-05, 7.819517122698016e-06, 0.07344697415828705, 0.06242992728948593, 0.1384126991033554, 0.03086576797068119, -0.00017325891531072557, -0.04796386510133743, -0.00012240232899785042, -8.667833753861487e-05, 0.03392916917800903, -7.262890721904114e-05, -0.014507126994431019, -0.055279478430747986, 0.038981843739748, -9.951614629244432e-05, 3.0067365514696576e-05, 9.557278826832771e-05, 2.1410149201983586e-05, -0.023773279041051865, 0.05703836679458618, -0.16519394516944885, 0.00025270323385484517, 0.011672594584524632, 8.452848123852164e-05, -0.07109867036342621], [2.428256811981555e-05, 6.511104584205896e-05, -0.0002286946401000023, 0.00015917692508082837, -0.06909731775522232, -1.5136100955714937e-05, 3.1536706956103444e-05, -0.00019827712094411254, 0.08040446043014526, 0.19845864176750183, -0.0001332136889686808, 0.0011532320640981197, 0.0003252463066019118, -0.1427089273929596, 0.000144369070767425, 0.00011643498146440834, -0.07713177800178528, 0.00030582587351091206, -0.10982474684715271, -0.05500850826501846, 0.0016235645161941648, -0.00010828690574271604, 0.0001404172508046031, 5.513424184755422e-05, -4.4700962462229654e-05, -0.04196711257100105, -0.036469753831624985, 0.020403984934091568, 2.6786742637341376e-06, 0.04553055018186569, -0.00029773046844638884, -0.11587114632129669], [-1.015372230739331e-09, -6.774939720344264e-09, -9.679966828102238e-10, 2.995412362594152e-09, 3.1332563139585545e-06, 5.472975850295825e-09, 3.381060764695576e-09, -1.0826147756048954e-09, -6.021944045642158e-06, -3.120645123999566e-05, -4.227615022500686e-07, -2.721513737924397e-05, -1.3306918900113374e-09, 2.738205330388155e-05, -7.401431134645975e-10, -6.29406388119591e-11, 2.9678189093829133e-05, -1.645759306612149e-09, 1.8201688362751156e-05, -1.9283147594251204e-06, 2.1688783817808144e-05, 5.417230664050976e-09, 3.2655889103949676e-09, 1.0503555802898745e-09, 5.975799854951447e-09, 3.4081035664712545e-06, 1.468279378968873e-06, 9.039348697115202e-06, 7.858783845904327e-09, 1.2989912647753954e-06, 9.813001522473996e-10, 4.9480599955131765e-06], [4.143437399761751e-05, 0.0001209690235555172, -6.359757389873266e-05, 0.00013920085621066391, 0.15913110971450806, 0.00014975066005717963, 0.0001275971590075642, -0.00013494453742168844, -0.11637483537197113, 0.10726981610059738, -0.06088317558169365, 0.05476444959640503, 9.759212844073772e-05, -0.05095323547720909, -4.69720944238361e-05, 6.694998774037231e-06, -0.07760867476463318, 0.00010956080222968012, -0.176481232047081, -0.11579998582601547, -0.05617230385541916, -5.43384303455241e-05, 0.00012738096120301634, -6.621581997023895e-05, 0.00014640402514487505, -0.060255613178014755, -0.027855416759848595, -0.006724955979734659, -0.00011654783884296194, -0.022818736732006073, -0.00012103110930183902, -0.09944234788417816], [1.8391306533249718e-10, -3.275172077987776e-10, -3.039671014892775e-10, 4.3012612915838133e-10, -3.4183207731075527e-07, 5.89679138851551e-10, 4.061175562508623e-10, -2.2248604347741008e-10, -8.110906151159725e-07, -1.3527272813007585e-06, -5.390361934587418e-07, -2.816412916217814e-07, 2.9482524754875783e-10, 1.2333825907262508e-06, -2.2522343712250148e-10, -2.352325556564949e-10, 1.2895834515802562e-06, 8.963494529945493e-11, 5.685904724828106e-08, -4.064555625404864e-08, 5.400650024967035e-07, 1.0241354292395144e-10, 4.671214526297263e-10, -1.162453328040769e-10, 6.212767522661977e-10, -9.238983977866155e-08, 2.449761211664736e-07, 6.081525043555303e-07, 2.2533086507792177e-10, -2.7292821336288853e-09, -1.3836667922539903e-10, 1.0416499662824208e-06], [2.4466875747641836e-10, -1.8813837987519122e-10, -5.893463494999196e-11, 2.505623486470654e-10, -7.178004466368293e-07, 3.030322381913919e-10, 1.8621226782755684e-10, -1.225382989522572e-10, -7.713505283390987e-07, -1.7463729591327137e-06, -8.194723477572552e-07, -5.40621840627864e-07, 3.14384351884911e-10, 1.5063492355693597e-06, -1.4416291771457423e-10, -2.0060575423030969e-10, 1.6870067156560253e-06, 7.728914730442682e-11, 7.55210152192376e-08, -8.123252115410651e-08, 7.566789577140298e-07, 1.3382070451761763e-10, 2.3912258284575216e-10, -1.674764771308901e-10, 3.1523889054696497e-10, -1.7434648214020854e-07, 1.6835778637869225e-07, 2.300208024053063e-07, 2.092352818783283e-10, 1.800980840016564e-07, -6.002756625100858e-11, 7.931772074698529e-07], [-2.196527384512592e-05, -0.00016500058700330555, 0.00016718970437068492, -0.0001456157915527001, 0.045208897441625595, -0.00020679036970250309, -0.00016797235002741218, 9.756544750416651e-05, 0.0553215816617012, 0.15752297639846802, -0.033272065222263336, 0.14235641062259674, -6.759892130503431e-05, -0.11355701088905334, -4.149345477344468e-05, -3.992345227743499e-05, -0.13449977338314056, -8.577386324759573e-05, -0.04403834789991379, -0.03672094643115997, -0.08706053346395493, 0.0002073347131954506, -0.0001433261641068384, 1.678015360084828e-05, -0.0002085744054056704, -0.01783645898103714, -0.008865371346473694, 0.04014446586370468, 0.00021057305275462568, 0.007890486158430576, 0.0001276596012758091, 0.021527275443077087], [-4.011138921011792e-10, 1.074494382358182e-09, 3.133368009500259e-10, -1.3866590098388087e-09, 4.370131421183032e-07, -1.2123718695633556e-09, -6.716172618048688e-10, 1.0252291238188604e-09, -8.651548455418379e-07, -2.0410152501426637e-06, -1.9609223045335966e-07, -8.285852572953445e-07, -2.2912409747277707e-09, 1.7281691953030531e-06, 4.67379190904893e-11, 3.092249789560242e-10, 1.624034439373645e-06, -5.748734821509061e-10, 4.765406345086376e-07, 2.542473112043808e-07, 2.2510592145863484e-07, 9.08151609468888e-10, -9.446582405203685e-10, -6.38592123625159e-10, -1.176934105728833e-09, 2.5180210627695487e-07, 4.781066991199623e-07, 1.0726583923315047e-06, -5.945638426041455e-10, -5.342814688447106e-07, 4.935212238876829e-10, 1.166079982795054e-06], [0.00022862832702230662, -0.00013913490693084896, 6.790187762817368e-05, 0.0001940466754604131, -0.08826783299446106, 0.00021063208987470716, 0.0001378830784233287, -0.000212062630453147, 0.02847483940422535, 0.18989762663841248, -0.02537689544260502, 0.16144925355911255, -2.6448557036928833e-05, -0.15216074883937836, 0.00027361794491298497, 0.00023712814436294138, -0.1580512523651123, 0.00012274437176529318, -0.27602216601371765, 0.08748771995306015, -0.10371007770299911, -8.965362212620676e-05, 0.00012441517901606858, 0.00012225859973113984, 0.00018699276552069932, -0.10184260457754135, -0.14074325561523438, -0.008400950580835342, 0.0002547530457377434, -0.019951816648244858, -8.890729077393189e-05, -0.008239859715104103], [-9.166093514068052e-05, 2.209811782449833e-06, -2.440828029648401e-05, -9.065386257134378e-05, -0.07442642003297806, -0.00022605278354603797, -0.00013460988702718168, 1.3910050256527029e-05, -0.00215309695340693, -0.014126737602055073, 0.03269634023308754, -0.058976028114557266, -6.116418080637231e-05, -0.03248357027769089, 5.8679204812506214e-05, 4.650783375836909e-05, 0.05840487405657768, 7.348760846070945e-05, 0.012772043235599995, -0.014219152741134167, 0.09297849982976913, -1.1884640116477385e-05, -6.504168413812295e-05, 5.5183187214424834e-05, -0.00023744413920212537, 0.023249804973602295, -0.00015553769480902702, 0.023864412680268288, 9.196391329169273e-05, 0.011698493734002113, -4.9837512051453814e-05, 0.029202060773968697], [-0.0002499302790965885, 8.68762144818902e-05, -2.588286179161514e-06, -5.4968393669696525e-05, -0.01940239779651165, -5.5154465371742845e-05, 8.454401540802792e-05, 2.147100713045802e-05, 0.03719788417220116, 0.13775676488876343, 0.015424112789332867, 0.06554095447063446, -7.893459405750036e-05, -0.07738331705331802, -5.14038692926988e-05, -4.962631282978691e-05, -0.13407252728939056, -3.902605385519564e-05, -0.2448074072599411, -0.01725594326853752, 0.027468521147966385, 0.00023625123139936477, -4.84219617646886e-06, -0.0001323279575444758, -6.601005588890985e-05, -0.03683402016758919, -0.10855820775032043, 0.09223923832178116, -9.775243961485103e-05, -0.04144376888871193, 2.453334855090361e-05, -0.047276582568883896], [-2.651967756506224e-09, -8.396919271014269e-10, 1.6993783047425381e-09, -1.9325865352470828e-09, 6.962732473914102e-11, -6.031579125043152e-10, -8.061427636540941e-10, 1.4886823995752252e-09, -5.071911459708645e-07, -1.399735174345551e-05, 8.044902983783686e-07, -1.2386799426167272e-05, -4.537034747897906e-09, 1.2278924259589985e-05, -4.774056150402828e-10, 2.46269254988718e-10, 1.3953502275398932e-05, -2.631777018535786e-09, 1.0176506293646526e-05, -7.288776942004915e-07, 1.0850915714399889e-05, 1.0089167279403455e-09, -1.3246093111263235e-09, 7.886936659318167e-10, -4.396102926129686e-10, 1.3914585679231095e-06, 1.581485548740602e-06, 2.499902620911598e-06, 1.0888737689285222e-09, 1.125105086430267e-06, 2.4745927529323808e-09, 3.266992052886053e-06], [-4.554628063591082e-10, -7.428042625434728e-09, -3.674853754631613e-09, 6.557994147726731e-09, 5.052567757957149e-06, 8.497769599102867e-09, 5.652747603335229e-09, -3.909383483602369e-09, -1.906382408378704e-06, -1.8355533029534854e-05, 3.918335096386727e-06, -1.7942689737537876e-05, 4.168145828487013e-09, 1.6448073438368738e-05, -1.263627980030435e-09, -1.002776861547261e-09, 1.8254355381941423e-05, 5.941668268505396e-10, 1.3713645785173867e-05, -1.4512467032545828e-06, 1.5167623132583685e-05, 1.5188963420342816e-09, 6.269274877013231e-09, 1.9207435641988013e-09, 8.885853830520318e-09, 2.6873653951042797e-06, 4.437879965735192e-07, 7.167861895140959e-06, 6.1733640421834934e-09, 1.289615596533622e-07, -1.4591615693504423e-09, 3.4989864161616424e-06], [-5.470424113696026e-09, -5.9294955612188005e-09, 4.092613747896934e-10, 5.744816289343646e-10, 2.115931010848726e-06, 3.300081319324022e-09, 2.1563797414358987e-09, -1.6793548496263355e-10, -2.405494797130814e-06, -1.1733039173122961e-05, 1.452837295801146e-06, -8.464369784633163e-06, -4.0310594862091875e-09, 1.1001385246345308e-05, -1.233223745344958e-09, -3.0012514695698655e-10, 1.1107177670055535e-05, -3.828410477524358e-09, 6.87127703713486e-06, 2.7318893103256414e-07, 7.64878041081829e-06, -6.821443410132133e-10, 1.1305513192283456e-09, 4.933244479587984e-09, 3.7069085578878003e-09, 4.931498551741242e-07, 1.020085733216547e-06, 7.593526788696181e-06, 3.1834874736347274e-09, -2.9285200753292884e-07, 2.8606867985558893e-09, 8.453637747152243e-06], [-4.832809152865991e-10, -1.7486511794118087e-08, -7.576685945309691e-09, 1.5316061308112694e-08, 7.049733085295884e-06, 1.9312183852093767e-08, 1.2436532692561286e-08, -9.355026975299552e-09, -6.254291747609386e-06, -3.49685360561125e-05, 5.219821559876436e-06, -3.426976400078274e-05, 1.128656101911929e-08, 3.111543628619984e-05, -2.1079480383434657e-09, -2.1469412914143504e-09, 3.483744876575656e-05, 1.7020291842584356e-09, 2.4782935724942945e-05, -2.8127919904363807e-06, 2.8819931685575284e-05, 2.9117415145663017e-09, 1.3998191938924265e-08, 5.344322762113052e-09, 2.0120451083016633e-08, 5.384569249144988e-06, 1.911237887952666e-07, 1.1600381185417064e-05, 1.5233515782142604e-08, 1.2782617204720736e-06, -3.3357514528375987e-09, 5.516003056982299e-06], [0.0001805178471840918, 8.457879448542371e-05, -0.0004213365900795907, 0.0006638270569965243, 0.16618187725543976, 0.0006827603792771697, 0.0005879522650502622, -0.0005357274785637856, 0.04828237369656563, 0.2866123914718628, 0.04136199504137039, 0.39724963903427124, 0.0006912722601555288, -0.6346141695976257, 8.311928831972182e-05, 7.042561628622934e-05, -0.43990835547447205, 0.00041983427945524454, -0.31049448251724243, 0.008475559763610363, -0.3451990783214569, -0.0002636687131598592, 0.0005717429448850453, -3.97629955841694e-05, 0.0006825292948633432, 0.04423340782523155, 0.07848606258630753, -0.0930098295211792, -0.00021556323918048292, -0.052985429763793945, -0.0005249986425042152, 0.02501804754137993], [9.928684448823333e-05, 0.00014224635378923267, -8.493274071952328e-05, -1.6851960026542656e-05, -0.11079975962638855, -0.00016405702626798302, -0.0001259210257558152, -1.0261892384733073e-05, -0.10536778718233109, 0.019447512924671173, -0.08166085928678513, 0.212680846452713, 0.0001995373604586348, 0.0018335904460400343, 0.000147971702972427, 3.7289868487278e-05, -0.010465601459145546, 0.0001604738790774718, -0.20071542263031006, -0.005924044642597437, -0.1048450842499733, 2.651018075994216e-05, -2.6400726710562594e-05, -9.311187022831291e-05, -0.00017452590691391379, -0.05793202295899391, 0.01825171522796154, -0.0008564203744754195, -3.4112334105884656e-05, 0.0026161319110542536, -0.0001275044196518138, 0.09975828230381012], [-9.767408300831448e-06, -0.0006861421861685812, 0.00037620472721755505, -0.00012359464017208666, -0.05439019203186035, 2.5907846065820195e-05, -6.236977787921205e-05, 9.78188545559533e-05, -0.04380802437663078, -0.0032440130598843098, -0.1322077214717865, 0.030995484441518784, -0.000260392960626632, 0.11627557873725891, -7.1183436375577e-05, -1.9017219528905116e-05, -0.04541859030723572, -0.00028572429437190294, -0.018252316862344742, 0.0597352609038353, -0.08402540534734726, 1.1985154742433224e-05, -8.755211456445977e-05, 0.00038912525633350015, 3.250091685913503e-05, -0.05806009843945503, 0.04323723539710045, -0.06939708441495895, 0.0004904825473204255, 0.06041967123746872, 0.00031948034302331507, 0.09437280148267746], [1.8726760142584453e-09, 1.9266670481243864e-09, 3.165463446919148e-09, -4.709944878555916e-09, -6.618295742555347e-07, -4.524200125644029e-09, -3.0202687018032748e-09, 3.5099319006803853e-09, -2.9717696179432096e-06, -2.232588485640008e-06, -4.8164856707444414e-06, 6.847939857834717e-06, -6.220000514645108e-09, 2.4465634851367213e-06, 1.5362693062126453e-10, 2.0127410849113403e-10, -7.964572432683781e-07, -1.6675105740660001e-09, -7.498849754483672e-06, 2.003833287744783e-06, -6.987871529418044e-06, 7.389974743254868e-10, -3.51803386422489e-09, -8.660837602647575e-10, -4.523537544542933e-09, -1.6865481029526563e-06, 2.624370381454355e-06, 8.395102668146137e-06, -1.8660954725913115e-10, -2.9767932119284524e-06, 2.1142594341938548e-09, 1.1194989383511711e-05], [-0.00014073225611355156, -4.804748823517002e-05, -0.00011838571663247421, 9.065014455700293e-05, -0.04376771301031113, 0.00011705263023031875, 9.598769975127652e-05, -4.1519007936585695e-05, 0.014241976663470268, -0.01774020493030548, -0.018686408177018166, 0.03824370354413986, 3.792078859987669e-05, -0.032840557396411896, 3.1505307561019436e-05, -1.3939451491751242e-05, -0.016049006953835487, -1.779309968696907e-05, -0.08257568627595901, 0.056033093482255936, -0.06651780754327774, -4.235174128552899e-05, 9.549129026709124e-05, 0.00013275125820655376, 0.0001294586545554921, -0.0057893251068890095, -0.05131424590945244, 0.006391563918441534, -4.888591502094641e-05, -0.04525018110871315, -2.2700201952829957e-05, -0.05722413957118988], [1.564750967686379e-10, 1.018686024423232e-09, -4.0453582150767886e-10, -5.582857509622841e-10, 6.53081485779694e-07, -3.875745280268461e-10, -1.1214411343996034e-10, 4.702330747008432e-10, -5.264471951704763e-07, -2.865292117348872e-06, 1.6756966658704187e-07, -1.6504441191500518e-06, -1.3799128506519764e-09, 2.4113351173582487e-06, -7.317510486437584e-11, 1.6097706501128073e-10, 2.423279283902957e-06, -3.091489911288825e-11, 1.3776500509266043e-06, 1.7212671821198455e-07, 8.809931273390248e-07, 8.712907617614007e-10, -1.6481059572637236e-10, -1.119424331008645e-09, -3.5105579554439714e-10, 5.125866664457135e-07, 6.459152928073308e-07, 1.1437965667937533e-06, -7.517444999827205e-10, -5.707409513888706e-07, -9.253441762835379e-11, 1.1304930467304075e-06], [0.0002624515618663281, -3.2460935472045094e-05, -0.00019645375141408294, 0.0003350672486703843, -0.03080177679657936, 0.00046501070028170943, 0.00043645643745549023, -0.00020606529142241925, -0.004801773000508547, -0.02080623432993889, 0.0009238211787305772, 0.09584175795316696, 0.00025546702090650797, 0.00799036119133234, -0.0001280683500226587, -0.00014617467240896076, 0.03952745720744133, 0.00015734309272374958, -0.09951027482748032, -0.05410734936594963, -0.06684056669473648, -0.0002874023630283773, 0.00031882975599728525, -2.2974547391640954e-05, 0.0004585995338857174, 0.02721348963677883, 0.06521584093570709, -0.02064809948205948, -8.035587961785495e-05, -0.0025874958373606205, -0.00020580788259394467, 0.009409261867403984], [-1.4782996913709212e-05, -9.89669842965668e-06, -8.361976142623462e-06, 9.561477781971917e-06, -0.00029658430139534175, 1.1524264664330985e-05, 7.617350092914421e-06, -8.888160664355382e-06, 0.0001884402590803802, -4.840129622607492e-05, -7.659052062081173e-05, -0.00015830801567062736, 6.885603397677187e-06, 7.681047122787277e-07, 1.060692738974467e-06, 1.775700752659759e-06, 8.429588342551142e-05, -2.1182056570978602e-06, 1.492933643021388e-05, 5.302063436829485e-05, 0.00012195108865853399, 2.362447276027524e-06, 8.537683243048377e-06, 4.209773123875493e-06, 1.188366240967298e-05, -0.0005125353927724063, -0.0003668938879854977, 3.1771898648003116e-05, 2.8188158012198983e-06, 0.00029335907311178744, -6.341257403619238e-07, 0.00014763182844035327], [5.31541900272714e-06, -1.9567636627471074e-05, -1.3025992302573286e-05, 1.7956122974283062e-05, 1.070978760253638e-05, 1.7986621969612315e-05, 1.2807577149942517e-05, -1.2672130651480984e-05, -0.00046960540930740535, 1.1855339835165069e-05, -6.71369707561098e-05, -0.00011984061711700633, 1.761577914294321e-05, -0.00015460843860637397, 4.209154212730937e-06, 1.0019842875408358e-06, 5.674478961736895e-05, 8.659103514219169e-06, -0.0003050627710763365, 8.874607738107443e-05, 7.145712152123451e-05, -6.806360488553764e-06, 1.6223673810600303e-05, 1.405488819727907e-05, 1.8451304640620947e-05, -0.00029866318800486624, -0.00017675175331532955, 9.817023237701505e-05, 2.2873144189361483e-05, 3.7435103877214715e-05, -1.0289010788255837e-05, 0.00019106772379018366], [-5.265266281639924e-06, -2.6876214178628288e-05, -1.1142126822960563e-05, 1.953211540239863e-05, 0.00017795388703234494, 2.426697756163776e-05, 1.7425396436010487e-05, -1.1812177035608329e-05, 1.9061018974753097e-05, -4.98024674016051e-05, -0.00013109530846122652, -5.175099795451388e-05, 1.586726648383774e-05, 0.00010763434693217278, -2.92541085400444e-06, -2.9813008950441144e-06, 0.00011992459621978924, 1.344436100225721e-06, -0.000262643676251173, -0.00021709391148760915, -6.286806456046179e-05, -5.6056132962112315e-06, 1.775353121047374e-05, 1.7618023775867186e-05, 2.4994227715069428e-05, 0.0002300353517057374, -0.0003649645659606904, 0.00025010216631926596, 2.0031297026434913e-05, -0.00033503284794278443, -4.484275905269897e-06, -0.00013446067168843], [-7.000102414167486e-06, 3.392910730326548e-05, 1.6227239029831253e-05, -3.085259231738746e-05, -0.0002851372701115906, -3.411632133065723e-05, -2.397977004875429e-05, 1.9188049918739125e-05, 0.00028516282327473164, 1.8684933820622973e-05, 0.00013586791465058923, -1.4232695320970379e-05, -3.0922612495487556e-05, -9.957370639313012e-05, 1.4200112445905688e-06, 4.376847755338531e-06, -0.0001037730326061137, -1.0027057214756496e-05, 0.00040142034413293004, 0.0004140073142480105, 5.939467519056052e-05, 2.690511109904037e-06, -2.7251069695921615e-05, -1.6337982742697932e-05, -3.5017161280848086e-05, -0.0001918772904900834, 0.0004077549383509904, -0.0002867968287318945, -3.364582153153606e-05, 0.0004555142659228295, 1.2331660400377586e-05, 0.00010221129195997491], [0.00046542345080524683, 0.00028602583915926516, 8.439033263130113e-05, 0.0001376846485072747, 0.24515123665332794, -5.055543806520291e-05, -0.00035489301080815494, -0.00032580478000454605, -0.011287087574601173, 0.10603087395429611, 0.36911994218826294, -0.3036925494670868, 0.00040901429019868374, -0.12031473964452744, 0.0007352663669735193, 0.0005950805498287082, -0.04614337533712387, 0.00043831931543536484, 0.05760493502020836, 0.22065505385398865, 0.08396487683057785, 0.00026989594334736466, 5.2385596063686535e-05, -0.0003822635917458683, -7.912922592367977e-05, -0.01995917782187462, -0.30931395292282104, 0.7887087464332581, 8.223419717978686e-05, -0.10358840972185135, -0.000261272129137069, 0.20815911889076233], [-7.102511972334469e-06, 4.046607136842795e-05, 2.0036093701492064e-05, -3.677354834508151e-05, -0.00017531205958221108, -4.080887447344139e-05, -2.7848143872688524e-05, 2.3532364139100537e-05, 0.00033256434835493565, 1.6351608792319894e-05, 0.00019769900245591998, 6.582177593372762e-05, -3.575404844013974e-05, -3.752995689865202e-05, 7.269236448337324e-07, 4.285814156901324e-06, -0.00013885706721339375, -1.1343123333062977e-05, 0.0004033563018310815, 0.000497418746817857, 5.7177180678991135e-06, 1.9901917767128907e-06, -3.2487339922226965e-05, -1.8323888070881367e-05, -4.187932427157648e-05, 2.0448727809707634e-05, 0.00043173323501832783, -0.00031769840279594064, -3.937911242246628e-05, 0.00030532898381352425, 1.4193326023814734e-05, 3.7978355976520106e-05], [-5.032542958360864e-06, 3.0917595722712576e-05, 1.4539149560732767e-05, -2.7116477212985046e-05, -0.0003557947638910264, -3.006479710165877e-05, -2.0485165805439465e-05, 1.686557152424939e-05, 0.00021486198238562793, 4.072766751050949e-05, 0.00038613099604845047, 5.02320472151041e-05, -2.6109819373232313e-05, 9.714557381812483e-05, 8.431013043264102e-07, 3.667702003440354e-06, -0.00010417990415589884, -8.247704499808606e-06, 0.000305553141515702, 0.00039773754542693496, 8.579454151913524e-05, 2.791696488202433e-06, -2.4054654204519466e-05, -1.5710673324065283e-05, -3.1157545890891925e-05, -0.00014385554823093116, 0.00035286578349769115, -0.00017995055532082915, -3.0278988560894504e-05, 0.00018729365547187626, 1.061158036463894e-05, 0.00014129142800811678], [2.8683507480309345e-06, -2.723607758525759e-05, -1.2197867363283876e-05, 2.3517241061199456e-05, 0.0002460298128426075, 2.673982635315042e-05, 1.8125027054338716e-05, -1.447819795430405e-05, -0.0001483587984694168, -2.065076660073828e-05, -2.6829889975488186e-05, 8.323031943291426e-05, 2.204880365752615e-05, 7.86466698627919e-05, -9.692411140349577e-07, -2.64033201347047e-06, 3.0740869988221675e-05, 6.716366442560684e-06, -0.00015366103616543114, -0.0003344030410517007, -9.871835572994314e-06, -2.536684405640699e-06, 2.0645706172217615e-05, 1.3938367374066729e-05, 2.75271540886024e-05, 5.548176704905927e-05, -0.00020999775733798742, 0.00015440314018633217, 2.5751623979886062e-05, -0.0003160636406391859, -8.469916792819276e-06, -6.483453034888953e-05], [4.944016836816445e-05, -6.180663331178948e-05, 2.054916330962442e-05, 7.345097856159555e-06, 0.06805995106697083, -1.0872783605009317e-05, 3.384659794392064e-05, 5.590728960669367e-06, 0.33325061202049255, 0.15687642991542816, 0.004211240913718939, 0.03523159399628639, -4.391314723761752e-05, 0.04376937076449394, 1.1475137398520019e-05, 1.0881436537601985e-05, 0.02267053909599781, 2.0969717297703028e-05, -0.02217242866754532, -0.012317931279540062, -0.08139874786138535, 3.3202180929947644e-05, 4.62289193592369e-07, 5.767642869614065e-05, -1.2187429092591628e-05, 0.025504406541585922, -0.020808067172765732, -0.08897718787193298, 0.00013238724204711616, -0.007101962808519602, -1.8114704289473593e-05, 0.040018267929553986], [0.00014083796122577041, 0.00043743199785239995, -0.0003485545748844743, 0.00015585501387249678, 0.019528111442923546, 0.00015208897821139544, 0.00034466845681890845, -8.903531852411106e-05, -0.09019996225833893, 0.24828198552131653, 0.06766783446073532, 0.038733869791030884, 0.00030660213087685406, -0.1615920066833496, -0.000296105194138363, -0.00026669047656469047, 0.02642490155994892, 0.00023739368771202862, -0.14116378128528595, -0.09443248808383942, 0.06601601094007492, 3.1965259950084146e-06, 0.000230680889217183, -0.0003358004323672503, 0.00013764150207862258, -0.20662279427051544, -0.14804427325725555, 0.0007910944405011833, -0.000318050297209993, 0.012452150695025921, -0.00031843336182646453, 0.06643909215927124], [0.0003100681060459465, 0.00014912415645085275, -0.00014504313003271818, 0.0001842592901084572, -0.049228351563215256, 8.699694444658235e-05, -1.000534393824637e-05, -0.00016062214854173362, -0.12020751088857651, 0.22673054039478302, 0.3799862265586853, -0.04729670286178589, 0.0003042666066903621, -0.21392332017421722, -0.00012162168422946706, -9.138832683674991e-05, 0.14752858877182007, 0.00026327272644266486, 0.11995905637741089, -0.1705329716205597, 0.4304778575897217, -5.761580905527808e-05, 6.078977094148286e-05, -0.00014715494762640446, 7.743131573079154e-05, -0.2804962694644928, -0.8199613094329834, -0.013994214124977589, -0.00015314626216422766, 0.197016179561615, -0.0002510548511054367, 0.2711626887321472], [0.0001519512734375894, 0.0003193244629073888, -0.00048419053200632334, 3.574410220608115e-05, 0.04018013924360275, -0.000457972870208323, -0.00029569267644546926, -0.00015608414832968265, -0.10402309149503708, 0.07952912896871567, -0.11188002675771713, 0.05878334492444992, 0.0009020271245390177, -0.03706478700041771, 0.00033655736478976905, 1.6744899767218158e-05, -0.08966761827468872, 0.0005328368279151618, -0.22025412321090698, -0.018732847645878792, -0.15795902907848358, -0.00042346204281784594, -1.4717392332386225e-05, -8.574946696171537e-05, -0.00048805345431901515, -0.3607916533946991, 0.26646000146865845, 0.015502593480050564, -0.00022988885757513344, -0.11741979420185089, -0.0004503456293605268, -0.04924927279353142], [-1.2764906387019437e-05, 2.8197424398967996e-05, 1.7308360838796943e-05, -3.34534706780687e-05, -0.0005620048614218831, -3.444987669354305e-05, -2.610744377307128e-05, 2.0032599422847852e-05, 0.0004010956035926938, -1.1062804787798086e-06, 0.00011293106217635795, -0.00015420188719872385, -3.7280944525264204e-05, -0.00013739665155299008, 4.967897893948248e-06, 8.342118235304952e-06, 5.2383231377461925e-05, -1.5149273167480715e-05, 0.00029838786576874554, 0.0003828973276540637, 0.00020243691687937826, -1.6722869986551814e-06, -2.9907547286711633e-05, -9.370077350467909e-06, -3.522464248817414e-05, -0.0009016451076604426, 0.0003438602725509554, -0.0001979489461518824, -3.123665010207333e-05, 0.0007309687207452953, 1.7240894521819428e-05, 6.747159932274371e-05], [-0.00027279372443445027, -0.0004246672324370593, 0.00028036333969794214, -0.00032028017449192703, -0.24444667994976044, -0.0004159521486144513, -0.0004328262584749609, 0.00024160713655874133, 0.3255668580532074, -0.11737711727619171, -0.08944979310035706, 0.2885323464870453, -0.00030246091773733497, 0.2518336772918701, -2.8860064048785716e-05, -6.401289283530787e-05, -0.05984673276543617, -0.00018950820958707482, 0.2663159966468811, 0.017917031422257423, 0.05179377645254135, -0.00012474146205931902, -0.0002534210798330605, 0.0005125818424858153, -0.00043171370634809136, -0.04684828221797943, -0.09586687386035919, 0.616188108921051, 0.00034843452158384025, -0.08405519276857376, 0.0002094218652928248, -0.2947649359703064], [1.731988390929473e-06, -2.7550760250960593e-07, -2.511073489586124e-06, 4.853182872466277e-06, -0.00015040862490423024, 5.63798721486819e-06, 3.5982043300464284e-06, -3.1336883239418967e-06, 1.5036601325846277e-05, -3.257354910601862e-05, -0.0001572889887029305, -0.00011931953486055136, 5.821990271215327e-06, -0.00010760930308606476, -2.096848675137153e-06, -2.354610387556022e-06, 0.00010554923210293055, 1.595511889718182e-06, -0.00010632352496031672, 7.948882557684556e-05, -1.1741335725901081e-07, 4.693387381848879e-06, 4.7821881707932334e-06, -5.8939281188941095e-06, 5.923834123677807e-06, 0.00028314991504885256, -0.00020732832490466535, 4.917808109894395e-05, -4.940941948916588e-07, 3.0451290513155982e-05, -1.4677601711809984e-06, -2.3470574888051488e-05], [3.5320249480719212e-06, 8.497895720438464e-09, -1.119733610721596e-06, 4.227488716423977e-06, 8.096427336568013e-05, 4.3763411667896435e-06, 3.1928570933814626e-06, -2.2243173134484095e-06, -3.756730802706443e-05, -3.333315180498175e-05, -0.0001754685799824074, -9.589445835445076e-05, 6.415253665181808e-06, -0.00010064879461424425, -1.9931285351049155e-06, -2.702278607102926e-06, 5.304149090079591e-05, 2.366504531892133e-06, -0.00012659875210374594, 3.8217560359044e-05, -5.046952355769463e-05, 4.355900273367297e-06, 3.924141310562845e-06, -5.114066880196333e-06, 4.5016231524641626e-06, 0.0003767940797843039, -0.0001259263081010431, 6.8780468609475065e-06, 1.0748827889983659e-06, -5.5966072977753356e-05, -1.9688795873662457e-06, -5.666029028361663e-05], [-9.06538189155981e-05, -5.5965785577427596e-05, -0.00040027714567258954, 0.00027100066654384136, -0.23523248732089996, 0.0003198957128915936, 0.00047835198347456753, -0.00018115011334884912, -0.009321475401520729, -0.08576025068759918, 0.19611164927482605, -0.16747033596038818, 9.27030123420991e-05, 0.048062361776828766, -0.0002201060124207288, -0.00020813829905819148, 0.17743763327598572, 0.00020130000484641641, 0.0885295420885086, 0.040627118200063705, 0.1968112289905548, -0.0005383400130085647, 0.00039273157017305493, 0.00022845830244477838, 0.00031741964630782604, -0.06466490775346756, 0.15273094177246094, -0.22257940471172333, -0.00016060001507867128, 0.001942001050338149, -0.00034355701063759625, 0.03271612152457237], [-4.639806320483331e-06, 7.028689196886262e-06, 1.3107012364343973e-06, -5.978392891847761e-06, -0.00029386376263573766, -6.644622317253379e-06, -5.882007371837972e-06, 2.7869182304129936e-06, 9.334089554613456e-05, -4.0400012949248776e-05, -1.640182927076239e-05, -0.00016572768799960613, -7.391542567347642e-06, -0.0001077852793969214, 2.348380576222553e-06, 2.7995511118206196e-06, 2.3983218852663413e-05, -3.056990863115061e-06, 0.00014738613390363753, 0.0001689200580585748, 0.00013684757868759334, 2.717880306590814e-06, -4.8906040319707245e-06, -5.184405381442048e-06, -6.853412742202636e-06, -0.00041382701601833105, 0.00022394164989236742, -0.00014245056081563234, -8.021394023671746e-06, 0.0004533487372100353, 2.9532302505685948e-06, 0.0002532423532102257], [-0.00021379889221861959, -0.00016898605099413544, 0.00013496392057277262, -0.00010643184941727668, 0.03396211937069893, -2.7314430553815328e-05, 2.5971236027544364e-05, 4.534136678557843e-05, 0.2410757839679718, 0.012566846795380116, 0.0320020467042923, 0.024447409436106682, -0.0003869186039082706, -0.05576501414179802, 7.641237971256487e-06, 2.842571120709181e-05, -0.15676088631153107, -0.00023569099721498787, 0.340290367603302, -0.0043490431271493435, 0.09340750426054001, 4.3649420149449725e-06, -7.708668272243813e-05, 0.00018841221753973514, 7.350520263571525e-06, 0.17005465924739838, 0.0900954157114029, 0.0026956461369991302, -7.263079169206321e-05, 0.10083846747875214, 0.000174323286046274, -0.02128509059548378], [-9.951903484761715e-05, -0.00010427606321172789, 5.650221282849088e-05, -5.053331551607698e-05, -0.00567618478089571, -2.4466775357723236e-05, 7.978902431204915e-05, 8.781215728959069e-05, 0.08956220000982285, -0.11264993995428085, 0.16979031264781952, -0.009859696961939335, -0.00015423227159772068, -0.08604004979133606, -9.514789417153224e-05, -8.568827615818009e-05, -0.13556945323944092, -5.568534106714651e-05, -0.014386684633791447, -0.010862228460609913, -0.16342243552207947, 0.00013613153714686632, 0.00011484116839710623, -1.6991913071251474e-05, -2.1926078261458315e-05, 0.20369300246238708, -0.7231073975563049, -0.3278783857822418, 0.00018479919526726007, 0.02925320714712143, 2.3571088604512624e-05, 0.41125062108039856], [-0.0003618166665546596, -0.0005536155658774078, 2.2466309019364417e-05, 0.00019646008149720728, 0.02952159382402897, 0.00030279974453151226, 0.00026122096460312605, -0.0001363768387818709, 0.2613283395767212, 0.18106411397457123, -0.04069863632321358, -0.16890543699264526, -0.00014294784341473132, 0.03145887702703476, 2.6316638468415476e-05, 6.478894647443667e-05, -0.0008288921089842916, -6.712602771585807e-05, 0.012619716115295887, 0.09955320507287979, 0.12013482302427292, -0.0007460550987161696, 0.00016893383872229606, 0.000822436239104718, 0.0002987298066727817, -0.37908613681793213, 0.06945221871137619, -0.03668287768959999, 0.00036085021565668285, -0.18367615342140198, 2.257543928863015e-05, -0.008081221953034401], [-1.5279812942026183e-05, -2.124273123627063e-05, -1.895729837997351e-05, 2.1034858946222812e-05, 0.0005398359498940408, 2.4291759473271668e-05, 1.8483360690879636e-05, -1.6777308701421134e-05, -0.00023419654462486506, -2.314781340828631e-05, 2.2353127860696986e-05, -0.0001981393579626456, 1.8720886146184057e-05, 1.927980520122219e-05, -2.5617350729589816e-06, -2.938512864147924e-07, 6.97552677593194e-05, 2.306238002347527e-06, -0.00019139374489896, -0.00029279140289872885, 0.00011696270667016506, -1.698956111795269e-05, 1.9091077774646692e-05, 2.019738167291507e-05, 2.5066023226827383e-05, 8.009865996427834e-05, -0.0008001026581041515, 7.941389048937708e-05, 4.724949576484505e-06, -0.00016086256073322147, -6.958402991585899e-06, -0.00023234557011164725], [-4.764872301166179e-06, 2.9730592359555885e-05, 1.3260122614155989e-05, -2.5564542738720775e-05, -0.00019008319941349328, -2.8852880859631114e-05, -1.9981425793957897e-05, 1.5598954632878304e-05, 0.00029718110454268754, 4.192157939542085e-05, 0.0002297596074640751, -5.8313704357715324e-05, -2.489357575541362e-05, -1.3059355296718422e-05, 1.3343872069526697e-06, 3.672877028293442e-06, -9.302436956204474e-05, -7.1499284786114e-06, 0.00018060307775158435, 0.0002967100008390844, 0.00012604471703525633, 2.6121228984266054e-06, -2.2442520275944844e-05, -1.5046229236759245e-05, -2.944795232906472e-05, -0.00017274114361498505, 0.0005620437441393733, -0.00030755132320337, -2.8440492314985022e-05, 0.0003260227385908365, 9.352336746815126e-06, 0.00016671042249072343], [6.678540103166597e-06, 9.995963409892283e-06, 1.3293904885358643e-05, -1.0699634913180489e-05, -8.069749310379848e-05, -9.259021680918522e-06, -7.667423233215231e-06, 1.0236614798486698e-05, 0.00040307745803147554, -4.066057954332791e-05, -4.0578055632067844e-05, 0.000105553466710262, -1.0227143320662435e-05, 0.00013179775851313025, -3.8650259739370085e-06, -3.383167950232746e-06, -4.6045366616453975e-05, -4.701820671471069e-06, 0.00022024715144652873, 0.00010356869461247697, -8.976649405667558e-05, 1.3805699381919112e-05, -9.472384590480942e-06, -1.4208973880158737e-05, -9.457607120566536e-06, 0.0003149996337015182, 0.0005307556712068617, -0.00010761605517473072, -4.659187652578112e-06, 1.5259991414495744e-05, 7.413078492390923e-06, -7.119445945136249e-05], [-7.24960727893631e-06, 4.102750972378999e-05, 2.0223593310220167e-05, -3.699888111441396e-05, -0.00014351611025631428, -4.107525455765426e-05, -2.8085036319680512e-05, 2.3682083337916993e-05, 0.00031366702751256526, 2.0612726075341925e-05, 0.0002015197096625343, 7.023652142379433e-05, -3.57257631549146e-05, -3.077172732446343e-05, 6.163915031720535e-07, 4.230988452036399e-06, -0.00015159466420300305, -1.136793798650615e-05, 0.0004041827633045614, 0.00048708610120229423, 1.0383665539848153e-05, 2.0205288819852285e-06, -3.2595155062153935e-05, -1.8641432689037174e-05, -4.2002531699836254e-05, 3.9769034628989175e-05, 0.0004142742254771292, -0.00032778180320747197, -3.970044417656027e-05, 0.00028214146732352674, 1.4262764125305694e-05, 3.131277844659053e-05], [6.97841533110477e-05, -2.6484191039344296e-05, -9.023453458212316e-05, 0.00010505710088182241, 0.07312080264091492, 0.00010181641846429557, 0.00010091129661304876, -6.941687024664134e-05, -0.03446444496512413, -0.02446179836988449, -0.036033328622579575, 0.09829241037368774, 0.00012354241334833205, 0.03674766421318054, -4.233176150592044e-05, -3.619452036218718e-05, -0.029077155515551567, 7.50624094507657e-05, -0.04071298986673355, 0.06980680674314499, 0.1389703005552292, 7.821987674105912e-05, 0.0001019592018565163, -3.5098983062198386e-05, 0.00010505826503504068, 0.4322589337825775, 0.1066347137093544, 0.16077937185764313, 8.234331471612677e-05, 0.12461059540510178, -9.931428212439641e-05, -0.10629132390022278], [8.169616194209084e-05, 3.3982942113652825e-05, 5.197689461056143e-05, 7.417746928695124e-06, 0.05972931161522865, -1.6686282833688892e-05, -0.00010007883975049481, -7.245945198519621e-06, 0.13791902363300323, -0.36517614126205444, 0.06610584259033203, -0.2918338179588318, 7.011222623987123e-05, 0.17571590840816498, 8.328613148478325e-06, -8.985107342596166e-06, -0.15275418758392334, 1.7276408470934257e-05, 0.06750822067260742, 0.9622352123260498, -0.6087419390678406, 6.213034794200212e-06, -0.00021248745906632394, 5.1570208597695455e-05, -1.7661985111772083e-05, 0.5054566860198975, 0.10199054330587387, -0.09108386188745499, 5.389866419136524e-05, -0.13008999824523926, 2.5349183488287963e-05, 0.10927397757768631], [8.095100201899186e-05, 1.3497930922312662e-05, -3.110380930593237e-05, 1.2755705938616302e-05, -0.3127492666244507, -1.2627097021322697e-05, 5.5722607612551656e-06, 3.0423016141867265e-05, -0.17056648433208466, 0.2002544105052948, 1.0608739852905273, 0.4776209592819214, 9.148787648882717e-05, -0.16179417073726654, -7.739965803921223e-05, -4.770529631059617e-05, 0.25306975841522217, 3.17223857564386e-05, -0.21788258850574493, 0.08035789430141449, 0.15194575488567352, -0.0002250543184345588, 3.939349699066952e-05, 0.00010281131108058617, -2.0416066035977565e-05, -0.41904398798942566, -1.5301095247268677, 0.24770843982696533, -9.014342504087836e-05, 0.2512786090373993, -3.485515480861068e-05, 0.9020277857780457], [-1.7701009710435756e-05, -8.269735189969651e-06, -5.206004061619751e-06, 9.269188922189642e-06, 0.00022700888803228736, 1.5245491340465378e-05, 1.0326044503017329e-05, -7.188945801317459e-06, 0.00045633676927536726, -0.00012059805885655805, 9.287841385230422e-05, -0.00016919591871555895, 5.0069220378645696e-06, 0.0001307667844230309, -6.947818292246666e-06, -2.7787298222392565e-06, 6.504178600152954e-05, -6.195535206643399e-06, 0.00025569478748366237, -0.0001869046245701611, 0.00016269781917799264, 4.81043161926209e-06, 8.882807378540747e-06, -8.136165661198902e-07, 1.6001295080059208e-05, 0.00040420377627015114, 3.580418706405908e-05, -0.00013118254719302058, -5.361059265851509e-06, 7.512480806326494e-05, 3.3920152873179177e-06, -0.00013324784231372178], [0.0004801227187272161, 0.00045270516420714557, 4.34898684034124e-05, 0.00010241163545288146, 0.15629781782627106, -6.066741843824275e-05, 1.4915673091309145e-05, -0.00017096464580390602, -0.08028991520404816, 0.13132482767105103, -0.1273537427186966, -0.033073097467422485, 0.0005618438590317965, 0.23962505161762238, 0.00024368280719500035, 0.00010271876817569137, -0.004807312041521072, 0.0003209360293112695, -0.03807180002331734, -0.2575320303440094, 0.25055059790611267, 5.2673327445518225e-05, -5.5424698075512424e-05, -0.0004078522324562073, -9.443524322705343e-05, -0.15122054517269135, 0.2530990242958069, -0.42525333166122437, -0.00027182482881471515, -0.046292539685964584, -0.0001580992538947612, 0.1415683627128601], [2.4684015897946665e-06, -1.3610304449684918e-05, -4.609413281286834e-06, 1.0474860573594924e-05, 0.0002580256841611117, 1.2233668712724466e-05, 9.723449693410657e-06, -5.334778506949078e-06, -0.00010574597399681807, -1.1850135706481524e-05, -5.0582948460942134e-05, 0.00012691004667431116, 1.0894403203565162e-05, 8.106861787382513e-05, -2.1968282908346737e-06, -2.7733794922824018e-06, 3.3414831705158576e-05, 2.8869283141830238e-06, -0.00018854447989724576, -0.00018077154527418315, -0.00014679611194878817, -4.794578217115486e-06, 9.233634045813233e-06, 1.0114295037055854e-05, 1.2598143257491756e-05, 0.00035958943772129714, -0.00034945804509334266, 0.00021803705021739006, 1.2629174307221547e-05, -0.00046716598444618285, -4.239866029820405e-06, -0.00028062061755917966], [3.560280310921371e-05, 3.9183723856694996e-05, 4.276480103726499e-05, -0.00011450920283095911, -0.30034154653549194, -3.8577938539674506e-05, -7.74978798290249e-06, 0.00014804564125370234, -0.10457479953765869, 0.07738068699836731, 0.7442709803581238, 0.3804008364677429, -0.00015385859296657145, 0.01525540929287672, -5.771783253294416e-05, -9.944198245648295e-05, -0.157779723405838, -0.00020910617604386061, -0.086003877222538, 0.22315530478954315, 0.02565724216401577, 0.00033035827800631523, -7.717600965406746e-05, -0.0003020399308297783, -1.3263106666272506e-05, -0.24445584416389465, -0.5877176523208618, -0.18945899605751038, 4.672913928516209e-05, -0.0010483290534466505, 0.00018200201157014817, 0.8003441691398621], [-2.523590003633558e-09, -3.1454627791305256e-09, 5.484477316741732e-10, -9.720145799363422e-10, -4.684813120547915e-06, 4.490482430341558e-10, 5.611034969987827e-10, 1.200315957738951e-09, -6.164532351249363e-06, -1.0518881936150137e-05, -6.36832101008622e-06, -1.6540922160857008e-06, -4.091056826638351e-09, 9.428273187950253e-06, -3.8552858822038516e-11, 4.564427308340058e-11, 8.389434697164688e-06, -2.217765526779658e-09, -7.888943400757853e-07, 5.816820021209423e-07, 1.0847708153960411e-06, -1.8184796723996755e-10, -3.929416791947915e-10, 3.6762968225190207e-09, 6.799364404841413e-10, -3.636690735220327e-07, 2.609993771329755e-06, 2.697116997296689e-06, 3.751214450176121e-09, 4.4892640715943344e-08, 1.6992787177372293e-09, 6.91733839630615e-06], [-2.0845789538981307e-09, -1.1896010398970702e-08, -2.9789781752498357e-09, 7.303424975901862e-09, 4.493727374210721e-06, 1.0282424689478376e-08, 6.880057856761823e-09, -4.247989515704376e-09, -2.7690998649632093e-06, -1.6184470950975083e-05, 2.375330495851813e-06, -1.3233669051260222e-05, 3.72731623343725e-09, 1.5736637578811496e-05, -1.1083709505754769e-09, -1.2392452619636174e-09, 1.4822359844401944e-05, -8.503613369015284e-10, 9.326608051196672e-06, 7.707545535140525e-08, 1.1004554835380986e-05, -4.185038079973502e-11, 6.951311970482266e-09, 6.118095363660814e-09, 1.0775566217091637e-08, 1.1777877944041393e-06, -4.58322624297125e-08, 1.1527774404385127e-05, 9.43298950062399e-09, -8.83269365203887e-07, -3.2191344034870895e-10, 9.05820070329355e-06], [4.2121198196021226e-10, -3.05906810993406e-09, -3.2664988491859503e-09, 3.787651969844319e-09, -1.4124897518286161e-07, 4.591556024280408e-09, 3.0132789596848397e-09, -2.4156803224428813e-09, -8.593856364313979e-07, -8.78533592185704e-06, -5.625922767649172e-07, -6.871621280879481e-06, 2.520920583393149e-09, 7.782959983160254e-06, -3.758938438291892e-10, -4.5457748676369647e-10, 8.113742296700366e-06, 1.1495778773351617e-09, 5.677376066159923e-06, -5.807228831145039e-07, 5.565860192291439e-06, -4.991116409058804e-10, 3.716612573256839e-09, 7.487072073431023e-10, 4.74538586203721e-09, 1.504440319877176e-06, 7.726172270849929e-07, 8.939164217736106e-07, 2.210988947481951e-09, 3.388327058928553e-07, -1.705216523539832e-09, 5.450729076983407e-07], [-5.827626714527412e-10, -9.251460042491999e-09, -3.8791561074447145e-09, 7.605442498004322e-09, 6.601188488275511e-06, 1.0123165417041946e-08, 6.40383479577622e-09, -4.449443480325499e-09, -4.0340260056837e-06, -2.5500397896394134e-05, 4.647123205359094e-06, -2.5125280444626696e-05, 4.364996808448041e-09, 2.2426884243031964e-05, -1.498514645703608e-09, -1.027257834351758e-09, 2.5409077352378517e-05, 2.805385090898227e-10, 1.851688648457639e-05, -2.136504917871207e-06, 2.085001688101329e-05, 3.341445786730901e-09, 7.257347167666239e-09, 1.8776906696160722e-09, 1.065912869080421e-08, 3.905620815203292e-06, 5.221513674769085e-07, 9.08807214727858e-06, 8.482484048499828e-09, 4.545537137801148e-07, -1.2267367122120731e-09, 3.99528516936698e-06], [0.00017980876145884395, 0.0003307163424324244, -0.00020333216525614262, 5.48572170373518e-05, 0.11902664601802826, -3.5024542739847675e-05, 4.147085564909503e-05, -2.4502371161361225e-05, 0.030701179057359695, 0.08066338300704956, 0.07055728882551193, -0.0768655389547348, 0.0002196059504058212, -0.09524502605199814, -9.316694922745228e-05, -0.00010088103590533137, -0.05638085678219795, 0.00016158221114892513, -0.06508056819438934, -0.02646087482571602, -0.0117415152490139, -5.614028486888856e-05, 2.3659989892621525e-05, -0.0003469786897767335, -3.8232392398640513e-05, -0.021670501679182053, -0.045193400233983994, 0.15895701944828033, -0.00035796663723886013, -0.04494934156537056, -0.0001752533862600103, 0.01432728860527277], [-5.640177214161213e-10, -1.6288812076936665e-08, -6.999271384700023e-09, 1.4123052061165708e-08, 7.1931535785552114e-06, 1.7904133287061086e-08, 1.1441962932678962e-08, -8.563695530483528e-09, -5.858619715581881e-06, -3.395020394236781e-05, 5.045075340603944e-06, -3.338144233566709e-05, 1.0210302825441886e-08, 3.0075882023083977e-05, -2.083681005515814e-09, -1.9823842567490146e-09, 3.3860640542116016e-05, 1.4448736651573313e-09, 2.421692624920979e-05, -2.9090520001773257e-06, 2.8038448363076895e-05, 3.122099245800314e-09, 1.2967004359154544e-08, 4.809122433613311e-09, 1.867833887558845e-08, 5.263450475467835e-06, 2.736512385581591e-07, 1.1060630640713498e-05, 1.4344135657040624e-08, 1.2135014912928455e-06, -2.9792719402621515e-09, 4.857229214394465e-06], [-5.998772034665478e-10, -6.773496430412251e-09, -3.8498773058393e-09, 6.62147003893665e-09, 3.471442141744774e-06, 8.386398242521409e-09, 5.7948033038712765e-09, -4.006623477437188e-09, -1.727938069961965e-06, -1.7063264749594964e-05, 3.570362196114729e-06, -1.6484149455209263e-05, 4.603251557711019e-09, 1.506891567260027e-05, -1.3458497649665446e-09, -1.1057104121192651e-09, 1.7168093108921312e-05, 8.538818541126147e-10, 1.2507302017183974e-05, -1.2553864507935941e-06, 1.4290485523815732e-05, 8.127448158923301e-10, 6.221767545611101e-09, 1.9108943316581417e-09, 8.729839962029473e-09, 2.304468580405228e-06, 2.74671407396454e-07, 4.991512469132431e-06, 5.201381103603353e-09, 5.311080144565494e-07, -1.7433343657557998e-09, 2.5897227260429645e-06], [-3.524959768519409e-10, -4.279196108569749e-09, -1.6232738486721132e-09, 3.329470921187294e-09, 3.4173210679000476e-06, 4.566849565179609e-09, 2.718279157321035e-09, -1.988949449582833e-09, -2.3922327727632364e-06, -1.2142484592914116e-05, 2.090020871037268e-06, -1.2028252058371436e-05, 1.5818866216932292e-09, 1.0581792594166473e-05, -6.325909795990015e-10, -3.4488967237678025e-10, 1.2054022590746172e-05, -4.193682900943685e-11, 8.731109119253233e-06, -1.0656821132215555e-06, 9.821433195611462e-06, 1.8871140206044856e-09, 3.2044100706229983e-09, 7.651648203932382e-10, 4.840356560009695e-09, 2.1249063593131723e-06, 1.840852092982459e-07, 4.402813374326797e-06, 4.202829639865513e-09, 1.6305941130667634e-07, -3.559973427158525e-10, 1.7985855720326072e-06], [-0.00047893583541736007, -0.00026178103871643543, 3.4457010769983754e-05, 2.303798100911081e-05, -0.10383960604667664, 9.442013833904639e-05, 6.659307109657675e-05, -2.190123086620588e-05, -0.05721766874194145, 0.1060139536857605, -0.029033299535512924, 0.10409659892320633, -0.00020516505173873156, -0.09363332390785217, -1.4857535461487714e-05, -1.3432361811283045e-05, -0.14503413438796997, -0.00018467704649083316, -0.07209236919879913, 0.010538004338741302, -0.13085143268108368, -0.00011330250708851963, 3.5207249311497435e-05, 0.0003617594775278121, 0.00010676492092898116, 0.023676922544836998, -0.04746028035879135, 0.04188883304595947, 4.650632763514295e-05, -0.026417313143610954, 0.00014529643522109836, -0.018134932965040207], [6.606298848055303e-05, -5.3018688049633056e-05, 6.397044103323424e-07, 9.928540748660453e-06, 0.049490928649902344, -4.1790826799115166e-05, -4.358570549811702e-06, -5.8891331718768924e-05, 0.05396830290555954, 0.25574207305908203, 0.021579788997769356, 0.14265383780002594, -4.761598029290326e-05, -0.17408975958824158, 8.637414430268109e-05, 8.686142973601818e-05, -0.18853791058063507, 6.744357233401388e-05, -0.12519609928131104, -0.027173172682523727, -0.10558346658945084, -0.000181644776603207, -1.422877971890557e-06, 0.0001783435873221606, -4.97474757139571e-05, -0.07034896314144135, -0.011994973756372929, 0.0009102530893869698, 9.038433927344158e-05, -0.027511116117239, -5.417837019194849e-05, -0.09581663459539413], [0.00022911287669558078, 3.941310569643974e-05, -0.0001702090521575883, 0.0001318797148996964, 0.006269955076277256, 8.343083027284592e-05, 9.982195479096845e-05, -0.00011121301940875128, -0.0048928153701126575, 0.2565763592720032, -0.023057466372847557, 0.37325987219810486, 0.0002216216962551698, -0.22401989996433258, 3.519335950841196e-05, 2.9133272619219497e-05, -0.17461693286895752, 0.00021710411238018423, -0.21853092312812805, -0.07891430705785751, -0.18403714895248413, -0.00020159826090093702, 0.00015852224896661937, 2.5919545805663802e-05, 6.661116640316322e-05, -0.07594164460897446, 0.08812936395406723, -0.2885238826274872, 7.199466199381277e-05, 0.02707219310104847, -0.00022163875109981745, -0.08994355797767639], [2.061650411633309e-05, 4.194994835415855e-05, -3.167447721352801e-05, 6.891920929774642e-05, 0.09870222955942154, 1.6853096894919872e-05, 5.27374766079447e-09, -7.935654139146209e-05, 0.07518507540225983, 0.2659660577774048, 0.07903893291950226, 0.1580749750137329, 9.435767424292862e-05, -0.17651908099651337, 0.00010908445256063715, 0.00010829974780790508, -0.2203003168106079, 8.987705950858071e-05, -0.10780496895313263, -0.05528350919485092, -0.10227970033884048, 0.00014153050142340362, 3.1066290830494836e-05, -3.441458466113545e-05, 4.61573654320091e-06, -0.031276848167181015, -0.03650575876235962, 0.023258743807673454, 3.385459785931744e-05, -0.033442217856645584, -7.430978439515457e-05, -0.0840228796005249], [-1.4903035472357828e-09, -7.139358437768806e-09, -1.191128418120968e-09, 3.19939941206826e-09, 3.594376721594017e-06, 5.77240033550197e-09, 3.5370120166078323e-09, -1.238229296873783e-09, -5.53580503037665e-06, -3.2115236535901204e-05, 2.8823659903309817e-08, -2.8732227292493917e-05, -1.271472926944739e-09, 2.8213922632858157e-05, -7.213219466173371e-10, 3.193882875188181e-12, 3.066869612666778e-05, -1.7384711448187318e-09, 1.949949910340365e-05, -2.1240975911496207e-06, 2.3032203898765147e-05, 5.269940483998425e-09, 3.4591274289397234e-09, 1.4637560052932486e-09, 6.289007092874499e-09, 3.605538950068876e-06, 1.332602892034629e-06, 9.085872989089694e-06, 8.10937272888168e-09, 1.4796398772887187e-06, 9.85550863141782e-10, 4.175733465672238e-06], [-0.00012723685358650982, -6.847816257504746e-05, 6.318945088423789e-05, -5.6305954785784706e-05, 0.15297618508338928, -7.08735387888737e-05, -0.0001123428373830393, 3.010273758263793e-05, 0.04044802859425545, 0.2411639392375946, 0.033785250037908554, 0.16770239174365997, -9.609118569642305e-05, -0.17802612483501434, 2.121671741406317e-06, 2.9036833439022303e-05, -0.21455849707126617, -5.703475108020939e-05, -0.10716678947210312, -0.05465342476963997, -0.11313114315271378, -9.94422662188299e-05, -4.956436168868095e-05, 0.0001431529817637056, -7.624889985891059e-05, -0.0459030419588089, -0.034287385642528534, 0.010357464663684368, -1.1338131116644945e-05, -0.032530054450035095, 6.717264477629215e-05, -0.09736631065607071], [2.1868751254316976e-10, -3.149309979466608e-10, -2.7683128012157e-10, 4.0907116582999947e-10, -3.403856680961326e-07, 5.620772736136814e-10, 3.7679359632392107e-10, -2.0566083558382076e-10, -8.288799904221378e-07, -1.4318604826257797e-06, -5.569714289777039e-07, -3.4576123653096147e-07, 2.8070185065232067e-10, 1.3199762634030776e-06, -2.2402268928800595e-10, -2.3929425108093483e-10, 1.3613251894639689e-06, 8.494777103962292e-11, 1.178305950588765e-07, -5.220342558232005e-08, 6.011186997056939e-07, 1.3446563307262238e-10, 4.4529402387638584e-10, -1.5623918825369287e-10, 5.929860491526995e-10, -9.695211389271208e-08, 2.596985950731323e-07, 6.396082881110488e-07, 2.350011574225874e-10, 1.3492092776345999e-08, -1.2325668263812872e-10, 1.0588968279989786e-06], [2.4212223892483564e-10, -1.7727565249092692e-10, -3.547968516204314e-11, 2.2003802946368722e-10, -7.009703040239401e-07, 2.720637048980734e-10, 1.6257929724705633e-10, -1.0061976946085238e-10, -7.627916147612268e-07, -1.7591481764611672e-06, -8.276517178273934e-07, -5.494197239386267e-07, 2.7686000714233217e-10, 1.5315113159886096e-06, -1.43165132526768e-10, -1.9828563790902365e-10, 1.6846373682710691e-06, 6.078333669723435e-11, 9.296391567659157e-08, -8.755446145869428e-08, 7.597610078846628e-07, 1.435039864716714e-10, 2.1179813458616081e-10, -1.7525847439969766e-10, 2.838450585684882e-10, -1.755659013724653e-07, 1.7161845278224064e-07, 2.553223339418764e-07, 2.0720847260236042e-10, 1.768287205550223e-07, -3.9516504651837536e-11, 7.846090284147067e-07], [-9.46361105889082e-05, -0.00020264540216885507, 6.866925832582638e-05, -2.293956458743196e-05, 0.04926076903939247, -2.319116538274102e-05, -2.0910643797833472e-05, 1.8165470464737155e-05, 0.06646305322647095, 0.2201603353023529, 0.04386201128363609, 0.17194700241088867, -7.882090721977875e-05, -0.19018466770648956, -6.899148866068572e-05, -4.9817659601103514e-05, -0.22413888573646545, -5.832666647620499e-05, -0.0908658429980278, 0.0031107140239328146, -0.14992713928222656, 0.00012051411613356322, 4.287787760404171e-06, 8.388837159145623e-05, -2.2587933926843107e-05, -0.0007641786942258477, -0.01344962790608406, 0.0008879628730937839, 0.00019325070024933666, -0.02066197618842125, 5.727459938498214e-05, -0.006011512130498886], [-5.031848271386252e-10, 9.633233100103666e-10, 1.8332114992691828e-10, -1.2613764477364953e-09, 6.593961643375224e-07, -1.0617918766442358e-09, -5.704378636117724e-10, 9.39667454957771e-10, -6.413403070837376e-07, -2.2977887965680566e-06, 5.038263850565272e-08, -1.2943654610353406e-06, -2.1571391339847423e-09, 1.9691092347784434e-06, 2.7351912401663014e-11, 2.9203323093085487e-10, 1.908617150547798e-06, -5.544180115002462e-10, 8.729433602638892e-07, 2.1807798589179583e-07, 6.42673512629699e-07, 8.48298098432565e-10, -8.184161126578715e-10, -5.424333759940225e-10, -1.0230881697381733e-09, 2.7608692221292586e-07, 3.939815087505849e-07, 1.1563623729671235e-06, -5.461299745768144e-10, -5.22937284586078e-07, 4.4167311474829773e-10, 1.0196523589911521e-06], [0.0001084671457647346, 1.6497206161147915e-05, -0.00010288871999364346, 0.000261543202213943, -0.037423115223646164, 0.0003088098601438105, 0.0002487874880898744, -0.0002125843457179144, -0.0077052307315170765, 0.1940070241689682, 0.020008156076073647, 0.16732332110404968, 0.00012238732597324997, -0.13480103015899658, 7.605701102875173e-05, 7.366649515461177e-05, -0.16934727132320404, 0.0001516793272458017, -0.1739499866962433, 0.029217811301350594, -0.12138904631137848, 1.955972948053386e-05, 0.00020741614571306854, 4.916555099043762e-06, 0.000308989459881559, -0.049509257078170776, -0.07194484025239944, 0.03470539301633835, 7.8185650636442e-05, -0.030874164775013924, -0.00016871980915311724, 0.010646593756973743], [0.00011683753109537065, 2.9507050385291222e-06, -6.835802923887968e-05, 3.404599556233734e-05, -0.02067309059202671, -4.770897430717014e-05, 3.4224729461129755e-05, -5.273421265883371e-05, 0.09988381713628769, 0.20033718645572662, 0.06999830901622772, 0.12234765291213989, 6.444017344620079e-05, -0.18955713510513306, 6.157373263704358e-06, -6.018065960233798e-06, -0.1495688557624817, 0.00013222891720943153, -0.035858336836099625, -0.01222524419426918, -0.04625530168414116, -1.8553584595792927e-05, 5.2513336413539946e-05, -3.863089295919053e-05, -6.548307283082977e-05, -0.007775526028126478, -0.007207389920949936, -0.03672153130173683, 8.265100041171536e-05, 0.0008062496199272573, -0.00012412649812176824, -0.03127971664071083], [-0.0003433124511502683, -0.0003163654764648527, 0.0001829403918236494, -0.00024287428823299706, 0.09347274899482727, -0.0001551955210743472, -2.551204670453444e-05, 0.00022578088100999594, 0.13993318378925323, 0.18786220252513885, 0.0937514677643776, 0.1315854787826538, -0.0003922883188351989, -0.21894782781600952, -0.0001346761710010469, -0.00012461328878998756, -0.20515498518943787, -0.0003067926154471934, -0.07902474701404572, 0.03959931433200836, -0.10576020926237106, -3.280718010501005e-05, -0.00010622652189340442, 0.000325152650475502, -0.0001459045015508309, -0.0019539634231477976, -0.06784241646528244, -0.008166673593223095, 0.00026161756250075996, -0.0386488102376461, 0.0002617069985717535, -0.013234473764896393], [-2.755057293413188e-09, -7.623951470137058e-10, 1.6410229841667956e-09, -1.9831045694473914e-09, 2.5314511731266975e-07, -6.879958824868027e-10, -8.452337163511459e-10, 1.5350893889376493e-09, -6.005292618738167e-08, -1.3951481378171593e-05, 9.558090141581488e-07, -1.2523492841864936e-05, -4.498734718083597e-09, 1.2211429748276714e-05, -4.963062183449551e-10, 2.4897564565584673e-10, 1.3972879060020205e-05, -2.6040112288683304e-09, 1.027633607009193e-05, -8.090326559795358e-07, 1.0993926480296068e-05, 9.140380674566018e-10, -1.3589163128102655e-09, 8.960002184643656e-10, -5.321671436853137e-10, 1.3637262554766494e-06, 1.4670389418824925e-06, 2.3705185867584078e-06, 1.0539101813478169e-09, 1.1065370699725463e-06, 2.4238759888106642e-09, 2.805454414556152e-06], [-5.485960019591118e-10, -7.305028137949421e-09, -3.636290601960468e-09, 6.408213959474551e-09, 5.277571290207561e-06, 8.326665579261316e-09, 5.502185373984503e-09, -3.805275206048009e-09, -1.7719182778819231e-06, -1.833356509450823e-05, 3.908767666871427e-06, -1.8015758541878313e-05, 4.0265248912874085e-09, 1.640140362724196e-05, -1.2999521459278185e-09, -9.886196306041484e-10, 1.8249289496452548e-05, 5.420223714303063e-10, 1.3828107512381393e-05, -1.5831409427846665e-06, 1.524440449429676e-05, 1.5707529721353808e-09, 6.1524119132627675e-09, 1.8754084951666528e-09, 8.71483152309338e-09, 2.7174476144864457e-06, 4.6653980234623305e-07, 7.064100373099791e-06, 6.0927991540893345e-09, 1.3204666515775898e-07, -1.4069908571556766e-09, 3.1950435186445247e-06], [-5.56522250505509e-09, -5.819610127133501e-09, 5.341140862924476e-10, 3.4189190367683864e-10, 2.132268718924024e-06, 3.0833389175199954e-09, 2.0000692213528737e-09, -9.621062627140908e-12, -2.594346597106778e-06, -1.1572195035114419e-05, 1.2409495866450015e-06, -8.152878763212357e-06, -4.3299674956642775e-09, 1.0835270586539991e-05, -1.2353726930314224e-09, -2.792976683263504e-10, 1.0941321306745522e-05, -3.956966754259383e-09, 6.416563792299712e-06, 3.211387706869573e-07, 7.374296274065273e-06, -6.009271413809358e-10, 9.541163414894527e-10, 4.903658368249353e-09, 3.4941298743262905e-09, 4.235326116486249e-07, 1.0010109008362633e-06, 7.652482963749208e-06, 3.141976012699388e-09, -3.616111996507243e-07, 2.9939533074951896e-09, 8.56679707794683e-06], [-6.22642160053033e-10, -1.7313064759605368e-08, -7.405979829400167e-09, 1.4975013229445722e-08, 7.4087674875045195e-06, 1.8975990556668876e-08, 1.2133829940808027e-08, -9.107323784007804e-09, -6.287994438025635e-06, -3.498996011330746e-05, 5.112409326102352e-06, -3.426916737225838e-05, 1.0846896714156173e-08, 3.108902819803916e-05, -2.1821271456445857e-09, -2.1155042162490645e-09, 3.483874388621189e-05, 1.5216555793173825e-09, 2.4782169930404052e-05, -2.9757309221167816e-06, 2.881009640987031e-05, 3.114238644741363e-09, 1.3738466364543456e-08, 5.233518951541782e-09, 1.9793017003166824e-08, 5.425079052656656e-06, 2.6123683483092464e-07, 1.1637295756372623e-05, 1.51731693875945e-08, 1.2244591971466434e-06, -3.1462368266232943e-09, 5.276013780530775e-06], [0.00019390274246688932, -2.9263597753015347e-05, -0.00023769678955432028, 0.0004459189949557185, 0.04804755002260208, 0.0005398128996603191, 0.0005364653188735247, -0.00029413611628115177, 0.09786910563707352, 0.08905252814292908, 0.088424451649189, 0.0665014311671257, 0.00048629773664288223, -0.10862182080745697, -0.00014077294326853007, -0.00013869610847905278, -0.07809349149465561, 0.00021964214101899415, -0.02421386167407036, -0.04571660980582237, 0.007623883429914713, -0.0002882415719795972, 0.0003952826664317399, 4.003434514743276e-05, 0.0005494225770235062, -0.01610404998064041, -0.02478957548737526, 0.034998707473278046, -0.00016541293007321656, 0.007656432222574949, -0.0002921284467447549, -0.0525980107486248], [0.00010557786299614236, -2.2463374989456497e-05, -0.00011790891585405916, 0.00011446583084762096, -0.03439094126224518, 8.700957550900057e-05, 6.534708518302068e-05, -5.244435305939987e-05, 0.01915263943374157, 0.3034782111644745, -0.026565907523036003, 0.48505833745002747, 0.00019108803826384246, -0.2351185381412506, -1.411055836797459e-05, -5.0135789933847263e-05, -0.3103770911693573, 0.00011805860413005576, -0.2317264974117279, 0.0024839232210069895, -0.31431031227111816, -7.077612826833501e-05, 0.00010895063314819708, 2.5811717932811007e-05, 8.506224548909813e-05, -0.06837169826030731, 0.053797200322151184, -0.06973227858543396, 6.115466385381296e-05, -0.03296935558319092, -0.00013093312736600637, 0.05173371732234955], [-9.135239815805107e-05, -0.0003183881053701043, 0.00013082093209959567, -2.5024482965818606e-05, 0.0785842165350914, 2.3045806301524863e-05, -6.801606650697067e-05, -7.653318789380137e-06, 0.10586421936750412, 0.31005460023880005, 0.03624549135565758, 0.042528197169303894, -0.0001298824354307726, -0.23880745470523834, 6.478425802924903e-06, 9.6857977041509e-05, -0.24004864692687988, -0.00010087471309816465, -0.10453543066978455, 0.03841202333569527, -0.16150811314582825, 2.7396901714382693e-05, 1.7679858501651324e-05, 0.00017074469360522926, 2.080530975945294e-05, 0.017198041081428528, 0.028374122455716133, 0.01567843183875084, 0.00019038662139791995, -0.019343525171279907, 0.00010600882524158806, -0.003473851829767227], [1.827005435828255e-09, 2.0192096883420163e-09, 3.301620976614572e-09, -4.9164992077521674e-09, -4.527263115505775e-07, -4.727888303079908e-09, -3.1858680138441287e-09, 3.642774082379674e-09, -3.0577184588764794e-06, -2.1617770471493714e-06, -4.811797225556802e-06, 6.954539458092768e-06, -6.456804868548716e-09, 2.343776941415854e-06, 1.6636417243809376e-10, 2.3864216158742124e-10, -8.772190085437614e-07, -1.7818561071081263e-09, -7.694145097048022e-06, 2.008221372307162e-06, -7.123446266632527e-06, 8.733128109561505e-10, -3.697414152625811e-09, -9.394062194800767e-10, -4.724633573260917e-09, -1.6880793509699288e-06, 2.5200711206707638e-06, 8.512487511325162e-06, -2.3048671304870538e-10, -3.085965090576792e-06, 