{"model_data": {"model": "SimpleRNN", "input_size": 2, "skip": 1, "output_size": 1, "unit_type": "LSTM", "num_layers": 1, "hidden_size": 20, "bias_fl": true}, "state_dict": {"rec.weight_ih_l0": [[0.0675925463438034, -0.5650595426559448], [0.042865123599767685, 0.0937214344739914], [-0.013281960971653461, 0.062122054398059845], [0.027050960808992386, 0.05331401526927948], [-0.019429447129368782, 0.11721404641866684], [-5.310782569267758e-08, -7.09514097252395e-07], [0.011770416051149368, -0.10962068289518356], [0.0353752039372921, 0.12412946671247482], [0.028400009498000145, 0.09890647977590561], [0.01578335277736187, 0.3013790547847748], [6.210375147475133e-08, -6.783147341593576e-07], [7.820039513717347e-07, -2.2958754470892018e-06], [-0.09321180731058121, 0.34829890727996826], [0.014581904746592045, 0.1899936944246292], [0.029824571684002876, 0.32988888025283813], [1.0563085339754252e-07, -1.8599772374727763e-05], [0.02944154106080532, 0.07540575414896011], [-0.00705757224932313, 0.07146743685007095], [0.032049935311079025, 0.15952463448047638], [-1.2922038550300385e-08, -2.4412490802205866e-06], [0.06207125261425972, 0.44676047563552856], [0.0812220424413681, 0.10307109355926514], [-0.02851693145930767, 0.12979868054389954], [0.042002156376838684, 0.16559121012687683], [-0.019535735249519348, -0.0985759049654007], [-6.43220445795123e-08, -6.305703550424369e-07], [0.013207660987973213, 0.3035755157470703], [0.04000313580036163, 0.23708125948905945], [1.599808456376195e-05, -0.09462620317935944], [-0.02979549951851368, -0.04891972616314888], [7.181309058523766e-08, -6.282397748691437e-07], [7.666190526833816e-07, -2.2395793166651856e-06], [-0.04144875705242157, 0.11503425240516663], [0.00809316523373127, -0.03502785041928291], [0.008019419386982918, 0.061017733067274094], [1.0097240732420687e-07, -1.854968832049053e-05], [0.07621850818395615, 0.2017093300819397], [-0.004547783173620701, 0.141536682844162], [0.05774005129933357, 0.21557743847370148], [-2.7837119276341582e-08, -2.279218278999906e-06], [0.23004086315631866, 0.0015206945827230811], [0.3679174482822418, -0.07147697359323502], [-0.18118685483932495, -0.28369733691215515], [-0.17644619941711426, 0.15676483511924744], [-0.06766621768474579, -0.11331429332494736], [-0.0001551530440337956, -1.3327674423635472e-05], [0.05699906498193741, -0.6251107454299927], [0.2896515130996704, 0.2940219044685364], [0.051981326192617416, 0.09529896825551987], [-1.6454031467437744, 0.06745517998933792], [0.0001391747937304899, 3.839166311081499e-05], [-0.00043325708247721195, -4.0200131479650736e-05], [-1.5106723308563232, 0.07380351424217224], [-0.07040944695472717, -0.2521243691444397], [-0.9572886228561401, -0.188137486577034], [6.210360879777e-05, -0.00013006171502638608], [0.02092880569398403, 0.23549528419971466], [0.19957280158996582, 0.07968591898679733], [0.37265801429748535, -0.48182234168052673], [-0.00019226536096539348, 3.6677633033832535e-05], [0.031064938753843307, 0.04074133187532425], [0.11424515396356583, 0.17143532633781433], [-0.025276342406868935, 0.20893889665603638], [-0.0004782725591212511, 0.20341850817203522], [0.0007954564644023776, 0.08108943700790405], [-6.64626043089811e-08, -7.138161208786187e-07], [-0.0431794710457325, 0.1285616010427475], [0.02346697822213173, 0.2376767247915268], [0.0005663247429765761, 0.003948172088712454], [0.0013733471278101206, 0.1704045683145523], [5.5392948894450456e-08, -6.777774501642853e-07], [5.746297233599762e-07, -2.3021743800200056e-06], [-0.11684727668762207, 0.38360199332237244], [0.015334386378526688, 0.2057744413614273], [0.0519244484603405, 0.34809422492980957], [9.809492773626971e-09, -1.8624716176418588e-05], [-0.00875760056078434, 0.20313605666160583], [0.01681617833673954, 0.19312791526317596], [0.1275419145822525, 0.2120921015739441], [-4.2100989361415486e-08, -2.4514934011676814e-06]], "rec.weight_hh_l0": [[0.061307720839977264, 0.22548411786556244, 0.3978721499443054, -0.4600244164466858, -0.4124565124511719, 0.00011476888175820932, 0.005703277420252562, -0.29449328780174255, 0.3444209098815918, -0.10634198784828186, -0.00010900440975092351, 0.0007689578924328089, -0.008451893925666809, -0.05011980980634689, 0.05085092782974243, -0.00021006418683100492, -0.2713932693004608, -0.5811506509780884, 0.44503673911094666, 0.00020258295990061015], [0.013267275877296925, -0.016737278550863266, -0.05302383005619049, 0.11714154481887817, 0.10277413576841354, -2.8884362109238282e-05, 0.09416608512401581, 0.03779611736536026, 0.05020696297287941, -0.048465900123119354, 2.973918162751943e-05, 0.00013506882532965392, -0.041921935975551605, -0.01081602368503809, -0.005042004864662886, 2.310844683961477e-05, 0.042280811816453934, 0.11835829168558121, -0.02879064530134201, -3.2650255889166147e-05], [0.024692410603165627, -0.01900874450802803, -0.03496589511632919, 0.08164623379707336, 0.005575830582529306, -2.5573990569682792e-05, 0.054611288011074066, 0.02487073466181755, 0.021577060222625732, 0.01777207851409912, 5.2046489145141095e-05, -0.00012717269419226795, 0.03290529176592827, 0.050089869648218155, -0.010143106803297997, -1.9259612599853426e-05, 0.03833027184009552, 0.09488030523061752, -0.014369569718837738, 2.3130778572522104e-06], [-0.03026183694601059, -0.003281409153714776, -0.01646670699119568, 0.09577666223049164, -0.034290529787540436, -5.762647560914047e-05, 0.04719826206564903, -0.0006420789286494255, 0.02716989442706108, -0.040041688829660416, -6.383103027474135e-05, 0.00026123441057279706, -0.02532687783241272, -0.003155558602884412, -0.004317202139645815, 0.00019343482563272119, 0.010408402420580387, 0.06960988789796829, 0.006098086014389992, -0.00012356528895907104], [0.017984682694077492, -0.06791644543409348, -0.018053434789180756, 0.17610619962215424, -0.06039835512638092, 0.00016811698151286691, 0.03312930837273598, 0.011297167278826237, -0.17845860123634338, 0.06121417507529259, -0.00019396971038077027, 0.00023876858176663518, -0.017127996310591698, -0.011920656077563763, -0.023264184594154358, -0.00013945258979219943, -0.034493587911129, 0.18046694993972778, 0.040279850363731384, 0.0001780382008291781], [-1.7503991500689153e-07, 6.064337867428549e-07, 6.15716658103338e-07, -7.681718443564023e-07, -7.487088851121371e-07, 9.604918943528773e-11, -3.6079188703297405e-07, -3.831228241324425e-07, -1.7163660004371195e-07, 5.536458616006712e-07, -9.309744641861073e-11, -1.1530688209804296e-10, 2.8491899684013333e-07, 3.3993423187439475e-08, 1.4979130469328084e-07, 9.949477873527623e-12, -4.491046752264083e-07, -7.882107411205652e-07, 4.6787732799202786e-07, 8.29191160178766e-11], [-0.06307116895914078, 0.17694726586341858, 0.08596481382846832, -0.022906409576535225, -0.026431474834680557, 6.180841592140496e-05, -0.10737156867980957, -0.13622090220451355, 0.005580157972872257, 0.0655212253332138, 3.714064587256871e-05, -0.0008320935885421932, 0.00362950935959816, 0.002067817375063896, -0.04143789783120155, -0.00010325069888494909, -0.11202052235603333, -0.08309794962406158, 0.11251741647720337, 3.229634603485465e-05], [-0.012915368191897869, -0.050191730260849, -0.07163232564926147, 0.10119186341762543, 0.034181371331214905, -4.4308494580036495e-06, 0.026969602331519127, 0.056457728147506714, 0.05312784016132355, -0.026844097301363945, 2.8538022888824344e-05, -4.91081882501021e-05, -0.04031264781951904, -0.0057077836245298386, -0.018288763239979744, 2.451417822157964e-05, 0.07255471497774124, 0.0769292414188385, -0.06381957978010178, 3.196432953700423e-05], [-0.0064699980430305, -0.05630391091108322, -0.06765275448560715, 0.17804530262947083, 0.12594124674797058, 5.108461482450366e-05, 0.07401277869939804, -0.024604426696896553, 0.007459039334207773, -0.12633265554904938, -6.485723133664578e-05, 0.00012713026080746204, -0.07530076801776886, 0.020106369629502296, 0.017469432204961777, -3.337851467222208e-06, 0.030861251056194305, 0.1642550379037857, 0.023435376584529877, 2.5918679966707714e-05], [0.042528923600912094, -0.24663309752941132, -0.2771519720554352, 0.33915194869041443, -0.009750278666615486, 3.721236134879291e-05, 0.10283589363098145, 0.2950361669063568, 0.021651342511177063, -0.036063745617866516, -6.570377991010901e-06, 1.4304702744993847e-05, 0.02721147984266281, 0.009265248663723469, -0.012190571054816246, -0.00011976144014624879, 0.26957812905311584, 0.3250763416290283, -0.23343601822853088, 5.5505366617580876e-05], [-3.567838859908079e-07, 6.083985226723598e-07, 6.038775381966843e-07, -7.207483463389508e-07, 3.6383664792083437e-07, 1.5530783603612264e-10, -4.581700920880394e-07, -5.283535529088113e-07, 4.795866743734223e-07, -5.441809207695769e-07, 2.5865382058398723e-10, -5.948441184067121e-10, 1.025972373724926e-08, -1.5831977862035274e-07, -6.185672987157886e-07, -6.444220712609194e-10, -5.497520874087058e-07, -7.178326200119045e-07, 5.294222660268133e-07, 3.619223254425208e-10], [-8.292164466183749e-07, 1.7964779317480861e-06, 7.642782406946935e-07, -3.741695763892494e-06, -3.6740998439199757e-06, -3.9573155863337206e-10, -4.372218427306507e-06, -3.494151030736248e-07, 1.5817712437637965e-06, 1.3800888609694084e-06, 1.3025186484938445e-09, -6.37134212055912e-09, 4.873049874731805e-06, -2.0163531644357136e-06, -3.6395638858266466e-07, -1.3606427096135576e-09, -9.706125183583936e-07, -3.389813628018601e-06, 2.3207518040635478e-07, 2.906717366801814e-10], [-0.006916896440088749, -0.2905157804489136, -0.30195000767707825, 0.2662174105644226, -0.08287660032510757, -1.1630699191300664e-05, 0.024060016497969627, 0.25720182061195374, 0.006129031535238028, 0.09390339255332947, 2.8354654205031693e-05, 1.1938990610360634e-05, 0.032763250172138214, 0.018538514152169228, 0.047794319689273834, -5.830636655446142e-05, 0.2565819323062897, 0.22369343042373657, -0.3691137135028839, 1.5094648915692233e-05], [0.017989937216043472, -0.11959706246852875, -0.15150652825832367, 0.20839789509773254, 0.005931654945015907, -3.212025330867618e-05, 0.10029175877571106, 0.09077050536870956, -0.035395439714193344, -0.009355198591947556, 3.475615449133329e-05, -2.052141098829452e-05, -0.04707953333854675, 0.0023396967444568872, 0.007231344003230333, 5.5476510169683024e-05, 0.10656046122312546, 0.19205760955810547, -0.10466743260622025, -3.920284871128388e-05], [0.01216935832053423, -0.2503248453140259, -0.2726384401321411, 0.23210133612155914, 0.016100984066724777, -3.5429846320766956e-05, 0.0074179451912641525, 0.27722156047821045, 0.024121180176734924, -0.05827873945236206, -1.1439924492151476e-05, 1.8118917068932205e-05, 0.007821258157491684, 0.002214237814769149, 0.003412874648347497, 0.00011623984755715355, 0.2777579724788666, 0.19751989841461182, -0.31314656138420105, -6.16706965956837e-05], [-5.48829916624527e-07, 1.4179418940329924e-05, 1.616174449736718e-05, -1.5990563042578287e-05, -1.5003048474682146e-06, 2.1486177281815344e-09, -1.925194510477013e-06, -1.4810900211159606e-05, -1.414620555806323e-06, 1.8310325913262204e-06, 1.3325006653630567e-09, -4.1500887171253e-09, 2.0149451529505313e-07, 1.0432091812617728e-06, 1.0933594012385583e-06, -1.0250208681839013e-08, -1.4292224477685522e-05, -1.523392984381644e-05, 1.586465623404365e-05, 4.048491319963432e-09], [0.0519050732254982, -0.061043765395879745, -0.045145682990550995, 0.06818471848964691, -0.031683195382356644, -2.7902658985112794e-05, -0.03018152341246605, 0.056956641376018524, -0.041845716536045074, 0.06663478910923004, 3.824491795967333e-05, 0.0002525131276343018, 0.03818361461162567, -0.0329398438334465, -0.017915787175297737, -1.300457188335713e-05, 0.04005170240998268, 0.0802411139011383, -0.008434613235294819, -4.133345646550879e-05], [0.045814454555511475, -0.05466202273964882, -0.04659729823470116, 0.09132222086191177, 0.006201144773513079, 0.00010509460116736591, 0.07982484251260757, 0.027397483587265015, 0.015300842933356762, 0.0308199655264616, -8.922224515117705e-05, 8.073296339716762e-05, 0.0024524421896785498, 0.03245983272790909, 0.009223244152963161, -0.00010290787759004161, 0.04215791076421738, 0.09876883774995804, -0.020714202895760536, 0.0001311348023591563], [0.04755846783518791, -0.08253974467515945, -0.13039986789226532, 0.16637152433395386, 0.005437162704765797, -3.831628418993205e-05, 0.10902104526758194, 0.029361380264163017, 0.026613222435116768, -0.002515625674277544, -6.400491838576272e-05, 0.0002580325526650995, -0.03448895737528801, -0.0316460020840168, 0.010946563445031643, 0.0001640513219172135, 0.05261177942156792, 0.18395031988620758, -0.008877296932041645, -6.877547275507823e-05], [-2.498476590062637e-07, 2.021876753133256e-06, 2.1297951207088772e-06, -2.4058588223851984e-06, -1.2246014193806332e-06, 3.2582900266753256e-10, -7.180086640801164e-07, -1.5983647472239682e-06, -2.0767888031514303e-07, 8.248177891800879e-07, -7.915845062766991e-11, -4.941063114216604e-10, 4.803307547263103e-07, 1.423027669034127e-07, 2.558292351295677e-07, -7.438414328930776e-10, -1.6680287444614805e-06, -2.391922180322581e-06, 1.8323720496482565e-06, 4.3766026913694134e-10], [0.06820397078990936, -0.300592839717865, -0.42879265546798706, 0.39432281255722046, 0.26741939783096313, 0.00013938940537627786, 0.008197534829378128, 0.36297541856765747, -0.19445423781871796, 0.008925236761569977, -0.000260460888966918, 0.0009631991269998252, -0.02801412157714367, -0.026249300688505173, 0.0493813157081604, -0.00017623133317101747, 0.47176364064216614, 0.2633509635925293, -0.36312541365623474, 0.00020382407819852233], [-0.009595750831067562, -0.021479973569512367, -0.05147165805101395, 0.0857354998588562, 0.09522239118814468, -3.210041904821992e-05, 0.05133116617798805, 0.12344729900360107, 0.1418992131948471, -0.04716930538415909, 2.9377433747868054e-05, 0.0001719619904179126, -0.04750344529747963, -0.032623786479234695, 0.02434214949607849, 1.0755146831797902e-05, 0.09097304195165634, 0.09190396964550018, -0.0795554369688034, -2.581111948529724e-05], [0.03647448495030403, -0.03792593255639076, -0.08233136683702469, 0.15918615460395813, 0.016089241951704025, -5.0340786401648074e-05, 0.09292927384376526, 0.058083705604076385, 0.05124368146061897, 0.009928368031978607, 4.917384285363369e-05, -0.00028828164795413613, 0.07400938123464584, 0.10527346283197403, -0.03060751222074032, 1.7692676919978112e-05, 0.0871882364153862, 0.17175966501235962, -0.05342816188931465, -3.833031951216981e-05], [-0.05228768661618233, -0.052776698023080826, -0.08853960782289505, 0.23695242404937744, -0.06884508579969406, -2.4039643903961405e-05, 0.10153686255216599, 0.02093641832470894, -0.00021689265850000083, -0.046791594475507736, -0.00016818588483147323, 0.0003341331612318754, -0.03939725086092949, -0.028309892863035202, -0.023524878546595573, 0.00021760471281595528, 0.04215916618704796, 0.18362118303775787, -0.024976123124361038, -0.00011127414472866803], [-0.026014026254415512, 0.07505640387535095, 0.2123991847038269, -0.03383882716298103, -0.2058359682559967, 0.00029355514561757445, -0.10037568211555481, -0.039369918406009674, -0.075680673122406, 0.08770596981048584, -0.0003162412322126329, 0.00035175244556739926, 0.057145409286022186, -0.010182444006204605, -0.0740557387471199, -0.0002506978635210544, -0.16689449548721313, -0.04707229882478714, 0.16353650391101837, 0.00028985089738853276], [-1.939737330758362e-07, 5.534694196285272e-07, 5.552276434173109e-07, -7.075264534250891e-07, -7.467359637303161e-07, 9.413764212595765e-11, -3.859072705836297e-07, -3.2017851481214166e-07, -1.7639182203765813e-07, 5.473374926623364e-07, -9.109622084446656e-11, -1.0563074026581631e-10, 2.894174429002305e-07, 3.5743187964953904e-08, 1.4695623917759804e-07, 1.387733569550853e-12, -3.892721451848047e-07, -7.385548315141932e-07, 3.990418804278306e-07, 8.296348330549819e-11], [-0.06894225627183914, -0.059326399117708206, -0.2636621594429016, 0.34805816411972046, 0.01455992553383112, 5.434177001006901e-05, -0.15938663482666016, 0.16791556775569916, 0.04302477464079857, 0.03389308229088783, 9.254179167328402e-05, -0.0010195885552093387, -0.003850190434604883, -0.001865346566773951, -0.03542691469192505, -0.00010473183647263795, 0.18495093286037445, 0.25734081864356995, -0.2087668925523758, 1.735320438456256e-05], [-0.02824910543859005, -0.13983002305030823, -0.11943674087524414, 0.1742410808801651, 0.04339785873889923, 0.00011000259837601334, 0.02382132224738598, 0.15953472256660461, 0.0689329132437706, -0.0021063543390482664, -7.417474262183532e-05, 0.00014867343998048455, -0.04262380674481392, 0.011715087108314037, -0.01856941357254982, -7.55923319957219e-05, 0.19374488294124603, 0.12385183572769165, -0.17421050369739532, 0.00016396176943089813], [-0.03972860053181648, 0.04217216745018959, 0.10977154225111008, 0.0068046413362026215, 0.07841953635215759, 0.0001054413296515122, 0.005064425058662891, -0.12587788701057434, 0.13341544568538666, -0.06432811915874481, -0.00010520484647713602, 0.00017802719958126545, -0.030558058992028236, 0.0605735257267952, 0.06389185786247253, -6.96375936968252e-05, -0.046750470995903015, -0.003797045210376382, 0.13709098100662231, 6.949545058887452e-05], [-0.01547096949070692, 0.061963923275470734, -0.062222521752119064, -0.07123589515686035, -0.2127983272075653, -0.00012116913421778008, 0.019041523337364197, 0.07234291732311249, 0.12093540281057358, 0.013052809983491898, 0.0001464100059820339, -0.00016454613069072366, 0.07610590010881424, -0.03769483044743538, -0.047429464757442474, -1.4517680028802715e-05, 0.08466172963380814, -0.05221165344119072, -0.05893959477543831, -0.00011906204599654302], [-3.582395606827049e-07, 5.76232309867919e-07, 5.442736892291578e-07, -7.080497539391217e-07, 3.521398639350082e-07, 1.4580021912014018e-10, -5.02238890476292e-07, -4.4238575469535135e-07, 5.289469982017181e-07, -5.743675046687713e-07, 2.603719462257459e-10, -6.132172547523851e-10, 5.245964729283514e-08, -1.6971465299775446e-07, -6.524287528009154e-07, -6.247773409739921e-10, -4.817629815079272e-07, -7.094163265719544e-07, 4.5081287680659443e-07, 3.511224644370259e-10], [-8.252420116150461e-07, 1.7602674233785365e-06, 7.329336426664668e-07, -3.707244786710362e-06, -3.7690979297622107e-06, -4.0656178423859046e-10, -4.459012416191399e-06, -2.6049667667393805e-07, 1.5279612171070767e-06, 1.4839995401416672e-06, 1.3120681208178553e-09, -6.4641416663846485e-09, 4.998210442863638e-06, -1.9976639578089816e-06, -3.246034623316518e-07, -1.3743218785222666e-09, -9.004182857097476e-07, -3.363928726685117e-06, 1.6930088975186663e-07, 2.835925938526884e-10], [-0.03030538745224476, -0.09158901125192642, -0.08291804045438766, 0.02071581780910492, -0.20479261875152588, -9.772361227078363e-05, -0.01702866330742836, 0.18361449241638184, 0.25235429406166077, 0.10337688028812408, 0.00013842414773534983, -6.066148853278719e-05, 0.07663766294717789, 0.005360638257116079, 0.0006842655711807311, -1.5067847016325686e-05, 0.10651789605617523, -0.02716880477964878, -0.2468043565750122, -5.878108640899882e-05], [-0.02008099853992462, 0.011165137402713299, 0.07463549822568893, 0.015091273933649063, -0.016910532489418983, -1.5652451111236587e-05, 0.06262931227684021, -0.017426207661628723, 0.00036804459523409605, -0.06007002294063568, 3.9238428144017234e-05, -7.193274359451607e-05, -0.023908015340566635, 0.026737120002508163, -0.05914302170276642, 3.242875754949637e-05, -0.018034685403108597, -0.013703643344342709, 0.014389214105904102, -2.060585029539652e-05], [0.024907832965254784, -0.1233745664358139, -0.04587078094482422, -0.035226333886384964, -0.06165723130106926, 6.72582132210664e-07, 0.0870724692940712, 0.15126560628414154, 0.14391440153121948, 0.015434382483363152, 7.339603325817734e-05, -0.00029784743674099445, 0.07138242572546005, -0.01208642590790987, -0.00921681523323059, -9.84249054454267e-05, 0.13901712000370026, -0.04829264432191849, -0.1258026361465454, 4.687807449954562e-05], [-5.469393613566353e-07, 1.4140086932457052e-05, 1.61338484758744e-05, -1.594322566234041e-05, -1.5221864941850072e-06, 2.146071320652254e-09, -1.9350077309354674e-06, -1.47757573358831e-05, -1.4500387806037907e-06, 1.8790352669384447e-06, 1.335346166975171e-09, -4.149965704414171e-09, 2.0581549620146689e-07, 1.04595221728232e-06, 1.1219240150239784e-06, -1.0270794881250822e-08, -1.4256396752898581e-05, -1.5188045836111996e-05, 1.5833991710678674e-05, 4.048961610436663e-09], [0.08832550793886185, -0.14074447751045227, -0.12207336723804474, 0.13940882682800293, -0.023488221690058708, 1.2399078514135908e-05, -0.10920359939336777, 0.19844523072242737, -0.014038602821528912, 0.05082988739013672, -5.739782136515714e-05, 0.0006247279234230518, 0.09028228372335434, -0.09578810632228851, -0.1101781502366066, -3.0469191187876277e-05, 0.13906104862689972, 0.15028797090053558, -0.09425211697816849, 4.590629760059528e-05], [0.10639417171478271, -0.10891887545585632, -0.10484904795885086, 0.1851263791322708, 0.001837569521740079, 9.431983198737726e-05, 0.1486959308385849, 0.07408639788627625, -0.016745010390877724, 0.10090375691652298, -8.535433153156191e-05, -0.00021327377180568874, 0.02256910316646099, 0.06772559881210327, 0.027047591283917427, -0.00010285350435879081, 0.09615852683782578, 0.19854521751403809, -0.05192846804857254, 9.447747288504615e-05], [0.02009512111544609, -0.08614247292280197, -0.10728421807289124, 0.1720440536737442, -0.07200607657432556, -6.234850297914818e-05, 0.06916505098342896, 0.04646344110369682, 0.08735067397356033, 0.02333369292318821, -8.200725278584287e-05, 0.00026595740928314626, -0.0018403246067464352, -0.050996556878089905, -0.004980914294719696, 0.00018927799828816205, 0.08683562278747559, 0.1931184083223343, 0.0011263432679697871, -5.723933281842619e-05], [-2.744246785368887e-07, 1.9095364223176148e-06, 2.0081811271666083e-06, -2.2619774426857475e-06, -1.2180439625808503e-06, 3.22394139162796e-10, -7.400503250210022e-07, -1.491116904617229e-06, -2.391057307704614e-07, 8.258784873760305e-07, -7.873375562628127e-11, -4.6486439697623894e-10, 4.730705427391513e-07, 1.4499887868169026e-07, 2.6252996576658916e-07, -7.51619544381299e-10, -1.56044166033098e-06, -2.265846205773414e-06, 1.714321001600183e-06, 4.35199654091889e-10], [0.4245445430278778, -0.09923035651445389, 0.013887831009924412, 0.011446313001215458, 0.01726669818162918, 9.407925244886428e-05, 0.020108191296458244, -0.13244828581809998, 0.011227806098759174, -0.20074796676635742, 1.3365702216106001e-05, -7.691287464695051e-05, 0.06054215878248215, -0.0002346818509977311, 0.11320909857749939, -0.00013173195475246757, 0.08435934036970139, 0.039589036256074905, -0.011362387798726559, 0.00014319975161924958], [0.03957654908299446, 0.06062690541148186, -0.01902647502720356, -0.11931098997592926, 0.0162994172424078, 1.3128391401551198e-05, -0.1606614738702774, -0.17729909718036652, -0.1447436660528183, -0.23213878273963928, -6.369547918438911e-05, 0.00019623935804702342, -0.2933042645454407, -0.033853184431791306, -0.22953321039676666, 0.00011319444456603378, -0.10242217034101486, 0.014557401649653912, 0.2087297886610031, 2.3579066692036577e-05], [-0.12592019140720367, 0.029771838337183, 0.22751547396183014, 0.007149781100451946, -0.0029228865168988705, 0.00023008087009657174, 0.05878116190433502, -0.1696975827217102, -0.01946845091879368, 0.013499251566827297, -0.00046941699110902846, 0.0010272606741636992, -0.09174956381320953, -0.046957433223724365, 0.04314319044351578, 0.0001525932311778888, -0.16713184118270874, -0.13045811653137207, 0.2136211395263672, 0.00010933699377346784], [-0.30806735157966614, 0.007866338826715946, -0.02081333100795746, 0.28822508454322815, -0.08186367899179459, -9.475570550421253e-06, -0.012451612390577793, -0.11393667757511139, -0.08248699456453323, -0.059345975518226624, -0.00019409737433306873, 0.0006480294396169484, -0.07228881120681763, -0.03580562397837639, -0.08898068219423294, 0.0002507671888452023, -0.0720609575510025, 0.03726918622851372, -0.08019760251045227, -9.956143912859261e-05], [0.019007721915841103, 0.04869173467159271, 0.10520218312740326, -0.03518945723772049, 0.32569950819015503, -0.0002532854850869626, 0.04089636355638504, 0.057160984724760056, -0.2143695205450058, -0.8768172264099121, 0.00030825985595583916, -0.0006507234647870064, -0.39905279874801636, -0.19188091158866882, -0.2564569413661957, -2.685201252461411e-05, -0.037348758429288864, 0.18947918713092804, 0.04168916493654251, -0.00037092340062372386], [-0.00016661100380588323, -0.00015937876014504582, -1.0629973075992893e-05, 4.232369610690512e-05, 0.00018058215209748596, -9.078709126697504e-07, 5.44840149814263e-05, -0.00019785309268627316, 0.00023416246403940022, 0.0001807417575037107, 6.108605248300591e-07, 1.0713998790379264e-06, 0.00018261934746988118, 0.00017427180137019604, -0.00011171902588102967, 1.1775232167110516e-07, -0.00013730974751524627, -8.969158079707995e-05, 6.369536276906729e-05, -9.732605121826055e-07], [-0.013232793658971786, -0.015059026889503002, -0.06410007178783417, 0.11894599348306656, -0.07489800453186035, 4.072831507073715e-05, 0.3124464154243469, -0.03865782171487808, -0.07793977111577988, -0.13573192059993744, 5.486632289830595e-06, -0.00014365999959409237, 0.022207921370863914, 0.02605888992547989, 0.0460188202559948, -4.2114646930713207e-05, -0.011089775711297989, -0.03854861482977867, -0.04358534514904022, 6.151062552817166e-05], [0.015295621007680893, -0.03814391419291496, -0.13035179674625397, -0.16568608582019806, -0.11830999702215195, 0.00032837424078024924, -0.3151768147945404, 0.09498041868209839, -0.06162175163626671, -0.07145597040653229, -0.00015393529611174017, -0.00023755215806886554, -0.050363775342702866, 0.06164132431149483, 0.002212304389104247, -0.0003538157616276294, 0.20758841931819916, 0.011471121571958065, 0.04821082949638367, 0.0004266483592800796], [-0.10093976557254791, 0.26089996099472046, 0.0008623955072835088, -0.09595812857151031, 0.0809137225151062, 0.0001207250970765017, -0.09010490775108337, 0.15921837091445923, 0.385608047246933, -0.8455869555473328, -0.0001408159441780299, 0.0005196142010390759, -0.274470716714859, -0.055439215153455734, -0.2622704803943634, -0.0002468657330609858, 0.02578224614262581, -0.0828917995095253, -0.2565367817878723, 0.00013409722305368632], [0.4429870843887329, 0.3169654607772827, -0.237606942653656, -0.17090094089508057, 0.37638458609580994, 0.00011644800542853773, -0.11855607479810715, 0.07562354952096939, 0.19958750903606415, 0.32533109188079834, 0.00012694169708993286, 5.730970224249177e-05, 1.639113187789917, -0.207100510597229, 1.186891794204712, -0.0002968137268908322, 0.14995606243610382, 0.14443150162696838, 0.557292103767395, 0.00028256361838430166], [6.739389209542423e-05, 8.678190351929516e-05, 5.61036285944283e-05, -1.3380755262915045e-05, 0.00011468967568362132, -4.485740703330521e-07, -9.436663094675168e-05, 0.00018888662452809513, -0.00026639632415026426, -9.507965296506882e-05, -8.645882871860522e-07, 9.873989483821788e-07, -0.0004762776370625943, -0.00016406511713285, 5.5387219617841765e-05, 2.831722440532758e-06, 0.00012371661432553083, 4.2674153519328684e-05, -0.00013806992501486093, -1.0812999562404002e-06], [-0.00019674304348882288, 2.3683101971982978e-05, -0.00012349346070550382, 7.479920168407261e-05, -0.00034205123665742576, 1.8093672338181932e-08, 8.473323396174237e-05, -9.879854042083025e-05, -0.00039658960304223, -0.00026366059319116175, 1.5189154964900808e-06, -5.197408427193295e-06, 0.00028169091092422605, -0.00028546727844513953, 0.0001017610848066397, -6.191374723130139e-06, -0.00011525691661518067, -1.9227745724492706e-06, 0.00014230460510589182, 1.5583680124109378e-06], [0.40526995062828064, 0.39752310514450073, -0.43217340111732483, -0.16830676794052124, 0.1008223220705986, -5.033262277720496e-05, -0.08946731686592102, 0.3435123860836029, 0.06892967224121094, 0.20339979231357574, 7.656975503778085e-05, 0.00040187002741731703, 0.08605346828699112, -0.9731873869895935, -0.08907216042280197, 4.317100683692843e-05, 0.07869083434343338, 0.10834307223558426, 0.22360828518867493, -2.087793473037891e-05], [-0.14825622737407684, 0.15535561740398407, 0.2007380574941635, 0.1529175490140915, 0.11642833799123764, -0.00022010799148119986, 0.14339467883110046, -0.09268610179424286, -0.0071829454973340034, -0.23072874546051025, 0.00023990432964637876, 6.151625484562828e-07, 0.7712537050247192, -0.02274727262556553, 0.4972553551197052, 0.00020017102360725403, -0.15573304891586304, 0.0024025817401707172, -0.40145379304885864, -0.00026745113427750766], [0.2751752436161041, 0.2896675765514374, 0.039306893944740295, -0.07973179221153259, 0.1817297488451004, -0.0003183112130500376, -0.13353507220745087, 0.1906314343214035, 0.10061059147119522, -0.20127907395362854, 1.2558735761558637e-05, 7.457903120666742e-05, 0.8436163067817688, 0.38088637590408325, 0.8944978713989258, 0.00048368010902777314, 0.2111169546842575, 0.2652837038040161, 0.48999857902526855, -0.0005166177870705724], [0.00016442532069049776, 0.00020129611948505044, 0.00012231462460476905, -0.00016148720169439912, -0.00030317623168230057, 6.587648840650218e-06, -3.9942660805536434e-05, 2.927697823906783e-05, -0.00018654810264706612, -0.00021297387138474733, 1.985853032238083e-06, -8.158755917975213e-06, 2.3131025955080986e-05, -1.954350773303304e-05, 0.00010484008089406416, -1.8893320884671994e-05, 4.916443685942795e-06, 3.086269134655595e-05, 0.00013127445708960295, 1.0253825166728348e-05], [0.08831580728292465, 0.05391658842563629, -0.11962305009365082, -0.10545708239078522, 0.06017320230603218, 0.0001716414699330926, -0.3737387955188751, -0.008861149661242962, 0.048351388424634933, -0.1281607747077942, -0.0004168896994087845, 0.0006114064599387348, 0.1439959704875946, 0.18700188398361206, 0.09829358756542206, 7.562222208434832e-07, 0.08150715380907059, 0.034647196531295776, -0.14894379675388336, -7.78443063609302e-06], [0.41513359546661377, 0.037619080394506454, -0.04316381737589836, 0.023456798866391182, 0.10827267169952393, 0.00025329578784294426, 0.1497967541217804, 0.03411440923810005, 0.055595628917217255, 0.08762349933385849, -0.00017186671902891248, -0.0001545323757454753, 0.0453190803527832, 0.04970330372452736, 0.010708761401474476, -0.0002282025379827246, 0.05895009636878967, 0.2320968210697174, 0.14372877776622772, 0.00038078316720202565], [0.48217880725860596, -0.20162241160869598, 0.05290636420249939, -0.2342567890882492, -0.07965697348117828, 7.095031469361857e-05, 0.2328561395406723, -0.23846888542175293, 0.007408779580146074, 0.02691023238003254, 0.00012266433623153716, -0.0004903957014903426, -0.16771627962589264, 0.3410159647464752, -0.15918047726154327, -0.00023921950196381658, -0.047749925404787064, 0.1450595259666443, 0.005306675098836422, 0.00011959132098127156], [-0.00012127165973652154, -0.00018051215738523751, -3.485484921839088e-05, 6.309534364845604e-05, 0.00033929524943232536, -2.140830474672839e-06, -9.46312411542749e-06, -0.0002012765035033226, 0.00016058841720223427, 0.00021723387180827558, 3.966889607909252e-07, 2.8259655664442107e-06, 0.00014294298307504505, 0.00013069577107671648, -0.00013048019900452346, 3.3797193736972986e-06, -0.00011521677515702322, -0.0001166296933661215, 3.547128289937973e-05, -2.7974256227025762e-06], [0.05228756368160248, -0.05749061703681946, -0.045502159744501114, 0.10871173441410065, 0.04038597643375397, 7.246087079693098e-06, 0.11916845291852951, 0.04645906761288643, -0.09526544064283371, 0.05836585909128189, 2.4449656848446466e-05, 0.0001726777700241655, -0.018798820674419403, 0.028811972588300705, 0.03209960460662842, -0.00016513900482095778, 0.08767169713973999, 0.08697133511304855, 0.0028749490156769753, 4.845702278544195e-05], [0.008706423453986645, -0.09325902909040451, -0.11921537667512894, 0.18847505748271942, 0.18360386788845062, 1.57318681885954e-05, 0.11025557667016983, 0.06031828001141548, 0.06429613381624222, -0.03200826793909073, -3.8057238270994276e-05, 0.0002376640768488869, -0.018398337066173553, 0.02794928289949894, -0.015624300576746464, 5.003389105695533e-06, 0.09070946276187897, 0.1850310117006302, -0.09569600224494934, 1.5625331798219122e-05], [0.056601472198963165, -0.13961459696292877, -0.18045182526111603, 0.20604760944843292, 0.06141023337841034, 2.8631773602683097e-05, 0.06002094969153404, 0.11128055304288864, 0.0184502974152565, 0.10120460391044617, -5.6430922995787114e-05, -4.3678624933818355e-05, -0.030754508450627327, 0.033512577414512634, -0.007728376425802708, 5.425576091511175e-06, 0.14201128482818604, 0.21122929453849792, -0.08340003341436386, 2.8229105737409554e-05], [-0.02652958780527115, -0.10555729269981384, -0.12437964975833893, 0.2579821050167084, 0.06374906748533249, -1.4045990610611625e-05, 0.11427570134401321, 0.11805275827646255, 0.01022414118051529, 0.036086853593587875, -9.32626353460364e-05, 9.583730570739135e-05, 0.0012901114532724023, -0.002520699519664049, 0.04153332859277725, 0.00012793690257240087, 0.11765233427286148, 0.19145002961158752, -0.12161492556333542, -6.272399332374334e-05], [0.03751777112483978, -0.02514760009944439, -0.008875489234924316, 0.14292852580547333, -0.02425963059067726, 0.00021883417502976954, 0.04728680104017258, 0.015277393162250519, -0.15537790954113007, -0.01708396151661873, -0.0002594033721834421, 0.00033370955497957766, -0.0036318479105830193, -0.03305923193693161, -0.09352370351552963, -0.00014806207036599517, -0.0676141157746315, 0.1518079936504364, 0.07712815701961517, 0.00020651641534641385], [-1.7810347685554007e-07, 6.081983769945509e-07, 6.206403213582234e-07, -7.728717719146516e-07, -7.084128128553857e-07, 9.377658372056175e-11, -3.6074933973395673e-07, -3.849733616334561e-07, -1.5011156051514263e-07, 4.948367973156564e-07, -9.449695886898368e-11, -1.0207434897324674e-10, 2.9929552169960516e-07, 4.474642523177863e-08, 1.204501813845127e-07, 1.4172150432367747e-11, -4.5498296685764217e-07, -7.946017035465047e-07, 4.716296757578675e-07, 7.964697651408059e-11], [-0.026614420115947723, -0.0750349760055542, -0.08725059032440186, 0.16676795482635498, 0.07401782274246216, 0.00011694186105160043, -0.010435463860630989, 0.08443605154752731, 0.09035288542509079, 0.01871524378657341, -0.0001148614683188498, -6.664398097200319e-05, -0.0010009851539507508, 0.025737691670656204, 0.020660221576690674, -6.979618774494156e-05, 0.09637391567230225, 0.102107472717762, -0.1253112107515335, 0.00010693104559322819], [0.024036115035414696, -0.11437281966209412, -0.1868583709001541, 0.1969674825668335, -0.0038822407368570566, -2.8489237593021244e-05, 0.03159298747777939, 0.1537165492773056, 0.019091835245490074, 0.00315260561183095, 2.4851851776475087e-05, -4.218890899210237e-05, -0.050808750092983246, -0.013828175142407417, -0.022520503029227257, 7.053974059090251e-06, 0.14429397881031036, 0.16761033236980438, -0.14921747148036957, -6.84936230754829e-06], [-0.034231413155794144, -0.04725398123264313, -1.6988655261229724e-05, 0.12100483477115631, 0.15156826376914978, 0.00014388086856342852, 0.054593563079833984, -0.1021374762058258, -0.014347486197948456, -0.09223341941833496, -0.0001490493305027485, 0.00021280563669279218, -0.06454683840274811, 0.05409478768706322, 0.039323221892118454, -8.151045767590404e-05, -0.02885223925113678, 0.11530634760856628, 0.06960306316614151, 0.00011095940135419369], [0.051076050847768784, -0.1738792210817337, -0.13350731134414673, 0.3082599341869354, -0.01854182966053486, 6.85768827679567e-05, 0.09267129749059677, 0.16841720044612885, -0.001780028105713427, 0.0010970415314659476, -6.860004214104265e-05, 3.857881893054582e-05, 0.010929504409432411, -0.0005527777830138803, -0.013874489814043045, -7.692236977163702e-05, 0.14484348893165588, 0.32350242137908936, -0.05807289853692055, 4.743434692500159e-05], [-3.556680212568608e-07, 6.003219255035219e-07, 6.05974321388203e-07, -7.199282663350459e-07, 3.5746427329286234e-07, 1.5946687026424655e-10, -4.5790449121341226e-07, -5.328010388438997e-07, 4.78004324122594e-07, -5.243746272753924e-07, 2.580881341973651e-10, -6.032280230883202e-10, 6.285073794742857e-09, -1.5745236225939152e-07, -6.091402156016557e-07, -6.496650994947117e-10, -5.507974378815561e-07, -7.17937382432865e-07, 5.247180752121494e-07, 3.673288895278404e-10], [-8.396065140914288e-07, 1.7775685137166874e-06, 7.656254865651135e-07, -3.7543416055996204e-06, -3.721755319929798e-06, -3.7565947574869085e-10, -4.376664946903475e-06, -3.609256111758441e-07, 1.5734073031126172e-06, 1.4550428204529453e-06, 1.274656602490154e-09, -6.3590737120478025e-09, 4.999940756533761e-06, -2.0438837964320555e-06, -4.2207756223433535e-07, -1.361009083211684e-09, -9.819279966905015e-07, -3.3955948310904205e-06, 2.2473481919860205e-07, 3.08209929800185e-10], [-0.026833979412913322, -0.3244342803955078, -0.33503612875938416, 0.28001612424850464, -0.09857509285211563, -3.6456158341025002e-06, 0.020180583000183105, 0.2530977427959442, 0.0041102999821305275, 0.12958259880542755, 4.188040838926099e-05, 5.04350373375928e-06, 0.025442345067858696, 0.029062420129776, 0.05546706169843674, -0.00011001067468896508, 0.26947730779647827, 0.21544542908668518, -0.43120279908180237, 3.5431621654424816e-05], [0.019276538863778114, -0.12475874274969101, -0.16408753395080566, 0.22242730855941772, 0.008916869759559631, -3.33503594447393e-05, 0.10373138636350632, 0.0990995541214943, -0.03566019609570503, -0.02387350983917713, 3.780535553232767e-05, -2.1242805814836174e-05, -0.04596184194087982, 0.0031493762508034706, 0.005505905486643314, 5.203060936764814e-05, 0.11506000906229019, 0.2056465744972229, -0.11225637793540955, -3.974179708166048e-05], [0.01492894534021616, -0.2306450456380844, -0.31367337703704834, 0.22132855653762817, -0.017145175486803055, -4.2112635128432885e-05, 0.031330373138189316, 0.28829190135002136, -0.018998734652996063, -0.043859876692295074, 2.8453509003156796e-05, -6.868159834994003e-05, 0.012444155290722847, 0.004765394143760204, 0.029793260619044304, 2.935212614829652e-05, 0.2858778238296509, 0.18234553933143616, -0.33673128485679626, -3.550932524376549e-05], [-5.644008069793927e-07, 1.4174753232509829e-05, 1.6190284441108815e-05, -1.6013629647204652e-05, -1.393904994984041e-06, 2.1408010919543585e-09, -1.932680106619955e-06, -1.4828367056907155e-05, -1.4384585256266291e-06, 1.6526820445506019e-06, 1.3246030938773856e-09, -4.084895088851681e-09, 2.5751492671588494e-07, 1.1089705367339775e-06, 1.026171389639785e-06, -1.0238923486838303e-08, -1.4325074516818859e-05, -1.525980042060837e-05, 1.5883710148045793e-05, 4.038504641812324e-09], [0.04926970973610878, -0.1392568051815033, -0.15977095067501068, 0.17067231237888336, -0.006687153596431017, 4.952138988301158e-05, 0.030764609575271606, 0.15672537684440613, -0.05491173639893532, 0.10433733463287354, -2.9978968086652458e-05, 4.240799171384424e-05, 0.06705010682344437, 0.00035556129296310246, -0.030418720096349716, -3.6673944123322144e-05, 0.14903880655765533, 0.17765799164772034, -0.11018679291009903, 5.655579661834054e-05], [0.055223822593688965, -0.11136502027511597, -0.14933256804943085, 0.2053055763244629, 0.02009318396449089, 4.9303725973004475e-05, 0.0714847519993782, 0.11841943114995956, -0.07059593498706818, -0.012972152791917324, -3.861605728161521e-05, -9.162592323264107e-05, -0.031487490981817245, 0.015398083254694939, -0.011655880138278008, -7.642198033863679e-05, 0.13560131192207336, 0.2426099181175232, -0.07904697209596634, 4.811449252883904e-05], [0.058412179350852966, -0.1173805296421051, -0.1639784872531891, 0.21878787875175476, 0.054239362478256226, 5.088301804789808e-06, 0.12014593929052353, 0.07580368220806122, 0.044443145394325256, -0.1615375131368637, -8.328801050083712e-05, 3.302165350760333e-05, -0.12045451253652573, -0.040591660887002945, 0.07188993692398071, 3.77525866497308e-05, 0.08397337794303894, 0.2569218575954437, -0.06073271483182907, -1.1504318536026403e-05], [-2.5468912667747645e-07, 2.0263780697860057e-06, 2.1400883269961923e-06, -2.4166399725800147e-06, -1.1243412245676154e-06, 3.210378629603383e-10, -7.18597732429771e-07, -1.60137949478667e-06, -1.5978385192738642e-07, 6.871638333905139e-07, -8.157774455952449e-11, -4.681012799601092e-10, 5.020918365516991e-07, 1.6989019968605135e-07, 1.948982486510431e-07, -7.357950915221068e-10, -1.6798293245301466e-06, -2.404835640845704e-06, 1.841863422669121e-06, 4.312427914765493e-10]], "rec.bias_ih_l0": [-0.3033633530139923, 0.18859636783599854, 0.15198500454425812, 0.1653027981519699, 0.2959136366844177, -9.772061275725719e-07, -0.005255615804344416, 0.1415288746356964, 0.26514095067977905, 0.453067421913147, -8.591855475970078e-07, -5.255435553408461e-06, 0.27914923429489136, 0.2886732518672943, 0.24187612533569336, -1.8964970877277665e-05, 0.11516273021697998, 0.17061230540275574, 0.2643340826034546, -2.981380248456844e-06, 0.9315990805625916, 0.1515968143939972, 0.27339836955070496, 0.36624762415885925, 0.04305636137723923, -9.078179346033721e-07, 0.45406362414360046, 0.23543106019496918, 0.06591533869504929, -0.1389472931623459, -8.645978368804208e-07, -5.1991255531902425e-06, -0.034316327422857285, 0.049226369708776474, -0.09276514500379562, -1.889286795631051e-05, 0.20904244482517242, 0.3232792019844055, 0.29465818405151367, -2.7974494969384978e-06, 0.02769888937473297, -0.09300697594881058, -0.004014812875539064, 0.156995952129364, 0.08659124374389648, 5.739885091315955e-05, 0.24928441643714905, -0.005213849246501923, -0.07426667213439941, 0.08699164539575577, -8.235777931986377e-05, 0.00018316593195777386, -0.1360742151737213, 0.11237189918756485, 0.17607542872428894, -0.00012847944162786007, 0.06569689512252808, 0.128950297832489, 0.03883446380496025, 5.091664570500143e-05, 0.3602544069290161, 0.2748582661151886, 0.30703407526016235, 0.3716491460800171, 0.26209214329719543, -9.817849786486477e-07, 0.20417337119579315, 0.26476821303367615, 0.19322074949741364, 0.47751638293266296, -8.587200568399567e-07, -5.267578217171831e-06, 0.2581165134906769, 0.3081691861152649, 0.20709359645843506, -1.899119160952978e-05, 0.23204760253429413, 0.3566320538520813, 0.35603320598602295, -2.9926195566076785e-06], "rec.bias_hh_l0": [-0.3033013343811035, 0.18859636783599854, 0.15198500454425812, 0.1653027981519699, 0.2959136366844177, -9.772061275725719e-07, -0.005255615804344416, 0.1415288746356964, 0.26514095067977905, 0.453067421913147, -8.591855475970078e-07, -5.255435553408461e-06, 0.27914923429489136, 0.2886732518672943, 0.24187612533569336, -1.8964970877277665e-05, 0.11516273021697998, 0.17061230540275574, 0.2643340826034546, -2.981380248456844e-06, 0.9315990805625916, 0.1515968143939972, 0.27339836955070496, 0.36624762415885925, 0.04305649548768997, -9.078179346033721e-07, 0.45406436920166016, 0.23543106019496918, 0.06591533869504929, -0.1389472931623459, -8.645978368804208e-07, -5.1991255531902425e-06, -0.034316327422857285, 0.049226369708776474, -0.09276514500379562, -1.889286795631051e-05, 0.20904244482517242, 0.3232792019844055, 0.29465818405151367, -2.7974494969384978e-06, -0.09545630216598511, -0.09303469955921173, -0.004014812875539064, 0.1569978892803192, 0.09156299382448196, 5.739885091315955e-05, 0.2487907111644745, -0.005184093024581671, -0.07336868345737457, 0.09527583420276642, -8.235777931986377e-05, 0.00018316593195777386, -0.14550279080867767, 0.09874145686626434, 0.17303745448589325, -0.00012847944162786007, 0.0658075213432312, 0.12893475592136383, 0.03723689913749695, 5.091664570500143e-05, 0.3602544069290161, 0.2748582661151886, 0.30703407526016235, 0.3716491460800171, 0.26209115982055664, -9.817849786486477e-07, 0.20417337119579315, 0.26476821303367615, 0.19322015345096588, 0.47751638293266296, -8.587200568399567e-07, -5.267578217171831e-06, 0.2581165134906769, 0.3081691861152649, 0.20709359645843506, -1.899119160952978e-05, 0.23204760253429413, 0.3566320538520813, 0.35603320598602295, -2.9926195566076785e-06], "lin.weight": [[-0.23560872673988342, -0.2844683527946472, -0.03978994861245155, 0.21143528819084167, -0.3391586244106293, 0.0004042770597152412, 0.08737841248512268, -0.32568517327308655, -0.15478254854679108, -1.25336492061615, -0.00019474807777442038, 4.863052527070977e-05, 0.3161773681640625, 0.4091363847255707, 0.5739292502403259, -0.00035926830605603755, -0.06703457236289978, -0.24962851405143738, -0.22199082374572754, 0.0005379314534366131]], "lin.bias": [-0.05580878630280495]}}