{"model_data": {"model": "SimpleRNN", "input_size": 2, "skip": 1, "output_size": 1, "unit_type": "LSTM", "num_layers": 1, "hidden_size": 20, "bias_fl": true}, "state_dict": {"rec.weight_ih_l0": [[0.06726454198360443, -0.5648537874221802], [0.0425320565700531, 0.0936451405286789], [-0.012944781221449375, 0.06210199370980263], [0.02735884301364422, 0.05324028804898262], [-0.01970466785132885, 0.117051862180233], [-3.218419237782655e-07, -2.3790232717146864e-07], [0.011542780324816704, -0.10944921523332596], [0.035326141864061356, 0.1240711584687233], [0.028340421617031097, 0.09881335496902466], [0.016323771327733994, 0.30155402421951294], [-2.2142984335005167e-07, -1.7978710786792362e-07], [-1.9269843676283926e-07, -3.3371807717230695e-07], [-0.09326772391796112, 0.34832921624183655], [0.014365349896252155, 0.1899515688419342], [0.02969004213809967, 0.3302271366119385], [-2.8196234325150726e-07, -2.4994324121507816e-07], [0.02990380860865116, 0.07530443370342255], [-0.007144985254853964, 0.07140378654003143], [0.03216695785522461, 0.15940167009830475], [-2.0439944137251587e-07, -2.001599597178938e-07], [0.0620853565633297, 0.4465879797935486], [0.08077359944581985, 0.10305928438901901], [-0.02815299853682518, 0.12968292832374573], [0.04234173521399498, 0.1655234545469284], [-0.019846998155117035, -0.09861823916435242], [-3.22716658729405e-07, -2.8611060542971245e-07], [0.012884926050901413, 0.30343636870384216], [0.04009969159960747, 0.2369939386844635], [-1.6781744989202707e-06, -0.09469973295927048], [-0.030218198895454407, -0.048776596784591675], [-2.1579340625521581e-07, -1.8360944409323565e-07], [-1.9915779603252304e-07, -3.50237911561635e-07], [-0.04191157594323158, 0.11523411422967911], [0.007792321499437094, -0.03525898978114128], [0.008174492977559566, 0.06081567332148552], [-2.8650958938669646e-07, -2.8239784910510934e-07], [0.07659348845481873, 0.20159736275672913], [-0.004578512627631426, 0.14150184392929077], [0.05789928883314133, 0.21544870734214783], [-2.0338177364465082e-07, -2.070760984906883e-07], [0.22964245080947876, 0.0015485115582123399], [0.3677176237106323, -0.07144101709127426], [-0.1813054233789444, -0.28385454416275024], [-0.1761341243982315, 0.15683485567569733], [-0.0681457370519638, -0.11335089057683945], [3.967985321651213e-05, 4.0139650081982836e-05], [0.05700356140732765, -0.6250283718109131], [0.290086567401886, 0.29387402534484863], [0.05096154659986496, 0.09517239779233932], [-1.6456291675567627, 0.0674518272280693], [-3.7782014260301366e-05, -4.9152593419421464e-05], [-0.00018536935385782272, -3.40214028256014e-05], [-1.510671615600586, 0.07386540621519089], [-0.07050500065088272, -0.25201672315597534], [-0.9570007920265198, -0.18811561167240143], [-0.0001433136931154877, -5.072902422398329e-05], [0.02124605141580105, 0.23543605208396912], [0.1987980604171753, 0.07958269864320755], [0.3725508153438568, -0.4814576506614685], [8.474870992358774e-05, 6.579312321264297e-05], [0.031181342899799347, 0.040844257920980453], [0.11420069634914398, 0.17144843935966492], [-0.02499687299132347, 0.2088487297296524], [-0.00031345742172561586, 0.2033311277627945], [0.0003483107138890773, 0.08109071105718613], [-3.7947333453303145e-07, -2.3883637823018944e-07], [-0.04367320239543915, 0.12859632074832916], [0.02335125021636486, 0.2376638501882553], [0.00028797320555895567, 0.0039766873233020306], [0.0015342668630182743, 0.17039884626865387], [-2.3640929214252537e-07, -1.8112584143636923e-07], [-2.0964503733011952e-07, -3.3516255371068837e-07], [-0.11698942631483078, 0.38353174924850464], [0.015070110559463501, 0.20575417578220367], [0.05173584073781967, 0.3483675420284271], [-3.1121589927352034e-07, -2.5165999772980285e-07], [-0.008510133251547813, 0.20303165912628174], [0.01706581935286522, 0.19310195744037628], [0.12774649262428284, 0.21209079027175903], [-2.134749905735589e-07, -2.0132392819505185e-07]], "rec.weight_hh_l0": [[0.0610831044614315, 0.22552290558815002, 0.3976999521255493, -0.45980843901634216, -0.4123358726501465, -0.00016824051272124052, 0.005890417378395796, -0.2944129407405853, 0.3444726765155792, -0.1062469407916069, -8.648051880300045e-05, -6.614111771341413e-05, -0.008773949928581715, -0.04981808364391327, 0.051151346415281296, -7.829269452486187e-05, -0.2711866497993469, -0.5809906125068665, 0.4448395073413849, 0.00012904645700473338], [0.013309995643794537, -0.01679430715739727, -0.05293674394488335, 0.11708606779575348, 0.10279422253370285, -6.249583293538308e-06, 0.09424296766519547, 0.03772452473640442, 0.05024836212396622, -0.04846944287419319, -2.4850645786500536e-05, -1.2430105925886892e-05, -0.042052172124385834, -0.01094549149274826, -0.004980788566172123, -1.2486629202612676e-05, 0.042271874845027924, 0.11839674413204193, -0.028770945966243744, 2.526617572584655e-05], [0.025117650628089905, -0.018980443477630615, -0.03491578996181488, 0.08165232837200165, 0.005789641290903091, -3.9447564631700516e-05, 0.054736822843551636, 0.024761969223618507, 0.0213858000934124, 0.017750082537531853, 4.612574775819667e-05, 4.369000453152694e-05, 0.0333101786673069, 0.04948388412594795, -0.01045619323849678, 5.222290565143339e-05, 0.03811023384332657, 0.09490695595741272, -0.01406277809292078, -5.141391375218518e-05], [-0.030025510117411613, -0.00318332202732563, -0.016374021768569946, 0.095770463347435, -0.034157197922468185, 5.708332537324168e-06, 0.047066159546375275, -0.0006859058630652726, 0.0272507481276989, -0.0401168018579483, -2.548895099607762e-05, -1.7445361663703807e-05, -0.025451306253671646, -0.003062537405639887, -0.0042351009324193, -2.3769134713802487e-05, 0.010463373735547066, 0.06963957846164703, 0.006226120050996542, 1.8885128156398423e-05], [0.018105218186974525, -0.06772899627685547, -0.01780017465353012, 0.17586292326450348, -0.06039011478424072, 0.00015250931028276682, 0.033048950135707855, 0.011132516898214817, -0.17825552821159363, 0.061167821288108826, -0.00010946090333163738, -9.802269778447226e-05, -0.017183713614940643, -0.011666586622595787, -0.022986814379692078, -0.00010261912393616512, -0.03459952399134636, 0.18024493753910065, 0.04048378765583038, 7.859677862143144e-05], [-4.880920201344452e-08, 1.5819834686681133e-07, 3.6496373923000647e-07, -1.794372792573995e-07, -6.049127136975585e-07, -1.0657945359593413e-10, -2.010951476449918e-07, -3.503566574636352e-07, -4.998152576263237e-07, 7.93977164903481e-07, 2.705563724447746e-11, 3.289913133586175e-11, 4.627946452728793e-07, 1.4978486717609485e-07, 2.8298498477852263e-07, 4.5372872126137054e-11, -3.8155823745000816e-07, -2.060814523474619e-07, 2.8462127943384985e-07, -1.5161817981668158e-11], [-0.06335519999265671, 0.1768898367881775, 0.08590942621231079, -0.022768506780266762, -0.026512617245316505, 0.00011444274423411116, -0.10716894268989563, -0.1361960470676422, 0.005393404047936201, 0.06551933288574219, -0.00012851149949710816, -0.00013204124115873128, 0.0037420636508613825, 0.0020747333765029907, -0.04159175604581833, -0.00013720135029871017, -0.11182621121406555, -0.08313398063182831, 0.11238720268011093, 0.00011613011156441644], [-0.013253863900899887, -0.05006137117743492, -0.07152476906776428, 0.10120952874422073, 0.03417636454105377, -1.7583684893907048e-05, 0.026939768344163895, 0.0561169795691967, 0.0531499944627285, -0.02678135223686695, 1.4741824088559952e-05, -5.1888760026486125e-06, -0.04053449630737305, -0.006109908223152161, -0.01837097853422165, -5.373962267185561e-06, 0.07222351431846619, 0.07685507088899612, -0.06355822831392288, -2.9398975129879545e-06], [-0.0060288975946605206, -0.05621318891644478, -0.06753150373697281, 0.17796827852725983, 0.12620526552200317, 2.207719262514729e-06, 0.07428187876939774, -0.024697866290807724, 0.007622980512678623, -0.12650340795516968, 2.186007986892946e-05, 5.460790634970181e-05, -0.07557056844234467, 0.020674720406532288, 0.01779593899846077, 5.557728945859708e-05, 0.030773447826504707, 0.16419588029384613, 0.02360447123646736, -5.079332186141983e-05], [0.04168446734547615, -0.24656037986278534, -0.277514785528183, 0.3389888405799866, -0.009890394285321236, -7.441018533427268e-05, 0.10229954123497009, 0.29532256722450256, 0.02244296297430992, -0.036468688398599625, 2.8460230169002898e-05, 2.36040104937274e-05, 0.027720898389816284, 0.00877066608518362, -0.012694965116679668, 3.937416840926744e-05, 0.26986223459243774, 0.32485562562942505, -0.23394088447093964, -2.1619529434246942e-05], [-1.8003953528022976e-07, 8.114972871453574e-08, 2.2835322965875093e-07, -2.065768995862527e-07, -2.484974004346441e-07, -5.650702128434659e-11, -2.59800202684346e-07, -1.6580270312260836e-07, -2.563356531481986e-07, 3.9262590689759236e-07, 8.256544753448836e-12, 1.329573083574953e-11, 1.2706004781648517e-07, 1.3383014163537155e-07, 2.0901060793221404e-07, 1.7814791308801148e-11, -1.5266778063960373e-07, -2.401816345809493e-07, 6.120993845115663e-08, 1.1323754434133804e-11], [-1.2463162590847787e-07, 1.4561967986992386e-07, 3.1467905614590563e-07, -2.7494908749758906e-07, -2.2056607917875226e-07, -1.0089847013450282e-10, -2.233963272146866e-07, -2.0666669797719806e-07, -2.3319974218338757e-07, 3.9995671841097646e-07, 2.702399762299912e-11, 3.9780512217646447e-11, 1.1916902309394573e-07, 1.2113189029605564e-07, 2.5679895543362363e-07, 4.586836119258031e-11, -1.9148903618315671e-07, -2.980332851620915e-07, 1.623391057137269e-07, -2.430230712849313e-12], [-0.006811066064983606, -0.29059356451034546, -0.3022213876247406, 0.26582038402557373, -0.08347263187170029, -6.0665370256174356e-05, 0.023512553423643112, 0.257911741733551, 0.007553921081125736, 0.09379222244024277, 2.992162808368448e-05, 4.1127113945549354e-05, 0.03362034633755684, 0.017885785549879074, 0.04717894271016121, 4.674896626966074e-05, 0.2570883333683014, 0.22343941032886505, -0.36962053179740906, -1.9735569367185235e-05], [0.018659165129065514, -0.11960840225219727, -0.15136662125587463, 0.2084655910730362, 0.006193778943270445, 1.3656538612849545e-05, 0.1008010059595108, 0.09057506173849106, -0.035589348524808884, -0.009305370971560478, -5.564741059060907e-06, 3.086478045588592e-06, -0.047248438000679016, 0.0029065413400530815, 0.007630419451743364, 1.8528743339629727e-06, 0.10648209601640701, 0.19232535362243652, -0.10438192635774612, 1.0914733366007567e-06], [0.012919996865093708, -0.25086551904678345, -0.2728337049484253, 0.232644721865654, 0.015978489071130753, 5.808653077110648e-05, 0.007963554002344608, 0.27735158801078796, 0.023176154121756554, -0.057781659066677094, -2.071207381959539e-05, -2.398850119789131e-05, 0.007895050570368767, 0.002336817095056176, 0.0037405050825327635, -3.327158628962934e-05, 0.27781060338020325, 0.19821511209011078, -0.3129578232765198, 1.6644866263959557e-05], [-1.4043584428691247e-07, 7.733775930773845e-08, 2.496074102964485e-07, -1.7905708205034898e-07, -2.9553629588008334e-07, -9.915156196083075e-11, -1.8442943883201224e-07, -2.2791800802224316e-07, -4.194430403003935e-07, 5.822116690978874e-07, 2.8457805556492133e-11, 3.8960234344243005e-11, 1.254899899549855e-07, 1.7586310718797904e-07, 3.9216055824908835e-07, 4.2932629673586575e-11, -1.9451485400168167e-07, -1.961021638408056e-07, 1.498778345876417e-07, -3.967824332984371e-12], [0.05185737460851669, -0.06100369989871979, -0.04498925805091858, 0.06816280633211136, -0.03156355023384094, -3.378417022759095e-05, -0.030128587037324905, 0.05696216598153114, -0.04168608412146568, 0.06650727242231369, 6.084624328650534e-05, 4.186180740362033e-05, 0.03804222494363785, -0.03317840024828911, -0.018270334228873253, 3.004679092555307e-05, 0.04004746302962303, 0.08022481948137283, -0.008361239917576313, -5.138502820045687e-05], [0.045939769595861435, -0.054605334997177124, -0.046560026705265045, 0.09118027985095978, 0.006035157013684511, 1.4797484254813753e-05, 0.07980330288410187, 0.02732033282518387, 0.015203808434307575, 0.030891742557287216, -7.841403566999361e-05, -0.00010519162606215104, 0.0026660352014005184, 0.03210189566016197, 0.009041547775268555, -0.00011021867248928174, 0.04207678139209747, 0.0986834242939949, -0.020681995898485184, 0.0001140427848440595], [0.04718063026666641, -0.08230790495872498, -0.13048075139522552, 0.1661299467086792, 0.005438956897705793, 4.2760337237268686e-05, 0.10866416990756989, 0.02924087643623352, 0.026600686833262444, -0.0026301629841327667, -8.485460421070457e-05, -7.830488902982324e-05, -0.034462787210941315, -0.032195694744586945, 0.010666036047041416, -0.00010170911264140159, 0.052587755024433136, 0.1837334930896759, -0.009008281864225864, 0.0001056270266417414], [-1.9513780102897726e-07, 8.242451343676294e-08, 1.8974661486481637e-07, -2.3287846317998628e-07, -2.191669068452029e-07, -6.341315667013347e-11, -3.2308238928635546e-07, -9.992987060059022e-08, -1.261728499457604e-07, 3.0587258947889495e-07, -1.6518167042511855e-11, -6.548419358848312e-12, 1.5629520078164205e-07, 1.1724122828127292e-07, 1.4599328324038652e-07, -1.6677591382560641e-12, -8.418041375080065e-08, -2.771139122614841e-07, 4.996084879138607e-09, 4.379237597551544e-11], [0.06806441396474838, -0.30046266317367554, -0.4287826716899872, 0.394095778465271, 0.267753928899765, 9.500061423750594e-05, 0.008248341269791126, 0.3628466725349426, -0.19401131570339203, 0.008589401841163635, -0.0002532400540076196, -0.0003553226124495268, -0.02806282229721546, -0.026677312329411507, 0.04901467263698578, -0.00039455402293242514, 0.4716976284980774, 0.2631191611289978, -0.3630368113517761, 0.00044042745139449835], [-0.009600231423974037, -0.021565591916441917, -0.051433030515909195, 0.08573706448078156, 0.095218725502491, 1.3529983334592544e-05, 0.05137701332569122, 0.12342695146799088, 0.14181213080883026, -0.047091685235500336, -4.6063691115705296e-05, -4.405295476317406e-05, -0.04758015275001526, -0.03260321170091629, 0.02445550635457039, -4.1080591472564265e-05, 0.09098329395055771, 0.09199927747249603, -0.0796024426817894, 5.522562059923075e-05], [0.03688694164156914, -0.03787151724100113, -0.08219461888074875, 0.15914182364940643, 0.016329733654856682, -9.869082714430988e-05, 0.09306269139051437, 0.057940542697906494, 0.051129210740327835, 0.009852930903434753, 0.00011249029921600595, 0.00011962460121139884, 0.07440250366926193, 0.10471629351377487, -0.030957119539380074, 0.0001300377625739202, 0.08692522346973419, 0.17172962427139282, -0.05307036638259888, -0.00013094251335132867], [-0.052040718495845795, -0.0526583194732666, -0.08845115453004837, 0.23695780336856842, -0.06868641078472137, 9.790455078473315e-05, 0.10139518231153488, 0.02084682323038578, -0.00019204520503990352, -0.046861547976732254, -9.681723167886958e-05, -0.00011932809866266325, -0.03954586014151573, -0.028264274820685387, -0.0234747976064682, -0.00013794016558676958, 0.04220966994762421, 0.18364420533180237, -0.02480277232825756, 9.280739323003218e-05], [-0.02597961388528347, 0.075191929936409, 0.21253237128257751, -0.0339793860912323, -0.20584537088871002, 0.00017714998102746904, -0.10053960978984833, -0.03946102783083916, -0.0754261240363121, 0.08767956495285034, -0.00017690165259409696, -0.0001414555445080623, 0.057124558836221695, -0.009965590201318264, -0.07375765591859818, -0.00014126201858744025, -0.16690118610858917, -0.047196656465530396, 0.16365331411361694, 0.0001316863636020571], [-5.932961499865996e-08, 1.923834531680768e-07, 4.0283842395183456e-07, -2.423446403554408e-07, -6.105806846790074e-07, -1.1946894862280288e-10, -2.4400378606515005e-07, -3.465968063665059e-07, -4.575142611429328e-07, 7.774706318741664e-07, 3.0352532986999137e-11, 3.7548845976953515e-11, 4.916893203699146e-07, 1.4822116156665288e-07, 2.5972556727538176e-07, 5.219048457294484e-11, -3.837795645722508e-07, -2.7372007593839953e-07, 2.8029080567648634e-07, -1.5658013080566135e-11], [-0.06928665190935135, -0.05917702242732048, -0.26340654492378235, 0.3478984832763672, 0.014374243095517159, 0.0002173979883082211, -0.15918077528476715, 0.16763266921043396, 0.04272820055484772, 0.03405475616455078, -0.0001929844729602337, -0.00018759358499664813, -0.0036540424916893244, -0.0017130651976913214, -0.035442620515823364, -0.0001905027311295271, 0.18485163152217865, 0.25697746872901917, -0.20858348906040192, 0.0001485817920183763], [-0.028696585446596146, -0.13964499533176422, -0.11929366737604141, 0.17422844469547272, 0.0433199405670166, 3.52144124917686e-05, 0.023722143843770027, 0.1592560112476349, 0.06907530128955841, -0.00208121701143682, -3.612372529460117e-05, -4.807901495951228e-05, -0.042910270392894745, 0.011340479366481304, -0.018600232899188995, -4.3248692236375064e-05, 0.19336426258087158, 0.12372586876153946, -0.17393702268600464, 4.4763157347915694e-05], [-0.039337098598480225, 0.04226610064506531, 0.10987158864736557, 0.006782120559364557, 0.07875823229551315, -5.0176091463072225e-05, 0.005321157164871693, -0.12594404816627502, 0.13362011313438416, -0.06454484909772873, 6.663247040705755e-05, 0.0001212960050906986, -0.030877286568284035, 0.06119923293590546, 0.06429451704025269, 0.00012835673987865448, -0.0468318946659565, -0.003814371069893241, 0.13725405931472778, -0.00010669464973034337], [-0.016030142083764076, 0.06187994405627251, -0.06256655603647232, -0.07100570201873779, -0.2129976898431778, 2.7303598471917212e-05, 0.01942681334912777, 0.07226521521806717, 0.12096017599105835, 0.013094872236251831, 7.274960807990283e-05, 4.871310375165194e-05, 0.07618909329175949, -0.03760087490081787, -0.04755874350667, 9.218992636306211e-05, 0.0846763476729393, -0.052013229578733444, -0.05916699767112732, -7.444201037287712e-05], [-1.8471963869615138e-07, 8.334860979175573e-08, 2.308968873876438e-07, -2.1594274812741787e-07, -2.3420275852004124e-07, -6.91627102811232e-11, -2.7383228484723077e-07, -1.586575848477878e-07, -2.3473027965792426e-07, 3.9176205746116466e-07, 1.567913854305658e-11, 2.0201066514013988e-11, 1.289443645191568e-07, 1.3750086225172709e-07, 2.200387001494164e-07, 2.6991565232892256e-11, -1.4019641980667075e-07, -2.488456232185854e-07, 5.568817940115878e-08, 6.172015589583912e-12], [-1.3148031996479403e-07, 1.5716580037405947e-07, 3.3008021205205296e-07, -3.035334827927727e-07, -2.3643313795673748e-07, -1.0420357632323629e-10, -2.3565854689877597e-07, -2.035453405824228e-07, -2.2104306651726802e-07, 4.1176008380716667e-07, 3.1769972069772834e-11, 4.424334856811818e-11, 1.3007756649585644e-07, 1.2988053299523017e-07, 2.645630274855648e-07, 5.1786280125254436e-11, -1.899017263440328e-07, -3.277552309555176e-07, 1.5464539160348068e-07, -6.694559403358502e-12], [-0.030481960624456406, -0.09191790968179703, -0.08316711336374283, 0.020869476720690727, -0.20528194308280945, -2.2630056264461018e-05, -0.017202896997332573, 0.18395552039146423, 0.25307995080947876, 0.10332158952951431, 1.1835129953396972e-05, 1.615357723494526e-05, 0.0772661492228508, 0.005363501608371735, 0.0005878494121134281, 2.7545809643925168e-05, 0.10677734017372131, -0.027005765587091446, -0.247097447514534, -9.90649095911067e-06], [-0.01987389288842678, 0.011366103775799274, 0.074917733669281, 0.014978514052927494, -0.01673758029937744, 3.942066177842207e-05, 0.06291749328374863, -0.017726603895425797, 0.0002128007763531059, -0.06004740297794342, -2.0877900169580244e-05, -2.1349338567233644e-05, -0.024137867614626884, 0.027242952957749367, -0.058827392756938934, -1.3735143511439674e-05, -0.01824497990310192, -0.013700705021619797, 0.014732414856553078, 1.2711921954178251e-05], [0.025747738778591156, -0.12331395596265793, -0.045718394219875336, -0.03528309240937233, -0.06148971617221832, 0.00015604091458953917, 0.0875026136636734, 0.1510539948940277, 0.14356409013271332, 0.01552320085465908, -0.00013493002916220576, -0.00011695935972966254, 0.07157884538173676, -0.012069404125213623, -0.009248743765056133, -0.00012704046093858778, 0.1387438029050827, -0.04819103330373764, -0.1255577802658081, 0.00013688496255781502], [-1.4184516317072848e-07, 9.618822360835111e-08, 2.8119279704696964e-07, -2.1607358746678074e-07, -2.9690045266761445e-07, -1.0764875102431404e-10, -1.9197197786979814e-07, -2.345522318591975e-07, -4.03538621185362e-07, 5.969744165668089e-07, 3.527598352315309e-11, 4.56762752620854e-11, 1.3301220747052866e-07, 1.8332255535824515e-07, 4.0581466009825817e-07, 5.119215121252019e-11, -1.9913956350592343e-07, -2.346984331325075e-07, 1.5569851541386015e-07, -9.254119172352748e-12], [0.08828027546405792, -0.14076153934001923, -0.1219634860754013, 0.13938143849372864, -0.023426128551363945, 5.1695875299628824e-05, -0.1091579869389534, 0.19845977425575256, -0.014002502895891666, 0.05079011246562004, 5.060360854258761e-05, -5.189883813727647e-05, 0.09031423926353455, -0.09606868773698807, -0.11055632680654526, -5.584039899986237e-05, 0.13909560441970825, 0.15028131008148193, -0.0942014679312706, -8.396961675316561e-06], [0.10650000721216202, -0.10887910425662994, -0.10482656955718994, 0.18500332534313202, 0.001673490391112864, 0.0001337230351055041, 0.148721843957901, 0.07403583079576492, -0.016873525455594063, 0.1009247750043869, -0.00015199811605270952, -0.00018531485693529248, 0.022768918424844742, 0.0673028975725174, 0.026849886402487755, -0.00018465744506102055, 0.09609917551279068, 0.1985187530517578, -0.051891811192035675, 0.00016931981372181326], [0.01975773461163044, -0.08589014410972595, -0.10744275152683258, 0.17190131545066833, -0.07199320942163467, 0.0003045288613066077, 0.06895684450864792, 0.04622313380241394, 0.08724895864725113, 0.023244909942150116, -0.00035383101203478873, -0.00035893768654204905, -0.0020844326354563236, -0.051541686058044434, -0.005184529814869165, -0.00040615894249640405, 0.08674139529466629, 0.1930408626794815, 0.0010637467494234443, 0.00039908173494040966], [-1.956644126721585e-07, 8.195447520620291e-08, 1.978773696009739e-07, -2.390970337273757e-07, -1.975836454448654e-07, -7.727536666113366e-11, -3.268604302775202e-07, -9.978694492929208e-08, -1.0889501567135085e-07, 3.1425503266291344e-07, -7.698341096540329e-12, 1.6596192736056947e-12, 1.5537966646661516e-07, 1.249849077566978e-07, 1.6782992418029608e-07, 8.702584659847634e-12, -7.513380495538513e-08, -2.8321329637037707e-07, 5.039381800742149e-09, 3.7611590925079597e-11], [0.4244733452796936, -0.09921250492334366, 0.013890545815229416, 0.011417592875659466, 0.017189757898449898, -2.835537088685669e-05, 0.020250434055924416, -0.1324537843465805, 0.011236937716603279, -0.20048478245735168, -2.315452320544864e-06, 1.9612052710726857e-05, 0.06057397276163101, -0.0005002344259992242, 0.11313118040561676, 1.1335926501487847e-05, 0.08439669758081436, 0.03968149796128273, -0.011325791478157043, 9.300278520640859e-07], [0.039191558957099915, 0.06046365946531296, -0.019115226343274117, -0.1192484050989151, 0.016518451273441315, -4.811388862435706e-05, -0.16053654253482819, -0.17710499465465546, -0.144979789853096, -0.23222146928310394, 2.0199851860525087e-05, -4.9305654101772234e-05, -0.29310840368270874, -0.0337822362780571, -0.22969721257686615, -3.307110091554932e-05, -0.1022428423166275, 0.01449271198362112, 0.20859326422214508, 3.262120299041271e-05], [-0.12651026248931885, 0.029864821583032608, 0.2276933193206787, 0.007080035749822855, -0.003090065671131015, 8.708393579581752e-05, 0.058716513216495514, -0.16977058351039886, -0.019030578434467316, 0.013362379744648933, -0.0001621181727387011, -0.0001609985629329458, -0.09208177775144577, -0.046597402542829514, 0.04309665411710739, -0.0001810112880775705, -0.16692067682743073, -0.1306479275226593, 0.21327665448188782, 0.0001841024641180411], [-0.30761682987213135, 0.007881417870521545, -0.020758215337991714, 0.288386732339859, -0.08175113797187805, 0.00018793207709677517, -0.012487947009503841, -0.11396495997905731, -0.08259637653827667, -0.05936220660805702, -0.00010743258462753147, -0.00016638585657346994, -0.07252240180969238, -0.03548958897590637, -0.08862710744142532, -0.00019524797971826047, -0.07193483412265778, 0.037370841950178146, -0.07993916422128677, 6.328064773697406e-05], [0.01887105032801628, 0.04867662116885185, 0.10526664555072784, -0.035207442939281464, 0.3253615200519562, 0.00013016292359679937, 0.04107018560171127, 0.05717410892248154, -0.2143751084804535, -0.876324474811554, -0.0003175748570356518, -0.00042352976743131876, -0.3989407420158386, -0.19207878410816193, -0.2565978765487671, -0.00037059225724078715, -0.03728102147579193, 0.18938711285591125, 0.04163988679647446, 0.000428238621680066], [-3.582096178433858e-05, -1.4752684364793822e-05, 1.738779064908158e-05, 6.669404683634639e-05, 7.843984349165112e-05, -2.3209948096791777e-07, 0.00020084917196072638, -8.222705218940973e-05, 5.4467345762532204e-05, 0.0003100445319432765, -2.1416934004037103e-08, 1.3129368880981929e-07, 0.00015784252900630236, 2.9995311706443317e-05, -0.0002883890410885215, 1.5308611978070985e-07, -9.444956231163815e-05, -3.989065226051025e-05, -9.939262963598594e-05, -5.1999919037371e-08], [-0.013050972484052181, -0.015048166736960411, -0.06411237269639969, 0.11897480487823486, -0.07474248111248016, -5.240710834186757e-06, 0.3123464584350586, -0.038701217621564865, -0.07766939699649811, -0.13573338091373444, 3.6567041661328403e-06, 4.320456719142385e-05, 0.022126736119389534, 0.026099424809217453, 0.04619060456752777, 4.266052565071732e-05, -0.011091766878962517, -0.0384732224047184, -0.04357108101248741, -2.6258383513777517e-05], [0.015057229436933994, -0.03814295679330826, -0.13061240315437317, -0.16574329137802124, -0.1181524321436882, -0.00023420632351189852, -0.31528541445732117, 0.09479877352714539, -0.06181664392352104, -0.07146487385034561, -5.500017505255528e-05, 9.429773490410298e-05, -0.050219785422086716, 0.06107236444950104, 0.0022564127575606108, 7.128789002308622e-05, 0.20734764635562897, 0.011415204033255577, 0.048492494970560074, 7.971690502017736e-05], [-0.10116758197546005, 0.26104503870010376, 0.0011524216970428824, -0.09605517238378525, 0.0803966224193573, 0.0004991365130990744, -0.09003955125808716, 0.15909677743911743, 0.3856123983860016, -0.8453713655471802, -0.0005085322773084044, -0.0006315179052762687, -0.2743034064769745, -0.0555785708129406, -0.26245641708374023, -0.000537191575858742, 0.025705913081765175, -0.08309096097946167, -0.2564384341239929, 0.0005176502745598555], [0.44308966398239136, 0.3169320821762085, -0.23750168085098267, -0.17090296745300293, 0.376368910074234, -8.526591409463435e-05, -0.11847203224897385, 0.07576204091310501, 0.19964438676834106, 0.32561972737312317, 7.122222450561821e-05, 0.00019164847617503256, 1.6391701698303223, -0.20692318677902222, 1.186635971069336, 0.00012464156316127628, 0.14994023740291595, 0.1443963348865509, 0.5572487115859985, -0.00010813094559125602], [0.00010846408986253664, 2.1333662516553886e-05, 2.2408350559999235e-05, -2.5034860300365835e-05, -6.639389903284609e-05, 1.2023765805224684e-07, -0.00021176204609218985, 0.00014317889872472733, -0.000278197112493217, -0.000275609694654122, -2.7099233079752594e-07, -2.348423038256442e-07, -0.00025203233235515654, -9.996076551033184e-05, 0.00023978122044354677, -1.9075129387147172e-07, 0.00011661231837933883, 8.219674054998904e-05, -4.354076008894481e-05, 2.433575900795404e-07], [0.00011266208457527682, -2.372920607740525e-05, -0.00010159558587474748, -5.4192572861211374e-05, -5.698769382433966e-05, 3.6729397834278643e-07, -0.0002531583304516971, 5.7122331782011315e-05, -0.00011033119517378509, -0.0002834119077306241, -3.1988349746825406e-07, -4.513497060543159e-07, -0.0001811133697628975, -3.514230047585443e-05, 0.00025131451548077166, -3.8092292697911034e-07, 6.562737689819187e-05, 1.026437894324772e-05, 5.64290166948922e-05, 3.412734770336101e-07], [0.40537333488464355, 0.39748820662498474, -0.4322095811367035, -0.16825851798057556, 0.10078723728656769, -0.00010396977450000122, -0.0897618755698204, 0.34344664216041565, 0.06885434687137604, 0.2035312056541443, 0.00012650569260586053, 5.99834238528274e-05, 0.08638619631528854, -0.9731028079986572, -0.08909423649311066, 3.5085085983155295e-05, 0.07860033959150314, 0.10833635926246643, 0.22381122410297394, -0.00011460596579127014], [-0.1484895497560501, 0.15528087317943573, 0.2007390856742859, 0.15295831859111786, 0.11644089967012405, 4.474617526284419e-05, 0.14342613518238068, -0.09281221032142639, -0.0073098777793347836, -0.23068223893642426, 0.00011034790077246726, 2.3526710720034316e-05, 0.7710914015769958, -0.0228726826608181, 0.4972519874572754, 1.6262549252132885e-05, -0.15582428872585297, 0.002525588497519493, -0.4014138877391815, -0.00011674364941427484], [0.2748980224132538, 0.289724737405777, 0.039257340133190155, -0.0797264501452446, 0.18185938894748688, -5.949974001850933e-05, -0.13356943428516388, 0.19059650599956512, 0.10060115903615952, -0.201349139213562, -2.280686385347508e-05, -0.00012189689732622355, 0.8438587188720703, 0.38084837794303894, 0.8947347402572632, -5.599676660494879e-05, 0.21099679172039032, 0.26522958278656006, 0.4899670481681824, 9.695829066913575e-05], [6.75118644721806e-05, 2.9521570468205027e-05, -1.039353446685709e-05, -7.703596929786727e-05, -0.00014833688328508288, 2.5931959157787787e-07, -0.00021239770285319537, 0.00011982568685198203, -0.000163675969815813, -0.0003240440273657441, -2.8079702474315127e-07, -3.868673843498982e-07, -0.0002642268664203584, -2.2215629087440902e-06, 0.00023073462944012135, -3.3165693480441405e-07, 0.00010493122681509703, 9.253535245079547e-05, 9.143609531747643e-06, 3.329004414354131e-07], [0.08835793286561966, 0.053786639124155045, -0.11961589753627777, -0.10538079589605331, 0.06019372120499611, 0.0004045036621391773, -0.37368646264076233, -0.008833223953843117, 0.048352282494306564, -0.1280323565006256, -0.0002239699533674866, -0.00025812810054048896, 0.1437770128250122, 0.18630728125572205, 0.09813632816076279, -0.0002925019944086671, 0.08160281181335449, 0.03472677618265152, -0.14905883371829987, 0.00018879593699239194], [0.4149923622608185, 0.03766659274697304, -0.042991142719984055, 0.02332855574786663, 0.10805410891771317, 0.0006167760002426803, 0.15011876821517944, 0.033878833055496216, 0.05522117018699646, 0.08781126141548157, -0.00046392896911129355, -0.0005035874200984836, 0.04550265148282051, 0.04989335685968399, 0.010686672292649746, -0.0005446943105198443, 0.05874126777052879, 0.2319907695055008, 0.1438441425561905, 0.0004426622181199491], [0.48230400681495667, -0.20179739594459534, 0.05283675715327263, -0.2342047542333603, -0.07965333759784698, 0.00025549926795065403, 0.2328251600265503, -0.23832941055297852, 0.007038059178739786, 0.027058862149715424, 3.927315628970973e-05, 7.231945460262068e-07, -0.167799174785614, 0.3412145972251892, -0.15885646641254425, -1.608337515790481e-05, -0.047724369913339615, 0.14520446956157684, 0.005149482749402523, -8.811517909634858e-05], [-0.0001517244818387553, -8.088170579867437e-05, -4.0928644011728466e-05, 4.641399209504016e-05, 0.00015228155825752765, -1.288580762093261e-07, 0.0002592027303762734, -0.00016400554159190506, 0.0002575032413005829, 0.0002944334701169282, 3.807858490745275e-07, 3.2830288887453207e-07, 0.0003068595251534134, 8.139556302921847e-05, -0.0001932983723236248, 2.758650623491121e-07, -0.00010134215699508786, -0.00013929212582297623, 1.9877481463481672e-05, -3.6953611015633214e-07], [0.052179016172885895, -0.057567376643419266, -0.04565948620438576, 0.1087067499756813, 0.04054909199476242, -0.00010653005301719531, 0.11933913826942444, 0.04654165729880333, -0.09492170810699463, 0.058108147233724594, 5.0389571697451174e-05, 5.43108290003147e-05, -0.01898876205086708, 0.028371661901474, 0.03181743249297142, 4.530345177045092e-05, 0.0877649262547493, 0.08703557401895523, 0.002759015653282404, -3.462717359070666e-05], [0.008670906536281109, -0.09336761385202408, -0.11921034753322601, 0.18849892914295197, 0.1837700456380844, -1.400173277943395e-05, 0.11037996411323547, 0.06031419709324837, 0.06426867097616196, -0.03210430592298508, -2.4608416424598545e-05, -1.6877742382348515e-05, -0.018501849845051765, 0.027492359280586243, -0.015859350562095642, -2.223832234449219e-05, 0.09076103568077087, 0.1851220577955246, -0.09573299437761307, 3.599117189878598e-05], [0.05674409866333008, -0.13956500589847565, -0.1803336888551712, 0.20595517754554749, 0.06157102435827255, -7.41985350032337e-05, 0.0598258450627327, 0.11115812510251999, 0.018552744761109352, 0.1012418270111084, 8.658936712890863e-05, 8.497752423863858e-05, -0.030427152290940285, 0.033223412930965424, -0.007929001934826374, 7.538835779996589e-05, 0.14186593890190125, 0.2111099511384964, -0.08321928232908249, -8.18166954559274e-05], [-0.026455288752913475, -0.10546833276748657, -0.12429941445589066, 0.2579190731048584, 0.06381771713495255, -6.15704630035907e-06, 0.11420545727014542, 0.11793593317270279, 0.010412327945232391, 0.03588207811117172, -1.6884949218365364e-05, -2.5536517568980344e-05, 0.001212592702358961, -0.00261129904538393, 0.04137592017650604, -3.436424594838172e-05, 0.11763402819633484, 0.19144201278686523, -0.12151294946670532, 2.471639891155064e-05], [0.037684548646211624, -0.025105949491262436, -0.008775216527283192, 0.14281943440437317, -0.02437089942395687, 0.00018398866814095527, 0.04722221940755844, 0.015245346352458, -0.1552816778421402, -0.01696215197443962, -0.00015378287935163826, -0.00011324460501782596, -0.003613516455516219, -0.03264963999390602, -0.09308680146932602, -0.00011996924149570987, -0.06754834204912186, 0.1517421305179596, 0.0771852359175682, 0.00011008950968971476], [-6.416094322503341e-08, 1.2981844577097945e-07, 3.715776983881369e-07, -1.7782592465209746e-07, -6.488805865956238e-07, -9.79356803987308e-11, -2.0172177528365864e-07, -3.735332825272053e-07, -4.960331807524199e-07, 8.450668360637792e-07, 1.054596167338051e-11, 2.7661858914562742e-11, 4.931526973450673e-07, 2.2413412636979047e-07, 3.3956001743717934e-07, 3.458774933129405e-11, -3.803721142503491e-07, -2.1130529148649657e-07, 2.6496633154238225e-07, 4.023990776008679e-12], [-0.026988711208105087, -0.07498650997877121, -0.08714047819375992, 0.1667753905057907, 0.07383561134338379, -4.426288796821609e-05, -0.010290957987308502, 0.08430862426757812, 0.09013837575912476, 0.018776966258883476, -5.356308975024149e-05, -5.498368773260154e-05, -0.0008043881971389055, 0.026188435032963753, 0.02069387212395668, -5.5217999033629894e-05, 0.09633839130401611, 0.10200586915016174, -0.12527459859848022, 7.647345773875713e-05], [0.023763559758663177, -0.114334836602211, -0.18679538369178772, 0.1969614177942276, -0.0038526824209839106, -2.1065721739432774e-05, 0.03145960345864296, 0.15357445180416107, 0.019327985122799873, 0.0030745891854166985, 2.878415943996515e-05, 2.4602084522484802e-05, -0.05068812146782875, -0.01414561178535223, -0.022802945226430893, 2.020512692979537e-05, 0.14417563378810883, 0.1674661636352539, -0.14915162324905396, -2.8533549993881024e-05], [-0.03395632654428482, -0.04719606041908264, 3.297689909231849e-05, 0.12099101394414902, 0.1516517698764801, 3.752520933630876e-05, 0.05474986508488655, -0.10210482776165009, -0.014251851476728916, -0.09220239520072937, 2.8138814741396345e-05, 6.855072570033371e-05, -0.06483633071184158, 0.054701946675777435, 0.039797283709049225, 6.69641958666034e-05, -0.02884141355752945, 0.11528092622756958, 0.06966520100831985, -6.485621997853741e-05], [0.05022410303354263, -0.17372046411037445, -0.13359855115413666, 0.3081117272377014, -0.018558258190751076, -0.0001426135713700205, 0.0923796221613884, 0.16836068034172058, -0.0013994146138429642, 0.0009056731360033154, 0.00011878760415129364, 0.00012112579861423001, 0.01099417731165886, -0.0006978329038247466, -0.014103777706623077, 0.00014922392438165843, 0.14487090706825256, 0.32330209016799927, -0.0582466721534729, -0.0001386556978104636], [-1.8560331227490678e-07, 7.943488355977024e-08, 2.3088777822977136e-07, -2.0671159006724338e-07, -2.646289942731528e-07, -5.415646750495107e-11, -2.604179201171064e-07, -1.717707789339329e-07, -2.632309019645618e-07, 4.0978324022944435e-07, 5.010408320876847e-12, 1.1808957457726255e-11, 1.3891519756725756e-07, 1.448946846949184e-07, 2.2430445767440688e-07, 1.563950011163051e-11, -1.551693600276849e-07, -2.424509375487105e-07, 5.6417952976062224e-08, 1.46601550343739e-11], [-1.2952266104093724e-07, 1.411738139722729e-07, 3.1689970114712196e-07, -2.7574282057685195e-07, -2.3643164581699239e-07, -9.773610393226662e-11, -2.241500567379262e-07, -2.1219157986251957e-07, -2.3626904521734104e-07, 4.103387425402616e-07, 2.2425223136779415e-11, 3.770107143141743e-11, 1.2696129658706923e-07, 1.3757741612607788e-07, 2.7121464540869056e-07, 4.230791064707695e-11, -1.9340755841312784e-07, -2.996668797550228e-07, 1.5867971114857937e-07, 2.8761307571678607e-12], [-0.02661176398396492, -0.3244915306568146, -0.33526611328125, 0.27944517135620117, -0.09924381971359253, -6.162151839816943e-05, 0.019514616578817368, 0.25388404726982117, 0.005502569954842329, 0.12963233888149261, 4.0502738556824625e-05, 5.051880361861549e-05, 0.026333928108215332, 0.02850031666457653, 0.05507131665945053, 5.534015508601442e-05, 0.27003613114356995, 0.215054452419281, -0.43170079588890076, -2.6051464374177158e-05], [0.01996147446334362, -0.12480456382036209, -0.1639755815267563, 0.22249779105186462, 0.009129609912633896, 1.2576093467941973e-05, 0.10417606681585312, 0.0989353135228157, -0.035863880068063736, -0.023765189573168755, -4.037427970615681e-06, 4.106861524633132e-06, -0.04608812928199768, 0.00365452840924263, 0.005924126133322716, 3.8142563880683156e-06, 0.11502208560705185, 0.20592881739139557, -0.11201859265565872, -1.1734306326616206e-06], [0.01561739295721054, -0.2311861664056778, -0.31378474831581116, 0.22180785238742828, -0.01717943139374256, 6.925057823536918e-05, 0.03180580958724022, 0.2884213924407959, -0.019610265269875526, -0.04357897490262985, -3.5687906347448006e-05, -4.2151899833697826e-05, 0.012578550726175308, 0.0049204048700630665, 0.02997257374227047, -5.005422644899227e-05, 0.2859311103820801, 0.18295608460903168, -0.33659306168556213, 3.882426244672388e-05], [-1.4882826349094103e-07, 6.682139996883052e-08, 2.5295318550888624e-07, -1.79883940631953e-07, -3.3812989386206027e-07, -9.380702464811819e-11, -1.8584069039206952e-07, -2.382045067861327e-07, -4.423380346452177e-07, 6.211096774677571e-07, 2.101050410041605e-11, 3.5615961568868926e-11, 1.40213671784295e-07, 2.030815977605016e-07, 4.235774326843966e-07, 3.736174564172856e-11, -1.9726667233044282e-07, -1.9817596808024973e-07, 1.432180170013453e-07, 4.448428604642007e-12], [0.04905406013131142, -0.13917122781276703, -0.15961988270282745, 0.17061246931552887, -0.006577599793672562, -5.75294834561646e-05, 0.03094722516834736, 0.15665414929389954, -0.054811861366033554, 0.10414554923772812, 4.720465949503705e-05, 4.541947055258788e-05, 0.06705891340970993, 0.00014289205137174577, -0.03081544116139412, 5.07768418174237e-05, 0.1489633321762085, 0.17759758234024048, -0.11005755513906479, -4.474164961720817e-05], [0.055285196751356125, -0.11135361343622208, -0.1493379920721054, 0.2051938772201538, 0.020028986036777496, 4.0096445445669815e-05, 0.07147075235843658, 0.11840623617172241, -0.07064259052276611, -0.0129717867821455, -4.882153370999731e-05, -6.453537935158238e-05, -0.03135563060641289, 0.014810346998274326, -0.011879491619765759, -6.458922143792734e-05, 0.13555380702018738, 0.2425510287284851, -0.07901803404092789, 5.315631642588414e-05], [0.05830732733011246, -0.11738044023513794, -0.16406039893627167, 0.21871092915534973, 0.05422762408852577, 5.878063166164793e-05, 0.11979378759860992, 0.07583180069923401, 0.04431680217385292, -0.16148346662521362, -8.564834570279345e-05, -0.00011550835188245401, -0.12058708071708679, -0.04112286865711212, 0.07183632254600525, -0.00012910370423924178, 0.08402183651924133, 0.2568952143192291, -0.060848064720630646, 0.00011266752699157223], [-1.9871629319823114e-07, 8.285621078130134e-08, 1.9013783969512588e-07, -2.3373638668999774e-07, -2.272830386118585e-07, -6.117958223361697e-11, -3.235954295632837e-07, -1.0296051300429099e-07, -1.335687329628854e-07, 3.170027582655166e-07, -1.894848514205627e-11, -8.10349530533383e-12, 1.6851463158218394e-07, 1.2312068520259345e-07, 1.6074454833869822e-07, -3.4005049210500404e-12, -8.558239983358362e-08, -2.781190460154903e-07, 2.4998791925412434e-09, 4.602423650523768e-11]], "rec.bias_ih_l0": [-0.3031153678894043, 0.18851689994335175, 0.15210658311843872, 0.16535036265850067, 0.2957131266593933, -1.3862359082850162e-07, -0.005123422015458345, 0.14159490168094635, 0.2650993764400482, 0.45282378792762756, -2.612791547562665e-07, -4.1287987073701515e-07, 0.2787649929523468, 0.28887632489204407, 0.24255695939064026, -2.7969292659690836e-07, 0.11517211049795151, 0.1704505980014801, 0.2640326917171478, -3.6208032838658255e-07, 0.9313358068466187, 0.15158887207508087, 0.2734622657299042, 0.36630597710609436, 0.04293488338589668, -2.3209450716876745e-07, 0.45391538739204407, 0.23545843362808228, 0.06591463088989258, -0.13872797787189484, -2.709108741782984e-07, -4.5148698291086475e-07, -0.03419796749949455, 0.049198217689991, -0.09279794245958328, -3.318897654480679e-07, 0.2090381681919098, 0.3231533467769623, 0.2945002615451813, -3.6965397498534003e-07, 0.027674945071339607, -0.09295514971017838, -0.004089981783181429, 0.1571952849626541, 0.08657534420490265, 5.258823875919916e-05, 0.2492997944355011, -0.005352331325411797, -0.07442498207092285, 0.08694463223218918, -4.8733378207543865e-05, -1.7520360415801406e-05, -0.13603901863098145, 0.11248744279146194, 0.17612437903881073, -4.398794044391252e-05, 0.06577441096305847, 0.12881754338741302, 0.03886086866259575, 9.080978998099454e-06, 0.3602154850959778, 0.274872362613678, 0.30700212717056274, 0.3716142177581787, 0.2620159983634949, -1.4117713931227627e-07, 0.20425255596637726, 0.2647964060306549, 0.19323956966400146, 0.477365642786026, -2.6304053335479693e-07, -4.148119501223846e-07, 0.2575908303260803, 0.3083724081516266, 0.20769023895263672, -2.820754900767497e-07, 0.23201940953731537, 0.3565177917480469, 0.3559354245662689, -3.6362715150062286e-07], "rec.bias_hh_l0": [-0.3030533492565155, 0.18851689994335175, 0.15210658311843872, 0.16535036265850067, 0.2957131266593933, -1.3862359082850162e-07, -0.005123422015458345, 0.14159490168094635, 0.2650993764400482, 0.45282378792762756, -2.612791547562665e-07, -4.1287987073701515e-07, 0.2787649929523468, 0.28887632489204407, 0.24255695939064026, -2.7969292659690836e-07, 0.11517211049795151, 0.1704505980014801, 0.2640326917171478, -3.6208032838658255e-07, 0.9313358068466187, 0.15158887207508087, 0.2734622657299042, 0.36630597710609436, 0.04293501377105713, -2.3209450716876745e-07, 0.45391613245010376, 0.23545843362808228, 0.06591463088989258, -0.13872797787189484, -2.709108741782984e-07, -4.5148698291086475e-07, -0.03419796749949455, 0.049198217689991, -0.09279794245958328, -3.318897654480679e-07, 0.2090381681919098, 0.3231533467769623, 0.2945002615451813, -3.6965397498534003e-07, -0.09547298401594162, -0.09298279881477356, -0.004089981783181429, 0.15719722211360931, 0.09154293686151505, 5.258823875919916e-05, 0.2488061636686325, -0.005322600249201059, -0.07352818548679352, 0.09522446990013123, -4.8733378207543865e-05, -1.7520360415801406e-05, -0.14546053111553192, 0.09886682778596878, 0.1730879694223404, -4.398794044391252e-05, 0.06588498502969742, 0.12880200147628784, 0.03726435825228691, 9.080978998099454e-06, 0.3602154850959778, 0.274872362613678, 0.30700212717056274, 0.3716142177581787, 0.26201504468917847, -1.4117713931227627e-07, 0.20425255596637726, 0.2647964060306549, 0.1932389736175537, 0.477365642786026, -2.6304053335479693e-07, -4.148119501223846e-07, 0.2575908303260803, 0.3083724081516266, 0.20769023895263672, -2.820754900767497e-07, 0.23201940953731537, 0.3565177917480469, 0.3559354245662689, -3.6362715150062286e-07], "lin.weight": [[-0.23559580743312836, -0.2845115065574646, -0.03979266807436943, 0.2114780843257904, -0.3390570878982544, 0.00046098645543679595, 0.08740758895874023, -0.3258618116378784, -0.15510454773902893, -1.2532130479812622, -0.0004918742924928665, -0.00048760665231384337, 0.3162173330783844, 0.40941712260246277, 0.5742796063423157, -0.0005816879565827549, -0.06720646470785141, -0.24960336089134216, -0.2219489961862564, 0.0005457764491438866]], "lin.bias": [-0.055762019008398056]}}