{"model_data": {"model": "SimpleRNN", "input_size": 2, "skip": 1, "output_size": 1, "unit_type": "GRU", "num_layers": 1, "hidden_size": 20, "bias_fl": true}, "state_dict": {"rec.weight_ih_l0": [[6.307790840764937e-07, -3.6011849715578137e-06], [0.06776034086942673, 0.3496410846710205], [0.0672488734126091, 0.19222460687160492], [0.08362103998661041, 0.2192603051662445], [0.008636454120278358, 0.17288386821746826], [0.021441420540213585, 0.12517519295215607], [-0.009184674359858036, 0.12653562426567078], [-0.023864589631557465, 0.2605607807636261], [0.10798750072717667, 0.22368961572647095], [-0.024548720568418503, 0.11410415917634964], [0.9188026189804077, -0.1226012334227562], [-0.0793229267001152, 0.12565265595912933], [0.07679614424705505, 0.3606223464012146], [1.3730760883845505e-06, -8.18853823147947e-06], [-0.004653316456824541, 0.06459440290927887], [5.721129241464951e-07, -3.2544312489335425e-06], [1.5175303360592807e-06, -9.41535472520627e-06], [8.834302178684084e-09, -1.0617600310069975e-06], [-0.058302637189626694, 0.17364053428173065], [-0.045836564153432846, 0.13411714136600494], [-7.665311585469681e-08, 1.6142629419846344e-06], [-0.00172324082814157, -0.26152169704437256], [-0.01707128994166851, -0.04430142790079117], [0.0027818060480058193, -0.048196133226156235], [-0.03991048038005829, 0.3901715576648712], [-0.005106132011860609, -0.030647290870547295], [0.026541102677583694, -0.08067072182893753], [-0.007929234765470028, -0.2271708846092224], [-0.011334606446325779, -0.2564693093299866], [0.20302961766719818, 0.5716515779495239], [0.0014028407167643309, -0.29781660437583923], [0.011737313121557236, -0.12270430475473404], [-0.01737399958074093, -0.3704453110694885], [-1.1668435462297566e-07, 2.16702937905211e-06], [0.0040152412839233875, 0.02384001761674881], [-8.608827073430803e-08, 1.8565701793704648e-06], [-9.556949009947857e-08, 2.313386403329787e-06], [8.797649719838319e-09, -4.859161606418638e-08], [-0.007288140244781971, -0.00748998299241066], [-0.011593660339713097, -0.051819026470184326], [0.0004373208212200552, -0.00019330272334627807], [-1.1877007484436035, -0.025544431060552597], [0.08342164754867554, -0.08211902529001236], [0.1476391702890396, 0.04798555746674538], [0.31983035802841187, -0.0036532622762024403], [0.3531435430049896, -0.3638993799686432], [-0.40840938687324524, -0.4343388080596924], [0.07593994587659836, 0.11223297566175461], [-0.4187207818031311, -0.3589617908000946], [-0.19556984305381775, 0.07818000763654709], [-1.1110137701034546, 0.715013325214386], [-0.0725313127040863, 0.14796265959739685], [-1.4658230543136597, 0.06972558796405792], [-0.0010557470377534628, 0.00023163009609561414], [0.03943169489502907, -0.30364492535591125], [-0.0005045115249231458, 0.00018368879682384431], [-0.0008299809996969998, 0.0002018377126660198], [8.242190961027518e-05, -0.00010137513891095296], [0.2552122473716736, 0.47617974877357483], [-0.15100151300430298, 0.501412034034729]], "rec.weight_hh_l0": [[5.9210605307669084e-09, 8.055748367041815e-06, 2.720941211009631e-06, 2.5079957595153246e-06, 2.6350645043748955e-07, 3.564791086319019e-06, 3.9707306314085145e-06, 5.809863978356589e-06, 3.083484671151382e-06, 3.9848450228419097e-07, 4.5405946025312005e-07, -1.2593405926963896e-06, 6.395806622094824e-07, -6.464887736257197e-09, 2.966914280477795e-06, -5.695017790685597e-09, -7.2780204085631794e-09, 2.367651630308387e-10, -9.56443280131225e-09, -3.36931407218799e-06], [0.00017731501429807395, 0.10301525890827179, -0.3232277035713196, -0.15956291556358337, 0.0642702728509903, -0.3904865086078644, -0.4596530497074127, -0.07017422467470169, -0.19900672137737274, -0.0430929996073246, -0.025351112708449364, -0.05146815627813339, 0.09673228859901428, -1.7550139091326855e-05, -0.27663344144821167, -0.00015734665794298053, -9.631321881897748e-05, 1.837947820604313e-05, -0.022432968020439148, 0.4196726977825165], [-4.879621337749995e-05, -0.19078172743320465, -0.06270259618759155, -0.1180710718035698, -0.034729380160570145, -0.12530243396759033, -0.16960836946964264, -0.06063520163297653, 0.07358217984437943, -0.09820578247308731, 0.015113633126020432, 0.03221748024225235, -0.09231596440076828, 6.640673382207751e-05, -0.22875693440437317, 4.358444130048156e-05, 6.215537723619491e-05, -1.8532475223764777e-05, -0.14795511960983276, -0.017766224220395088], [0.00010042916255770251, 0.04697855934500694, -0.16014553606510162, -0.0781983807682991, 0.07504452764987946, -0.1916256994009018, -0.23020602762699127, 0.023067656904459, -0.02439429797232151, -0.015297162346541882, -0.05300389602780342, -0.012476916424930096, 0.07010762393474579, 0.00012466423504520208, -0.17640773952007294, -0.00012241245713084936, 3.7373007216956466e-05, -4.211339546600357e-05, 0.038173429667949677, 0.2022528499364853], [-5.573413727688603e-05, -0.06494763493537903, -0.06644340604543686, -0.20296283066272736, -0.026192665100097656, -0.09717722982168198, -0.12062957137823105, 0.014822209253907204, 0.06723732501268387, 0.07242979109287262, -0.009775948710739613, 0.06794879585504532, -0.04197296127676964, -0.00027572791441343725, -0.15077708661556244, 6.075438068364747e-05, -8.008958684513345e-05, 2.137580122507643e-05, 0.060524873435497284, 0.10992155224084854], [-7.362841279245913e-05, -0.07901766151189804, -0.13803967833518982, -0.07612977921962738, 0.0062084193341434, -0.10383841395378113, -0.09581094235181808, -0.04382024705410004, 0.01131443865597248, -0.0059705255553126335, 0.017433062195777893, -0.027484264224767685, -0.06206565722823143, 0.0003844362508971244, -0.16828681528568268, 8.280960901174694e-05, 0.0002481245610397309, -7.570629531983286e-05, -0.05949509143829346, 0.01966201700270176], [-0.00011871301103383303, 0.10862775892019272, -0.12424267083406448, -0.1067567840218544, -0.016926603391766548, -0.07864058017730713, -0.04322253540158272, 0.1047656461596489, 0.10416020452976227, -0.025641603395342827, 0.011540890671312809, 0.04455899819731712, -0.042993947863578796, -0.00012723315740004182, -0.13957123458385468, 0.00012014966341666877, 3.3452458865212975e-06, 2.2425227143685333e-05, -0.08234971016645432, 0.04768940061330795], [-2.7692907679011114e-05, 0.023831073194742203, -0.2106408327817917, -0.195115864276886, 0.024968380108475685, -0.26867085695266724, -0.22824862599372864, -0.023153118789196014, -0.06302570551633835, 0.04204843193292618, -0.018241645768284798, -0.030466563999652863, -0.04752514138817787, 3.715533239301294e-05, -0.18481281399726868, -2.3566881282022223e-06, 1.594933019077871e-05, -6.433102680603042e-05, 0.13293009996414185, 0.2575042247772217], [-0.00017315319564659148, -0.07572504132986069, -0.14108096063137054, -0.15473540127277374, -0.03480441868305206, -0.16045579314231873, -0.13978132605552673, -0.07783936709165573, 0.12031066417694092, -0.06777055561542511, -0.06544401496648788, 0.025589510798454285, -0.07647845894098282, 0.0002758340851869434, -0.22484658658504486, 0.0001192140334751457, 0.0002611648815218359, 4.4681361032417044e-05, 0.05744057893753052, 0.07468505948781967], [3.079606904066168e-05, 0.02617047168314457, -0.1336105912923813, -0.13426515460014343, -0.026422472670674324, -0.12525375187397003, -0.059163473546504974, -0.0945318415760994, 0.07732841372489929, 0.016385924071073532, 0.06035150960087776, 0.007396799512207508, -0.101357102394104, 6.633895100094378e-05, -0.1819385290145874, -2.1552426915150136e-05, -1.603552300366573e-05, -6.515853328892263e-06, -0.01917942985892296, 0.03226669877767563], [0.00037314757355488837, -0.10740886628627777, 0.05488605052232742, -0.053731925785541534, -0.21024009585380554, 0.047643184661865234, 0.3191864490509033, 0.00958709791302681, 0.2799079120159149, 0.2416619062423706, -0.3187089264392853, 0.5871403813362122, -0.2453909069299698, -0.00016889216203708202, -0.07523645460605621, -0.00039998017018660903, -0.00025661863037385046, 0.0002163337921956554, -0.23270870745182037, -0.18551377952098846], [-0.00015703338431194425, 0.05202624201774597, -0.216643825173378, -0.11892202496528625, -0.030542461201548576, -0.12242083251476288, -0.05880386382341385, -0.1441214233636856, 0.11924289911985397, -0.03388315066695213, 0.10574658215045929, -0.000338736834237352, -0.13331495225429535, -9.260694241675083e-06, -0.21250148117542267, 0.000150346226291731, 0.00010146746353711933, -7.71275008446537e-05, -0.10325592756271362, -0.01737227477133274], [8.195811096811667e-05, -0.033964604139328, -0.22006526589393616, -0.33009809255599976, 0.16895447671413422, -0.27349424362182617, -0.3506060540676117, 0.06746028363704681, -0.07392943650484085, 0.0007365081110037863, 0.03310467675328255, 0.0006598770269192755, 0.15831856429576874, -0.0003418501000851393, -0.2974863350391388, -9.825367305893451e-05, -0.0002597874263301492, -2.8420492981240386e-06, 0.15635940432548523, 0.3250080645084381], [1.2609541855113093e-08, 6.295010166468273e-07, 6.3108418544288725e-06, 9.450703146285377e-06, 1.6395334512253612e-07, 9.14913835003972e-06, 1.0587471479084343e-05, 9.653526689135106e-08, -2.7292330742056947e-06, -9.806026355363429e-07, -6.662135660917556e-07, -1.7771097873264807e-06, 1.4390996057045413e-06, -1.177250830153298e-08, 5.934563432674622e-06, -1.3149825228708778e-08, -1.4965056749360883e-08, 1.4697164596455536e-09, 4.830033503822051e-06, -8.936809535953216e-06], [4.262235506757861e-06, -0.010114929638803005, -0.12474695593118668, -0.08623778074979782, -0.048658598214387894, -0.05516201630234718, 0.0017196823609992862, -0.046596139669418335, 0.11665458232164383, -0.02151385135948658, 0.00657687708735466, 0.009163614362478256, -0.10775486379861832, 0.00011673512199195102, -0.1479361206293106, 1.0739928256953135e-05, 6.68313805363141e-05, 1.2368253010208718e-05, -0.10705596208572388, -0.03802022710442543], [6.064253987858592e-09, 8.159566277754493e-06, 2.1566868326772237e-06, 2.6080656425619964e-06, 4.256932584212336e-07, 3.3096234801632818e-06, 3.879993528244086e-06, 5.899793904973194e-06, 3.011004764630343e-06, 4.4100337959207536e-07, 5.14916678184818e-07, -1.3377964478422655e-06, 1.4569481265880313e-07, -7.114433042687551e-09, 2.768149215626181e-06, -6.056212420446627e-09, -7.675786228844572e-09, 4.538452946789562e-11, -1.2452055386802385e-07, -3.575986966097844e-06], [1.0970646613372992e-08, 7.017583811830264e-06, 6.624713932978921e-06, 9.059208423423115e-06, 1.352225780237859e-07, 1.0142806786461733e-05, 1.1526772141223773e-05, 3.784872433243436e-06, 1.2698179716608138e-06, -6.229839186744357e-07, 4.5529489511864085e-07, -2.638588284753496e-06, 1.2246827054696041e-06, -1.199298971243934e-08, 7.103813004505355e-06, -1.1061573879089792e-08, -1.3622039496397065e-08, 7.93787868769158e-10, 1.6207394537559594e-06, -8.536754648957867e-06], [-3.3157954160145664e-10, 2.6356443072472757e-07, 1.0112863719768939e-06, 3.8479544173242175e-07, 6.989698420056811e-08, 9.683460575615754e-07, 8.157514912454644e-07, 1.0212012568899809e-07, 2.3323359243931918e-07, -4.9310656891066174e-08, 9.79243530707663e-09, 1.0773192116175778e-07, 4.7362550503748935e-07, 3.2423991269681096e-10, 9.558496003592154e-07, 4.156364419305447e-10, 4.4228490314601743e-10, -1.9342338841710216e-10, 2.3143199712194473e-07, -3.3732044357748237e-07], [0.00044219332630746067, 0.05656304210424423, -0.1980644315481186, -0.1571352183818817, -0.022562911733984947, -0.19934916496276855, -0.13848720490932465, -0.007364235818386078, 0.09435975551605225, 0.06183513253927231, 0.03560751676559448, 0.010653714649379253, -0.05170470476150513, -0.0004552632453851402, -0.21487173438072205, -0.00048204330960288644, -0.00046072661643847823, 0.00011846439156215638, 0.08639919012784958, 0.09892790764570236], [0.0002765548415482044, 0.053610607981681824, -0.16296601295471191, -0.075353242456913, 0.0356094129383564, -0.10664813220500946, -0.05636213719844818, 0.059090547263622284, 0.11171088367700577, -0.01720135286450386, -0.031778547912836075, 0.03053262270987034, 0.07121125608682632, -9.763532580109313e-05, -0.17739759385585785, -0.0002686390944290906, -0.00022131901641841978, 9.513651457382366e-05, -0.08637501299381256, 0.11710233241319656], [-2.7051164086522306e-10, 6.390663997990487e-07, -1.4506666730085271e-06, -1.5338146113208495e-06, -8.939309026345654e-08, -1.4918895203663851e-06, -1.6029221114877146e-06, 4.7450853912778257e-07, 3.3738987781362084e-07, 8.404112961102328e-09, -1.7833052368132485e-07, 2.157637624122799e-07, 3.978313714014803e-07, 1.3096073704643718e-11, -1.4702446833325666e-06, 2.0128158861876244e-10, 1.4421575045275858e-10, -1.1615542555576397e-10, 8.183122872651438e-07, 1.5552566310361726e-06], [-0.000419478805270046, -0.01389487087726593, 0.3230895400047302, 0.16925691068172455, 0.06679664552211761, 0.2503182291984558, 0.1747959852218628, 0.06551117449998856, -0.12376786768436432, 0.07416795194149017, 0.0009733012411743402, -0.014681041240692139, 0.08731602132320404, 4.801289105671458e-05, 0.3440605103969574, 0.000357230834197253, 0.00021620834013447165, -0.00014873422333039343, 0.18970297276973724, -0.07775235921144485], [-4.97970286232885e-05, 0.08523833006620407, 0.07656735926866531, 0.02955346181988716, 0.049752045422792435, 0.03447839245200157, 0.008441127836704254, 0.05345163121819496, -0.060155440121889114, 0.036210980266332626, 0.0071028368547558784, 0.005771346390247345, 0.101016104221344, -1.2066883755323943e-05, 0.10401349514722824, 4.891747812507674e-05, 1.931180122483056e-05, -5.978309673082549e-06, 0.12543310225009918, 0.07202714681625366], [-1.187615271192044e-05, -0.02841116115450859, 0.05074872076511383, 0.01603102497756481, 0.007182426750659943, 0.04915112257003784, 0.03191648796200752, -0.014072190970182419, -0.0208753552287817, 0.02003430761396885, -1.5405072190333158e-05, -0.0011569251073524356, 0.010576283559203148, 7.127923163352534e-05, 0.056866247206926346, 2.3051296011544764e-05, 4.053015436511487e-05, 1.4580502465832978e-05, 0.039410173892974854, -0.011841258965432644], [-0.00030739326030015945, -0.1228528544306755, -0.5171579718589783, -0.3792005777359009, -0.15690766274929047, -0.3890514671802521, -0.22097273170948029, 0.0500708743929863, 0.10760856419801712, 0.04833502694964409, -0.22357311844825745, 0.07964356988668442, -0.10635732859373093, 0.0005018064402975142, -0.3848797380924225, 0.00034213479375466704, 0.0004528084537014365, 5.1186394557589665e-05, -0.20934005081653595, 0.17908905446529388], [-1.3539736755774356e-05, 0.03151281177997589, 0.036804553121328354, 0.014803030528128147, 0.01829945482313633, 0.01992862857878208, 0.009766035713255405, 0.018038123846054077, -0.03197360411286354, 0.021600184962153435, 0.0033005550503730774, -0.001783187733963132, 0.028059635311365128, 1.345598229818279e-05, 0.053106702864170074, 7.784497938700952e-06, 1.9695396986207925e-05, 4.075488504895475e-06, 0.05618315935134888, 0.02399233914911747], [1.2943491128680762e-05, -0.04107147082686424, 0.08123991638422012, 0.03755248337984085, 0.013219020329415798, 0.09463590383529663, 0.05634760856628418, -0.021800173446536064, -0.03676540032029152, 0.003346399636939168, 0.013235882855951786, -0.02805390954017639, -0.026066161692142487, -5.5855718528619036e-05, 0.09083738178014755, -1.6401771063101478e-05, -3.2623276638332754e-05, 5.6124745242414065e-06, 0.06181367114186287, -0.043499190360307693], [9.17871693673078e-06, 0.020415835082530975, 0.2233290672302246, 0.15538351237773895, -0.0028676469810307026, 0.2178315818309784, 0.2003713697195053, 0.0005887334118597209, 0.02898000180721283, 0.005649617873132229, 0.018595902249217033, 0.022130275145173073, 0.05156397074460983, 5.6263113947352394e-05, 0.20853035151958466, 2.1312264379957924e-06, 5.666248398483731e-05, 1.6557267372263595e-05, -0.024313023313879967, -0.1681271493434906], [-3.9920756535138935e-05, 0.07221128046512604, 0.19461295008659363, 0.16082926094532013, 0.0018962272442877293, 0.252801775932312, 0.24913808703422546, 0.034270722419023514, 0.043535519391298294, 0.019033102318644524, 0.030397707596421242, -0.00603563291952014, 0.016877301037311554, -4.929462375002913e-05, 0.23377081751823425, 3.774090873776004e-05, -7.95481992099667e-06, -3.3170308597618714e-05, -0.0028607440181076527, -0.18154433369636536], [5.5482963944086805e-05, -0.0676039531826973, -0.6769134998321533, -0.5701243281364441, 0.0021188107784837484, -0.34400126338005066, -0.4892719089984894, -0.10924052447080612, 0.14050032198429108, -0.08756624907255173, -0.06820905953645706, -0.04017017409205437, 0.06529539078474045, 0.000601986248511821, -0.5442783236503601, -4.50762381660752e-05, 0.00030471227364614606, 9.609840344637632e-05, 0.48789867758750916, 0.36961308121681213], [-8.779876225162297e-05, -0.05649195984005928, 0.3264104723930359, 0.18992877006530762, 0.0471668541431427, 0.2851904630661011, 0.2195255607366562, -0.021932333707809448, -0.10577309131622314, 0.06411218643188477, 0.035450808703899384, -0.025662723928689957, 0.0343610942363739, -9.058935393113643e-05, 0.3517152965068817, 8.730703120818362e-05, -3.898733848473057e-05, -5.382011295296252e-05, 0.1352776437997818, -0.13072071969509125], [0.00011747796088457108, -0.04599244147539139, 0.15269990265369415, 0.049056023359298706, 0.04289053753018379, 0.1248980462551117, 0.06957726925611496, -0.02053285762667656, -0.09478489309549332, 0.052518051117658615, 0.02099253050982952, -0.02484985999763012, 0.014180796220898628, -0.0001384667120873928, 0.17744728922843933, -6.769760511815548e-05, -0.00015270612493623048, -3.4365140891168267e-05, 0.14344730973243713, 0.005864416249096394], [-0.0002732903230935335, 0.025393497198820114, 0.3468751013278961, 0.27592676877975464, 0.008350905030965805, 0.343370258808136, 0.333240807056427, 0.03755432739853859, -0.003595051821321249, 0.02825828641653061, 0.014286160469055176, -0.0019198841182515025, 0.02522578276693821, 4.7836030717007816e-05, 0.3662567138671875, 0.0002207980287494138, 0.00015532378165517002, -8.54765166877769e-05, -0.006055550649762154, -0.2707648277282715], [-1.4830270692045566e-11, 7.386651077467832e-07, -2.0815214156755246e-06, -2.0495251646934776e-06, -2.312424811634628e-07, -2.077641966025112e-06, -2.1235084659565473e-06, 4.886313718088786e-07, 3.582625538456341e-07, -8.325149281063204e-08, -3.2532560112485953e-07, 1.7140473573817872e-07, 1.65794787676532e-07, -9.438981818377101e-10, -2.0479035356402164e-06, -1.3573945786826691e-11, -6.822594156297157e-10, -2.887688144159739e-10, 2.944178447705781e-07, 2.189808128605364e-06], [1.6800686353235506e-05, -0.014269444160163403, -0.03753523528575897, -0.022543493658304214, -0.008184636943042278, -0.030325794592499733, -0.023576010018587112, -0.010663111694157124, 0.005534634925425053, -0.012359566986560822, -0.003311380511149764, -0.001917317509651184, -0.011388147249817848, 1.0820112947840244e-05, -0.04139445722103119, -1.6010702893254347e-05, 1.1370560741852387e-06, 7.882425961724948e-06, -0.022139225155115128, 0.004297127015888691], [-3.3583319458685423e-10, 7.464664122380782e-07, -1.694763227533258e-06, -1.6935155144892633e-06, -1.308747243911057e-07, -1.732557734612783e-06, -1.821782916522352e-06, 5.553247319767252e-07, 3.9452729083677696e-07, 6.85092205188198e-09, -2.206675446814188e-07, 2.3424897221957508e-07, 3.9368615034618415e-07, -7.375702132383921e-11, -1.6891444829525426e-06, 2.563857737225561e-10, 1.1542268529840527e-10, -1.7006220043302989e-10, 7.871152547522797e-07, 1.756727328938723e-06], [-1.0800434852020757e-10, 9.072820148503524e-07, -2.211588252976071e-06, -2.101081918226555e-06, -1.8916534827440046e-07, -2.2109491055744e-06, -2.268229991386761e-06, 6.167668971102103e-07, 4.543790055322461e-07, -8.235524973088104e-08, -3.1822625601307664e-07, 2.1501772096144123e-07, 2.911386900450452e-07, -5.52699275235824e-10, -2.151598209820804e-06, 6.570801541760929e-11, -3.408898996415388e-10, -2.1020399310067717e-10, 4.790405796484265e-07, 2.24913856072817e-06], [-6.909553484923947e-11, 1.0089173940741603e-08, 3.6707291428683675e-08, 1.6832306926062301e-07, 1.3827969880253477e-08, 8.345194402181733e-08, 1.265868831978878e-07, 3.950178850686825e-08, -1.0614213508119974e-08, 6.059221568932571e-09, 3.878477095042854e-09, -3.287777872174047e-08, -4.802410202842111e-08, 2.553211006332823e-13, -2.107271868112548e-08, 5.3812204692249566e-11, 3.15807761885889e-11, -3.0420211488690896e-11, -2.3660225778598942e-08, -2.240922754026542e-07], [5.62329005333595e-05, -0.0032828734256327152, 0.009293616749346256, 0.001075747306458652, -0.004446897655725479, 0.00781894288957119, 0.007059555500745773, -0.007528174668550491, 0.013550544157624245, 8.779068593867123e-05, 0.0007652093190699816, 0.012511773966252804, 0.020212233066558838, 2.3300302927964367e-05, 0.005300627090036869, -4.696633550338447e-05, 2.0872344975941814e-05, 3.120550172752701e-05, -0.0010190405882894993, -0.0039050469640642405], [9.913946996675804e-05, -0.03265528380870819, 0.05397152528166771, 0.004207198042422533, 0.006518457550555468, 0.04450051113963127, 0.04170650988817215, -0.043873973190784454, -0.03997885808348656, 0.036980390548706055, 0.013838602229952812, 0.0010296283289790154, 0.0006677508936263621, 1.4178589481161907e-05, 0.06987553089857101, -9.093534026760608e-05, -2.3823833544156514e-05, 5.098169276607223e-05, 0.06384452432394028, 0.0008067195885814726], [-2.582530896688695e-06, -0.00011124415323138237, -0.0001273999223485589, -9.813908945943695e-06, 0.00014991321950219572, 0.00014861136151012033, 2.7158530429005623e-05, -0.0003548458917066455, -3.6365381674841046e-05, 0.00019977363990619779, -0.0002059375256067142, -2.502364804968238e-05, 0.00017547383322380483, -6.08888115039008e-07, 8.304174116346985e-05, 2.0237623630237067e-06, 4.956282850798743e-07, -1.7456943623983534e-06, -1.245050680154236e-05, 0.00016633758787065744], [-1.5800986147951335e-05, 0.590685248374939, -0.03206629306077957, 0.04697500914335251, 0.20153892040252686, 0.28815507888793945, -0.0105496346950531, 0.11770448088645935, 0.523368239402771, -0.2964438199996948, 1.4055891036987305, -0.2696605920791626, 1.6156960725784302, 0.0001990833115996793, -0.077911376953125, 4.4355398131301627e-05, 0.00012271235755179077, 6.863176531624049e-05, -0.09083646535873413, -0.12028470635414124], [0.0003057657741010189, -0.6805718541145325, 0.8091435432434082, 0.32187166810035706, 0.0630769357085228, 0.13096226751804352, -0.04519899934530258, 0.1742129623889923, 0.13188980519771576, -0.039401307702064514, -0.09518319368362427, 0.30187293887138367, 0.18513275682926178, -5.582208905252628e-05, -0.016513271257281303, -0.00036215048748999834, -0.0002536876709200442, 5.092822902952321e-06, -0.32242777943611145, -0.13880087435245514], [0.00041236155084334314, 0.22496840357780457, 0.11224082857370377, 0.5585747957229614, 0.05369362607598305, -0.08772175014019012, 0.03914009779691696, -0.2505248486995697, 0.07905988395214081, -0.3164058327674866, -0.061736371368169785, 0.03854960948228836, 0.06311322003602982, -0.0005454738275147974, -0.012609940022230148, -0.0004997060750611126, -0.0006084227352403104, -0.00014479944366030395, -0.614302396774292, -0.05384582653641701], [1.8883421944337897e-05, -0.27080851793289185, 0.16645078361034393, -0.060959506779909134, 1.0618995428085327, -0.11555792391300201, 0.021648714318871498, 0.31182432174682617, 0.11727354675531387, -0.05014108493924141, 0.17016540467739105, -0.08632809668779373, -0.02531888708472252, -3.286147693870589e-05, -0.1275138258934021, -3.365591328474693e-05, -2.745130768744275e-05, 2.575765574874822e-05, -0.03668312728404999, 0.1255314201116562], [5.130983117851429e-05, -0.08255021274089813, 0.19577473402023315, 0.2386542409658432, 0.1830211579799652, 0.3775063157081604, 0.2895651161670685, -0.019367018714547157, 0.3040425181388855, -0.11542332172393799, -0.22932778298854828, -0.07572241872549057, -0.1282668560743332, 0.00014702828775625676, 0.12488105893135071, 1.6743631931603886e-05, 8.805670222500339e-05, 0.00010588351142359897, -0.10538163781166077, -0.2604081630706787], [8.522752978024073e-06, 0.11496859043836594, 0.10223403573036194, 0.20725029706954956, -0.14446420967578888, 0.13440603017807007, 0.4510710835456848, 0.03828618675470352, 0.11678624153137207, 0.34326180815696716, 0.14241789281368256, -0.07849248498678207, 0.047762028872966766, 0.0006670633447356522, 0.1725647896528244, 4.041523425257765e-05, 0.000315395969664678, 0.0001884547818917781, -0.443825900554657, -0.35507118701934814], [0.00011387697304598987, 0.09322680532932281, 0.0588330440223217, 0.17863406240940094, 0.08772163838148117, -0.030649438500404358, -0.025410594418644905, 0.55660080909729, 0.5691843628883362, 0.11522596329450607, -0.17488303780555725, 0.35150453448295593, 0.9564821124076843, -0.00015080696903169155, -0.006945023313164711, -8.274365973193198e-05, -0.0001181281913886778, -1.294765024795197e-05, -0.0537496879696846, -0.013467715121805668], [0.00011958924005739391, 0.29811766743659973, 0.09904269129037857, -0.4003174901008606, 0.06956711411476135, 0.10865964740514755, 0.18000969290733337, -0.2861444056034088, 0.4893523156642914, -0.1430552899837494, 0.3250676095485687, -0.08136411011219025, 0.6922749876976013, -5.642264295602217e-05, 0.012605194933712482, -0.00015214213635772467, -0.00011879930389113724, 0.0003483612381387502, 0.015509787015616894, -0.5041933655738831], [0.0001335734559688717, 0.22540181875228882, -0.08650670945644379, -0.20796608924865723, -0.02320009469985962, -0.011403113603591919, 0.1060909703373909, 0.3573097586631775, -0.2538820207118988, 0.8776971101760864, -0.06814569234848022, -0.13984569907188416, -0.08496120572090149, -0.00020749890245497227, 0.17253485321998596, -0.0001949550787685439, -0.00023680344747845083, 4.452392386156134e-05, 0.042619410902261734, -0.1029289960861206], [0.00038989141467027366, 0.03368261083960533, 0.43999072909355164, 0.5145828723907471, 0.37023642659187317, 0.6795122623443604, -0.18125461041927338, -0.09381747245788574, 0.07684698700904846, -0.47812145948410034, 0.25047826766967773, -0.8109776973724365, -0.38919690251350403, -0.00046069754171185195, 0.4086270332336426, -0.00043631697189994156, -0.00037336055538617074, 0.00021186326921451837, -0.04896190017461777, -0.3510182797908783], [8.325339877046645e-05, -0.23397034406661987, 0.19054348766803741, 0.01967642828822136, -0.48804718255996704, -0.19105353951454163, 0.2655772566795349, 0.18680329620838165, -0.0034643399994820356, 0.3852570354938507, 0.6462450623512268, 0.3748171329498291, 0.5014169216156006, 0.00015419024566654116, -0.06322740018367767, 6.243902589631034e-06, 0.00010024527000496164, 5.277070158626884e-05, -0.11072473973035812, -0.042858004570007324], [-0.0003867219784297049, -0.6486062407493591, -0.009317988529801369, 0.17613485455513, 0.377108097076416, 0.09897120296955109, -0.5277547240257263, 0.5652441382408142, 0.3880401849746704, -0.5429284572601318, 1.343544840812683, -0.3496757447719574, 1.352730393409729, 0.0006437416304834187, -0.08666443824768066, 0.0004612056363839656, 0.0005516388337127864, -9.25879503483884e-05, -0.0028393578249961138, -0.03110630251467228], [9.015960245051247e-07, -5.5768905440345407e-05, 0.0001145319765782915, 0.00016389456868637353, -8.18687112769112e-05, -0.00030195844010449946, -0.00016371461970265955, 0.00010149279842153192, -8.35859464132227e-05, 1.1302638995402958e-05, 0.00029475882183760405, -0.00025389945949427783, -0.00021466001635417342, 3.11831456656364e-07, -0.00017763244977686554, -4.7462881411775015e-06, -2.609305965961539e-06, 1.5645296969069022e-07, 1.687811345618684e-05, -0.00014281402400229126], [-0.00010371251846663654, -0.12230044603347778, 0.2498953491449356, 0.006078725215047598, -0.2875816226005554, 0.21685324609279633, 0.2617392838001251, 0.15339159965515137, -0.020731939002871513, 0.2845272123813629, -0.29101860523223877, 0.12842674553394318, 0.0012381109409034252, -0.0004910019924864173, 0.461595356464386, 3.19240934913978e-05, -0.00016344973118975759, 1.4769880181120243e-05, -0.029788516461849213, -0.12958721816539764], [3.3046621865651105e-06, 0.00017810719145927578, 0.00013985263649374247, 2.6879230063059367e-05, -0.00013813139230478555, -0.00015033716044854373, -4.8957001126836985e-05, 0.0002274914731970057, 5.150126889930107e-05, -0.00016171042807400227, 0.0002172445529140532, -4.918222657579463e-06, -0.00015568624075967818, -2.3459610929421615e-06, -7.342152093769982e-05, -2.12480267691717e-06, -2.6892129767475126e-07, 2.3843999770178925e-06, -7.4079625846934505e-06, -0.0001529261062387377], [4.348918537289137e-06, 8.861177047947422e-05, 6.440504512283951e-05, 6.083253174438141e-05, -0.0001168946037068963, -0.00021992207621224225, -0.00010703088628361002, 0.00010401539475424215, -3.508172449073754e-05, -0.00013693340588361025, 0.00030917656840756536, -9.04591943253763e-05, -0.00013384984049480408, -4.026768237963552e-06, -0.0001147048023995012, -2.699488959478913e-06, -1.3941341876488877e-06, 1.5321602404583246e-06, -1.6908779798541218e-05, -0.00012512820831034333], [-3.5078687687928323e-07, -7.665502926101908e-05, -7.470606215065345e-05, -1.9422803234192543e-05, 0.00015857505786698312, 0.0001120250963140279, 5.489490376930917e-06, -0.00012437626719474792, 6.959455640753731e-05, 1.920109207276255e-05, -0.0001500262733316049, 3.034666588064283e-05, 0.00032447880948893726, -2.5226179900528223e-07, 6.545278301928192e-05, 5.162078196008224e-07, -6.840724040557689e-07, -6.641689651587512e-07, 2.804873656714335e-05, 2.226691685791593e-05], [0.0003518400772009045, 0.07534828037023544, 0.004069057758897543, -0.03263102099299431, -0.04832248017191887, 0.07258079946041107, -0.05906163528561592, -0.03813851624727249, -0.18209917843341827, 0.08797787129878998, 0.14267955720424652, 0.17540249228477478, 0.07211320847272873, -0.00022071183775551617, 0.10240937024354935, -0.0003403296577744186, -0.00032236456172540784, 0.0002194920089095831, 1.0619949102401733, 0.28257590532302856], [-0.00022957012697588652, 0.1386035680770874, -0.1484186053276062, -0.2411103993654251, 0.004288944415748119, -0.2048654705286026, -0.15621477365493774, -0.1456221044063568, -0.2054108828306198, 0.15772981941699982, 0.2712605893611908, 0.22165308892726898, 0.36772602796554565, 0.00030319130746647716, 0.04547133296728134, 9.906191553454846e-05, 0.0002236912987427786, -0.0001439130282960832, 0.32670116424560547, 0.4462306797504425]], "rec.bias_ih_l0": [-2.8374979592626914e-06, 0.2864004969596863, 0.3066473603248596, 0.15210852026939392, 0.2585415542125702, 0.17647585272789001, 0.2032627910375595, 0.18750323355197906, 0.2903873324394226, 0.27791598439216614, 0.25249892473220825, 0.2743433117866516, 0.3195682764053345, -1.908784042825573e-06, 0.21860112249851227, -2.556100525907823e-06, -4.5211613723949995e-06, -7.899966476543341e-07, 0.23554706573486328, 0.19351351261138916, 1.457316784581053e-06, -0.4139738380908966, -0.14239360392093658, -0.06569504737854004, 0.5626442432403564, -0.07228627055883408, -0.09821303188800812, -0.21539947390556335, -0.2412308007478714, 0.6759750843048096, -0.41304683685302734, -0.2132568657398224, -0.40365034341812134, 1.9862709450535476e-06, 0.03902602940797806, 1.6757245475673699e-06, 2.0879469957435504e-06, 1.006589513963263e-07, -0.0044740778394043446, -0.0811609998345375, 5.586440965998918e-05, 0.2740171551704407, -0.34688013792037964, -0.415140300989151, -0.07026859372854233, -0.144940584897995, -0.0017742529744282365, -0.034279946237802505, 0.4959144592285156, -0.08715970069169998, 0.4249834418296814, 0.04363833740353584, -0.17322969436645508, -0.00010735023533925414, -0.3592664897441864, -6.969841342652217e-05, -8.780707867117599e-05, 6.949984526727349e-05, -0.37727493047714233, -0.16189302504062653], "rec.bias_hh_l0": [-2.8374979592626914e-06, 0.2864004969596863, 0.3066473603248596, 0.15210852026939392, 0.2585415542125702, 0.17647585272789001, 0.2032627910375595, 0.18750323355197906, 0.2903873324394226, 0.27791598439216614, 0.2524961829185486, 0.2743433117866516, 0.3195682764053345, -1.908784042825573e-06, 0.21860112249851227, -2.556100525907823e-06, -4.5211613723949995e-06, -7.899966476543341e-07, 0.23554706573486328, 0.19351351261138916, 1.457316784581053e-06, -0.4139738380908966, -0.14239360392093658, -0.06569504737854004, 0.5626442432403564, -0.07228627055883408, -0.09821303188800812, -0.21539947390556335, -0.2412308007478714, 0.6759750843048096, -0.41304683685302734, -0.2132568657398224, -0.40365034341812134, 1.9862709450535476e-06, 0.03902602940797806, 1.6757245475673699e-06, 2.0879469957435504e-06, 1.006589513963263e-07, -0.0044740778394043446, -0.0811609998345375, 1.0220449439657386e-05, 0.10924830287694931, -0.1873646080493927, -0.18085935711860657, -0.08316847681999207, -0.12352897226810455, -0.007854782976210117, 0.01962495781481266, 0.2799919545650482, 0.07371813803911209, -0.4654582738876343, 0.0676928460597992, -0.08986158668994904, -7.476101018255576e-05, -0.18414436280727386, -3.682807073346339e-05, -5.623356992146e-05, 7.50218314351514e-05, -0.17779706418514252, -0.07752934843301773], "lin.weight": [[-5.594799858954502e-06, -0.935117244720459, -0.243170365691185, 0.1887771636247635, -0.23075145483016968, -0.2794816195964813, 0.18646059930324554, 0.3108515739440918, 0.7138636112213135, 0.2957736849784851, 0.3181995153427124, 0.1659766286611557, -0.1402023434638977, -9.31761460378766e-05, 0.40776926279067993, 3.211124931112863e-05, -3.94709495594725e-05, -0.00018554029520601034, -0.1099986881017685, 0.5142085552215576]], "lin.bias": [-0.12923672795295715]}}