{"model_data": {"model": "SimpleRNN", "input_size": 2, "skip": 1, "output_size": 1, "unit_type": "GRU", "num_layers": 1, "hidden_size": 20, "bias_fl": true}, "state_dict": {"rec.weight_ih_l0": [[-3.9381274063998717e-07, -4.552646544198069e-07], [0.062358442693948746, 0.34701186418533325], [0.06968725472688675, 0.19280661642551422], [0.07734182476997375, 0.21760240197181702], [-0.00141308200545609, 0.17668062448501587], [0.021570974960923195, 0.12488242983818054], [-0.007915380410850048, 0.1257735937833786], [-0.03656958416104317, 0.25815290212631226], [0.10983133316040039, 0.2249869853258133], [-0.026609493419528008, 0.11471955478191376], [0.9178485870361328, -0.12052682787179947], [-0.08284787088632584, 0.12310387194156647], [0.07723858952522278, 0.3608708083629608], [-7.369786203526019e-07, -7.111236186574388e-07], [-0.009625116363167763, 0.06367453932762146], [-2.1756477508461103e-06, -1.9923638774344e-06], [-1.8427984969093814e-06, -3.4551731005194597e-06], [-1.015867951537075e-06, -4.056943453178974e-06], [-0.05856361612677574, 0.17430467903614044], [-0.05250079929828644, 0.13441605865955353], [-6.931922258424095e-10, -3.9676970686741697e-07], [-0.0037356780376285315, -0.26151418685913086], [-0.02401609532535076, -0.052194055169820786], [0.005179448518902063, -0.050993070006370544], [-0.03878508508205414, 0.38383784890174866], [-0.010910705663263798, -0.0313018262386322], [0.026561737060546875, -0.07599327713251114], [-0.005154931917786598, -0.22962284088134766], [-0.002583021530881524, -0.25197115540504456], [0.20764602720737457, 0.571452260017395], [0.0035795217845588923, -0.29564931988716125], [0.01635419949889183, -0.1252169907093048], [-0.016771724447607994, -0.36824455857276917], [1.7058118473300965e-08, -1.3069849273961154e-06], [0.011231710202991962, 0.027140159159898758], [-4.4558102985092773e-08, -6.362211024679709e-07], [-3.00153075727394e-08, -7.799071681802161e-07], [1.4480247045867145e-07, 6.217870804903214e-07], [-0.003432435682043433, -0.019681110978126526], [-0.0143283661454916, -0.05271422863006592], [0.00014210374501999468, -0.00013864484208170325], [-1.1914445161819458, -0.022025762125849724], [0.0802181214094162, -0.08279174566268921], [0.15512172877788544, 0.04285711050033569], [0.31079432368278503, -0.004277670290321112], [0.34770503640174866, -0.36417070031166077], [-0.4094454050064087, -0.43545570969581604], [0.07435043901205063, 0.10734272748231888], [-0.4121674597263336, -0.35338088870048523], [-0.18668337166309357, 0.07449005544185638], [-1.1090952157974243, 0.7135763168334961], [-0.0743226632475853, 0.1474793255329132], [-1.4606235027313232, 0.07210610806941986], [-0.000238875494687818, 0.00011322517093503848], [0.03824567422270775, -0.30255892872810364], [0.00024217963800765574, -0.00019867868104483932], [0.0002505536249373108, -0.0001999831001739949], [-0.00038215884706005454, 2.303064547959366e-06], [0.258327841758728, 0.4714682102203369], [-0.1491273194551468, 0.4955201745033264]], "rec.weight_hh_l0": [[1.7879080160820848e-10, 4.7143723236331425e-07, 2.9686117386518163e-07, 1.5115999474346609e-07, -1.4484088239896664e-07, 4.1710703158059914e-07, 4.0984429006130085e-07, 3.6427195482247043e-07, 9.836877268298849e-08, -1.4233692446907753e-08, 6.654567386021881e-08, 2.6288955723430263e-07, 5.225247150519863e-07, -3.727083919269347e-10, 3.686730849494779e-07, 1.35948571844402e-10, 5.956345139335184e-11, -2.840366830625385e-10, -4.537034214990854e-08, -2.2420326217797992e-07], [-0.000138887669891119, 0.11348745971918106, -0.32174137234687805, -0.16124610602855682, 0.059384897351264954, -0.38813257217407227, -0.45829087495803833, -0.066440649330616, -0.19857408106327057, -0.03708091005682945, -0.026865806430578232, -0.05110819265246391, 0.09767624735832214, 0.00024475634563714266, -0.2711862623691559, -6.635109457420185e-05, 8.381243969779462e-05, 0.00024524700711481273, -0.01689145341515541, 0.42103680968284607], [-8.035812584239466e-07, -0.19214193522930145, -0.06319709122180939, -0.12088382244110107, -0.03500808775424957, -0.12680774927139282, -0.17099688947200775, -0.0660981610417366, 0.0708463042974472, -0.09403046220541, 0.012254331260919571, 0.033574171364307404, -0.09292112290859222, 3.7091647300258046e-06, -0.22818809747695923, 6.372997449943796e-05, 5.320490163285285e-05, 2.6781321139424108e-05, -0.14580944180488586, -0.018754322081804276], [-0.00010851242404896766, 0.04815855249762535, -0.16220706701278687, -0.08066702634096146, 0.06830471009016037, -0.19146934151649475, -0.22640280425548553, 0.02199951373040676, -0.021613378077745438, -0.014652610756456852, -0.04838816076517105, -0.00966386403888464, 0.0662127137184143, 0.0001625604199944064, -0.17775629460811615, -0.00017020979430526495, -0.00011206297494936734, 0.0001667403703322634, 0.034301478415727615, 0.19629016518592834], [-0.00015084340702742338, -0.06436524540185928, -0.07222921401262283, -0.20062561333179474, -0.0266698207706213, -0.10226599872112274, -0.1222800463438034, 0.012017343193292618, 0.06598290801048279, 0.07114475220441818, -0.015505511313676834, 0.0716305822134018, -0.04231712594628334, 0.0002447165024932474, -0.15395841002464294, -0.00012250084546394646, 5.716997475246899e-05, 4.101874947082251e-05, 0.05167263746261597, 0.1126970648765564], [-0.00011361308861523867, -0.08047205954790115, -0.13870498538017273, -0.08094613254070282, 0.004770450294017792, -0.1039256826043129, -0.09532658755779266, -0.04710732772946358, 0.011729453690350056, -0.005332570988684893, 0.016054226085543633, -0.025544093921780586, -0.06224580481648445, 4.747896673507057e-05, -0.1691369116306305, -0.00013431251863949, -3.353089414304122e-05, 0.00023715593852102757, -0.05788064002990723, 0.019161397591233253], [-2.0489516828092746e-05, 0.10569978505373001, -0.1246013194322586, -0.10555832087993622, -0.015034188516438007, -0.07971852272748947, -0.040666211396455765, 0.10261321067810059, 0.10517002642154694, -0.02516929991543293, 0.011143854819238186, 0.04598023742437363, -0.03857387974858284, 0.00011701306357281283, -0.13837823271751404, 8.517118112649769e-05, 0.0001505114632891491, 3.5161730920663103e-05, -0.08362291753292084, 0.049090877175331116], [-4.2228253732901067e-05, 0.019114641472697258, -0.20880597829818726, -0.195948988199234, 0.023331737145781517, -0.26418671011924744, -0.22385869920253754, -0.025644168257713318, -0.0585363507270813, 0.04379021003842354, -0.025660548359155655, -0.02345009706914425, -0.050796058028936386, -4.948977948515676e-05, -0.1856725960969925, -0.00020816280448343605, -0.0001464877714170143, 9.507309732725844e-05, 0.1265234351158142, 0.25136956572532654], [2.2451918994192965e-05, -0.07474439591169357, -0.14304859936237335, -0.15351837873458862, -0.0357036292552948, -0.16270843148231506, -0.13903705775737762, -0.07704602181911469, 0.11937952041625977, -0.06641049683094025, -0.07332335412502289, 0.024294544011354446, -0.07845956832170486, 1.1945860933337826e-05, -0.225601926445961, 8.112272917060181e-05, 0.00011084050493082032, 0.00015593486023135483, 0.05982038378715515, 0.07260467857122421], [-3.53593313775491e-05, 0.02931245230138302, -0.13752363622188568, -0.1431582272052765, -0.022817770019173622, -0.12667469680309296, -0.06232871487736702, -0.09685281664133072, 0.07101122289896011, 0.02199043706059456, 0.06103925034403801, 0.0039634122513234615, -0.09472630172967911, 8.6078311142046e-05, -0.18030865490436554, -4.294647078495473e-05, -3.612592627177946e-05, 0.000137547220219858, -0.0073340837843716145, 0.04231201857328415], [-0.0002219111775048077, -0.10828425735235214, 0.04905533045530319, -0.05340803042054176, -0.20607423782348633, 0.04561943933367729, 0.3204365670681, 0.004814189858734608, 0.2753993570804596, 0.24575890600681305, -0.31734493374824524, 0.5864105224609375, -0.24040021002292633, 0.0003302142722532153, -0.07890220731496811, 8.937865641200915e-05, 0.00034703040728345513, -8.183733007172123e-05, -0.24068373441696167, -0.18354983627796173], [3.6223842471372336e-05, 0.057817619293928146, -0.2174064815044403, -0.11944858729839325, -0.03575529903173447, -0.12152523547410965, -0.055691346526145935, -0.14441855251789093, 0.11896141618490219, -0.03407389670610428, 0.11259163916110992, -0.000714625755790621, -0.1366157978773117, -3.4734544897219166e-05, -0.2102285623550415, -2.1127763830008917e-05, -9.37551012611948e-05, -0.00011915347567992285, -0.10812477022409439, -0.01880195178091526], [-3.877166818710975e-06, -0.0387052446603775, -0.22361095249652863, -0.3286549746990204, 0.16933465003967285, -0.2733263373374939, -0.35066884756088257, 0.06115524843335152, -0.0801919549703598, 0.006200364325195551, 0.0325808972120285, -0.005617895163595676, 0.15814584493637085, 8.050935866776854e-05, -0.2959466278553009, 0.00010744039173005149, 0.00014102614659350365, 0.0003076291468460113, 0.16502340137958527, 0.330060213804245], [7.39208749767073e-10, -3.1828290047997143e-07, 5.455018481370644e-07, 2.0859371829828888e-07, -4.862297942054283e-07, 5.176060540179606e-07, 6.484330015155138e-07, -6.71036389121582e-07, -2.944777861557668e-07, -6.737477065144049e-07, 3.62814006393819e-07, 7.494187315160161e-08, 8.229880563703773e-07, -1.0605660794027472e-09, 7.000992354733171e-07, 9.985392512845692e-10, 8.502418213929275e-10, -3.308939788837506e-10, -2.2332017124426784e-07, -5.515656198440411e-07], [4.826718577533029e-05, -0.00803963840007782, -0.1255505084991455, -0.08981417119503021, -0.047388505190610886, -0.05598621815443039, 0.00389838102273643, -0.04652505740523338, 0.11931873857975006, -0.0191792119294405, 0.005379277281463146, 0.013279574923217297, -0.10589881986379623, -4.299286229070276e-05, -0.14890889823436737, 7.656803063582629e-05, 6.742368714185432e-05, 3.634832319221459e-05, -0.10703223943710327, -0.03670641779899597], [1.5300406497331664e-09, 2.3323123343743646e-07, 1.6425482272097724e-06, 9.729118346513133e-07, 6.448368594647036e-07, 2.1116636617080076e-06, 1.8511440202928497e-06, 1.865173686610433e-07, 4.128103796574578e-07, 8.116560934467998e-07, -3.2429798579869384e-07, 1.1868202136611217e-06, 4.298866826957237e-07, -2.018845979279149e-09, 1.7979990616368013e-06, 2.0909234343946537e-09, 9.507558074162148e-10, -1.9891042146724658e-09, -9.217224601343332e-07, -1.5168255913522444e-06], [1.096155832769341e-09, -9.810302117330139e-07, 3.2741875202191295e-06, 2.387689619354205e-06, 1.3341225439944537e-06, 3.6280080166761763e-06, 2.9725031254201895e-06, -4.576258447741566e-07, -1.5362285239461926e-06, 1.658084443079133e-06, -6.293916499089391e-08, 6.011033519826015e-07, 8.602096386312041e-07, -1.5251391261017488e-09, 3.5428722640062915e-06, 2.0325641170160225e-09, 2.0639325803983866e-09, 1.5017731502808829e-09, -8.864927991680815e-08, -1.186203007819131e-06], [1.0168779152053276e-09, 3.367627414263552e-06, 3.898741852026433e-06, 1.4071960094952374e-06, 9.48733315908612e-07, 3.7574852740362985e-06, 2.725204240050516e-06, 2.957391188829206e-06, -5.15332430950366e-07, 1.3062780226391624e-06, 9.058220484803314e-07, 5.700249516848999e-07, 1.1616330084507354e-06, -1.799857374251701e-09, 4.963722858519759e-06, 2.4392705633147216e-09, 3.179753349513703e-09, 2.264056275791404e-09, 9.159297746919037e-07, -3.1226363716996275e-07], [-0.00011363353405613452, 0.055937495082616806, -0.19467659294605255, -0.15866528451442719, -0.031808409839868546, -0.19961553812026978, -0.13782334327697754, -0.0077699944376945496, 0.09110693633556366, 0.06119450926780701, 0.0353400819003582, 0.013389604166150093, -0.05467763543128967, 4.63622018287424e-05, -0.21419647336006165, -0.00037838987191207707, -0.0003673543396871537, -0.0002343342493986711, 0.0869402214884758, 0.0981074720621109], [-2.3718912416370586e-05, 0.049815110862255096, -0.16098608076572418, -0.07712332904338837, 0.03354480490088463, -0.10683630406856537, -0.05508008971810341, 0.05747281387448311, 0.11153437197208405, -0.013833591714501381, -0.02423320710659027, 0.034068748354911804, 0.0686464011669159, 3.9398968510795385e-05, -0.1788773387670517, -4.8336601139453705e-06, 6.84662809362635e-05, 8.73982353368774e-05, -0.0860690176486969, 0.11714807152748108], [-2.2466672619514405e-11, 2.5295608452324814e-07, 4.0250523625218193e-07, 1.903190280927447e-07, 1.5009015896794153e-07, 4.1029372255252383e-07, 3.0952870133660326e-07, 2.072903555472294e-07, -1.0586204268747679e-07, 1.3736287485244247e-07, 9.278929269385117e-08, -4.0594308359231945e-08, 2.6716227807810355e-07, 8.899984915711201e-12, 4.86494968754414e-07, -5.229812069518225e-11, -3.49420457845806e-11, 2.0422052937618673e-11, 4.6148664978318266e-07, -5.434847238916518e-08], [8.889959281077608e-05, -0.01900717429816723, 0.3231199383735657, 0.17386168241500854, 0.0747435986995697, 0.24846188724040985, 0.1725344955921173, 0.06171789765357971, -0.12493524700403214, 0.0707179605960846, 0.005277772434055805, -0.010663419961929321, 0.09510288387537003, -0.00016719207633286715, 0.34201791882514954, -2.837761348928325e-05, -9.560654871165752e-05, -0.00019693162175826728, 0.18251129984855652, -0.0765848457813263], [-6.229975610949623e-07, 0.0966259241104126, 0.07808203995227814, 0.03584142029285431, 0.054798468947410583, 0.038419459015131, 0.011313563212752342, 0.0632627010345459, -0.06163369119167328, 0.03921118006110191, 0.009406324476003647, 0.001478936173953116, 0.10709469765424728, 1.587037900208088e-06, 0.10845662653446198, 6.0046724684070796e-05, 1.4860304872854613e-05, 9.890217916108668e-05, 0.1275082528591156, 0.07604604214429855], [-3.029674189747311e-06, -0.038553379476070404, 0.055908527225255966, 0.018435100093483925, 0.011385290883481503, 0.05193021520972252, 0.03263307362794876, -0.021483490243554115, -0.02807147055864334, 0.023636512458324432, 0.004519099835306406, -0.0015705530531704426, 0.01828022301197052, 7.490766620321665e-06, 0.061036616563797, -1.7703789580991725e-06, 2.4579097953392193e-05, 0.00015087115752976388, 0.04689484089612961, -0.011536028236150742], [7.818612357368693e-05, -0.12373194843530655, -0.5056115388870239, -0.37850549817085266, -0.14871592819690704, -0.3838402330875397, -0.2159792184829712, 0.04673457890748978, 0.11050231754779816, 0.051238659769296646, -0.22115139663219452, 0.08081839233636856, -0.10545724630355835, -0.00026454776525497437, -0.3802853524684906, 0.00014060150715522468, 0.00021641087369062006, 0.00037151016294956207, -0.21305453777313232, 0.17163164913654327], [-2.1225148884695955e-05, 0.0477692186832428, 0.031296223402023315, 0.02004537731409073, 0.011774991638958454, 0.020512398332357407, 0.020684435963630676, 0.020201725885272026, -0.022108284756541252, 0.01812063902616501, 0.0046674334444105625, -0.002520212670788169, 0.02491527423262596, 1.8981536413775757e-05, 0.0508369505405426, -7.556516356999055e-05, -8.375640754820779e-05, 6.545156793436036e-05, 0.0488155372440815, 0.01484167855232954], [5.952028004685417e-06, -0.03681009262800217, 0.07689420878887177, 0.036593493074178696, 0.008450496941804886, 0.09138550609350204, 0.05409762263298035, -0.02464217133820057, -0.03221040964126587, -0.0009629265405237675, 0.017291486263275146, -0.030440904200077057, -0.030898403376340866, -5.316434180713259e-05, 0.08640596270561218, 2.8981035939068533e-05, 4.116715717827901e-05, 1.786457869457081e-05, 0.05569911003112793, -0.04322275519371033], [6.155992741696537e-05, 0.01578589901328087, 0.22602984309196472, 0.1551024615764618, -0.0019227232551202178, 0.22051933407783508, 0.20329612493515015, -0.003779421327635646, 0.02670888416469097, 0.009741679765284061, 0.019076470285654068, 0.023789256811141968, 0.05109579488635063, -0.00010545600525802001, 0.21058423817157745, 0.00010914415906881914, 9.87814346444793e-05, 2.780080285447184e-05, -0.012246709316968918, -0.17015902698040009], [-1.548564796394203e-05, 0.05718577280640602, 0.19480547308921814, 0.15621648728847504, -0.0005790603463537991, 0.25083476305007935, 0.24473577737808228, 0.02962394617497921, 0.03556336089968681, 0.018168380483984947, 0.027054741978645325, -0.007660042028874159, 0.011704371310770512, 5.57587463845266e-06, 0.231632262468338, -6.565497187693836e-06, 1.6667083400534466e-05, -1.569794403621927e-05, 0.007296310737729073, -0.17754524946212769], [0.0001562216493766755, -0.06432817131280899, -0.6683211922645569, -0.5641172528266907, 0.005961084738373756, -0.34520822763442993, -0.4855906665325165, -0.10771472007036209, 0.13427075743675232, -0.08308561891317368, -0.07583843916654587, -0.036021314561367035, 0.07300708442926407, -0.00019339146092534065, -0.5431249737739563, 3.364002986927517e-05, -0.0001765016932040453, -0.0003595561138354242, 0.48941168189048767, 0.3702766001224518], [-8.031551260501146e-06, -0.05928327888250351, 0.325472354888916, 0.19000637531280518, 0.05868593603372574, 0.28430256247520447, 0.2175167351961136, -0.021076088771224022, -0.10966258496046066, 0.07084280997514725, 0.03826174512505531, -0.02970191463828087, 0.04072149842977524, -3.245061088819057e-05, 0.35071638226509094, -4.4121617975179106e-05, 8.703654202690814e-06, 0.00011975828965660185, 0.1486879289150238, -0.12666945159435272], [1.5875662938924506e-05, -0.04821518063545227, 0.1554369479417801, 0.05525460094213486, 0.04555165395140648, 0.12826690077781677, 0.07162342220544815, -0.023419857025146484, -0.09564271569252014, 0.050366055220365524, 0.02593718282878399, -0.02891184762120247, 0.01540884468704462, -4.8421126848552376e-05, 0.17951101064682007, -2.7972919269814156e-06, -7.045696861496253e-07, -2.2707512471242808e-05, 0.14666756987571716, 0.0029186687897890806], [4.907878610538319e-05, 0.023102229461073875, 0.34524285793304443, 0.2748399078845978, 0.011635536327958107, 0.34069499373435974, 0.3317614793777466, 0.03830515593290329, -0.0027290203142911196, 0.026773789897561073, 0.012694651260972023, 0.001414056750945747, 0.025934822857379913, -9.290336311096326e-05, 0.36332637071609497, 1.8225078747491352e-05, -3.093955456279218e-05, -0.00013819399464409798, -0.010091573931276798, -0.26939573884010315], [2.8556578976490776e-11, 9.111077758916508e-08, 1.3834306855642353e-06, 6.704358384013176e-07, 3.5617321714198624e-07, 1.381356241836329e-06, 1.070041776074504e-06, -4.285586641117334e-08, -4.036922121031239e-07, 2.3551828576273692e-07, 3.352902524511592e-07, -9.991426708211293e-08, 5.986719315842493e-07, -8.6940482590947e-11, 1.5359422604888096e-06, 5.195910975780427e-13, 7.082222308607555e-11, 1.630486023973532e-10, 1.212311644849251e-06, -4.573450667066936e-07], [1.5242691915773321e-05, -0.021914461627602577, -0.034464653581380844, -0.01880735158920288, -0.00963876023888588, -0.021077385172247887, -0.01833312213420868, -0.014126394875347614, 0.009156042709946632, -0.014950032345950603, -0.004887671209871769, -0.004404514096677303, -0.01739894039928913, -3.3694646845106035e-05, -0.04164516553282738, 5.521436833078042e-05, 7.326472405111417e-05, -2.6293420887668617e-05, -0.027936426922678947, -0.005515374708920717], [-6.240788441580492e-11, -4.475863022435078e-07, 6.073697704778169e-07, 3.122207772321417e-07, 8.96259564342472e-08, 6.425024139389279e-07, 6.054510777175892e-07, -4.864979814556136e-07, -4.6494466232616105e-07, 1.2178773545201693e-07, 2.3878328647697344e-07, -9.279413148988169e-08, 1.5466877556491454e-08, 2.4808790438646255e-11, 6.39361928733706e-07, -2.2582432451789813e-11, 8.590186201251626e-11, 2.0294191327430156e-10, 3.028854678177595e-07, -3.707025086896465e-07], [7.641075966402511e-11, -1.984238224395085e-06, 8.55478617722838e-07, 3.545852109709813e-07, -1.567755560927253e-07, 7.893450515439326e-07, 7.46625346437213e-07, -1.8408783262202633e-06, -8.597648957220372e-07, -9.386895527541128e-08, 3.1040937642501376e-07, -8.790788541546135e-08, -6.003972998769314e-07, -1.4736437070617114e-10, 7.16608099082805e-07, 2.352006922556882e-10, 3.792616221076628e-10, 2.756942174553245e-10, 5.328233143586658e-08, -6.579422802133195e-07], [8.337661810964292e-11, -7.25445886473608e-07, -6.105335046413529e-07, -1.4711673657075153e-07, -2.8727723133670224e-07, -6.153211415949045e-07, -4.177048822384677e-07, -4.900971930510423e-07, -7.136053170597734e-08, -2.9958530944895756e-07, -4.2282383105884946e-07, 2.0097154163067898e-07, -2.526593618767947e-07, -1.0375189596345535e-10, -7.938876365187753e-07, 2.1242093153905905e-11, -6.281723058387811e-11, -3.0597946398813747e-10, -4.707150367266877e-07, 5.102215538954624e-08], [-3.6924000141880242e-06, -0.004969821311533451, 0.02106553502380848, 0.01255774311721325, -0.004491910804063082, 0.01993667148053646, 0.01968906819820404, -0.01245342381298542, 0.010211409069597721, -0.0010602975962683558, 0.009658461436629295, 0.007087669800966978, 0.015838338062167168, -4.026011538371677e-06, 0.01669231802225113, -2.0398623746586964e-05, -8.506374797434546e-06, 6.674552423646674e-05, -0.004406103398650885, -0.016174759715795517], [-2.776550354610663e-05, -0.023158185184001923, 0.053924594074487686, 0.009695012122392654, 0.002604269189760089, 0.04666169732809067, 0.04478440061211586, -0.038897041231393814, -0.035591959953308105, 0.034123387187719345, 0.015980122610926628, -1.7505335563328117e-05, -0.003512329887598753, 4.105225161765702e-05, 0.0713789239525795, -1.3540074178308714e-05, 2.0747633243445307e-05, 0.00017160354764200747, 0.0586184486746788, -0.002929975977167487], [-4.414993384216359e-07, -0.00024350389139726758, 0.00011261465988354757, -0.00011398234346415848, 0.00016096587933134288, 7.710553472861648e-05, -0.00012063985195709392, -0.00016018518363125622, 0.00037528344546444714, 0.00024184214998967946, -0.000209934645681642, -0.00026209570933133364, 0.00019050686387345195, 4.689134982527321e-07, -0.00012751191388815641, -7.789932965351909e-07, -7.039815841380914e-07, -1.0204719274042873e-06, 0.000203106232220307, 6.278801447479054e-05], [3.846988329314627e-05, 0.5957263708114624, -0.028615837916731834, 0.053234148770570755, 0.1992819607257843, 0.28940489888191223, -0.008822742849588394, 0.11136887967586517, 0.5163293480873108, -0.29638761281967163, 1.4100289344787598, -0.2713521420955658, 1.6118357181549072, 0.00011181134323123842, -0.0799608901143074, -1.672440703259781e-05, -0.0002474621869623661, -0.00030651202541776, -0.09220285713672638, -0.1180797591805458], [0.00014218769501894712, -0.6712476015090942, 0.8161427974700928, 0.3228890895843506, 0.06339205056428909, 0.12971387803554535, -0.04907023906707764, 0.16179494559764862, 0.1395978480577469, -0.04026947170495987, -0.09166432172060013, 0.3001544177532196, 0.18484462797641754, -0.00030930127832107246, -0.016473110765218735, 3.128919342998415e-05, -7.93084836914204e-05, -0.00028252528863959014, -0.3217833638191223, -0.14050425589084625], [-0.00032163847936317325, 0.227309912443161, 0.11422323435544968, 0.5520890951156616, 0.06246767193078995, -0.08769050985574722, 0.03141137212514877, -0.25002941489219666, 0.08475098758935928, -0.3184601068496704, -0.06527090072631836, 0.03215545788407326, 0.06617509573698044, 0.00043756116065196693, -0.008275657892227173, -0.0003908964281436056, -0.00034047497319988906, -0.0001444973750039935, -0.6122643351554871, -0.04795515909790993], [7.693389488849789e-05, -0.2614615857601166, 0.16830874979496002, -0.061625026166439056, 1.0659191608428955, -0.11176660656929016, 0.018072867766022682, 0.3028160631656647, 0.11622416973114014, -0.03833584114909172, 0.16929547488689423, -0.08267331123352051, -0.02595607005059719, -0.00022419991728384048, -0.12887884676456451, -3.0832484299025964e-06, -1.5786026779096574e-05, 0.00017359100456815213, -0.03915838524699211, 0.12106946110725403], [-3.0170798709150404e-05, -0.08591141551733017, 0.19397546350955963, 0.23898527026176453, 0.18564286828041077, 0.3772141933441162, 0.29615727066993713, -0.01824069209396839, 0.30329951643943787, -0.11074221879243851, -0.22264884412288666, -0.07839951664209366, -0.13068093359470367, 7.675583037780598e-05, 0.11735210567712784, -8.370794967049733e-05, -0.00017839159409049898, 0.00034505821531638503, -0.10665576159954071, -0.25902000069618225], [-1.1208868272660766e-05, 0.11481479555368423, 0.10090667009353638, 0.19876356422901154, -0.14506524801254272, 0.13906577229499817, 0.4511377215385437, 0.03792261332273483, 0.12054204940795898, 0.34153762459754944, 0.13953901827335358, -0.07592008262872696, 0.04460841044783592, 0.0002950938360299915, 0.172024667263031, 0.0002809181169141084, 4.750119842356071e-05, -0.0002680832985788584, -0.4387393295764923, -0.35414278507232666], [1.9993705791421235e-05, 0.09732744842767715, 0.05252915620803833, 0.1776556372642517, 0.083773173391819, -0.033472057431936264, -0.03322912007570267, 0.550915002822876, 0.570141077041626, 0.11420628428459167, -0.18025080859661102, 0.35076913237571716, 0.9541251063346863, 0.0001340876769972965, -0.004222939256578684, -1.542637255624868e-05, -7.192522843979532e-06, 0.0002772517327684909, -0.05296583101153374, -0.012855405919253826], [0.00029473367612808943, 0.3032552897930145, 0.09589890390634537, -0.4011882543563843, 0.06431447714567184, 0.11120105534791946, 0.18669641017913818, -0.2897004783153534, 0.4868816137313843, -0.13393481075763702, 0.32726311683654785, -0.07936111092567444, 0.6939964294433594, -0.0004634760261978954, 0.012041290290653706, 0.0008087024907581508, 0.000975240720435977, 0.00027333441539667547, 0.020145216956734657, -0.504315197467804], [0.0003201670479029417, 0.21492429077625275, -0.09066759794950485, -0.20503513514995575, -0.007782401982694864, -0.010113751515746117, 0.10503989458084106, 0.35237908363342285, -0.24509689211845398, 0.8911042809486389, -0.06551863253116608, -0.13277435302734375, -0.08818605542182922, -0.0007396147702820599, 0.17360398173332214, 0.00023790236446075141, 0.00023594840604346246, 0.00027002973365597427, 0.037935011088848114, -0.1003262996673584], [0.00024723116075620055, 0.03615209832787514, 0.44132861495018005, 0.5224853157997131, 0.368653267621994, 0.6756792664527893, -0.1825411468744278, -0.1004653051495552, 0.07918258011341095, -0.4785562753677368, 0.25222069025039673, -0.8115929961204529, -0.39153754711151123, -0.00020925721037201583, 0.40684279799461365, 0.00027826864970847964, 2.187537211284507e-05, -0.0004585489514283836, -0.05477006360888481, -0.351946622133255], [2.219410271209199e-05, -0.2300214022397995, 0.19035281240940094, 0.01785912550985813, -0.4881199300289154, -0.1906345635652542, 0.2613615393638611, 0.18090760707855225, -0.003219505539163947, 0.3975679576396942, 0.6391961574554443, 0.37432172894477844, 0.5002182126045227, 0.00013688611215911806, -0.061457984149456024, 0.0002214426640421152, 8.041911496547982e-05, -0.00015226777759380639, -0.1118474081158638, -0.048000067472457886], [-0.00024468667106702924, -0.6514244079589844, -0.005526693072170019, 0.1779695302248001, 0.36900386214256287, 0.09183372557163239, -0.5270899534225464, 0.5626418590545654, 0.39148685336112976, -0.5430227518081665, 1.3467435836791992, -0.3524782061576843, 1.3622921705245972, 0.0005457103834487498, -0.08582565188407898, -0.00027471347129903734, -0.00047982754767872393, -0.0006083885673433542, -0.009226350113749504, -0.03463849797844887], [4.5278608240550966e-07, 0.0004947073175571859, -0.00012718187645077705, 0.00016611478349659592, -0.00019113718008156866, -0.0001335642737103626, -1.4177469893184025e-05, 3.870161151553475e-07, -0.0003487093490548432, -0.00045795165351592004, 0.00032039699726738036, 0.00024793617194518447, -0.00013467046665027738, -3.0628839908786176e-07, 0.0001117215069825761, 1.0024818948295433e-06, 5.950491299699934e-07, 1.1441336482675979e-06, -0.0002298016333952546, -8.501688716933131e-05], [-0.00023571062774863094, -0.12021197378635406, 0.24822498857975006, 0.00796044897288084, -0.28877413272857666, 0.21358029544353485, 0.25927668809890747, 0.15797339379787445, -0.022788958624005318, 0.28299573063850403, -0.2950863540172577, 0.13128453493118286, 0.003399399109184742, 0.00028747200849466026, 0.4655514061450958, -5.964302545180544e-05, 0.0001890777493827045, 5.6439741456415504e-05, -0.029025856405496597, -0.12722539901733398], [-8.758087233218248e-07, -0.0004582202818710357, 2.8560973078128882e-05, -0.0001688194606686011, 0.0001557441719342023, 0.00016581895761191845, -3.628270860644989e-05, 0.00015917849668767303, 1.011583208310185e-05, 0.0002546908799558878, -0.0002888297021854669, -0.0005601251614280045, 0.00014972711505834013, 9.327730481345498e-07, -1.1894509043486323e-05, -7.810906481608981e-07, -1.4152303720038617e-06, -3.024120360350935e-06, 0.0002963797887787223, 9.87037128652446e-06], [-1.1759353810703033e-06, -0.0004752563254442066, 4.316124250181019e-05, -0.00031417523860000074, 7.333506073337048e-05, 0.00020268087973818183, 4.4484066165750846e-05, 0.0003513116389513016, -0.0003147136594634503, 0.000244651164393872, -0.00016068635159172118, -0.0004319089057389647, -1.1564027772692498e-05, 1.1383079936422291e-06, 0.00014630885561928153, -8.119468475342728e-07, -1.862290673670941e-06, -4.416107458382612e-06, 0.00018705743423197418, 9.11866663955152e-05], [-2.470498884576955e-06, -0.0004141306271776557, -5.6779499573167413e-05, -5.2848216000711545e-05, 0.0001425030204700306, -0.00012323529517743737, 0.00015377615636680275, 0.0001279206044273451, -0.0002034369099419564, 0.0004713584785349667, 0.0002602424065116793, 0.0003464401816017926, 1.9201719624106772e-05, 2.237615262856707e-06, -1.4960758562665433e-05, -4.937804078508634e-06, -6.865872364869574e-06, -4.714572241937276e-06, 7.301042205654085e-05, 0.00010305145406164229], [1.8411445125821047e-05, 0.07419723272323608, 0.0027731081936508417, -0.03343943879008293, -0.050554100424051285, 0.0727391317486763, -0.05994000285863876, -0.03793210908770561, -0.17846621572971344, 0.08888620883226395, 0.1449877768754959, 0.17854903638362885, 0.07084792852401733, 3.797179670073092e-05, 0.10460341721773148, 0.00024436076637357473, 0.00042684562504291534, 0.00031854218104854226, 1.0575299263000488, 0.28352251648902893], [-1.2704204891633708e-05, 0.13927002251148224, -0.15400364995002747, -0.2415357083082199, 0.008457866497337818, -0.20358145236968994, -0.15371781587600708, -0.1432969868183136, -0.21000438928604126, 0.16027262806892395, 0.269060343503952, 0.22137796878814697, 0.3672615885734558, -0.00020511742332018912, 0.04906915873289108, 0.00010386112262494862, 4.244191586622037e-05, -0.00026809354312717915, 0.32865190505981445, 0.4484637379646301]], "rec.bias_ih_l0": [-4.478181381273316e-07, 0.28737643361091614, 0.30586522817611694, 0.15767665207386017, 0.26213890314102173, 0.1772167682647705, 0.20215339958667755, 0.19332259893417358, 0.289786159992218, 0.2802082896232605, 0.25120553374290466, 0.2722906470298767, 0.3171937167644501, -9.657343298385968e-07, 0.2191232293844223, -1.830005317060568e-06, -3.3085116228903644e-06, -6.221664534677984e-06, 0.23515504598617554, 0.19421859085559845, -5.682164214704244e-07, -0.4134812355041504, -0.14896908402442932, -0.07092676311731339, 0.5541273355484009, -0.06629740446805954, -0.09238345921039581, -0.21671396493911743, -0.23883485794067383, 0.668290376663208, -0.41188907623291016, -0.21542078256607056, -0.40030810236930847, -1.7445904632040765e-06, 0.049128517508506775, -6.843426376690331e-07, -6.841429467385751e-07, 8.981598966784077e-07, -0.01568501815199852, -0.08154015243053436, 0.0001190571128972806, 0.27814751863479614, -0.3433665931224823, -0.4163242280483246, -0.0675392597913742, -0.1467805802822113, -3.211217290299828e-06, -0.03735821694135666, 0.4937291741371155, -0.08433470129966736, 0.4297275245189667, 0.04470161348581314, -0.17567682266235352, -0.000173271750099957, -0.3546043932437897, 0.0002650814421940595, 0.00024300263612531126, -8.901616820367053e-05, -0.3738080859184265, -0.15998217463493347], "rec.bias_hh_l0": [-4.478181381273316e-07, 0.28737643361091614, 0.30586522817611694, 0.15767665207386017, 0.26213890314102173, 0.1772167682647705, 0.20215339958667755, 0.19332259893417358, 0.289786159992218, 0.2802082896232605, 0.25120308995246887, 0.2722906470298767, 0.3171937167644501, -9.657343298385968e-07, 0.2191232293844223, -1.830005317060568e-06, -3.3085116228903644e-06, -6.221664534677984e-06, 0.23515504598617554, 0.19421859085559845, -5.682164214704244e-07, -0.4134812355041504, -0.14896908402442932, -0.07092676311731339, 0.5541273355484009, -0.06629740446805954, -0.09238345921039581, -0.21671396493911743, -0.23883485794067383, 0.668290376663208, -0.41188907623291016, -0.21542078256607056, -0.40030810236930847, -1.7445904632040765e-06, 0.049128517508506775, -6.843426376690331e-07, -6.841429467385751e-07, 8.981598966784077e-07, -0.01568501815199852, -0.08154015243053436, 7.48810707591474e-05, 0.11081644892692566, -0.18675336241722107, -0.18459804356098175, -0.08045019209384918, -0.12381261587142944, -0.007024336606264114, 0.015912719070911407, 0.28052061796188354, 0.07416391372680664, -0.4616619348526001, 0.06787485629320145, -0.08917785435914993, -0.00010672109783627093, -0.18659824132919312, 0.00013888950343243778, 0.00012702435196842998, -7.74059008108452e-05, -0.17756740748882294, -0.07649105787277222], "lin.weight": [[-0.0002177315909648314, -0.9382062554359436, -0.2413836419582367, 0.18888285756111145, -0.23277318477630615, -0.28374525904655457, 0.1869102120399475, 0.3071463406085968, 0.7180399894714355, 0.2951095998287201, 0.31830650568008423, 0.16854865849018097, -0.13813278079032898, 0.00029892040765844285, 0.409851610660553, -0.0005067854654043913, -0.0005592646193690598, -9.044982289196923e-05, -0.11493024975061417, 0.5175604820251465]], "lin.bias": [-0.13009603321552277]}}