{"model_data": {"model": "SimpleRNN", "input_size": 2, "skip": 1, "output_size": 1, "unit_type": "LSTM", "num_layers": 1, "hidden_size": 32, "bias_fl": true}, "state_dict": {"rec.weight_ih_l0": [[4.597902858449743e-08, -1.2725457736451062e-06], [8.42741432194316e-09, -1.8197085864812834e-06], [-1.6153819615283282e-07, -2.7907522053283174e-06], [-8.268251150411743e-08, -2.632231826282805e-06], [-0.025841936469078064, 0.16600137948989868], [-9.823619961935037e-08, -2.7241944735578727e-06], [-1.1282617862207189e-07, -2.785078777378658e-06], [-2.184477665423401e-08, 1.3733627213241562e-07], [-0.005689190234988928, -0.09335790574550629], [0.022210683673620224, 0.055644698441028595], [-0.07618050277233124, 0.11709689348936081], [0.01573212444782257, 0.1299065351486206], [-7.752674235916857e-08, -2.5957083380490076e-06], [0.014502197504043579, 0.09051606059074402], [-1.4407953052852918e-08, -2.082605078612687e-06], [-1.1393248655622301e-07, -2.7882324502570555e-06], [0.018562309443950653, 0.096306711435318], [7.958937686680656e-08, -7.826744052863432e-08], [0.05474149435758591, 0.09934613108634949], [-0.01301348116248846, 0.1792936623096466], [0.02019350603222847, 0.16943903267383575], [-7.718406891399354e-08, -2.5933263714250643e-06], [-8.590982503164923e-08, -2.653559931786731e-06], [8.451736732695281e-08, 1.885717892946559e-07], [-7.518907807479991e-08, -2.5783729142858647e-06], [0.0018311361782252789, -0.5773112773895264], [-0.11639343947172165, 0.40711772441864014], [0.019586646929383278, 0.3583715856075287], [-3.771667422824976e-08, 1.0392673175374512e-06], [-1.5819199461475364e-07, -2.8016152100462932e-06], [-1.0504844283332204e-07, -2.756049298113794e-06], [0.03033711016178131, 0.35688623785972595], [6.227078586107382e-08, -1.2839459486713167e-06], [3.7113359496743215e-08, -1.885628080344759e-06], [-1.1463422566748704e-07, -3.1153554118645843e-06], [-4.293945110589448e-08, -2.828851847880287e-06], [-0.008117097429931164, -0.06197144463658333], [-5.721495810462329e-08, -2.9436166641971795e-06], [-7.067038865216091e-08, -3.0265255190897733e-06], [-2.150751221563496e-08, 1.3840686108324007e-07], [-0.009935579262673855, 0.32763978838920593], [0.004601761233061552, 0.15576106309890747], [-0.08639824390411377, 0.07082287222146988], [-0.016284914687275887, 0.10280214250087738], [-3.8217589093392235e-08, -2.784820253509679e-06], [-0.02071833610534668, -0.16210153698921204], [1.7688693176864945e-08, -2.1808932615385856e-06], [-7.16856689564338e-08, -3.031315600310336e-06], [0.03171304985880852, 0.15904299914836884], [9.18906479796533e-08, -4.7167887373689155e-08], [0.09538625180721283, 0.23368369042873383], [-0.0028342928271740675, -0.03646412119269371], [0.04533620551228523, 0.21369339525699615], [-3.7904701599700275e-08, -2.781934654194629e-06], [-4.5879641419332984e-08, -2.8548638510983437e-06], [9.022769376088036e-08, 2.2654404574495857e-07], [-3.608300502833117e-08, -2.764113560260739e-06], [-0.01400446705520153, 0.5848351716995239], [-0.07496222108602524, 0.12704288959503174], [0.007874881848692894, 0.001153800985775888], [-4.2499770813719806e-08, 1.0687393796615652e-06], [-1.1172488711963524e-07, -3.1196580039249966e-06], [-6.349859660303991e-08, -2.9856366836611414e-06], [0.01124281994998455, 0.04961007460951805], [9.949327068170533e-05, 6.878532440168783e-05], [-9.542579937260598e-05, -6.478936120402068e-05], [0.00014649498916696757, 4.099843863514252e-05], [0.00011621334124356508, 5.0341335736447945e-05], [0.019749600440263748, 0.022553876042366028], [-0.00012002159928670153, -4.8274949222104624e-05], [0.00012407443136908114, 4.640424594981596e-05], [-3.750193855012185e-06, -3.442002343945205e-05], [-0.01285978127270937, -0.6675639152526855], [-0.3012657165527344, 0.09644745290279388], [0.29669198393821716, -0.15741468966007233], [-0.3354703485965729, 0.2543303072452545], [0.00011499690299388021, 5.1068123866571113e-05], [-0.03648966923356056, -0.09015610069036484], [-0.00010131224553333595, -6.070600647944957e-05], [0.00012440666614565998, 4.6265126002253965e-05], [-0.27628061175346375, -0.2604678273200989], [-7.706920587224886e-05, -8.645678462926298e-05], [-0.002984714927151799, -0.2974484860897064], [0.26928409934043884, 0.1360047161579132], [-0.29920366406440735, -0.4884129762649536], [0.00011491264740470797, 5.111772770760581e-05], [-0.00011696217552525923, -4.9917267460841686e-05], [-7.890709821367636e-05, -8.52254088385962e-05], [0.00011444441770436242, 5.1400762458797544e-05], [0.21331669390201569, -0.002411966910585761], [-1.6322420835494995, 0.18295076489448547], [1.5968540906906128, -0.06061086058616638], [-9.887472697300836e-05, -5.5702847021166235e-05], [-0.0001442084467271343, -4.131298919674009e-05], [-0.00012183087528683245, -4.7396839363500476e-05], [0.7095202207565308, 0.20707811415195465], [1.0769240610386532e-08, -1.274067926715361e-06], [-2.8477069591303916e-08, -1.8230239220429212e-06], [-1.83685770593911e-07, -2.7966336801910074e-06], [-1.116815724344633e-07, -2.6370867090008687e-06], [0.017622215673327446, 0.08149074763059616], [-1.2557372031096747e-07, -2.7292489903629757e-06], [-1.3867912684872863e-07, -2.7903017780772643e-06], [-2.544422983419281e-08, 1.377026137561188e-07], [0.025289736688137054, 0.11002569645643234], [0.009710948914289474, 0.22819669544696808], [-0.16758857667446136, 0.14132922887802124], [0.04647895321249962, 0.266834020614624], [-1.0710165554428386e-07, -2.60052388512122e-06], [0.024768318980932236, 0.05206240713596344], [-4.968078215483729e-08, -2.0864158614131156e-06], [-1.3968015366572217e-07, -2.793477051454829e-06], [-0.0009660395444370806, 0.25015372037887573], [3.909245904765157e-08, -7.888708353220864e-08], [0.07497446238994598, 0.20512835681438446], [-0.031130461022257805, 0.19447657465934753], [0.03349390998482704, 0.2921569347381592], [-1.0679067941055109e-07, -2.598083710836363e-06], [-1.145655232903664e-07, -2.6584905299387174e-06], [4.664755692829203e-08, 1.8877807406170177e-07], [-1.0501747738089762e-07, -2.583136620160076e-06], [-0.01776149310171604, 0.07792438566684723], [-0.1205466017127037, 0.4300280213356018], [0.03317483142018318, 0.20487743616104126], [-4.4502414198177576e-08, 1.0402787893326604e-06], [-1.8049311734102957e-07, -2.807407781801885e-06], [-1.3168069301627838e-07, -2.7611877158051357e-06], [0.06664387136697769, 0.3637445569038391]], "rec.weight_hh_l0": [[1.1672747213253842e-09, -1.1815759481947907e-09, 1.2731263820953131e-09, 1.2488126088783247e-09, -1.6023433317968738e-06, -1.2564456142172276e-09, 1.2613203814737517e-09, -1.5769152650335627e-10, -2.0100003439438296e-06, -1.6349350744349067e-06, -1.107086063711904e-06, -9.111473104894685e-07, 1.2456256026638357e-09, 4.049832966757094e-07, -1.2027749907161933e-09, 1.2615746225463909e-09, 1.5398146615552832e-06, -1.0462171129432818e-09, -7.405337214549945e-07, 5.770498034962657e-08, 2.5896520128299017e-07, 1.2454159925567865e-09, -1.2506369273523887e-09, -1.0348424339667872e-09, 1.2440543040170837e-09, 1.4869367248593335e-07, 4.101257786714996e-07, -1.041841414917144e-06, -4.688836541255625e-10, -1.2720260400556072e-09, -1.2589860265421748e-09, -4.72853201927137e-07], [1.2239875779584963e-09, -1.2453472697515622e-09, 1.369853119825848e-09, 1.3305966328758245e-09, -1.909812453959603e-06, -1.3415568655972265e-09, 1.3493756112481492e-09, -1.4253206948033892e-10, -1.76880928393075e-06, -2.0129677977820393e-06, -8.694617008586647e-07, -1.4206462992660818e-06, 1.3262780873546376e-09, 1.1242657649290777e-07, -1.2716130370904466e-09, 1.349841238784677e-09, 1.972456857401994e-06, -1.0829882546303793e-09, -2.489374253400456e-07, -9.408350543083088e-09, 7.645346613571746e-07, 1.3259912057250745e-09, -1.3331254988813157e-09, -1.0687870588554915e-09, 1.3241849838863118e-09, 2.0861195082488848e-07, 4.175057881639077e-07, -1.5434837905559107e-06, -4.650942686534876e-10, -1.368210544860915e-09, -1.345506817074238e-09, -7.903786922724976e-07], [1.560587103988098e-09, -1.5768207850541671e-09, 1.7058777723732987e-09, 1.6669609026465082e-09, -2.423734258627519e-06, -1.6793547663596087e-09, 1.6878898279060195e-09, -2.0254428689803206e-10, -1.2221282759128371e-06, -2.6257710032950854e-06, -4.534027198133117e-07, -2.323787839486613e-06, 1.6620468334949123e-09, -5.423430025075504e-07, -1.6046244333267623e-09, 1.6883736631001511e-09, 2.7175613013241673e-06, -1.3940646415022684e-09, 6.838425292698957e-07, -2.8032809495925903e-07, 1.739125309541123e-06, 1.6617122122752903e-09, -1.6698424865069228e-09, -1.3831271683528712e-09, 1.659657411501314e-09, 3.0297172770588077e-07, 4.5907830781288794e-07, -2.730734195210971e-06, -5.975623884602044e-10, -1.704673291413883e-09, -1.6837532479385686e-09, -1.6564789575568284e-06], [1.4130915326759919e-09, -1.4324262886944439e-09, 1.5723177204662875e-09, 1.5276407916431367e-09, -2.2766159872844582e-06, -1.5407009001933147e-09, 1.5500487560160536e-09, -1.5432642663792961e-10, -1.5129078292375198e-06, -2.589416681075818e-06, -5.886459462089988e-07, -2.146461611118866e-06, 1.5225359861759102e-09, -2.510118690679519e-07, -1.4614973675719511e-09, 1.550603090372249e-09, 2.630191829666728e-06, -1.2483150069186877e-09, 3.9453561839764006e-07, -1.6859627294252277e-07, 1.4906448768670089e-06, 1.5221935933951158e-09, -1.5306421685679084e-09, -1.2354126610603089e-09, 1.5200688485705882e-09, 2.7575526928558247e-07, 4.4740161797562905e-07, -2.247469410576741e-06, -5.317909446134195e-10, -1.5707304346079809e-09, -1.5454415525084642e-09, -1.2952663155374466e-06], [-0.00011913326306967065, 0.0001144420966738835, -8.796060137683526e-05, -9.790810872800648e-05, -0.043349266052246094, 9.609979315428063e-05, -9.4476061349269e-05, 5.477884042193182e-05, 0.0009033872629515827, 0.1775273233652115, 0.05075543001294136, 0.01806825026869774, -9.855631651589647e-05, -0.11303401738405228, 0.00010924189700745046, -9.435110405320302e-05, -0.10606822371482849, 0.00012872552906628698, -0.04959004372358322, -0.008556719869375229, -0.06095961481332779, -9.86002924037166e-05, 9.752865298651159e-05, 0.00012374129437375814, -9.885691542876884e-05, 0.015167277306318283, 0.027999354526400566, -0.04195253178477287, 7.662887219339609e-05, 8.85646149981767e-05, 9.533830598229542e-05, 0.0373312346637249], [1.445761288465519e-09, -1.464523280425567e-09, 1.6044467976428223e-09, 1.5600671865456661e-09, -2.316013024028507e-06, -1.573223773476684e-09, 1.5825962762505696e-09, -1.602535187883447e-10, -1.4724354286954622e-06, -2.6499267278268235e-06, -5.523045842892316e-07, -2.2285141767497407e-06, 1.5549177501128497e-09, -3.0152349950185453e-07, -1.4937039383156048e-09, 1.5831480570938083e-09, 2.7019962089980254e-06, -1.2785767999901054e-09, 4.752481856939994e-07, -1.9293111108709127e-07, 1.5788208429512451e-06, 1.554571693596074e-09, -1.563094764733819e-09, -1.265993088139794e-09, 1.5524260765786835e-09, 2.8186209988234623e-07, 4.4981740643379453e-07, -2.343102551094489e-06, -5.44704503724347e-10, -1.6029166882702839e-09, -1.5779872963861408e-09, -1.367510094496538e-06], [1.4733581021886266e-09, -1.4916055057767608e-09, 1.6306799244247827e-09, 1.5869157099501763e-09, -2.345637767575681e-06, -1.6000696323459351e-09, 1.6093917309945027e-09, -1.6691970028404057e-10, -1.4276462252382771e-06, -2.6842474198929267e-06, -5.212287987887976e-07, -2.285341906826943e-06, 1.5817582799115826e-09, -3.4999214904019027e-07, -1.520740200433579e-09, 1.6099381827672232e-09, 2.7464757295092568e-06, -1.304834684745515e-09, 5.410648213910463e-07, -2.1443639752760646e-07, 1.645214751988533e-06, 1.581410780104875e-09, -1.5899468408520079e-09, -1.2925600589852593e-09, 1.5792611662845957e-09, 2.860602705823112e-07, 4.5109808866072854e-07, -2.4278797354782e-06, -5.560092386502902e-10, -1.6292107662962962e-09, -1.6048179451999545e-09, -1.4317495242721634e-06], [1.8730591730409252e-11, -2.290199106746993e-11, 2.8382055386466654e-11, 2.606049750997208e-11, -1.2195215504107182e-07, -2.644051817768389e-11, 2.6791183854735223e-11, -1.0166011261969476e-11, -8.179920740758462e-08, 8.484105507022832e-08, -1.4325236463719193e-07, 1.2682053807111515e-07, 2.5933567793234857e-11, -2.6322759083541314e-08, -2.3900598514203786e-11, 2.681801308801468e-11, -9.041588810987378e-08, -1.80435354157904e-11, -1.4477637932941434e-07, -6.1434612952382395e-09, -1.2031172502702248e-07, 2.5925770211210342e-11, -2.614225849684182e-11, -1.5943441011856407e-11, 2.587552568045215e-11, -9.643477127951883e-09, 3.3308911184803947e-08, -1.3700686452011723e-07, -4.686672924747448e-12, -2.8225820986049754e-11, -2.6602066036107708e-11, -6.831400867213233e-08], [8.09504563221708e-05, -5.75480044062715e-05, 5.159097054274753e-05, 4.1149152821162716e-05, 0.0008254980784840882, -4.234274820191786e-05, 4.403413913678378e-05, -7.502106745960191e-05, -0.06768810749053955, -0.06835033744573593, 0.013935374096035957, -0.10087382048368454, 4.0944931242847815e-05, -0.04311000555753708, -5.1238821470178664e-05, 4.4176922529004514e-05, 0.05430679768323898, -9.395486995344982e-05, 0.07425107806921005, -0.024498533457517624, 0.0626453310251236, 4.093727329745889e-05, -4.1328195948153734e-05, -9.686302655609325e-05, 4.0890605305321515e-05, -0.002137013478204608, -0.025540413334965706, -0.06470975279808044, -0.00011541030835360289, -5.105850868858397e-05, -4.3076379370177165e-05, -0.06036146730184555], [7.635032670805231e-05, -9.606437379261479e-05, 0.00012598179455380887, 0.0001161324034910649, -0.01453380286693573, -0.000118038929940667, 0.00011961828568018973, -8.06515436124755e-06, 0.02984604798257351, 0.09482049942016602, -0.00017852614109870046, 0.017335811629891396, 0.00011542610445758328, -0.009026610292494297, -0.00010261649003950879, 0.00011973330401815474, -0.05871560052037239, -5.820614387630485e-05, -0.014603830873966217, 0.005114915780723095, -0.04847516864538193, 0.00011537878162926063, -0.000116559567686636, -4.84013362438418e-05, 0.00011509010073496029, -0.03190824016928673, -0.04662463068962097, 0.029453935101628304, 2.8146201657364145e-05, -0.0001253759692190215, -0.0001187869202112779, -0.022790152579545975], [0.000128291649161838, -0.00012458310811780393, 0.00010186031431658193, 0.00011491711484268308, -0.03236379101872444, -0.00011257485311944038, 0.0001102205496863462, -5.047312151873484e-05, 0.04439954087138176, 0.12389329075813293, 0.029689282178878784, 0.08709898591041565, 0.0001156446014647372, -0.08575210720300674, -0.0001225367741426453, 0.00011003436520695686, -0.089366115629673, -0.00012745115964207798, -0.0708685889840126, -0.013620281592011452, -0.050589051097631454, 0.00011569101479835808, -0.00011445342533988878, -0.00012839662667829543, 0.00011596322292461991, 0.003709649434313178, 0.04894746467471123, -0.1875399947166443, -6.624601519433782e-05, -0.00010244714940199628, -0.0001114923506975174, -0.05430523678660393], [6.822311661380809e-06, -2.9665647161891684e-05, 7.652269414393231e-05, 5.638187940348871e-05, 0.023834744468331337, -6.01886204094626e-05, 6.367600872181356e-05, -1.1497136256366502e-05, 0.057806141674518585, 0.16233527660369873, 0.06556826084852219, -0.007020456716418266, 5.5099360906751826e-05, -0.03694671764969826, -3.773997741518542e-05, 6.39397039776668e-05, -0.12936438620090485, 5.205638899496989e-06, 0.00830337405204773, 6.536889122799039e-05, -0.023347841575741768, 5.501028863363899e-05, -5.718149259337224e-05, 1.2789323591277935e-05, 5.451017204904929e-05, -0.006173138041049242, -0.06066787242889404, 0.035990308970212936, 4.293966412660666e-05, -7.547022687504068e-05, -6.182056677062064e-05, -0.05985681712627411], [1.4015054672356086e-09, -1.4210480570042705e-09, 1.560743090323058e-09, 1.5160391830804087e-09, -2.261715053464286e-06, -1.529046556036917e-09, 1.538370431042324e-09, -1.5262872909982406e-10, -1.5246464499796275e-06, -2.563880570960464e-06, -6.013005418026296e-07, -2.1143573576409835e-06, 1.5109564710513723e-09, -2.345291392202853e-07, -1.4500520784110904e-09, 1.5389240992647046e-09, 2.6008278837252874e-06, -1.237740132609133e-09, 3.654606928193971e-07, -1.6015874848562817e-07, 1.4574959550373023e-06, 1.5106159656497198e-09, -1.51902701528428e-09, -1.2247282077382238e-09, 1.5084999915870867e-09, 2.7330580110174196e-07, 4.46270632892265e-07, -2.2144499780551996e-06, -5.272650094312326e-10, -1.5591394841862893e-09, -1.5337715542074193e-09, -1.2703458196483552e-06], [3.735464269993827e-05, -5.5161759519251063e-05, 8.766897371970117e-05, 7.975086191436276e-05, 0.11802883446216583, -8.162075391737744e-05, 8.304574294015765e-05, 1.943360075529199e-05, 0.0611753836274147, 0.2098551243543625, 0.10353561490774155, 0.05154324695467949, 7.901867502368987e-05, 0.008929867297410965, -6.307256262516603e-05, 8.314681326737627e-05, -0.1294921338558197, -1.6994123143376783e-05, 0.03848660737276077, -0.044720038771629333, -0.0037127274554222822, 7.896683382568881e-05, -8.0181795055978e-05, -1.1197592357348185e-05, 7.865553197916597e-05, -0.02981317974627018, -0.06171020492911339, 0.11595652252435684, 1.3257016689749435e-05, -8.727402746444568e-05, -8.231318497564644e-05, -0.04044612497091293], [1.2800355220221604e-09, -1.3011782762362145e-09, 1.4323927599591002e-09, 1.3904803974895685e-09, -2.0324928300397005e-06, -1.4022517591527617e-09, 1.4107016665931837e-09, -1.4355670818755328e-10, -1.6903222785913385e-06, -2.20087122215773e-06, -7.796587624397944e-07, -1.6572085996813257e-06, 1.3858666436661338e-09, 1.7144764496990206e-09, -1.3285915700933515e-09, 1.4112070401139931e-09, 2.1867465420655208e-06, -1.1309541081416796e-09, -4.562541633390538e-08, -5.243934708687448e-08, 9.957313977793092e-07, 1.3855590008660101e-09, -1.393187676335117e-09, -1.1169825064882843e-09, 1.3836334300521003e-09, 2.306465347601261e-07, 4.254742975717818e-07, -1.7555133808855317e-06, -4.83969087028413e-10, -1.43071243741133e-09, -1.406518568281001e-09, -9.360033459415718e-07], [1.4751971866289182e-09, -1.4934093961471717e-09, 1.6323788987193666e-09, 1.5886737481096702e-09, -2.3475154193874914e-06, -1.6018222304126084e-09, 1.6111389999906578e-09, -1.6746552755630972e-10, -1.4238111134545761e-06, -2.685541403479874e-06, -5.190424872125732e-07, -2.2884980808157707e-06, 1.5835168731825888e-09, -3.5379460427975573e-07, -1.522532322439929e-09, 1.6116840084734463e-09, 2.7485066311783157e-06, -1.3066250303950255e-09, 5.455233917928126e-07, -2.1600104105345963e-07, 1.649309979256941e-06, 1.583169817465091e-09, -1.5917049900338043e-09, -1.2943728311398672e-09, 1.5810204256894167e-09, 2.863281736154022e-07, 4.511531130901858e-07, -2.4341200060007395e-06, -5.567822869423367e-10, -1.630914514549886e-09, -1.606569655088208e-09, -1.4365031120178173e-06], [-6.717883934470592e-06, 6.228635811567074e-06, -1.1378697308828123e-05, -1.039137987390859e-05, 0.037373967468738556, 1.0741157893789932e-05, -1.0964392458845396e-05, -2.5659512175479904e-05, 0.043066613376140594, 0.082075335085392, -0.014655042439699173, 0.06633986532688141, -1.0237017704639584e-05, 0.0157442856580019, 7.309587090276182e-06, -1.0978434147546068e-05, -0.07720213383436203, -1.7091293784687878e-06, -0.03860922530293465, -0.026226798072457314, -0.049733713269233704, -1.0226428457826842e-05, 1.0475824637978803e-05, -2.828803644661093e-06, -1.0160463716601953e-05, 0.027979087084531784, 0.005502326413989067, 0.013392704539000988, 9.078057701117359e-06, 1.1358203664713074e-05, 1.0852269042516127e-05, 0.005194925237447023], [9.39192390525534e-10, -9.566650804870847e-10, 1.018437778554926e-09, 1.0053891053019015e-09, -1.1788483789132442e-06, -1.0096388169955617e-09, 1.0119102222816423e-09, -1.7192723633652207e-10, -2.067284185613971e-06, -6.868255582048732e-07, -1.3779152823190088e-06, 1.0169323161335342e-07, 1.003463867554899e-09, 5.881339575353195e-07, -9.72594005332894e-10, 1.0120053683948527e-09, 5.178176252229605e-07, -8.563344477963142e-10, -1.4248881825551507e-06, 1.6826137994030432e-07, -6.464378543569183e-07, 1.0033385233754188e-09, -1.0064638011897387e-09, -8.432410880665486e-10, 1.0024904240069077e-09, 8.833041675870845e-08, 3.754396118438308e-07, -5.426023221843934e-07, -3.894594369224791e-10, -1.017550155246738e-09, -1.0108763826011113e-09, -1.3954655742054456e-07], [6.577972817467526e-05, -7.729302160441875e-05, 9.126749500865117e-05, 8.597751730121672e-05, 0.0006881309091113508, -8.701298065716401e-05, 8.790350693743676e-05, -4.8382724344264716e-05, 0.007738866843283176, 0.08744597434997559, -0.030896075069904327, 0.039485469460487366, 8.561229333281517e-05, 0.004981859587132931, -8.011385216377676e-05, 8.796891779638827e-05, -0.08451609313488007, -6.142408528830856e-05, -0.11221829056739807, 0.03693282976746559, -0.05966190621256828, 8.558887930121273e-05, -8.620408334536478e-05, -5.7614674005890265e-05, 8.544377487851307e-05, 0.002670202637091279, -0.032494496554136276, -0.006102623417973518, -9.956469511962496e-06, -9.095304267248139e-05, -8.744185470277444e-05, 0.0013820587191730738], [4.331702075432986e-05, -3.142837522318587e-05, 4.343034561316017e-06, 1.5758452718728222e-05, 0.033641524612903595, -1.3322719496500213e-05, 1.1134812666568905e-05, -3.421738438191824e-05, 0.06830395013093948, 0.17831240594387054, 0.00662274518981576, 0.1240655854344368, 1.6591269741184078e-05, -0.06610614061355591, -2.6931524189421907e-05, 1.0972942618536763e-05, -0.18124067783355713, -5.297318784869276e-05, -0.047796957194805145, 0.008626230992376804, -0.10236102342605591, 1.6642234186292626e-05, -1.5247131159412675e-05, -5.7039735111175105e-05, 1.696710205578711e-05, 0.013082069344818592, -0.004943139385432005, -0.030286619439721107, -6.0971404309384525e-05, -4.793409516423708e-06, -1.2283978321647737e-05, 0.00154280720744282], [6.733062764396891e-05, -5.796192999696359e-05, 3.468867362244055e-05, 4.283515227143653e-05, 0.07382314652204514, -4.080946746398695e-05, 3.905499033862725e-05, -6.273103281273507e-07, 0.054116424173116684, 0.14494647085666656, 0.013909961096942425, 0.04983801394701004, 4.355464625405148e-05, -0.0029825507663190365, -5.369962309487164e-05, 3.8927340938244015e-05, -0.11043205857276917, -7.399576134048402e-05, -0.037617869675159454, -0.016054097563028336, -0.009785282425582409, 4.360367893241346e-05, -4.240612906869501e-05, -7.523586100433022e-05, 4.3880208977498114e-05, -0.0006967313820496202, -0.059945639222860336, 0.028945496305823326, -3.925604323740117e-05, -3.490080780466087e-05, -3.996781015302986e-05, -0.011520483531057835], [1.400757843050826e-09, -1.4203120901612465e-09, 1.5599883607109177e-09, 1.5152856747135957e-09, -2.260673227283405e-06, -1.5282891618895178e-09, 1.5376100392927583e-09, -1.525183590533885e-10, -1.5254622667271178e-06, -2.5622578050388256e-06, -6.021323883942387e-07, -2.112283482347266e-06, 1.5102042949521888e-09, -2.3338368748682115e-07, -1.4493106714752457e-09, 1.5381638185374413e-09, 2.5989525056502316e-06, -1.2370590107835255e-09, 3.635335303897591e-07, -1.5960878840814985e-07, 1.455336132494267e-06, 1.5098640115951412e-09, -1.5182727297613496e-09, -1.2240415347974931e-09, 1.5077488146886253e-09, 2.7313919304106093e-07, 4.4619480377150467e-07, -2.2121937490737764e-06, -5.269777392236108e-10, -1.558383755373427e-09, -1.5330128277923905e-09, -1.2686759873759001e-06], [1.4201576581385211e-09, -1.4393737313156407e-09, 1.5793634178251637e-09, 1.5347125792430916e-09, -2.2856652321934234e-06, -1.5478014425696074e-09, 1.557162176979432e-09, -1.5545507936476355e-10, -1.5051404034238658e-06, -2.60401225204987e-06, -5.809131948808499e-07, -2.165292471545399e-06, 1.5295953392779893e-09, -2.614947050005867e-07, -1.468483001865195e-09, 1.557717177469442e-09, 2.6471616365597583e-06, -1.2547937133788878e-09, 4.121444021620846e-07, -1.7376281391534576e-07, 1.5103862551768543e-06, 1.5292517252518678e-09, -1.5377210615952208e-09, -1.2419544281883077e-09, 1.5271198749999826e-09, 2.7720361117644643e-07, 4.48052389856457e-07, -2.2680230813421076e-06, -5.345457410044219e-10, -1.577788122375523e-09, -1.5525510876912563e-09, -1.3107024869896122e-06], [9.271336476324166e-10, -9.40130973070552e-10, 9.817837653969264e-10, 9.780218857002865e-10, -1.0456673180669895e-06, -9.803146072684399e-10, 9.808182044324099e-10, -1.8625956332840587e-10, -2.1471246327564586e-06, -4.905695050183567e-07, -1.4886137478242745e-06, 3.496838871797081e-07, 9.767554542960966e-10, 6.953536058063037e-07, -9.530615185937563e-10, 9.807844536524613e-10, 3.01407112601737e-07, -8.547088037325068e-10, -1.6449969280074583e-06, 1.8259237322126864e-07, -8.765873644733801e-07, 9.766748521045088e-10, -9.786852439575e-10, -8.436006893042247e-10, 9.760854347007353e-10, 5.340087128047344e-08, 3.7616294434883457e-07, -3.6046861850991263e-07, -3.9828959574883527e-10, -9.81267844757383e-10, -9.807143985796074e-10, -2.601450610484335e-08], [1.3961468647849529e-09, -1.4157865990682694e-09, 1.5553637267018416e-09, 1.510658043102353e-09, -2.2545750653080177e-06, -1.5236388817285729e-09, 1.532948878946172e-09, -1.5189116631120214e-10, -1.5298031712518423e-06, -2.5516521873214515e-06, -6.07101014793443e-07, -2.0991933524783235e-06, 1.50558765454889e-09, -2.2696906398778083e-07, -1.4447553153829062e-09, 1.533502658190855e-09, 2.5868432658171514e-06, -1.2328690290885902e-09, 3.519630240589322e-07, -1.5627743721324805e-07, 1.4419741773963324e-06, 1.5052478152810522e-09, -1.5136402131687987e-09, -1.2198080323599925e-09, 1.5031361710882152e-09, 2.721059217947186e-07, 4.456867657154362e-07, -2.1991011180944042e-06, -5.251763468550052e-10, -1.5537519049146908e-09, -1.5283557752709953e-09, -1.258817292182357e-06], [-0.0001567584549775347, 0.00017570475756656379, -0.00021771466708742082, -0.00020143284928053617, -0.45095399022102356, 0.0002055693621514365, -0.00020898717048112303, 9.59785538725555e-05, 0.1143420860171318, -0.6343794465065002, 0.24215036630630493, -0.37225794792175293, -0.000199958318262361, 0.40641099214553833, 0.0001833993155742064, -0.00020921695977449417, 0.36314117908477783, 0.00013476761523634195, 0.19020789861679077, -0.11320772022008896, 0.4754396677017212, -0.00019986566621810198, 0.00020232984388712794, 0.00012885878095403314, -0.00019929544941987842, -0.03722790628671646, 0.011076763272285461, 0.10494555532932281, -5.0278253183932975e-05, 0.0002171995147364214, 0.00020723648776765913, -0.04545166343450546], [-6.976717850193381e-05, 7.144732080632821e-05, -8.506917220074683e-05, -8.078893733909354e-05, -0.05784755200147629, 8.178497955668718e-05, -8.25200550025329e-05, -1.748830868564255e-06, 0.021916504949331284, 0.33226755261421204, -0.15958034992218018, 0.4848942756652832, -8.038674423005432e-05, 0.0263521708548069, 7.446840027114376e-05, -8.256358705693856e-05, -0.318968266248703, 5.6860993936425075e-05, -0.2597053349018097, -0.027220072224736214, -0.2863566279411316, -8.035812788875774e-05, 8.101502317003906e-05, 5.98526130488608e-05, -8.019295637495816e-05, -0.0672585517168045, 0.031644485890865326, -0.10964435338973999, 3.0640010663773865e-05, 8.481370605295524e-05, 8.21487556095235e-05, -0.015927305445075035], [6.36097538517788e-05, -5.3022242354927585e-05, 3.4032564144581556e-05, 4.219487891532481e-05, 0.07293717563152313, -4.060540595673956e-05, 3.907959398929961e-05, -7.475132861145539e-06, 0.14391151070594788, 0.37227314710617065, -0.11593670397996902, 0.2958426773548126, 4.270609497325495e-05, 0.021959682926535606, -4.968020584783517e-05, 3.8961377867963165e-05, -0.3497321307659149, -6.456456321757287e-05, -0.1917763650417328, 0.011325621977448463, -0.2737732529640198, 4.274105231161229e-05, -4.1869036067510024e-05, -6.765271245967597e-05, 4.293484744266607e-05, 0.007332311011850834, -0.002610420109704137, 0.02413019724190235, -5.766649337601848e-05, -3.4372773370705545e-05, -3.9893460780149326e-05, -0.00016706112364772707], [1.397900267763319e-10, -1.3892648142999064e-10, 1.1412731176774216e-10, 1.281578038136999e-10, -1.4924737001820176e-07, -1.2530648740849415e-10, 1.2248586866991928e-10, -8.105149884585217e-11, -9.436583923161379e-07, 5.39360371476505e-07, -9.117010790760105e-07, 1.0325452421966475e-06, 1.2904370627619954e-10, 3.492278892736067e-07, -1.3613099536513573e-10, 1.2227603651826513e-10, -6.968682555452688e-07, -1.5273335374210717e-10, -1.1863310191984056e-06, 5.0287521702330196e-08, -1.0808595334310667e-06, 1.291043799644953e-10, -1.2758966105863578e-10, -1.5062959213274496e-10, 1.2943655869346316e-10, -1.5616118176353666e-08, 1.863468668261703e-07, 3.671272708061224e-08, -1.1049185177913756e-10, -1.1455051490694146e-10, -1.2398984616801556e-10, 1.0110846382360705e-08], [1.553826844968853e-09, -1.5702391609195843e-09, 1.7004209151849636e-09, 1.660993453889148e-09, -2.4178746116376715e-06, -1.6734842400722982e-09, 1.68211267137508e-09, -1.9906155890314636e-10, -1.2393637689456227e-06, -2.639397280290723e-06, -4.55343439398348e-07, -2.3294885522773257e-06, 1.6560453008906961e-09, -5.265309823698772e-07, -1.5982015710847008e-09, 1.6826026127958471e-09, 2.72947681878577e-06, -1.386838643924193e-09, 6.785147661503288e-07, -2.7592838591772306e-07, 1.7399734133505262e-06, 1.6557095694480495e-09, -1.6638941335855861e-09, -1.375779268286692e-09, 1.6536415570200802e-09, 3.0098303227532597e-07, 4.5775985313412093e-07, -2.706169198063435e-06, -5.939637115481844e-10, -1.699193674653543e-09, -1.677925909326916e-09, -1.6387959931307705e-06], [1.4590815222703668e-09, -1.4776019297002563e-09, 1.6172424510685346e-09, 1.5731091984605428e-09, -2.3306749881157884e-06, -1.5862762214879922e-09, 1.5956345134071626e-09, -1.6322466989127093e-10, -1.4524862308462616e-06, -2.669017931111739e-06, -5.373390763452335e-07, -2.257792175441864e-06, 1.567950325132017e-09, -3.2389462489845755e-07, -1.5067803671442448e-09, 1.5961844068712594e-09, 2.7259031867288286e-06, -1.2911479663202385e-09, 5.073039233138843e-07, -2.0313345316935738e-07, 1.6120592363222386e-06, 1.5676032694145192e-09, -1.576140218340072e-09, -1.278706807106289e-09, 1.5654547658172646e-09, 2.839571493495896e-07, 4.504937294314004e-07, -2.383108949288726e-06, -5.500944144642972e-10, -1.6157405413608217e-09, -1.5910371908844922e-09, -1.3978253718960332e-06], [-0.00011522645218065009, 0.00011412521416787058, -0.00011263321357546374, -0.00011397567141102627, -0.03559724986553192, 0.00011369888670742512, -0.00011335634917486459, 2.3356540623353794e-05, 0.011775131337344646, 0.27536264061927795, -0.14789491891860962, 0.34699130058288574, -0.0001140360182034783, 0.01484951376914978, 0.00011412145249778405, -0.00011332611757097766, -0.30164122581481934, 0.00011102726421086118, -0.2152434140443802, -0.005516163073480129, -0.27487537264823914, -0.00011403781536500901, 0.00011393011664040387, 0.00010922219371423125, -0.00011405523400753736, -0.012023539282381535, 0.027825990691781044, 0.02248533070087433, 6.105850479798391e-05, 0.00011263633496128023, 0.00011353720037732273, 0.006079027894884348], [1.1659505583239138e-09, -1.1806896571542325e-09, 1.2730400067439973e-09, 1.2487859635257337e-09, -1.5641924164810916e-06, -1.2565072315950943e-09, 1.261415749631567e-09, -1.5572769462846026e-10, -2.0159513951512054e-06, -1.6284324146909057e-06, -1.070430926120025e-06, -9.61693672252295e-07, 1.2455557696355868e-09, 3.4783889191203343e-07, -1.2021108553028625e-09, 1.2616701017265086e-09, 1.5386644918180536e-06, -1.0429256347421756e-09, -7.072735570545774e-07, 6.580130929023653e-08, 2.8174639510325505e-07, 1.2453418296587415e-09, -1.2506337077056173e-09, -1.031164709175414e-09, 1.2439628216398546e-09, 1.6496012733568932e-07, 3.88474859391863e-07, -1.06329775917402e-06, -4.636682149339322e-10, -1.2719600928079444e-09, -1.2590706255366513e-09, -5.084176564196241e-07], [1.2176601948965526e-09, -1.2403817972739262e-09, 1.3703371770645845e-09, 1.328859355886891e-09, -1.896859771477466e-06, -1.3403763654551426e-09, 1.3486577410404266e-09, -1.3497544748553025e-10, -1.780373850124306e-06, -2.049335080300807e-06, -8.159375397553958e-07, -1.5306709428841714e-06, 1.324340082042852e-09, 2.1394246374484283e-08, -1.2674608029783485e-09, 1.3491561201561808e-09, 2.016232429014053e-06, -1.072779753918951e-09, -1.7961644971364876e-07, 7.056524253812313e-09, 8.267631415037613e-07, 1.3240395446700859e-09, -1.331508903135159e-09, -1.0576696185538026e-09, 1.3221529426843404e-09, 2.3406759908084496e-07, 3.851727683468198e-07, -1.5992965245459345e-06, -4.570173128826127e-10, -1.3686185518224647e-09, -1.3445502489162209e-09, -8.443585102213547e-07], [1.518735359695711e-09, -1.5371974804168076e-09, 1.6845065342607768e-09, 1.6368522093301863e-09, -2.5052752334886463e-06, -1.6512536893387164e-09, 1.6615692155497186e-09, -1.6762218002508433e-10, -1.2634986887860578e-06, -2.8636943625315325e-06, -3.171473679230985e-07, -2.6856307613343233e-06, 1.6312519113270696e-09, -7.526905960730801e-07, -1.5672199094041162e-09, 1.6621802823024723e-09, 2.979471446451498e-06, -1.3425560663193892e-09, 9.21288858535263e-07, -2.602703261800343e-07, 1.998747165998793e-06, 1.6308751016325118e-09, -1.6401558999845633e-09, -1.329919840920013e-09, 1.6285470749721753e-09, 3.5365076200832846e-07, 3.9140084595601365e-07, -2.941669663414359e-06, -5.750803167003937e-10, -1.6830117299804215e-09, -1.6565009364200023e-09, -1.8025793906417675e-06], [1.3888001859641008e-09, -1.4106192880447566e-09, 1.5640755357537728e-09, 1.5131854658179122e-09, -2.3140232769947033e-06, -1.527666770861913e-09, 1.5382632945204477e-09, -1.324952925152445e-10, -1.54619976910908e-06, -2.729820153035689e-06, -4.99906605000433e-07, -2.3817035526008112e-06, 1.5075906079076162e-09, -3.9707882137918205e-07, -1.4414945903595822e-09, 1.5389077789862426e-09, 2.7862313345394796e-06, -1.2165406459985206e-09, 5.398057396632794e-07, -1.4801462100422214e-07, 1.6486804952364764e-06, 1.5072173509267373e-09, -1.5164877131823573e-09, -1.2020465733897367e-09, 1.5048968737829682e-09, 3.1328397653851425e-07, 3.9834279164097097e-07, -2.374460109422216e-06, -5.145436299258677e-10, -1.5622684257365904e-09, -1.5330027247628664e-09, -1.3899958730689832e-06], [-0.00011046145664295182, 0.00010020798799814656, -5.993382728775032e-05, -7.380400347756222e-05, -0.1613249033689499, 7.10994063410908e-05, -6.87465799273923e-05, 6.416840187739581e-05, -0.04620279371738434, -0.031866759061813354, 0.07863585650920868, -0.189329132437706, -7.479253690689802e-05, -0.06754529476165771, 9.193216101266444e-05, -6.856935942778364e-05, 0.13579939305782318, 0.00012742332182824612, 0.010805471800267696, -0.015782063826918602, 0.08960355818271637, -7.485895184800029e-05, 7.322637975448743e-05, 0.00012226789840497077, -7.525565888499841e-05, -0.005631199572235346, 0.024515261873602867, -0.04628310352563858, 8.333394362125546e-05, 6.071673851693049e-05, 6.99851952958852e-05, 0.058517374098300934], [1.4185562724478018e-09, -1.4398127134995775e-09, 1.5942526188084116e-09, 1.5431710354008032e-09, -2.360841563131544e-06, -1.5578601741950138e-09, 1.5685837073675657e-09, -1.361325496773702e-10, -1.508237915004429e-06, -2.8082363314752e-06, -4.5611864152306225e-07, -2.485526465534349e-06, 1.5374939099643825e-09, -4.5709336404797796e-07, -1.470897292854545e-09, 1.5692337429484837e-09, 2.877316092053661e-06, -1.243432912190201e-09, 6.35396531833976e-07, -1.7231789684046817e-07, 1.7542384966873215e-06, 1.5371144357345656e-09, -1.5465227987121466e-09, -1.2292226125865113e-09, 1.534759985766243e-09, 3.213809804947232e-07, 3.9796154283067153e-07, -2.4827093056956073e-06, -5.264064739662899e-10, -1.5924880303330724e-09, -1.563267848503358e-09, -1.4696116750201327e-06], [1.4433014783321596e-09, -1.4640190171277823e-09, 1.6184477091840677e-09, 1.5675440945273067e-09, -2.397377329543815e-06, -1.5823319321484064e-09, 1.593094989260635e-09, -1.4059997610615937e-10, -1.4655581708211685e-06, -2.8596464289876167e-06, -4.175179242338345e-07, -2.5634165012888843e-06, 1.5618255577720674e-09, -5.149394155523623e-07, -1.4951401228202599e-09, 1.5937455799530653e-09, 2.9401755909930216e-06, -1.2664310711230087e-09, 7.160036261666392e-07, -1.939110916282516e-07, 1.8375122863290017e-06, 1.5614427528731767e-09, -1.5709207268344016e-09, -1.2525104287064437e-09, 1.5590698732026453e-09, 3.275673066127638e-07, 3.9649577843192674e-07, -2.579937699920265e-06, -5.367635225184131e-10, -1.6167306382541824e-09, -1.5877675840769712e-09, -1.5412407492476632e-06], [1.9391396474666145e-11, -2.333274892740711e-11, 2.823858161193904e-11, 2.6186197307764836e-11, -1.182833244683934e-07, -2.6515080062128327e-11, 2.6817213380492255e-11, -1.0560244519119966e-11, -8.096606762819647e-08, 8.61263345086627e-08, -1.4218136357158073e-07, 1.2708281360573892e-07, 2.607585675162838e-11, -2.59818939696288e-08, -2.424544245926974e-11, 2.684029734578708e-11, -9.186647531578274e-08, -1.8863195727636395e-11, -1.450822963988685e-07, -6.147871101092051e-09, -1.209232038945629e-07, 2.606915204539373e-11, -2.6257416380071064e-11, -1.687747164247355e-11, 2.602535201234879e-11, -9.502997500021593e-09, 3.3293368062459194e-08, -1.3535688481169927e-07, -5.467194839209322e-12, -2.809451109253569e-11, -2.6654109475110488e-11, -6.800342333690423e-08], [8.11272839200683e-05, -5.819489524583332e-05, 7.644919242011383e-05, 5.3594318160321563e-05, 0.028516022488474846, -5.7029876188607886e-05, 6.093318006605841e-05, -9.649089042795822e-05, -0.1388203203678131, 0.28987011313438416, -0.11758185178041458, 0.23685891926288605, 5.2681985835079104e-05, -0.056112948805093765, -5.606007107417099e-05, 6.124586798250675e-05, -0.29661405086517334, -8.454363705823198e-05, -0.20046354830265045, -0.007308885455131531, -0.26045775413513184, 5.263011553324759e-05, -5.422277536126785e-05, -8.489805622957647e-05, 5.23149392392952e-05, -0.03333750739693642, -0.016971798613667488, 0.024335594847798347, -0.00013075998867861927, -7.534278120147064e-05, -5.87862086831592e-05, 0.043238673359155655], [8.975120726972818e-05, -0.0001111488018068485, 0.00014310638653114438, 0.00013238951214589179, -0.028051093220710754, -0.00013429140381049365, 0.0001358890876872465, -1.1170311154273804e-05, 0.04074406623840332, 0.2113892138004303, -0.006701335776597261, 0.0989733561873436, 0.00013168211444281042, -0.059759147465229034, -0.00011830759467557073, 0.00013600740930996835, -0.1342412680387497, -6.984990614000708e-05, -0.043513622134923935, 0.012837999500334263, -0.11685863137245178, 0.000131635635625571, -0.00013281553401611745, -6.088050940888934e-05, 0.00013134760956745595, -0.07790267467498779, -0.08193422853946686, 0.0346040353178978, 2.786041295621544e-05, -0.00014236586866900325, -0.00013504241360351443, -0.02690192125737667], [0.00017767601821105927, -0.00017319133621640503, 0.00014958757674321532, 0.00016422729822807014, -0.018574299290776253, -0.0001616279041627422, 0.00015896675176918507, -5.414577026385814e-05, 0.03894132748246193, 0.09943653643131256, 0.11424914747476578, 0.016276422888040543, 0.00016501685604453087, -0.12809492647647858, -0.00017179932910948992, 0.0001587538281455636, -0.033057454973459244, -0.00017046666471287608, -0.07382939755916595, 0.012345676310360432, -0.007599276024848223, 0.00016506636166013777, -0.00016371897072531283, -0.00017153314547613263, 0.0001653580111451447, 0.024168387055397034, 0.07177092134952545, -0.2176375687122345, -8.588266791775823e-05, -0.00015023066953290254, -0.0001604066346772015, 0.004586922004818916], [5.10504687554203e-05, -8.549658377887681e-05, 0.00015462323790416121, 0.0001253006048500538, -0.016005059704184532, -0.0001313133689109236, 0.00013676959497388452, 5.452755544865795e-07, 0.009103221818804741, 0.1808709055185318, 0.06116742268204689, -0.07271140068769455, 0.00012328088632784784, -0.0009642450022511184, -9.741798567119986e-05, 0.0001371741818729788, -0.05775512382388115, -2.9517110306187533e-05, -0.03941153734922409, -0.04227037355303764, 0.03769417852163315, 0.00012314447667449713, -0.0001265642640646547, -1.7947424566955306e-05, 0.00012235683971084654, -0.05309245362877846, -0.08586974442005157, 0.0551583468914032, 6.382675201166421e-05, -0.000153339424286969, -0.00013388007937464863, -0.17257198691368103], [1.3782195384948182e-09, -1.4002333736939931e-09, 1.5531480546115972e-09, 1.5024047561595921e-09, -2.296568709425628e-06, -1.516793690647944e-09, 1.5273313724861737e-09, -1.3157214207026868e-10, -1.5569656852676417e-06, -2.6984203032043297e-06, -5.14842781740299e-07, -2.342578227398917e-06, 1.4968468686760161e-09, -3.775409425088583e-07, -1.4310033158437818e-09, 1.5279734144613144e-09, 2.7505411708261818e-06, -1.207134281422384e-09, 5.06072353800846e-07, -1.396282129917381e-07, 1.6099414779091603e-06, 1.4964751660073716e-09, -1.5056864643980816e-09, -1.1925467280349267e-09, 1.49416945482983e-09, 3.102148866673815e-07, 3.980889289323386e-07, -2.3373675048787845e-06, -5.104202616124098e-10, -1.5513297313418661e-09, -1.522098114214998e-09, -1.3627907264890382e-06], [7.529322465416044e-05, -0.00010213012137683108, 0.00013887388922739774, 0.00013198633678257465, 0.013863698579370975, -0.00013397946895565838, 0.00013537144695874304, 1.3708695405512117e-05, -0.037834472954273224, -0.00428925734013319, 0.04739264398813248, -0.055834341794252396, 0.00013117570779286325, 0.17568066716194153, -0.00011169781646458432, 0.00013546440459322184, 0.08913728594779968, -5.279561810311861e-05, 0.04091263189911842, -0.11410674452781677, 0.13311709463596344, 0.00013111784937791526, -0.0001324629265582189, -4.2316867620684206e-05, 0.000130765387439169, -0.04348679631948471, -0.039052702486515045, -0.007918637245893478, 4.400970283313654e-06, -0.00013863190542906523, -0.0001346734061371535, -0.16204695403575897], [1.2689939099530534e-09, -1.2919136871403225e-09, 1.4309432527781496e-09, 1.3856574776482944e-09, -2.0333295651653316e-06, -1.3982308644244767e-09, 1.4073676668502344e-09, -1.3225474881917165e-10, -1.7081233636417892e-06, -2.2630233615927864e-06, -7.18097851404309e-07, -1.7990595324590686e-06, 1.3807613941096974e-09, -1.0415920570494563e-07, -1.3204385362897142e-09, 1.4079220012064297e-09, 2.258516133224475e-06, -1.1150071976828713e-09, 4.177982049213824e-08, -3.440552376332562e-08, 1.0815010682563297e-06, 1.3804345444512478e-09, -1.388537618218777e-09, -1.09989062302418e-09, 1.3783969521341533e-09, 2.5951362658815924e-07, 3.8877948327353806e-07, -1.8301658428754308e-06, -4.73193928485216e-10, -1.4291426930768125e-09, -1.4028270767241224e-09, -1.000972247311438e-06], [1.4449202945243655e-09, -1.4655987534695214e-09, 1.6199759311774642e-09, 1.569102736631578e-09, -2.399752020210144e-06, -1.583893793899449e-09, 1.5946556297663506e-09, -1.4098457123967734e-10, -1.461849024053663e-06, -2.8621200272027636e-06, -4.147563288370293e-07, -2.5680894850665936e-06, 1.5633825345418018e-09, -5.194891627979814e-07, -1.4967137529353636e-09, 1.595305998414176e-09, 2.9434843327180715e-06, -1.2679768346401943e-09, 7.215585924313928e-07, -1.954798847236816e-07, 1.8428191879138467e-06, 1.562999507598306e-09, -1.5724794799609754e-09, -1.2540787297510292e-09, 1.5606275161061944e-09, 3.279985492099513e-07, 3.963293693232117e-07, -2.58712975664821e-06, -5.37475230988349e-10, -1.6182626350058626e-09, -1.589328779694199e-09, -1.546572207189456e-06], [1.9268727555754595e-05, -2.193080035794992e-05, 2.346989458601456e-05, 2.1786938305012882e-05, 0.06764283031225204, -2.2135784092824906e-05, 2.2488806280307472e-05, -3.277244832133874e-05, 0.05142795294523239, 0.11242753267288208, -0.04939083009958267, 0.11536635458469391, 2.1694710085284896e-05, 0.06833703070878983, -2.200561539211776e-05, 2.2513806470669806e-05, -0.12028013914823532, -2.467977174092084e-05, -0.07757532596588135, -0.0431663803756237, -0.08487586677074432, 2.168986429751385e-05, -2.185388257203158e-05, -2.384014442213811e-05, 2.165715523005929e-05, 0.0481327585875988, 0.014230549335479736, 0.044049590826034546, 6.292167199717369e-06, -2.341832805541344e-05, -2.2303613150143065e-05, 0.015081433579325676], [9.460207062161885e-10, -9.626345276458892e-10, 1.020376116933619e-09, 1.0096017355465392e-09, -1.1199776963621844e-06, -1.01347952252695e-09, 1.0153642371335536e-09, -1.7594187218250568e-10, -2.0539544038911117e-06, -6.450289902204531e-07, -1.3430461649477365e-06, 9.064888217835687e-08, 1.0077875201019992e-09, 5.46075796137302e-07, -9.78091607706233e-10, 1.0154287410912843e-09, 4.769782435687375e-07, -8.63328464273394e-10, -1.4041260101294029e-06, 1.7412820341178303e-07, -6.506415388685127e-07, 1.0076690593052717e-09, -1.010603378759356e-09, -8.504790205421386e-10, 1.0068629263670914e-09, 1.008254812973064e-07, 3.572125706341467e-07, -5.430408691609045e-07, -3.9122388661994023e-10, -1.0195999600171035e-09, -1.0145415618723064e-09, -1.620897904786034e-07], [0.00011327450192766264, -0.00012890578364022076, 0.00015787885058671236, 0.00014463227125816047, -0.032591529190540314, -0.00014718897000420839, 0.00014954405196476728, -6.416745600290596e-05, 0.015067536383867264, 0.19821788370609283, -0.08996591717004776, 0.13053342700004578, 0.00014377727347891778, 0.011104842647910118, -0.00013352735550142825, 0.0001497189368819818, -0.18542839586734772, -0.00010356328130001202, -0.25756919384002686, 0.07597856223583221, -0.14872294664382935, 0.00014372319856192917, -0.0001451696880394593, -9.792960190679878e-05, 0.00014339083281811327, -0.009008646011352539, -0.07266134768724442, -0.029991338029503822, -2.3110609618015587e-05, -0.00015722130774520338, -0.0001482997613493353, -0.02554793283343315], [8.674018317833543e-05, -7.501547952415422e-05, 5.3245828894432634e-05, 6.407830369425938e-05, 0.03006422333419323, -6.197812763275579e-05, 5.997718108119443e-05, -3.333466884214431e-05, 0.021418828517198563, -0.01056903786957264, 0.06151869148015976, -0.05602072924375534, 6.47553097223863e-05, -0.04925336316227913, -7.211084448499605e-05, 5.9820773458341137e-05, 0.0002489335020072758, -8.727560634724796e-05, 0.040337834507226944, 0.013630086556077003, 0.032480835914611816, 6.479489093180746e-05, -6.364982255036011e-05, -9.164521907223389e-05, 6.505570490844548e-05, 0.03740745782852173, 0.016994666308164597, 0.026372205466032028, -7.377312431344762e-05, -5.371251972974278e-05, -6.104075146140531e-05, 0.07478824257850647], [0.00011572737275855616, -0.00011312813148833811, 9.62164849624969e-05, 0.00010254444350721315, 0.07477255165576935, -0.00010081557411467656, 9.919383592205122e-05, 1.6817069763419568e-06, -0.006934966892004013, 0.13218332827091217, -0.04630375653505325, 0.014823517762124538, 0.00010313381790183485, 0.05649549141526222, -0.00010992011084454134, 9.907430649036542e-05, -0.08825382590293884, -0.00012213914305903018, -0.1432226151227951, -0.03938276693224907, 0.022306999191641808, 0.00010317211126675829, -0.00010219925025012344, -0.00011864020780194551, 0.00010338291758671403, -0.0008163527818396688, -0.05727566033601761, 0.007368649356067181, -4.316896229283884e-05, -9.619014599593356e-05, -0.00010004147043218836, 0.003927182871848345], [1.3775199869670018e-09, -1.399542037816559e-09, 1.5524086460771969e-09, 1.5016808907475365e-09, -2.2953295228944626e-06, -1.5160630528754382e-09, 1.5265950725762423e-09, -1.3151206512684865e-10, -1.5576930536553846e-06, -2.696304818528006e-06, -5.158337330612994e-07, -2.339954335184302e-06, 1.4961253347323122e-09, -3.7620498005708214e-07, -1.4303032092044532e-09, 1.5272365594398707e-09, 2.7481485176394926e-06, -1.2065161092422727e-09, 5.03789124195464e-07, -1.3908045559674065e-07, 1.6073477127065416e-06, 1.4957540761528776e-09, -1.5049608226291866e-09, -1.1919242259850193e-09, 1.4934490311091508e-09, 3.100032301972533e-07, 3.9806232621231175e-07, -2.33482592193468e-06, -5.101561395548515e-10, -1.5505902117851633e-09, -1.5213641457734184e-09, -1.3609563893624e-06], [1.395278892424301e-09, -1.4169839746003277e-09, 1.5707369849238262e-09, 1.5197708647107788e-09, -2.3245672764460323e-06, -1.534304350236937e-09, 1.5449349577423277e-09, -1.3315780422740175e-10, -1.5389447298730374e-06, -2.748045517364517e-06, -4.906422645944986e-07, -2.404996848781593e-06, 1.5141552456299223e-09, -4.0951758251139836e-07, -1.4479181187354584e-09, 1.5455808854980546e-09, 2.807113787639537e-06, -1.2223384526777181e-09, 5.604592843155842e-07, -1.5315922041736485e-07, 1.6719625364203239e-06, 1.5137806563814138e-09, -1.5230856575954022e-09, -1.2079001132647704e-09, 1.5114514084757502e-09, 3.151567966597213e-07, 3.9839278542785905e-07, -2.3975544536369853e-06, -5.170862626968642e-10, -1.5689377574901187e-09, -1.5396595109962163e-09, -1.4069463531996007e-06], [9.32886767834873e-10, -9.442977511042727e-10, 9.79864078765047e-10, 9.79317515970024e-10, -9.815137218538439e-07, -9.810571244273092e-10, 9.810092738149478e-10, -1.9099780090847673e-10, -2.133667067028e-06, -4.4397839360499347e-07, -1.4583087022401742e-06, 3.5112623208988225e-07, 9.782235022015584e-10, 6.638938998548838e-07, -9.564452563282089e-10, 9.80931780247829e-10, 2.5576574103070016e-07, -8.61440307975414e-10, -1.6318354028044268e-06, 1.8245644639591774e-07, -8.859510671754833e-07, 9.781532250840996e-10, -9.798699629470775e-10, -8.509446480786664e-10, 9.77630754128711e-10, 6.251726603068164e-08, 3.6269796055421466e-07, -3.5750898064179637e-07, -4.0074016327551476e-10, -9.795065869511177e-10, -9.812043400003745e-10, -4.810721776493665e-08], [1.3732651682474284e-09, -1.3953649347087094e-09, 1.5479991732902931e-09, 1.4973364770298758e-09, -2.288292989760521e-06, -1.5116805585080328e-09, 1.522187376146178e-09, -1.311727532149476e-10, -1.5616834616594133e-06, -2.683464799702051e-06, -5.217003717916668e-07, -2.3241527742356993e-06, 1.4917953539139717e-09, -3.6861888474959414e-07, -1.4260809200195013e-09, 1.5228279748313867e-09, 2.7336302537150914e-06, -1.2027443485607137e-09, 4.904281354356499e-07, -1.357887811082037e-07, 1.5918460576358484e-06, 1.4914254276021666e-09, -1.5006066389489092e-09, -1.1881162720328575e-09, 1.489126932874285e-09, 3.087241680077568e-07, 3.9792595885046467e-07, -2.320223529750365e-06, -5.084972998226078e-10, -1.5461759650392537e-09, -1.5169681066851126e-09, -1.3502262845577206e-06], [-0.00018200596969109029, 0.00021272650337778032, -0.0002471099724061787, -0.00022824780899100006, 0.2592204511165619, 0.00023098455858416855, -0.0002338110498385504, 8.663078187964857e-05, -0.07396481931209564, 0.29367995262145996, 0.03453864902257919, 0.39768028259277344, -0.0002274324360769242, -0.2075917273759842, 0.00021904449386056513, -0.00023402710212394595, -0.5495355129241943, 0.00016166518616955727, -0.3091438412666321, 0.03530821204185486, -0.36028024554252625, -0.0002273758000228554, 0.00022881184122525156, 0.0001454871380701661, -0.00022706895833835006, 0.011866297572851181, 0.07926283031702042, -0.028994834050536156, -6.09839080425445e-05, 0.0002459524548612535, 0.0002322705986443907, 0.0019816497806459665], [-9.784293797565624e-05, 9.896828851196915e-05, -0.00010588834993541241, -0.00010423803178127855, -0.1350225955247879, 0.00010457469034008682, -0.00010470690176589414, 4.610725591192022e-05, -0.06992226094007492, 0.05183393508195877, -0.14662359654903412, 0.284241259098053, -0.00010405918146716431, 0.18111570179462433, 0.00010093730816151947, -0.00010471082350704819, -0.04053628817200661, 9.204620437230915e-05, -0.2639614939689636, -0.0356791615486145, -0.1010056883096695, -0.00010404438944533467, 0.00010432349517941475, 9.612836583983153e-05, -0.00010396820289315656, -0.08115711808204651, 0.021148022264242172, -0.01714473031461239, 4.4441087084123865e-05, 0.00010565017873886973, 0.00010465461673447862, 0.04065662622451782], [1.3329498870007228e-05, 1.858470386650879e-05, -8.84584296727553e-05, -6.919064617250115e-05, -0.12856325507164001, 7.364925841102377e-05, -7.744444883428514e-05, -1.1572628864087164e-05, 0.0037565187085419893, -0.05416344478726387, -0.16495108604431152, 0.14048625528812408, -6.754567584721372e-05, 0.3037165105342865, 3.446365735726431e-05, -7.772658136673272e-05, -0.08081082999706268, -4.3054915295215324e-05, 0.029737655073404312, 0.03694934397935867, -0.09453491866588593, -6.743393169017509e-05, 7.015746814431623e-05, -4.248964614816941e-05, -6.677188503090292e-05, -0.07422903180122375, -0.022565485909581184, -0.0012405189918354154, -7.200856634881347e-05, 8.774731395533308e-05, 7.546756387455389e-05, 0.01919805072247982], [1.4663889547072984e-10, -1.4437269435507716e-10, 1.1459350829357007e-10, 1.309122255044315e-10, -1.2646859204323846e-07, -1.2761769419000757e-10, 1.2438176877349605e-10, -8.593926958955223e-11, -9.228291446561343e-07, 5.733674584007531e-07, -8.963109507931222e-07, 1.0506594207981834e-06, 1.3194570436247943e-10, 3.4061000064866676e-07, -1.4083262334096958e-10, 1.2414097527724266e-10, -7.27347298834502e-07, -1.6156667670408353e-10, -1.1849485872517107e-06, 4.644077122861745e-08, -1.0880251011258224e-06, 1.3201573167975766e-10, -1.3025244771647237e-10, -1.601055676925256e-10, 1.3240583629503533e-10, -1.8478917951370022e-08, 1.774412083932475e-07, 4.049179480603016e-08, -1.1711265290870188e-10, -1.1511985809065095e-10, -1.2610759658748805e-10, 5.4727102849483344e-09], [1.513003944353386e-09, -1.5316669044196374e-09, 1.679874794824343e-09, 1.631840329530121e-09, -2.496663455531234e-06, -1.6463093110985483e-09, 1.6566895633118861e-09, -1.6484946741002204e-10, -1.2808123983631958e-06, -2.8725669380946783e-06, -3.2191320542551694e-07, -2.684424089238746e-06, 1.6262174939996044e-09, -7.324818511733611e-07, -1.5618329962663324e-09, 1.6573070693581826e-09, 2.9861128041375196e-06, -1.3364483963940188e-09, 9.105863227887312e-07, -2.558662686169555e-07, 1.9940539459639695e-06, 1.6258399071489293e-09, -1.6351583420615157e-09, -1.3236971518892915e-09, 1.6235032207490008e-09, 3.507998371787835e-07, 3.913336570349202e-07, -2.9115092274878407e-06, -5.71731106902007e-10, -1.6783597844849396e-09, -1.6515864231791966e-09, -1.7813435988500714e-06], [1.4305685525073386e-09, -1.4515746382670613e-09, 1.6061256769006604e-09, 1.5550849497003583e-09, -2.378698354732478e-06, -1.5698315980472444e-09, 1.5805834419069242e-09, -1.380908165593553e-10, -1.4893226989443065e-06, -2.8351976197882323e-06, -4.377399136501481e-07, -2.5244596599804936e-06, 1.5493846206027229e-09, -4.837348797082086e-07, -1.4826967431602611e-09, 1.5812345877108669e-09, 2.909681143137277e-06, -1.2545041672140655e-09, 6.741822744515957e-07, -1.8254092992719961e-07, 1.7951975905816653e-06, 1.5490027038822518e-09, -1.5584511459110217e-09, -1.2404265392618186e-09, 1.54663837292901e-09, 3.2439399433314975e-07, 3.973882769514603e-07, -2.5283802642661612e-06, -5.313564033215812e-10, -1.604382404707394e-09, -1.5752577020577974e-09, -1.5032649116619723e-06], [-0.0001743259490467608, 0.00016725441673770547, -0.00013935673632659018, -0.00014821637887507677, -0.1207277923822403, 0.00014587471378035843, -0.0001439309271518141, 9.488121577305719e-05, 0.010013344697654247, -0.010650135576725006, -0.05382160842418671, 0.14669278264045715, -0.00014908291632309556, 0.0972365215420723, 0.00016170766321010888, -0.00014379571075551212, 0.00511344475671649, 0.0001911602303152904, -0.14052927494049072, -0.037511639297008514, -0.08699531108140945, -0.00014913833001628518, 0.0001477114565204829, 0.00018733058823272586, -0.00014948078023735434, 0.009892898611724377, 0.09318090230226517, 0.020038366317749023, 0.00012056466221110895, 0.00013958444469608366, 0.000144920326420106, 0.07503025978803635], [-2.5422989438084187e-06, 2.2644715045316843e-06, -2.215137101302389e-06, -2.262826683363528e-06, -0.0004585578280966729, 2.2774265744374134e-06, -2.2822803202871e-06, -5.058892043052765e-07, -3.7100398913025856e-05, 0.00010493199079064652, 2.8490167096606456e-05, -0.00018920406000688672, -2.2558922410098603e-06, -8.295817679027095e-05, 2.2512697341880994e-06, -2.282037712575402e-06, 2.3778922695782967e-05, 2.1320038285921328e-06, -3.0052447982598096e-05, 0.000446652207756415, -0.00023703578335698694, -2.2554465886059916e-06, 2.2664823973173043e-06, 2.235495003333199e-06, -2.2525118765770458e-06, -4.3631716835079715e-05, -0.0002884411078412086, 0.00043983751675114036, 1.2372703395158169e-06, 2.2251456357480492e-06, 2.281066599607584e-06, 6.757689698133618e-05], [3.323987357362057e-06, -2.9796592571074143e-06, 2.6962677566189086e-06, 2.8674730856437236e-06, 0.0005848846631124616, -2.8604681574506685e-06, 2.8437257242330816e-06, 1.7752761038991594e-07, 8.724556209926959e-06, -0.00010210519394604489, -2.4434124497929588e-05, 0.00022788414207752794, 2.867316879928694e-06, 9.453092934563756e-05, -2.936616738224984e-06, 2.8417744033504277e-06, -4.640704355551861e-05, -2.965186695291777e-06, 1.62266987899784e-05, -0.000502683047670871, 0.0002642905747052282, 2.867323928512633e-06, -2.866802788048517e-06, -3.096684395131888e-06, 2.8669671792158624e-06, 5.125801908434369e-05, 0.0003615276073105633, -0.0004893619916401803, -1.7351065935145016e-06, -2.7121955099573825e-06, -2.8541610390675487e-06, 1.9824074115604162e-07], [-4.980552603228716e-06, 4.515335149335442e-06, -3.8089201552793384e-06, -4.203874141239794e-06, -0.0008767459075897932, 4.1587759369576816e-06, -4.1035586946236435e-06, 4.807630489267467e-07, 2.0568464606185444e-05, 7.681828719796613e-05, 9.266241249861196e-06, -0.000318577338475734, -4.215615263092332e-06, -0.00018265002290718257, 4.417380750965094e-06, -4.098541012353962e-06, 0.00011016267671948299, 4.719579919765238e-06, 2.251160185551271e-05, 0.0006242910749278963, -0.00034350939677096903, -4.216415618429892e-06, 4.19561820308445e-06, 4.896593054581899e-06, -4.220563369017327e-06, -1.6629464880679734e-05, -0.0004710233479272574, 0.0006181483622640371, 2.747470489339321e-06, 3.835997176793171e-06, 4.134800747124245e-06, -0.00011015325435437262], [-4.376603101263754e-06, 3.960914455092279e-06, -3.4330169000895694e-06, -3.7375750707724364e-06, -0.0007524500833824277, 3.708309350258787e-06, -3.668696081149392e-06, 2.0737627437483752e-07, 2.0066318029421382e-07, 8.727386011742055e-05, 2.2519418052979745e-05, -0.0002828944125212729, -3.7442491702677216e-06, -0.00015215418534353375, 3.887499133270467e-06, -3.6649089452112094e-06, 8.329607953783125e-05, 4.060093488078564e-06, 8.358059858437628e-06, 0.0005671181716024876, -0.0003100427857134491, -3.744711648323573e-06, 3.732510549525614e-06, 4.216964043735061e-06, -3.7469196740858024e-06, -3.226463377359323e-05, -0.00041504736873321235, 0.0005653360276482999, 2.3574634724354837e-06, 3.455580554145854e-06, 3.6915366763423663e-06, -5.3515774197876453e-05], [-1.5163257671702013e-07, -3.318104791105725e-05, 8.190060907509178e-05, 6.874810060253367e-05, 0.33852243423461914, -7.15389905963093e-05, 7.399777678074315e-05, 6.651705189142376e-05, 0.04332147166132927, 0.0965377688407898, 0.1447647362947464, -0.25520241260528564, 6.778719398425892e-05, 0.009513771161437035, -4.7382167394971475e-05, 7.416853622999042e-05, -0.014682223089039326, 4.2347503040218726e-05, 0.04093557596206665, 0.17759332060813904, 0.1061648279428482, 6.772271444788203e-05, -6.934610428288579e-05, 3.916319474228658e-05, 6.732976180501282e-05, 0.002072749426588416, -0.3565908968448639, 0.8502626419067383, 0.00016544744721613824, -8.128587069222704e-05, -7.269790512509644e-05, 0.34708917140960693], [4.5197716644906905e-06, -4.094006726518273e-06, 3.5322834719409e-06, 3.85475686925929e-06, 0.0007745003094896674, -3.822478447546018e-06, 3.7798106404807186e-06, -2.6256117280354374e-07, -2.9200089102232596e-06, -8.487264130963013e-05, -2.1004620066378266e-05, 0.0002895506622735411, 3.862370249407832e-06, 0.00015903419989626855, -4.016165348730283e-06, 3.775780896830838e-06, -8.849955338519067e-05, -4.21110507886624e-06, -1.1420635928516276e-05, -0.0005759643972851336, 0.0003158783947583288, 3.862893663608702e-06, -3.849095719488105e-06, -4.371805971459253e-06, 3.865459348162403e-06, 2.8331451176200062e-05, 0.0004254966916050762, -0.0005747438990511, -2.445438440190628e-06, -3.5557575301936595e-06, -3.8043058339098934e-06, 6.480011506937444e-05], [-4.641913164959988e-06, 4.207203801342985e-06, -3.6143842407909688e-06, -3.9529736568511e-06, -0.0007949099526740611, 3.9179285522550344e-06, -3.8724961086700205e-06, 3.130461152522912e-07, 6.2590652305516414e-06, 8.261720358859748e-05, 1.9067741959588602e-05, -0.0002953539078589529, -3.9614578781765886e-06, -0.00016483031504321843, 4.125188752368558e-06, -3.868242856697179e-06, 9.31842514546588e-05, 4.341853582445765e-06, 1.4134190678305458e-05, 0.0005842916434630752, -0.0003212312003597617, -3.96203813579632e-06, 3.94675635106978e-06, 4.5060814954922535e-06, -3.964937150158221e-06, -2.494325781299267e-05, -0.00043545180233195424, 0.0005831551388837397, 2.5226966045011068e-06, 3.638666839833604e-06, 3.898484919773182e-06, -7.52917185309343e-05], [6.652727506661904e-07, -6.153662184260611e-07, 6.355510322464397e-07, 6.402566441465751e-07, 3.939841553801671e-05, -6.450040359595732e-07, 6.470258426816144e-07, 8.287574360110739e-08, -7.465168164344504e-05, -2.606232555990573e-05, 3.227932393201627e-05, -6.689134170301259e-05, 6.38042024547758e-07, -8.026491741475184e-06, -6.207200158314663e-07, 6.470386324508581e-07, 3.5768440284300596e-05, -5.503296165443317e-07, 1.782927574822679e-05, -6.48630884825252e-05, 4.689308116212487e-05, 6.378901957759808e-07, -6.41433643977507e-07, -5.714717303817451e-07, 6.369484708557138e-07, 2.8707987439702265e-05, 3.511315298965201e-05, -7.265157182700932e-05, -2.965212786421034e-07, -6.373674636961368e-07, -6.462960300268605e-07, 6.835344265709864e-06], [5.9169418818783015e-05, -6.917561404407024e-05, 0.00011723371426342055, 9.50729227042757e-05, 0.12087325751781464, -9.930942178471014e-05, 0.00010322297748643905, 6.309227956080576e-06, 0.3645817041397095, 0.08101554214954376, 0.00039477209793403745, 0.01006617583334446, 9.36377837206237e-05, 0.13914163410663605, -7.683698640903458e-05, 0.00010350989759899676, -0.04815268889069557, -3.0036406315048225e-05, 0.01010267622768879, -0.03324253857135773, -0.06737994402647018, 9.354417124995962e-05, -9.595943993190303e-05, -2.592786040622741e-05, 9.29823872866109e-05, 0.02519272081553936, -0.011389578692615032, -0.20211845636367798, 2.2335032554110512e-05, -0.00011616962729021907, -0.0001011393396765925, 0.07529808580875397], [0.00018664255912881345, -0.00021981785539537668, 0.00029313305276446044, 0.0002695528091862798, -0.06383568048477173, -0.00027432700153440237, 0.0002782088704407215, -7.193205965450034e-05, -0.055064857006073, 0.2443273514509201, 0.033548545092344284, 0.00027119627338834107, 0.00026775532751344144, -0.09949035942554474, -0.00023482060350943357, 0.0002784880925901234, 0.0735059306025505, -0.00015504694601986557, -0.11511459946632385, 0.006096885539591312, 0.021273644641041756, 0.00026763827190734446, -0.00027062740991823375, -0.00014669935626443475, 0.0002669022942427546, -0.3179304599761963, -0.14214016497135162, 0.09021372348070145, -3.4836619306588545e-05, -0.00029173018992878497, -0.00027618175954557955, 0.06217610836029053], [-0.00029978068778291345, 0.0002977630356326699, -0.00027938841958530247, -0.00028592682792805135, 0.02556050568819046, 0.00028415038832463324, -0.00028271504561416805, 0.00017852832388598472, 0.030381543561816216, 0.12392489612102509, 0.21164463460445404, -0.14626599848270416, -0.00028658832889050245, -0.1844630241394043, 0.0002967051404993981, -0.00028260372346267104, 0.19308289885520935, 0.0002989577769767493, 0.09432069957256317, 0.06281369924545288, 0.2534323036670685, -0.00028663623379543424, 0.00028554192977026105, 0.00029789202380925417, -0.0002868961018975824, -0.17823909223079681, -0.41731971502304077, 0.055787671357393265, 0.00014139492122922093, 0.0002795796317514032, 0.0002834539918694645, 0.09231258183717728], [0.0005352786974981427, -0.0006715957424603403, 0.0009388047619722784, 0.00082341895904392, 0.08676792681217194, -0.0008435692870989442, 0.0008624211768619716, -5.105028685647994e-05, -0.181730255484581, 0.14372149109840393, -0.19131283462047577, 0.013262730091810226, 0.000816716521512717, 0.05975435674190521, -0.0007189574535004795, 0.0008638586150482297, -0.0005392554448917508, -0.00044958520447835326, -0.2131625860929489, 0.23343218863010406, -0.15564166009426117, 0.0008162602316588163, -0.0008276665466837585, -0.0003823884471785277, 0.0008135977550409734, -0.47408726811408997, 0.41419723629951477, -0.0033896290697157383, 2.8804906833101995e-05, -0.0009322510450147092, -0.0008522978750988841, -0.14770610630512238], [-4.3262703002255876e-06, 3.914007720595691e-06, -3.3974195048358524e-06, -3.695893838084885e-06, -0.000745012890547514, 3.667635382953449e-06, -3.629058028309373e-06, 1.887855773929914e-07, -4.607975370163331e-07, 8.809839346213266e-05, 2.289942858624272e-05, -0.0002805306576192379, -3.702257117765839e-06, -0.00014962411660235375, 3.842042133328505e-06, -3.625351610025973e-06, 8.148587949108332e-05, 4.007483767054509e-06, 7.317233666981338e-06, 0.0005641719908453524, -0.00030802865512669086, -3.702697767948848e-06, 3.6910305425408296e-06, 4.163097401033156e-06, -3.704791652126005e-06, -3.3670414268272e-05, -0.0004117584030609578, 0.0005620488664135337, 2.3271968530025333e-06, 3.4196730211988324e-06, 3.651337692645029e-06, -4.987814827472903e-05], [-0.00018195215670857579, 0.0001862821663962677, -0.00017914916679728776, -0.00017366267275065184, -0.3350941240787506, 0.00017274210404139012, -0.00017228859360329807, 4.7898563934722915e-05, -0.042190734297037125, -0.2160036414861679, -0.11674956977367401, 0.20138467848300934, -0.00017406378174200654, 0.24244780838489532, 0.0001816231379052624, -0.00017228572687599808, -0.106185182929039, 0.00019643708947114646, -0.02638387866318226, 0.06571918725967407, -0.13074766099452972, -0.00017408948042429984, 0.00017346398090012372, 0.00018035867833532393, -0.00017424373072572052, 0.015425894409418106, -0.3767533004283905, 0.8491630554199219, 0.00013137474888935685, 0.00017797990585677326, 0.00017245735216420144, -0.16494883596897125], [3.6350525078887586e-06, -3.269340595579706e-06, 2.9163220460759476e-06, 3.126432147837477e-06, 0.0006364602013491094, -3.1131105515669333e-06, 3.089768370045931e-06, 7.492813125509201e-08, 5.723382855649106e-06, -9.800925181480125e-05, -2.498784124327358e-05, 0.0002445898426230997, 3.1281854262488196e-06, 0.0001123434049077332, -3.2179300433199387e-06, 3.0872824936523102e-06, -5.6538861826993525e-05, -3.283620571892243e-06, 7.776297934469767e-06, -0.0005221670144237578, 0.0002780960057862103, 3.1283198040910065e-06, -3.1245276659319643e-06, -3.4223451166326413e-06, 3.1286738249036716e-06, 4.8331159632653e-05, 0.00037485832581296563, -0.0005109374760650098, -1.9143546978739323e-06, -2.934223630290944e-06, -3.1037957342050504e-06, 1.1353036825312302e-05], [-4.650438768294407e-06, 4.2150827539444435e-06, -3.6199110127199674e-06, -3.9596998249180615e-06, -0.0007964617107063532, 3.924448265024694e-06, -3.878805273416219e-06, 3.1684984946878103e-07, 6.5345147959305905e-06, 8.245024218922481e-05, 1.8899374481406994e-05, -0.0002957728283945471, -3.9682508941041306e-06, -0.00016524070815648884, 4.132747108087642e-06, -3.874537924275501e-06, 9.3531642050948e-05, 4.351118150225375e-06, 1.433283705409849e-05, 0.0005849406588822603, -0.00032164170988835394, -3.968838882428827e-06, 3.953441137127811e-06, 4.515609361988027e-06, -3.97175926991622e-06, -2.4701908841961995e-05, -0.0004362120816949755, 0.0005837797652930021, 2.5282110982516315e-06, 3.6442565942707006e-06, 3.9049032238835935e-06, -7.608414307469502e-05], [0.00018326504505239427, -0.0002062264538835734, 0.0002534622326493263, 0.000243525646510534, -0.109297014772892, -0.00024641744676046073, 0.0002484877477400005, 2.4041966639742895e-07, -0.01794782467186451, -0.04364129155874252, 0.1556008905172348, -0.20074963569641113, 0.0002423767145955935, -0.012529212981462479, -0.00021856269449926913, 0.0002486186567693949, 0.22163847088813782, -0.0001432893768651411, 0.07726248353719711, 0.02992800436913967, 0.18359966576099396, 0.00024229983682744205, -0.0002441971155349165, -0.00013697637768927962, 0.00024181551998481154, -0.08191347122192383, 0.026258839294314384, -0.003217719029635191, -3.7453180993907154e-05, -0.0002530795172788203, -0.00024744353140704334, -0.019202133640646935], [1.6760926655479125e-06, -1.4471580698227626e-06, 1.4969212998039438e-06, 1.476492343499558e-06, 0.0003520837635733187, -1.4994579942140263e-06, 1.5148127658903832e-06, 6.271985171224514e-07, 3.3025229640770704e-05, -0.00011970928608207032, -1.7319907783530653e-05, 0.00013610400492325425, 1.4675340480607701e-06, 4.157163402851438e-06, -1.4426412917600828e-06, 1.5154979564613313e-06, 3.6588342027243925e-06, -1.3213142437962233e-06, 4.19506395701319e-05, -0.0004105317930225283, 0.0002082466089632362, 1.4669424217572669e-06, -1.4816210978096933e-06, -1.4152117273624754e-06, 1.463337980567303e-06, 5.8298392104916275e-05, 0.00029105195426382124, -0.0003970908874180168, -8.224147336477472e-07, -1.5029721680548391e-06, -1.5076984709594399e-06, -6.181508797453716e-05], [8.584195893490687e-05, -5.872825568076223e-05, -1.7261212633457035e-05, 1.422149216523394e-05, 0.049585867673158646, -6.877586656628409e-06, 2.835546126789268e-07, 7.563894178019837e-05, 0.14255526661872864, 0.038387808948755264, 0.031032802537083626, 0.04970339685678482, 1.669193443376571e-05, 0.040108419954776764, -4.548863580566831e-05, -1.8810982282957411e-07, -0.06435094028711319, -0.00011814737808890641, 0.36249566078186035, -0.058304186910390854, 0.11225200444459915, 1.6851188775035553e-05, -1.269069889531238e-05, -0.00011508702300488949, 1.7805043171392754e-05, 0.1721598207950592, -0.00016812117246445268, -0.08775326609611511, -9.41677499213256e-05, 1.6299580238410272e-05, -3.7359011457738234e-06, 0.05662361904978752], [-0.0002498975954949856, 0.0003433983656577766, -0.0004951026057824492, -0.0004286324547138065, 0.0011188304051756859, 0.00044047192204743624, -0.0004511468578130007, -2.9005204851273447e-05, 0.08445049077272415, -0.13171742856502533, 0.011434677988290787, -0.1398186981678009, -0.00042464310536161065, -0.09874649345874786, 0.0003673987230286002, -0.0004519547801464796, -0.13362275063991547, 0.0002134498063242063, -0.04421740397810936, -0.048414502292871475, -0.3231751322746277, -0.00042436906369403005, 0.0004311910015530884, 0.0001606955920578912, -0.0004227585450280458, 0.08214258402585983, -0.7283746600151062, -0.19701579213142395, 1.3966540791443549e-05, 0.0004911444266326725, 0.0004454367735888809, 0.3136066496372223], [0.00013185199350118637, -0.00016250167391262949, 0.0002745801757555455, 0.0002097771648550406, 0.04149918630719185, -0.00022012102999724448, 0.0002308105758856982, -3.5158776881871745e-05, 0.2965986430644989, 0.1378345936536789, 0.006205048877745867, -0.13748137652873993, 0.00020662897441070527, 0.128432497382164, -0.0001773875846993178, 0.00023163737205322832, 0.13258697092533112, -9.807470632949844e-05, 0.07201924920082092, 0.2254236340522766, 0.08772555738687515, 0.00020641688024625182, -0.0002118267584592104, -8.475378126604483e-05, 0.00020523465354926884, -0.4189913868904114, 0.17347972095012665, -0.020483212545514107, 3.641015791799873e-05, -0.0002710679254960269, -0.00022499257465824485, -0.05350808799266815], [-4.322973836679012e-06, 3.910945451934822e-06, -3.395129397176788e-06, -3.693196049425751e-06, -0.0007445141091011465, 3.6650060337706236e-06, -3.6264973459765315e-06, 1.875528568007212e-07, -5.10898189531872e-07, 8.814220200292766e-05, 2.292135286552366e-05, -0.00028037402080371976, -3.699536591739161e-06, -0.00014945358270779252, 3.839080363832181e-06, -3.622797294156044e-06, 8.137421536957845e-05, 4.004020411230158e-06, 7.245581855386263e-06, 0.0005639665178023279, -0.0003078914887737483, -3.6999754229327664e-06, 3.6883413940813625e-06, 4.159545824222732e-06, -3.702059075294528e-06, -3.3761181839508936e-05, -0.00041153409983962774, 0.0005618296563625336, 2.325174591533141e-06, 3.417364268898382e-06, 3.6487365377979586e-06, -4.963828541804105e-05], [4.40765734310844e-06, -3.989803190052044e-06, 3.4547242648841348e-06, 3.7631118630088167e-06, 0.0007571116439066827, -3.73320631297247e-06, 3.6929413909092546e-06, -2.1906939196014719e-07, -6.882561365273432e-07, -8.679006714373827e-05, -2.225307616754435e-05, 0.00028434634441509843, 3.7699867334595183e-06, 0.00015363258717115968, -3.915457455150317e-06, 3.68910195902572e-06, -8.440284727839753e-05, -4.092685685463948e-06, -9.00693703442812e-06, -0.000568999967072159, 0.0003112739650532603, 3.7704603528254665e-06, -3.757921604119474e-06, -4.250372512615286e-06, 3.7727452308899956e-06, 3.1439547456102446e-05, 0.00041723382310010493, -0.0005673751584254205, -2.3763511762808776e-06, -3.4774825508065987e-06, -3.7161353247938678e-06, 5.587953273789026e-05], [1.4108418326941319e-06, -1.2132910569562227e-06, 1.3700642966796295e-06, 1.296354525948118e-06, 0.00029824412195011973, -1.3289771914060111e-06, 1.353722723251849e-06, 7.631157359355711e-07, 3.836621544905938e-05, -0.00011832940799649805, -1.6062052964116447e-05, 0.00012087987124687061, 1.2842878049923456e-06, 1.7493639461463317e-05, -1.2234677342348732e-06, 1.3551408528655884e-06, 1.0827129699464422e-05, -1.02588921890856e-06, 5.246582441031933e-05, -0.0003751416224986315, 0.0001970192533917725, 1.2834887002100004e-06, -1.303444037148438e-06, -1.1066656497860095e-06, 1.2786892966687446e-06, 5.451837569125928e-05, 0.0002407747961115092, -0.00037927395896986127, -6.407988735190884e-07, -1.3735844959228416e-06, -1.3415673265626538e-06, -0.00010966120316879824], [-4.3030354390793946e-06, 3.892364475177601e-06, -3.380995394763886e-06, -3.676658252516063e-06, -0.0007415522704832256, 3.6488668229139876e-06, -3.6107649066252634e-06, 1.802788887061979e-07, -7.247172675306501e-07, 8.84521214175038e-05, 2.3051064999890514e-05, -0.0002794125466607511, -3.6828769225394353e-06, -0.00014844797260593623, 3.821069185505621e-06, -3.6070966871193377e-06, 8.065273868851364e-05, 3.983234364568489e-06, 6.8310123424453195e-06, 0.0005627853097394109, -0.0003070889215450734, -3.6833073409070494e-06, 3.6718861338158604e-06, 4.1382650124432985e-06, -3.685346882775775e-06, -3.430995639064349e-05, -0.0004102458478882909, 0.0005604891339316964, 2.3132627120503457e-06, 3.4031058930850122e-06, 3.6327846828498878e-06, -4.8214806156465784e-05], [-4.40929397882428e-05, 4.0823044400895014e-05, -5.218100704951212e-05, -4.559971421258524e-05, 0.04589143022894859, 4.673479634220712e-05, -4.7922494559315965e-05, -4.057784735778114e-06, -0.03876727819442749, 0.009508742950856686, -0.008445151150226593, 0.12400314956903458, -4.524621181190014e-05, 0.03175107017159462, 4.1896855691447854e-05, -4.8016299842856824e-05, -0.037563811987638474, 3.8514168409164995e-05, -0.003911822102963924, -0.018200505524873734, 0.19193385541439056, -4.522337258094922e-05, 4.582015026244335e-05, 4.018002800876275e-05, -4.5090480853104964e-05, 0.46955880522727966, 0.07210531085729599, 0.09118608385324478, 3.549018219928257e-05, 5.190589581616223e-05, 4.7273864765884355e-05, -0.0653996542096138], [0.00030208253883756697, -0.0002968184999190271, 0.00024362765543628484, 0.00026776184677146375, 0.05722391977906227, -0.0002625789202284068, 0.00025800359435379505, -0.00010058253246825188, 0.21912004053592682, -0.34671878814697266, 0.011846618726849556, -0.44718146324157715, 0.0002695615985430777, 0.20235131680965424, -0.0002896711230278015, 0.0002576583647169173, -0.325737327337265, -0.00031912472331896424, -0.008556675165891647, 0.8979881405830383, -0.5884075164794922, 0.0002696703013498336, -0.00026667272322811186, -0.00031844695331528783, 0.0002703644859138876, 0.46009907126426697, 0.12163098156452179, -0.21072620153427124, -0.00017987264436669648, -0.00024466667673550546, -0.00026040535885840654, 0.228761687874794], [0.00021011907665524632, -0.00020161824068054557, 0.00021136649593245238, 0.00020477014186326414, -0.31029918789863586, -0.0002043283893726766, 0.00020416438928805292, -6.405644671758637e-05, -0.21050970256328583, 0.22885191440582275, 0.518603503704071, 0.5947496294975281, 0.00020491299801506102, -0.2826589047908783, -0.00020408585260156542, 0.00020417892665136606, 0.2368132770061493, -0.00019265232549514621, -0.21457797288894653, -0.03365066647529602, 0.25992581248283386, 0.00020492244220804423, -0.00020467836293391883, -0.00019508253899402916, 0.0002049620816251263, -0.5161819458007812, -1.70124351978302, 0.2926442623138428, -0.00016744219465181231, -0.00021023114095441997, -0.00020419461361598223, 1.015777826309204], [-7.496420266761561e-07, 7.350961936936073e-07, -3.8515139522132813e-07, -5.999177687954216e-07, -4.937257835990749e-05, 5.586589963968436e-07, -5.175116939426516e-07, 6.596924890800437e-07, 0.0001729026553221047, -3.864798054564744e-05, 3.437836312514264e-06, -3.399627166800201e-05, -6.126266498540645e-07, -2.5508959879516624e-05, 7.044190510896442e-07, -5.14382918481715e-07, 4.323223765823059e-05, 8.644232707410993e-07, 7.341861055465415e-05, -0.00016389811935368925, 0.0001027250982588157, -6.135027774689661e-07, 5.917337944083556e-07, 8.58379735291237e-07, -6.182551146594051e-07, -7.544121763203293e-05, 7.160976383602247e-05, -0.00019029824761673808, 4.529858017576771e-07, 3.9297111698033405e-07, 5.395199309532472e-07, -7.446660310961306e-05], [4.959745638188906e-06, -4.496819201449398e-06, 3.7992647321516415e-06, 4.189897936157649e-06, 0.0008697199518792331, -4.145580078329658e-06, 4.091118626092793e-06, -4.6901851646907744e-07, -1.9525919924490154e-05, -7.706709584454075e-05, -1.0090327123180032e-05, 0.0003164455993101001, 4.2013807615148835e-06, 0.00018129164527636021, -4.400127636472462e-06, 4.086156877747271e-06, -0.00010880486661335453, -4.695602456195047e-06, -2.198391484853346e-05, -0.0006203614757396281, 0.0003414831298869103, 4.202166564937215e-06, -4.18179797634366e-06, -4.871639703196706e-06, 4.206213816360105e-06, 1.7023688997142017e-05, 0.00046845758333802223, -0.0006149769178591669, -2.7335968297848012e-06, -3.8261305235209875e-06, -4.121954134461703e-06, 0.00010774595284601673], [4.5782730921928305e-06, -4.1482981032459065e-06, 3.572111836547265e-06, 3.902138359990204e-06, 0.0007839822210371494, -3.868573458021274e-06, 3.824612122116378e-06, -2.8615389169317496e-07, -4.402778358780779e-06, -8.380672807106748e-05, -2.0159735868219286e-05, 0.00029227801132947206, 3.910152827302227e-06, 0.00016181590035557747, -4.068530870426912e-06, 3.82047846869682e-06, -9.06998902792111e-05, -4.273405011190334e-06, -1.2702649655693676e-05, -0.0005797880585305393, 0.0003183646476827562, 3.910701707354747e-06, -3.8962152757449076e-06, -4.435747086972697e-06, 3.913420641765697e-06, 2.670861613296438e-05, 0.00043010248919017613, -0.0005786610417999327, -2.4821049464662792e-06, -3.5959683373221196e-06, -3.849803761113435e-06, 6.969754031160846e-05], [-0.00042168560321442783, 0.0003969346871599555, -0.0004400632169563323, -0.000429287290899083, -0.218664288520813, 0.0004307778144720942, -0.0004313833196647465, 0.00013281346764415503, -0.10686403512954712, 0.1260385513305664, 0.5677803158760071, 0.4731215238571167, -0.0004284093447495252, -0.020977642387151718, 0.00040776614332571626, -0.0004314182442612946, -0.03755974769592285, 0.00035471993032842875, -0.05237920582294464, 0.32213371992111206, 0.021415308117866516, -0.0004283543967176229, 0.0004296874685678631, 0.0003779993858188391, -0.00042795302579179406, -0.28518766164779663, -0.9086640477180481, -0.29506993293762207, 0.00030048636835999787, 0.0004384915519040078, 0.00043110791011713445, 0.9995009899139404], [1.1665540755601e-09, -1.1796266186081539e-09, 1.2704044483058397e-09, 1.2466457866011638e-09, -1.6231027757385164e-06, -1.254177317555616e-09, 1.2589468356694056e-09, -1.568581237121336e-10, -2.0119803139095893e-06, -1.6381139857912785e-06, -1.1093926559624379e-06, -9.040940085469629e-07, 1.2434911988989938e-09, 3.800340664383839e-07, -1.2008537497720795e-09, 1.2591930831362674e-09, 1.539455411148083e-06, -1.0443507170165844e-09, -7.437249678332591e-07, 5.747657638721648e-08, 2.6153185217481223e-07, 1.2432814777696422e-09, -1.2484496769715747e-09, -1.0341372203015453e-09, 1.241929781237161e-09, 1.461923773149465e-07, 4.524500809566234e-07, -1.0396882998975343e-06, -4.684652665787326e-10, -1.2693243123251818e-09, -1.2566702123351092e-09, -4.301846843191015e-07], [1.22423615689371e-09, -1.2455180220527495e-09, 1.3725576231138348e-09, 1.3323142589172221e-09, -1.9409092146815965e-06, -1.3434524603894715e-09, 1.3514296348660082e-09, -1.4092478572980127e-10, -1.7702177501632832e-06, -2.0166660306131234e-06, -8.752837743486452e-07, -1.413504833180923e-06, 1.3279373156649399e-09, 7.623503961440292e-08, -1.2723232467592993e-09, 1.3519076969004118e-09, 1.9741842152143363e-06, -1.0809857453608629e-09, -2.5216789367732417e-07, -9.00517882485019e-09, 7.702163884459878e-07, 1.3276457710986733e-09, -1.3348810945501555e-09, -1.0675486050715222e-09, 1.325810572438968e-09, 2.030828056831524e-07, 4.601374712365214e-07, -1.5375301245512674e-06, -4.6332185310582474e-10, -1.3708545409940598e-09, -1.3474766857868303e-09, -7.471983849427488e-07], [1.5420111854069773e-09, -1.5598399238925253e-09, 1.6954381232281435e-09, 1.6531198632208088e-09, -2.5332169570901897e-06, -1.6661724222544194e-09, 1.6753356479881631e-09, -1.9639502524260166e-10, -1.2185246305307373e-06, -2.6288644221494906e-06, -4.750203004277864e-07, -2.3131383386498783e-06, 1.6480007358765647e-09, -6.576239002242801e-07, -1.588499887184014e-09, 1.675869221173798e-09, 2.721954842854757e-06, -1.373298696982772e-09, 6.866225135127024e-07, -2.730410244566883e-07, 1.7477244682595483e-06, 1.6476527919806472e-09, -1.6561367832679252e-09, -1.3620572447692325e-09, 1.6455099505208182e-09, 2.912429124535265e-07, 4.6707972956028243e-07, -2.81876032204309e-06, -5.85288317811461e-10, -1.694084428294218e-09, -1.6708643357787878e-09, -1.6786640344435e-06], [1.4058426645036093e-09, -1.4261791747571806e-09, 1.5713840229025777e-09, 1.5241879980365525e-09, -2.346728706470458e-06, -1.537720617506011e-09, 1.5475125625386e-09, -1.5061832336904502e-10, -1.5117458360691671e-06, -2.5928140985342907e-06, -6.019808438395557e-07, -2.1379667032306315e-06, 1.5189323132602794e-09, -3.2519997716917715e-07, -1.4560900263305143e-09, 1.5481026460761882e-09, 2.633380063343793e-06, -1.2384648861996084e-09, 3.937508665785572e-07, -1.6405009262143722e-07, 1.498043843639607e-06, 1.5185791513161462e-09, -1.5272879627659108e-09, -1.2257371784230031e-09, 1.5163876820878386e-09, 2.6654794282876537e-07, 4.7435307237719826e-07, -2.2798474219598575e-06, -5.251664658700861e-10, -1.5696712818424885e-09, -1.5426694366382776e-09, -1.2789892025466543e-06], [-0.00012674229219555855, 0.00011692038970068097, -8.591094228904694e-05, -9.474063699599355e-05, 0.04254837706685066, 9.306965512223542e-05, -9.161982598016039e-05, 5.7363991800229996e-05, 0.07450667768716812, 0.1289396733045578, 0.12587018311023712, -0.11495640128850937, -9.537339064991102e-05, -0.12200109660625458, 0.0001095315019483678, -9.150716505246237e-05, -0.036772221326828, 0.00014081363042350858, 0.00019286811584606767, 0.029300956055521965, -0.007282410282641649, -9.541751205688342e-05, 9.438155393581837e-05, 0.00013490114361047745, -9.567332017468289e-05, 0.024051424115896225, 0.014494398608803749, 0.06661804765462875, 8.530263585271314e-05, 8.644127228762954e-05, 9.238395432475954e-05, 0.12552034854888916], [1.4366754452765917e-09, -1.456522014109396e-09, 1.601924148886269e-09, 1.554895989741567e-09, -2.392755277469405e-06, -1.568553065212086e-09, 1.5783986340167644e-09, -1.5615639337163145e-10, -1.4708454045830877e-06, -2.6533464279054897e-06, -5.66807671020797e-07, -2.2198009901330806e-06, 1.5495873473270194e-09, -3.8259574353105563e-07, -1.4865380038031617e-09, 1.5789896057327724e-09, 2.70544592240185e-06, -1.2669671978216002e-09, 4.75108691944115e-07, -1.8771331156131055e-07, 1.586434791533975e-06, 1.5492307436915098e-09, -1.5580277068494297e-09, -1.2544826288873878e-09, 1.54701618182429e-09, 2.721732244026498e-07, 4.7325272589660017e-07, -2.3848128876124974e-06, -5.37188848959147e-10, -1.6002663638658987e-09, -1.5735375225034431e-09, -1.3575461252912646e-06], [1.4624270683327723e-09, -1.481836875427689e-09, 1.6265365720968816e-09, 1.5800031283319527e-09, -2.4286539428430842e-06, -1.5936835184859888e-09, 1.6035039962503106e-09, -1.6244361411565933e-10, -1.4256311260396615e-06, -2.68752705778752e-06, -5.369258246901154e-07, -2.2762724256608635e-06, 1.5746792758619677e-09, -4.3768764612650557e-07, -1.5118016838400195e-09, 1.6040891948065905e-09, 2.7500193482410396e-06, -1.2914657121498863e-09, 5.414952397586603e-07, -2.086380419541456e-07, 1.652927835493756e-06, 1.5743207848473162e-09, -1.5831432831348025e-09, -1.2792170656084068e-09, 1.5720990065304363e-09, 2.759413177955139e-07, 4.7111689127632417e-07, -2.4787284473859472e-06, -5.476075148891368e-10, -1.6249365186737919e-09, -1.5986642010190621e-09, -1.4280828963819658e-06], [1.7418981188010996e-11, -2.161333785555275e-11, 2.7032123067760594e-11, 2.47383676044155e-11, -1.2802523485788697e-07, -2.511803959270864e-11, 2.546819699578151e-11, -9.974413656133052e-12, -8.173149268486668e-08, 8.507493731713112e-08, -1.440471066871396e-07, 1.2730784249015414e-07, 2.461192361025155e-11, -3.018716299152402e-08, -2.2603495464235124e-11, 2.5494641120449302e-11, -9.061888306405308e-08, -1.6737682420608913e-11, -1.4487137889318547e-07, -5.8589804119435485e-09, -1.206144446541657e-07, 2.460386928915259e-11, -2.481993083280898e-11, -1.461340250197285e-11, 2.4554233646334467e-11, -1.011746775247957e-08, 3.305305895651145e-08, -1.4472590237346594e-07, -3.6690542097594925e-12, -2.6880430173403802e-11, -2.527929775231197e-11, -6.970417842921961e-08], [9.49406748986803e-05, -7.13807312422432e-05, 4.024658119305968e-05, 4.670644921134226e-05, -0.1159055307507515, -4.490860737860203e-05, 4.359508602647111e-05, -4.9522433982929215e-05, -0.03801281377673149, 0.09602759778499603, -0.050539616495370865, 0.045704346150159836, 4.742201417684555e-05, 0.0083187036216259, -6.335224315989763e-05, 4.350685412646271e-05, -0.12573421001434326, -0.00011152763909194618, -0.05576532334089279, 0.010662702843546867, -0.1213177740573883, 4.747121420223266e-05, -4.629201066563837e-05, -0.00011944895231863484, 4.777036883751862e-05, 0.044016916304826736, -0.024130182340741158, 0.07619281113147736, -0.00011049896420445293, -4.049720519105904e-05, -4.425557563081384e-05, 0.060062143951654434], [9.08926667761989e-05, -0.00013198470696806908, 0.00020891803433187306, 0.00017726745863910764, 0.034298837184906006, -0.00018320778326597065, 0.00018855166854336858, 2.258554013678804e-05, 0.04442249611020088, 0.2758015990257263, -0.024120638146996498, 0.1507372409105301, 0.00017523493443150073, -0.029685992747545242, -0.00014569320774171501, 0.00018895183166023344, -0.18600252270698547, -6.121424667071551e-05, -0.1028798446059227, 0.009969716891646385, -0.12062995880842209, 0.00017509734607301652, -0.00017853829194791615, -4.144870399613865e-05, 0.00017428812861908227, -0.05323334038257599, -0.001075186301022768, -0.021294359117746353, 5.5249696742976084e-05, -0.00020719401072710752, -0.0001857071474660188, -0.07556580007076263], [0.00010113934695255011, -8.94985132617876e-05, 4.9792903155321255e-05, 7.00603486620821e-05, -0.05039235204458237, -6.650427530985326e-05, 6.304410635493696e-05, -4.5554137614089996e-05, 0.037739526480436325, 0.14682823419570923, 0.00445160549134016, 0.16006779670715332, 7.120591908460483e-05, -0.10348585993051529, -8.440286183031276e-05, 6.277508509811014e-05, -0.09960769861936569, -0.00010632222983986139, -0.08575864136219025, -0.046831872314214706, -0.06137298792600632, 7.128079596441239e-05, -6.933599070180207e-05, -0.00011000780068570748, 7.172009645728394e-05, -0.007150742691010237, 0.0976506769657135, -0.3139525055885315, -6.59837678540498e-05, -5.084684744360857e-05, -6.490777741419151e-05, -0.11046431213617325], [4.6425764594459906e-05, -7.755393744446337e-05, 0.00013154667976778, 0.00010776938870549202, 0.1553138792514801, -0.00011266182991676033, 0.0001170798932434991, 2.652366674738005e-06, 0.02857487089931965, 0.29775193333625793, 0.0599442720413208, 0.1427575796842575, 0.00010613688209559768, 0.003367447992786765, -8.597337728133425e-05, 0.00011740763875422999, -0.24167296290397644, -3.603272125474177e-05, -0.06997670978307724, -0.016423264518380165, -0.1028486043214798, 0.0001060276772477664, -0.00010880666377488524, -2.073889845632948e-05, 0.00010538722563069314, -0.021541113033890724, -0.103546641767025, 0.11023382097482681, 4.116274794796482e-05, -0.0001305187470279634, -0.00011473930499050766, -0.09810467064380646], [1.3948489030468636e-09, -1.4153663796534488e-09, 1.5603174308154166e-09, 1.5131375041832484e-09, -2.329627250219346e-06, -1.526609172408655e-09, 1.5363679217728077e-09, -1.490435830309167e-10, -1.5236337276292033e-06, -2.567343244663789e-06, -6.142365123196214e-07, -2.1060088783997344e-06, 1.5079080206703566e-09, -3.064528755203355e-07, -1.4452111729568173e-09, 1.536956117931254e-09, 2.604017481644405e-06, -1.2284603334578037e-09, 3.6453042184803053e-07, -1.5587482948831166e-07, 1.4649076547357254e-06, 1.5075565240607602e-09, -1.5162232580578916e-09, -1.2156461393075801e-09, 1.5053749358173718e-09, 2.64258090965086e-07, 4.7435818828489573e-07, -2.243835297122132e-06, -5.20929965830419e-10, -1.55858947969989e-09, -1.5315372303703612e-09, -1.2521078360805404e-06], [1.4918135093466844e-05, -3.281843237346038e-05, 5.5684620747342706e-05, 5.3818821470486e-05, 0.1451260894536972, -5.46748487977311e-05, 5.511487688636407e-05, 2.0994684746256098e-05, 0.06388876587152481, 0.19673842191696167, 0.12837299704551697, 0.06331680715084076, 5.341236465028487e-05, -0.003401382127776742, -3.9889171603135765e-05, 5.514147778740153e-05, -0.11617252230644226, 1.7517993455840042e-06, 0.06279432028532028, -0.06285856664180756, 0.020733315497636795, 5.338097253115848e-05, -5.4043226555222645e-05, 7.1313311309495475e-06, 5.319434421835467e-05, -0.04294970631599426, -0.06560466438531876, 0.038678962737321854, 1.8377495507593267e-05, -5.563945524045266e-05, -5.491355841513723e-05, -0.07439683377742767], [1.2789903580667783e-09, -1.3004286536499876e-09, 1.4351969612746984e-09, 1.3917765828708184e-09, -2.0733375549752964e-06, -1.4038230577995137e-09, 1.412525096888828e-09, -1.414402067689835e-10, -1.6911229749894119e-06, -2.2045728655939456e-06, -7.874667176110961e-07, -1.6498395325470483e-06, 1.3870725679154816e-09, -4.3684831751988895e-08, -1.3285142985708376e-09, 1.4130505654463832e-09, 2.189043925682199e-06, -1.1274220446111372e-09, -4.8400114138758e-08, -5.0978197663198443e-08, 1.0021094567491673e-06, 1.3867580417326053e-09, -1.3945423704697646e-09, -1.1140430800082868e-09, 1.3847913926667843e-09, 2.2396829990611877e-07, 4.650722189580847e-07, -1.7560712421982316e-06, -4.81052364609269e-10, -1.4334307074648223e-09, -1.408207217501456e-09, -8.976992944553785e-07], [1.4641376999691147e-09, -1.4835178641092739e-09, 1.6281213044422316e-09, 1.5816403742263674e-09, -2.4309836135216756e-06, -1.5953188770012616e-09, 1.6051335816058554e-09, -1.6296340665800102e-10, -1.4217935131455306e-06, -2.6888340016739676e-06, -5.348373406377505e-07, -2.2794035885453923e-06, 1.576317631979407e-09, -4.4196406179253245e-07, -1.5134706821129384e-09, 1.6057190022067402e-09, 2.7520832190930378e-06, -1.293133933266688e-09, 5.459775707095105e-07, -2.1015917184286081e-07, 1.6570344314459362e-06, 1.5759589189201506e-09, -1.5847804180069147e-09, -1.28090338336051e-09, 1.5737373626478757e-09, 2.761753137292544e-07, 4.709166034899681e-07, -2.4856108211679384e-06, -5.483190013144679e-10, -1.6265262470227526e-09, -1.600297894199798e-09, -1.4332734963318217e-06], [4.123133476241492e-05, -2.7970794690190814e-05, -9.831592251430266e-06, 7.927801561891101e-06, 0.1034390926361084, -4.921664640278323e-06, 2.0892550764983753e-06, -3.667367491289042e-05, 0.06154799833893776, 0.19984036684036255, -0.01806148886680603, 0.16533665359020233, 8.937859092839062e-06, -0.030078371986746788, -2.274855796713382e-05, 1.86688782832789e-06, -0.24328027665615082, -4.9584854423301294e-05, -0.09658531099557877, -0.013816416263580322, -0.16266892850399017, 9.005609172163531e-06, -7.297574029507814e-06, -5.5889857321744785e-05, 9.401956958754454e-06, 0.050733163952827454, -0.0393168181180954, -0.05077783390879631, -2.0079267414985225e-05, 8.770415661274455e-06, -3.6137350889475783e-06, 0.012108744122087955], [9.381240229089371e-10, -9.537032275019897e-10, 1.0127261251824393e-09, 1.0011750317673318e-09, -1.1868451110785827e-06, -1.0051518506415391e-09, 1.0071563583124998e-09, -1.7144678732261553e-10, -2.0702673282357864e-06, -6.899323921061296e-07, -1.3778455922874855e-06, 1.0910884640225049e-07, 9.993379457284846e-10, 5.735469699175155e-07, -9.693627012197226e-10, 1.0072309652997546e-09, 5.171534667169908e-07, -8.548091123827817e-10, -1.4281442872743355e-06, 1.657995483128616e-07, -6.442500648518035e-07, 9.992179306195226e-10, -1.0021938834370303e-09, -8.43120684379528e-10, 9.984012505626083e-10, 8.783750615748431e-08, 4.201596652819717e-07, -5.47516549431748e-07, -3.9001665785853845e-10, -1.0119091120586177e-09, -1.0062655153575406e-09, -9.8377704205177e-08], [0.00011746706877602264, -0.00011981519492110237, 0.00011887920118169859, 0.00011899288074346259, -0.016702082008123398, -0.00011880140664288774, 0.00011861952225444838, -4.830447505810298e-05, -0.00012080114538548514, 0.17674466967582703, -0.05406658351421356, 0.1282719522714615, 0.00011905375140486285, 0.0023072101175785065, -0.00011983339209109545, 0.00011860690574394539, -0.17446625232696533, -0.00011479882232379168, -0.16352838277816772, 0.03542766347527504, -0.13550539314746857, 0.00011905831343028694, -0.00011895829084096476, -0.00011232109682168812, 0.00011907898442586884, -0.003909036982804537, -0.0497613400220871, 0.02947920933365822, -5.03421324538067e-05, -0.00011877907672896981, -0.00011871444439748302, 0.022487465292215347], [5.534615047508851e-05, -4.445692684384994e-05, 1.9510673155309632e-05, 3.0080318538239226e-05, 0.013295023702085018, -2.7801384931080975e-05, 2.5754645321285352e-05, -4.05251448682975e-05, 0.07598802447319031, 0.19641630351543427, 0.0037250712048262358, 0.13999156653881073, 3.085880962316878e-05, -0.07007419317960739, -4.038154293084517e-05, 2.5603478206903674e-05, -0.18877829611301422, -6.432874215533957e-05, -0.05000167712569237, 0.0023298149462789297, -0.10220617055892944, 3.0905386665835977e-05, -2.9602248105220497e-05, -6.816030509071425e-05, 3.120983819826506e-05, 0.009407101199030876, -0.0019626643043011427, -0.0312526561319828, -6.571406993316486e-05, -1.9913475625799038e-05, -2.6828720365301706e-05, 0.0008656811551190913], [4.0921553591033444e-05, -2.219927955593448e-05, -2.342915286135394e-05, -4.593634002958424e-06, 0.13514795899391174, 8.744616025069263e-06, -1.2427301953721326e-05, -3.818404002231546e-05, 0.15267017483711243, 0.22586572170257568, 0.013789977878332138, 0.141537144780159, -3.167257091263309e-06, -0.04724276065826416, -1.5073217582539655e-05, -1.270068150915904e-05, -0.23647765815258026, -5.182188033359125e-05, -0.07585692405700684, 0.016741635277867317, -0.13999240100383759, -3.073778998441412e-06, 5.474468252941733e-06, -6.0756450693588704e-05, -2.514368361516972e-06, 0.0069984919391572475, -0.09689833223819733, -0.002450937870889902, -3.557264062692411e-05, 2.2738746338291094e-05, 1.0487233339517843e-05, 0.009711625054478645], [1.3941356957758444e-09, -1.4146613880328118e-09, 1.5595874591767256e-09, 1.512411973436656e-09, -2.3284608232643222e-06, -1.5258795338368714e-09, 1.5356340643535304e-09, -1.4894083188998763e-10, -1.524470235381159e-06, -2.5656875095592113e-06, -6.150699505269586e-07, -2.1038990780652966e-06, 1.5071838221913936e-09, -3.051757175853709e-07, -1.444499631020335e-09, 1.5362229266457916e-09, 2.602100494186743e-06, -1.227812074233725e-09, 3.625505087256897e-07, -1.553337938275945e-07, 1.462704176447005e-06, 1.5068331027379145e-09, -1.5154961729990646e-09, -1.21499510452594e-09, 1.5046528467621556e-09, 2.6411171916151943e-07, 4.743662884720834e-07, -2.241408765257802e-06, -5.206631237264503e-10, -1.5578575096597547e-09, -1.5308053713525283e-09, -1.2502978279371746e-06], [1.4125439706802467e-09, -1.4327821151738362e-09, 1.5781264073311263e-09, 1.5309261636176075e-09, -2.357154698984232e-06, -1.5444946432907614e-09, 1.5543060172262813e-09, -1.5166619349304966e-10, -1.5038970104797045e-06, -2.6074562811118085e-06, -5.944700660620583e-07, -2.1568143893091474e-06, 1.5256566010535266e-09, -3.371100376625691e-07, -1.462731380463822e-09, 1.5548963228084745e-09, 2.650446049301536e-06, -1.24459109684949e-09, 4.115301521778747e-07, -1.6908353472899762e-07, 1.5178769672274939e-06, 1.525301662752554e-09, -1.5340344550196505e-09, -1.231911239685246e-09, 1.523105086498333e-09, 2.6790957008415717e-07, 4.742854287087539e-07, -2.302299662915175e-06, -5.277383530177815e-10, -1.5764248795235858e-09, -1.5494544536309718e-09, -1.2957290209669736e-06], [9.232190012475883e-10, -9.339340412140018e-10, 9.714994364529161e-10, 9.6979224650795e-10, -1.0583916036921437e-06, -9.717170401657427e-10, 9.718666982294621e-10, -1.857078518741062e-10, -2.1497930902114604e-06, -4.933174295729259e-07, -1.4885426935506985e-06, 3.5692974620360474e-07, 9.686470514580492e-10, 6.78008689192211e-07, -9.463518857444342e-10, 9.718055249408053e-10, 2.9975217330502346e-07, -8.509784543697663e-10, -1.647435510676587e-06, 1.809588638934656e-07, -8.761928711464861e-07, 9.68573332649214e-10, -9.703798875548841e-10, -8.413194585443762e-10, 9.680302115455675e-10, 5.415198955915912e-08, 4.1561648345123103e-07, -3.804676396157447e-07, -3.9816380748014524e-10, -9.710892090453171e-10, -9.719521854023583e-10, 5.706219941004065e-09], [1.3897283324126875e-09, -1.4103297418799343e-09, 1.5551335774688368e-09, 1.507973412806507e-09, -2.3215231976791983e-06, -1.5214146609210388e-09, 1.5311537593376556e-09, -1.4835517536671006e-10, -1.528873781353468e-06, -2.555107357693487e-06, -6.198895334819099e-07, -2.090856469294522e-06, 1.5027562527691884e-09, -2.9787807420689205e-07, -1.440138563957305e-09, 1.5317425106076143e-09, 2.590005124147865e-06, -1.2238188240587533e-09, 3.509121881961619e-07, -1.521082708677568e-07, 1.4493493836198468e-06, 1.5024050892264995e-09, -1.5110510620530704e-09, -1.210966993347995e-09, 1.500229940276654e-09, 2.6313011858292157e-07, 4.7429901428586163e-07, -2.227166760349064e-06, -5.18961651430061e-10, -1.5533985209259527e-09, -1.5263317276748012e-09, -1.2396701549732825e-06], [-9.517680882709101e-05, 0.00011381084914319217, -0.00012475199764594436, -0.00012552054249681532, 0.01659434847533703, 0.0001257780531886965, -0.00012577623419929296, 0.00010841475886991248, 0.10406096279621124, 0.08480564504861832, 0.07590138167142868, 0.07819361239671707, -0.00012536576832644641, -0.003362778341397643, 0.00011853656906168908, -0.00012576582957990468, -0.10776524245738983, 8.846974378684536e-05, 0.009287622757256031, -0.05721620097756386, 0.02653675153851509, -0.00012535708083305508, 0.0001256057876162231, 8.490604523103684e-05, -0.00012529452214948833, -8.669895578350406e-06, -0.036393892019987106, 0.08458463102579117, -2.4796438083285466e-05, 0.00012484105536714196, 0.0001258114498341456, -0.05656544864177704], [-8.207536302506924e-05, 8.42680674395524e-05, -0.00010166953143198043, -9.587002568878233e-05, -0.07582914084196091, 9.714903717394918e-05, -9.812998177949339e-05, -2.1053785985714057e-06, 0.00745551660656929, 0.3461558222770691, -0.17092125117778778, 0.5540521740913391, -9.536338620819151e-05, 0.05409649759531021, 8.799333591014147e-05, -9.819069964578375e-05, -0.3293217122554779, 6.588950782315806e-05, -0.2797151505947113, -0.03359066694974899, -0.3041154444217682, -9.532799595035613e-05, 9.615665476303548e-05, 6.94472182658501e-05, -9.512146789347753e-05, -0.09487693011760712, 0.025335390120744705, -0.13142362236976624, 3.548498352756724e-05, 0.00010132078023161739, 9.762885019881651e-05, 0.0067768944427371025], [0.00017326274246443063, -0.00015929059009067714, 0.00013607169967144728, 0.00014518914395011961, 0.0317176915705204, -0.00014325442316476256, 0.00014138717961031944, -3.3929154596989974e-05, 0.15857946872711182, 0.28612086176872253, -0.08008674532175064, 0.09644265472888947, 0.0001458086189813912, 0.017453668639063835, -0.0001552406174596399, 0.0001412416313542053, -0.24657852947711945, -0.0001698230771580711, -0.0956735834479332, 0.018362365663051605, -0.15952447056770325, 0.00014585268218070269, -0.00014479355013463646, -0.00017291714902967215, 0.0001460862549720332, 0.013803523033857346, 0.0114542031660676, 0.01508534885942936, -0.00011702210031216964, -0.00013634163769893348, 