{"model_data": {"model": "SimpleRNN", "input_size": 2, "skip": 1, "output_size": 1, "unit_type": "LSTM", "num_layers": 1, "hidden_size": 32, "bias_fl": true}, "state_dict": {"rec.weight_ih_l0": [[-3.060895892303961e-08, -1.392419068935169e-08], [-5.835130778564235e-08, 7.301694893158128e-08], [-6.66013306727109e-08, 1.4854846597245341e-07], [-6.540664543308594e-08, 1.0960961560613214e-07], [-0.02599078044295311, 0.16600412130355835], [-6.587622891629508e-08, 1.1610949002260895e-07], [-6.620722814432156e-08, 1.2218661993301794e-07], [-5.729877905480407e-09, -6.372908956109313e-08], [-0.005733557511121035, -0.0935923233628273], [0.022118257358670235, 0.05573701858520508], [-0.0763179361820221, 0.11723695695400238], [0.015583816915750504, 0.12991149723529816], [-6.52360014896658e-08, 1.0748440359975575e-07], [0.014558037742972374, 0.09050461649894714], [-6.099696747696726e-08, 8.084416691644947e-08], [-6.622470749562126e-08, 1.2264018778296304e-07], [0.01853204146027565, 0.09636244177818298], [-1.4635724632228175e-08, -3.34048849026658e-07], [0.054742131382226944, 0.09936679154634476], [-0.013108804821968079, 0.17937222123146057], [0.02011733129620552, 0.16948090493679047], [-6.521762685451904e-08, 1.073219380032242e-07], [-6.552156150974042e-08, 1.1096872754023934e-07], [-2.1553677953534134e-08, -2.7819572778753354e-07], [-6.5143929361966e-08, 1.0645703696354758e-07], [0.0018992112018167973, -0.5775728225708008], [-0.11637286096811295, 0.40722358226776123], [0.019471105188131332, 0.35832396149635315], [-3.075647470041076e-08, -3.4658356184991135e-07], [-6.662098428478203e-08, 1.4616716725868173e-07], [-6.604101798757256e-08, 1.189121192624043e-07], [0.030444473028182983, 0.35673266649246216], [-3.0410852502882335e-08, -1.5750146076243254e-07], [-5.692709947879848e-08, -1.1919703268858939e-07], [-6.356717818789548e-08, -2.4800380060696625e-07], [-6.333397806201901e-08, -1.8861192074837163e-07], [-0.008251579478383064, -0.06202457472681999], [-6.366040850025456e-08, -1.9877997203820996e-07], [-6.385666750929886e-08, -2.082464618524682e-07], [-5.180701201368265e-09, -7.164866389075542e-08], [-0.010033050552010536, 0.3276767134666443], [0.004411879926919937, 0.15581971406936646], [-0.08661758154630661, 0.07083649933338165], [-0.016452770680189133, 0.10280629247426987], [-6.32057606253511e-08, -1.8522955258504226e-07], [-0.02064836584031582, -0.16211649775505066], [-5.9454034584405235e-08, -1.3900162798563542e-07], [-6.385475614933966e-08, -2.0897144281661895e-07], [0.03161904960870743, 0.15910546481609344], [-1.0369594072301425e-08, -4.1460222632849764e-07], [0.09542378038167953, 0.2337200939655304], [-0.002942531369626522, -0.03635250777006149], [0.04528741538524628, 0.21378396451473236], [-6.319105949614823e-08, -1.8500894327644346e-07], [-6.342064295949967e-08, -1.9077666024713835e-07], [-1.8217862773894922e-08, -3.6537409187076264e-07], [-6.313432976412514e-08, -1.8366313270234969e-07], [-0.014231833629310131, 0.5850220322608948], [-0.07504424452781677, 0.12712089717388153], [0.007817734032869339, 0.0011056248331442475], [-2.6308606848601812e-08, -3.765592566651321e-07], [-6.365122828810854e-08, -2.445110567350639e-07], [-6.376839678523538e-08, -2.0314092807893758e-07], [0.011358892545104027, 0.04958644136786461], [0.0002598870487418026, -1.867958235379774e-05], [-0.0002545460010878742, -8.641270142106805e-06], [0.0003007969353348017, 1.996528908421169e-06], [0.00028473688871599734, 3.527262833813438e-06], [0.019768452271819115, 0.022598205134272575], [-0.0002878998639062047, -3.38465770255425e-06], [0.00029068024014122784, 3.0889427762303967e-06], [7.613579509779811e-05, -3.184035449521616e-05], [-0.012909749522805214, -0.667568564414978], [-0.301469087600708, 0.09647666662931442], [0.29691898822784424, -0.15745946764945984], [-0.33540773391723633, 0.25426116585731506], [0.00028354974347166717, 3.6780902519240044e-06], [-0.03635938838124275, -0.09011910110712051], [-0.0002640846942085773, -5.765195055573713e-06], [0.00029088565497659147, 3.0611529382440494e-06], [-0.27621179819107056, -0.260457843542099], [-9.315846546087414e-05, -2.3936536308610812e-05], [-0.003144778311252594, -0.29757460951805115], [0.269286185503006, 0.1360139697790146], [-0.2992481291294098, -0.4885759651660919], [0.00028346560429781675, 3.6875662772217765e-06], [-0.00028539987397380173, -3.5776977256318787e-06], [-0.00010613812628434971, -3.683944669319317e-07], [0.0002830004959832877, 3.721193479577778e-06], [0.21348656713962555, -0.002404316794127226], [-1.6323070526123047, 0.1829756796360016], [1.596934199333191, -0.060676202178001404], [3.21460647683125e-05, 8.39653512230143e-06], [-0.00029993493808433414, -2.1226965145615395e-06], [-0.00028921422199346125, -3.2632817692501703e-06], [0.709381639957428, 0.207140251994133], [-3.5354680960608675e-08, -1.330451482317585e-08], [-6.294173005017001e-08, 7.391957268509941e-08], [-6.322636636468815e-08, 1.4935775993762945e-07], [-6.595843871082252e-08, 1.1045844416912587e-07], [0.017491623759269714, 0.08148875832557678], [-6.579129063766231e-08, 1.1695290424995619e-07], [-6.55235936619647e-08, 1.2303226526455546e-07], [-3.6099412348278292e-09, -6.345103997773549e-08], [0.025202767923474312, 0.10990589112043381], [0.009619948454201221, 0.22827158868312836], [-0.16770000755786896, 0.1414281725883484], [0.046438414603471756, 0.2668435275554657], [-6.599072577273546e-08, 1.0831301722191711e-07], [0.02484106458723545, 0.05198317766189575], [-6.45365858531477e-08, 8.171927845523896e-08], [-6.549483089202113e-08, 1.2347821609637322e-07], [-0.000978134572505951, 0.25022849440574646], [-1.0298370156647252e-08, -3.3333648730149434e-07], [0.07495026290416718, 0.20512013137340546], [-0.03121509775519371, 0.19454094767570496], [0.033327989280223846, 0.2921838164329529], [-6.598952495551202e-08, 1.0816047080197677e-07], [-6.593909773755513e-08, 1.1183213644017087e-07], [-1.9338111556521653e-08, -2.777496206363139e-07], [-6.599530877338111e-08, 1.0731365307492524e-07], [-0.017917174845933914, 0.07786878943443298], [-0.12048070877790451, 0.43012988567352295], [0.03312987461686134, 0.2048347294330597], [-3.0668861228377864e-08, -3.4556686046016694e-07], [-6.34860981563179e-08, 1.4696009031922586e-07], [-6.568605925849624e-08, 1.1974269398251636e-07], [0.06672170013189316, 0.36362817883491516]], "rec.weight_hh_l0": [[2.7680739644875274e-12, -5.961263383966187e-13, 3.890102216047575e-12, 2.7347319287579497e-12, -9.72490710182683e-08, -2.948962254945009e-12, 3.143382906398151e-12, -2.2208359554565932e-13, 5.8059697494172724e-08, 2.72448801297287e-08, 6.429639398675135e-08, -3.331942011186584e-08, 2.6474404266063623e-12, -9.634973707761674e-08, -1.296282525764525e-12, 3.1604462970291625e-12, 1.630435164656774e-08, 4.027605939732615e-12, 2.7494374776892982e-08, -6.322914636314181e-09, 6.830783405575858e-08, 2.6411958557737147e-12, -2.7760122759540318e-12, -8.89370499988773e-14, 2.608255191688391e-12, -4.332623149139181e-08, -9.657178168254177e-09, -1.240414206904461e-07, -1.898955602139263e-12, -3.82008487342933e-12, -3.041755432600657e-12, 7.544912472567944e-10], [-6.92738488100586e-12, 1.2422592468586124e-11, -1.5782077034121045e-11, -1.4166699931206228e-11, -9.007477075329007e-08, 1.4452121790964334e-11, -1.4705870202136317e-11, 4.598368127245456e-12, 1.15553000057389e-07, 1.2151622286182828e-07, 6.730068236038278e-08, 4.9765116472144655e-08, -1.4091092008505779e-11, -1.5809283127055096e-07, 1.2881039984646847e-11, -1.472224078757911e-11, -5.939990899150871e-08, 1.3663825279564001e-11, 1.5907927419789303e-08, -1.9741655421512405e-08, 3.117721902867743e-08, -1.4086022279147237e-11, 1.423695970143024e-11, 8.982186522343838e-12, -1.4052192569280475e-11, -5.300389460671795e-08, -8.973598752959333e-09, -1.76161549347853e-07, 3.912236420239301e-12, 1.5696966296219195e-11, 1.4566717623787362e-11, -2.643455410122897e-08], [-9.587698690527446e-12, 1.3286287868508051e-11, -1.996848693341935e-11, -1.7187078149571988e-11, -2.1059792132405164e-08, 1.7698139828659087e-11, -1.8147986585725917e-11, 9.657162222675986e-12, 1.9930605787976674e-07, 2.1754695467279817e-07, 1.5893873239747336e-07, 1.1388974030523968e-07, -1.7039472263724598e-11, -1.7307580435499403e-07, 1.4540289111630855e-11, -1.8179012115093762e-11, -1.2989937658858253e-07, 2.4087024041996585e-11, 6.326236956510911e-08, -2.3142881389048853e-08, 2.996069881078256e-08, -1.7031390187050022e-11, 1.7309889632777242e-11, 2.170724017203085e-11, -1.6967857674465847e-11, -8.03820796591026e-08, -6.125929985500989e-08, -1.4671176984393242e-07, 2.2203754460048408e-11, 1.9826798189348516e-11, 1.7902960364191145e-11, 2.231189277779322e-08], [-8.508461296630188e-12, 1.3141509581926503e-11, -1.8177261779106502e-11, -1.5972379668882652e-11, -5.683796189259738e-08, 1.6372181388391027e-11, -1.672508485872637e-11, 7.276052156612867e-12, 1.6316690221174213e-07, 1.7203184654590586e-07, 1.2079647149221273e-07, 7.838423243811121e-08, -1.5860897664699003e-11, -1.7034696497830737e-07, 1.4002157940062876e-11, -1.674878638557864e-11, -9.454206661985154e-08, 1.9652333579922576e-11, 4.7526768298666866e-08, -2.3537682025676077e-08, 3.731129183393023e-08, -1.5854321328001575e-11, 1.6069492958514786e-11, 1.5812726128494603e-11, -1.5805636313648286e-11, -6.885537118250795e-08, -3.6346868625969364e-08, -1.6489462950630696e-07, 1.3636612672396353e-11, 1.8063873313822754e-11, 1.653226860964807e-11, -1.896614865160018e-09], [-2.612298715121142e-07, 1.344954944215715e-05, -7.67595884099137e-06, -9.917533134284895e-06, -0.04327845200896263, 9.482485438638832e-06, -9.084760677069426e-06, 1.4962531167839188e-05, 0.000816220068372786, 0.17760436236858368, 0.05083296075463295, 0.01802457869052887, -1.013392557069892e-05, -0.11305514723062515, 1.2837664144171868e-05, -9.049115760717541e-06, -0.10607647150754929, -1.3216533261584118e-05, -0.049678802490234375, -0.00865093246102333, -0.060981255024671555, -1.0144113730348181e-05, 9.848046829574741e-06, -1.9511808204697445e-05, -1.021857860905584e-05, 0.015292304567992687, 0.027821194380521774, -0.041968222707509995, -2.1422158170025796e-05, 7.829052265151404e-06, 9.289611625717953e-06, 0.03721562400460243], [-8.678772978054639e-12, 1.3165555451388755e-11, -1.8462655015927254e-11, -1.6166477878609697e-11, -5.158666382953925e-08, 1.6583949491444372e-11, -1.695222608122382e-11, 7.678619892703686e-12, 1.6970858496279106e-07, 1.7987780154271604e-07, 1.2743532806780422e-07, 8.410732732500037e-08, -1.6049330267553508e-11, -1.714181792067393e-07, 1.408916820017092e-11, -1.6977030892206812e-11, -1.0051677890032806e-07, 2.042788854739186e-11, 5.062646479814248e-08, -2.364486384465181e-08, 3.651608437849063e-08, -1.6042493722334683e-11, 1.6267679911474708e-11, 1.67975963000222e-11, -1.5991466831288825e-11, -7.09314704749886e-08, -4.044352763798997e-08, -1.6272306879727694e-07, 1.5069499467723624e-11, 1.8344843005779765e-11, 1.6751091833078213e-11, 1.8279093794149048e-09], [-8.822957989207403e-12, 1.3168213047753952e-11, -1.8705327217705126e-11, -1.632558671582629e-11, -4.6517346419250316e-08, 1.6759250237585732e-11, -1.714157461807364e-11, 8.045638807963051e-12, 1.756276049036387e-07, 1.8711149607497646e-07, 1.3350990002436447e-07, 8.951650443123071e-08, -1.620323493434217e-11, -1.7221408654677361e-07, 1.4149887858638799e-11, -1.7167486182634306e-11, -1.060751912973501e-07, 2.112232611040099e-11, 5.332719865691615e-08, -2.3662497738996535e-08, 3.560663586199553e-08, -1.6196224916775748e-11, 1.64305583028046e-11, 1.7699097396017827e-11, -1.6143062581130962e-11, -7.281730773911477e-08, -4.4289308220868406e-08, -1.6045802908593032e-07, 1.6393060520147884e-11, 1.8583495853263798e-11, 1.6932882179743203e-11, 5.406059599977198e-09], [-5.525818518037351e-12, 5.640683232999155e-12, -5.9670723223659294e-12, -5.901374441202867e-12, -2.9989628558269033e-09, 5.919013976868337e-12, -5.933459886614534e-12, -2.82364561420001e-12, -2.4813639143417277e-08, -5.803832436868106e-08, 9.720031002302676e-09, -3.579578233825487e-08, -5.893145346713702e-12, 1.2461270237906774e-08, 5.744011603164845e-12, -5.934073545044161e-12, 6.124344054114772e-08, 3.8460895709566123e-13, 1.3905545159786925e-08, -5.046548512410709e-09, 3.86831118248665e-08, -5.892706027993411e-12, 5.9046855946376375e-12, 1.6905334554104257e-12, -5.8895852604601284e-12, -1.2051056152984074e-08, 4.8389372508950146e-09, 5.28440935454455e-09, -2.8096095328750126e-12, 5.9643787304886065e-12, 5.926292442892667e-12, 1.2780764890862883e-08], [9.797230450203642e-05, -9.376313391840085e-05, 0.00011835361510748044, 0.00010877409658860415, 0.0007756607374176383, -0.00011065672879340127, 0.00011231217649765313, 1.6414254787378013e-05, -0.06758484989404678, -0.06852248311042786, 0.014046907424926758, -0.10106895118951797, 0.00010813266271725297, -0.043051790446043015, -9.827435133047402e-05, 0.00011243879271205515, 0.054496824741363525, -5.5105705541791394e-05, 0.07436476647853851, -0.024505268782377243, 0.06284227222204208, 0.00010808747174451128, -0.00010918631596723571, -7.094290049280971e-05, 0.00010782291792565957, -0.002347685629501939, -0.025648530572652817, -0.06471623480319977, -3.0163134852045914e-06, -0.00011787717085098848, -0.00011143427400384098, -0.060356929898262024], [3.504311098367907e-05, -4.1512026655254886e-05, 3.496871795505285e-05, 3.7975416489643976e-05, -0.01447353232651949, -3.741992622963153e-05, 3.693552571348846e-05, 1.4104235560807865e-05, 0.029843932017683983, 0.09488821774721146, -0.00010956714686471969, 0.017341841012239456, 3.814848969341256e-05, -0.00911415833979845, -4.077214180142619e-05, 3.689893492264673e-05, -0.05879602208733559, 9.943334589479491e-06, -0.014575430192053318, 0.005105481017380953, -0.04841580241918564, 3.816169919446111e-05, -3.7844012695131823e-05, -1.9713058918569004e-06, 3.823435690719634e-05, -0.03196185082197189, -0.04663197323679924, 0.02938936837017536, 4.9430891522206366e-05, -3.5131157346768305e-05, -3.7194367905613035e-05, -0.022771771997213364], [2.362521263421513e-05, -2.28736662393203e-05, 2.651710747159086e-05, 2.4977660359581932e-05, -0.03229431435465813, -2.5255352738895454e-05, 2.5507853933959268e-05, -4.317452294344548e-06, 0.04440901428461075, 0.12399294227361679, 0.029634399339556694, 0.08724010735750198, 2.4888344341889024e-05, -0.08577421307563782, -2.356852564844303e-05, 2.5528566766297445e-05, -0.08947482705116272, -1.0773423127830029e-05, -0.07091499119997025, -0.013676210306584835, -0.05071462690830231, 2.488420795998536e-05, -2.504002804926131e-05, -2.249630597361829e-05, 2.484674405422993e-05, 0.003553638933226466, 0.04893067106604576, -0.1874919831752777, -7.140546586015262e-06, -2.6434028768562712e-05, -2.5373105017933995e-05, -0.05435996502637863], [5.31294153915951e-06, -8.543921467207838e-06, 1.0385358109488152e-05, 9.373543434776366e-06, 0.023791084066033363, -9.546035471430514e-06, 9.713468898553401e-06, 9.808374670683406e-06, 0.0577462874352932, 0.16236627101898193, 0.06552896648645401, -0.007025368511676788, 9.303339538746513e-06, -0.036956995725631714, -8.600570254202466e-06, 9.72423549683299e-06, -0.12925146520137787, 1.7697922885417938e-05, 0.008215032517910004, 1.6658638060107478e-06, -0.023336755111813545, 9.299077646574005e-06, -9.400963790540118e-06, 1.0112837117048912e-05, 9.273986506741494e-06, -0.0063530863262712955, -0.060520756989717484, 0.03603208065032959, 2.4867837055353448e-05, -1.0315679901395924e-05, -9.62332069320837e-06, -0.05978595092892647], [-8.472871709797047e-12, 1.3157275616237918e-11, -1.8119341096967112e-11, -1.5939640232720542e-11, -5.8410790870766505e-08, 1.633446850002329e-11, -1.668315659231201e-11, 7.1464448941904735e-12, 1.6096171862045594e-07, 1.6943316438755573e-07, 1.1854454839976825e-07, 7.659880907340266e-08, -1.5829714275494844e-11, -1.6996263241253473e-07, 1.3999531568720247e-11, -1.6706528521703845e-11, -9.257867361611716e-08, 1.9396432376916906e-11, 4.643928974701339e-08, -2.349887573416254e-08, 3.748417398696802e-08, -1.5823177837437363e-11, 1.603559125762377e-11, 1.5494402635929383e-11, -1.5775129466599758e-11, -6.813523611981509e-08, -3.499755507618829e-08, -1.654948960094771e-07, 1.3161130171801538e-11, 1.8007133978370504e-11, 1.649262150460462e-11, -3.130732562084404e-09], [5.077188689028844e-05, -6.526682409457862e-05, 7.57113448344171e-05, 7.216393714770675e-05, 0.11814521253108978, -7.283996092155576e-05, 7.344172627199441e-05, -1.7838256098912098e-05, 0.061352696269750595, 0.20989516377449036, 0.10352031886577606, 0.051576968282461166, 7.190606265794486e-05, 0.008887971751391888, -6.768352614017203e-05, 7.34865534468554e-05, -0.12950417399406433, -2.9867154808016494e-05, 0.03849966451525688, -0.04475192725658417, -0.0037170685827732086, 7.189072493929416e-05, -7.230075425468385e-05, -3.071446917601861e-05, 7.178747182479128e-05, -0.029652342200279236, -0.061720110476017, 0.11593961715698242, 1.0164880222873762e-05, -7.550638110842556e-05, -7.31232576072216e-05, -0.04054497554898262], [-7.487936486139102e-12, 1.2787799465174832e-11, -1.6600314872716737e-11, -1.4822929342295232e-11, -8.071576473867026e-08, 1.513958576560004e-11, -1.5420479129724107e-11, 5.304215833917825e-12, 1.288088213868832e-07, 1.3413327337730152e-07, 8.388341399268029e-08, 5.5015259903257174e-08, -1.4737631254257977e-11, -1.622416050395259e-07, 1.3352985384074145e-11, -1.5438842912440798e-11, -6.737586488725356e-08, 1.5423481936061023e-11, 2.6918083761984235e-08, -2.1402538408210603e-08, 3.546078275462605e-08, -1.4732125241945226e-11, 1.490051311503482e-11, 1.084095833936427e-11, -1.4694273575699413e-11, -5.756190901706759e-08, -1.6317633466655934e-08, -1.7295488419222238e-07, 6.508416635492287e-12, 1.6507392675002563e-11, 1.5266595279617157e-11, -1.9532810924260957e-08], [-8.830116325631021e-12, 1.3163334137977767e-11, -1.8716883945502083e-11, -1.633156283820103e-11, -4.6129404296380017e-08, 1.676632270519729e-11, -1.714958210163875e-11, 8.071278020937989e-12, 1.7606075175535807e-07, 1.8764345099953061e-07, 1.3397243492363486e-07, 8.991011668513238e-08, -1.6208902275938186e-11, -1.722586517871605e-07, 1.4149146264352819e-11, -1.7175552646797598e-11, -1.0648480497366108e-07, 2.116985059474885e-11, 5.3537775102086016e-08, -2.3662389381229332e-08, 3.554404059968874e-08, -1.6201835012497057e-11, 1.6436806776765067e-11, 1.7763325532715868e-11, -1.6148547776762e-11, -7.295685122699069e-08, -4.4588574610315845e-08, -1.6027922811190365e-07, 1.6491101886839665e-11, 1.8594768086410696e-11, 1.694035536847771e-11, 5.6750710797359716e-09], [2.2145018192532007e-06, -3.4780302939907415e-06, 1.5711830201325938e-05, 1.0560009286564309e-05, 0.037419937551021576, -1.1449375051597599e-05, 1.2262860764167272e-05, 4.170710781181697e-06, 0.04294325411319733, 0.08211307227611542, -0.01462568249553442, 0.066350057721138, 1.0269610356772318e-05, 0.01580699533224106, -5.644998054776806e-06, 1.2328569937380962e-05, -0.07720934599637985, -8.946391062636394e-06, -0.0386505201458931, -0.026226745918393135, -0.04974408447742462, 1.0250431841996033e-05, -1.0756482879514806e-05, -9.186593160848133e-06, 1.0130437658517621e-05, 0.02787487767636776, 0.005414287559688091, 0.01348345261067152, -1.0163075785385445e-05, -1.5410389096359722e-05, -1.1825808542198502e-05, 0.005187500733882189], [-7.995531320359461e-12, 2.7702009523095095e-12, 2.096853289959566e-12, -5.717168275257145e-13, -1.0469801026147252e-08, 1.4334643498245536e-13, 2.6023440672338916e-13, -3.808823915985027e-12, 3.6296547989422834e-08, -2.5958337346310145e-07, 1.5737590786102373e-07, -2.6885717829827627e-07, -7.043371962056622e-13, 1.6330584884372e-08, 2.437858291973183e-12, 2.924893942497786e-13, 2.8096647497477534e-07, 2.1476919635082803e-12, 2.3406620641708287e-07, -2.650581087948467e-08, 2.7006717573385686e-07, -7.141420701323176e-13, 4.762499531026088e-13, 7.459184311886524e-12, -7.691187639026487e-13, -2.406635601914786e-08, -1.9986485355616423e-08, 1.1128616250744017e-08, 2.4388661663127253e-12, -1.9312813067523527e-12, -4.100435336868054e-14, 3.395879488721221e-08], [1.7501701222499833e-05, -1.7226944692083634e-05, 1.7953667338588275e-05, 1.818372038542293e-05, 0.0007289974018931389, -1.8178812752012163e-05, 1.8162203559768386e-05, 4.977930530003505e-06, 0.007753141224384308, 0.08744460344314575, -0.030927147716283798, 0.039508018642663956, 1.819598037400283e-05, 0.005007047206163406, -1.79904618562432e-05, 1.815821451600641e-05, -0.08451084792613983, 2.4006498279049993e-05, -0.11214574426412582, 0.03688530996441841, -0.0597032830119133, 1.8197282770415768e-05, -1.818821328924969e-05, -1.366081960441079e-06, 1.8199598343926482e-05, 0.002694600261747837, -0.03246206045150757, -0.0061257025226950645, 1.2817073184123728e-05, -1.7987966202781536e-05, -1.8170752809965052e-05, 0.0014079794054850936], [1.1227096365473699e-05, -5.476250862557208e-06, 2.109637989633484e-06, 3.605912752391305e-06, 0.03349355235695839, -3.348503014422022e-06, 3.121008830930805e-06, 2.013802804867737e-05, 0.06844570487737656, 0.1784094274044037, 0.006536473054438829, 0.12417050451040268, 3.673967739814543e-06, -0.06612648069858551, -4.928355338051915e-06, 3.1054210012371186e-06, -0.18129676580429077, 1.2504783626354765e-05, -0.04787110537290573, 0.008564206771552563, -0.10246168822050095, 3.679139126688824e-06, -3.5404693790042074e-06, 1.1069894753745757e-05, 3.711936187755782e-06, 0.012952658347785473, -0.004944848362356424, -0.030391590669751167, 2.4458404368488118e-05, -2.192128476963262e-06, -3.2447690045955824e-06, 0.0014423986431211233], [4.028325292892987e-06, -2.2343559976434335e-05, 4.988027649233118e-05, 3.745964204426855e-05, 0.07379935681819916, -3.9651011320529506e-05, 4.161365359323099e-05, -3.71891692338977e-05, 0.05403802916407585, 0.14500322937965393, 0.013907460495829582, 0.04991181567311287, 3.677796121337451e-05, -0.0030273732263594866, -2.6199058993370272e-05, 4.1763483750401065e-05, -0.11052682995796204, -7.205622387118638e-05, -0.03768337890505791, -0.016020111739635468, -0.009906136430799961, 3.672990351333283e-05, -3.7963094655424356e-05, -4.704784805653617e-05, 3.6439312680158764e-05, -0.0008163905004039407, -0.059959106147289276, 0.028883451595902443, -4.808003723155707e-05, -4.917939440929331e-05, -4.055710815009661e-05, -0.011587275192141533], [-8.469619970641329e-12, 1.3156630299104854e-11, -1.8113293850929857e-11, -1.593551852974162e-11, -5.849660311696425e-08, 1.633000679124308e-11, -1.6678347938836602e-11, 7.138226208042164e-12, 1.6080205966773065e-07, 1.6923702617077652e-07, 1.1840378277838681e-07, 7.645331123740107e-08, -1.5825717472606193e-11, -1.6991590712223115e-07, 1.3997618168726245e-11, -1.6701685173758918e-11, -9.242926779506888e-08, 1.937970096899111e-11, 4.6377525819707444e-08, -2.3494878931273888e-08, 3.750786703449194e-08, -1.5819163687313953e-11, 1.6031360267065864e-11, 1.5473755957118307e-11, -1.577117429707453e-11, -6.808333807839517e-08, -3.4907589707700026e-08, -1.6551152270949387e-07, 1.3131212263373104e-11, 1.8001204693529615e-11, 1.648796897624205e-11, -3.2009286332623788e-09], [-8.553187672011298e-12, 1.315620529185324e-11, -1.8251088140797123e-11, -1.6025479554482303e-11, -5.56875221491282e-08, 1.6429248586580236e-11, -1.6785680484465715e-11, 7.361757037305239e-12, 1.6457312312923023e-07, 1.7368576266107993e-07, 1.2223254941545747e-07, 7.959393144574278e-08, -1.591268783407429e-11, -1.7059983292710967e-07, 1.4031003789383156e-11, -1.6809614464263767e-11, -9.578626247730426e-08, 1.981801701911312e-11, 4.8228439908371e-08, -2.3575932317498882e-08, 3.717483920695486e-08, -1.5906059455672583e-11, 1.6123503573939324e-11, 1.6024017182592054e-11, -1.5856840146488693e-11, -6.929506923825102e-08, -3.722761832136712e-08, -1.6442825767626346e-07, 1.3939443349597624e-11, 1.8136710883132068e-11, 1.659096124373427e-11, -1.1217881068503743e-09], [-8.542341313477753e-12, 3.966645588382445e-12, 6.70116685665828e-13, -1.7443211588683005e-12, -7.166641502465154e-09, 1.3541114844001223e-12, -9.881749281695495e-13, -4.6849182519514976e-12, -3.4168234464004854e-08, -2.2133102106636215e-07, 1.1819308554095187e-07, -2.294923433510121e-07, -1.866639438505291e-12, 3.8630819432228236e-08, 3.52223176840194e-12, -9.582809806091275e-13, 2.4252977937067044e-07, 3.326224712330017e-12, 1.61997249392698e-07, -2.652136110725678e-08, 2.2243558817081066e-07, -1.875242365903529e-12, 1.6574353651696572e-12, 6.6263839033908756e-12, -1.9258084710260803e-12, -2.904969420569614e-08, -1.8836402659871965e-08, 2.872149984511907e-08, 9.239834375049383e-13, -5.208385805977045e-13, 1.1866264264595583e-12, 4.278308551874943e-08], [-8.449427789380959e-12, 1.3156239118961022e-11, -1.807981542256698e-11, -1.5913548256918375e-11, -5.9163834720266095e-08, 1.630578658207149e-11, -1.6652179635201492e-11, 7.083509560162904e-12, 1.599132133378589e-07, 1.6818576398236473e-07, 1.1749575179464955e-07, 7.572586468995723e-08, -1.580444455862029e-11, -1.6975884875591873e-07, 1.3989172667483452e-11, -1.6675388500586585e-11, -9.163544234525034e-08, 1.9272467302600127e-11, 4.593352898041303e-08, -2.347188576834469e-08, 3.758116662311295e-08, -1.579793414141495e-11, 1.6008866107752873e-11, 1.5341021855630466e-11, -1.5750230980549063e-11, -6.77990428243902e-08, -3.4367005241620063e-08, -1.6577061501266144e-07, 1.2936682107500541e-11, 1.7968250151656484e-11, 1.6462851915033383e-11, -3.692449457304292e-09], [2.2061622075852938e-05, -6.752026092726737e-05, 3.548055610735901e-05, 4.695859024650417e-05, -0.45110127329826355, -4.455800080904737e-05, 4.2512787331361324e-05, 6.211414438439533e-05, 0.11453591287136078, -0.6346954703330994, 0.24213933944702148, -0.37233492732048035, 4.786933277500793e-05, 0.40652164816856384, -6.170071719679981e-05, 4.235655433149077e-05, 0.3634484112262726, 3.821881546173245e-05, 0.19026611745357513, -0.11339498311281204, 0.4755059778690338, 4.792464096681215e-05, -4.646132583729923e-05, 8.301828347612172e-05, 4.828024248126894e-05, -0.03729899600148201, 0.01115685235708952, 0.10490725934505463, 0.00013919631601311266, -3.6076588003197685e-05, -4.359035301604308e-05, -0.04556161165237427], [-2.7183887141291052e-05, 2.7781723474618047e-05, -3.7338410038501024e-05, -3.393924271222204e-05, -0.05769713595509529, 3.461927917669527e-05, -3.5208464396419004e-05, 9.60129818849964e-06, 0.02202606201171875, 0.33229073882102966, -0.1594790518283844, 0.4850219190120697, -3.369490514160134e-05, 0.02628636546432972, 2.9727698347414844e-05, -3.5253557143732905e-05, -0.31909555196762085, 2.5134550014627166e-05, -0.25969886779785156, -0.02729768678545952, -0.28652048110961914, -3.367864337633364e-05, 3.408760312595405e-05, 2.6291552785551175e-05, -3.358165122335777e-05, -0.06731918454170227, 0.03162027522921562, -0.10962875187397003, 2.6336982045904733e-05, 3.71608512068633e-05, 3.489700975478627e-05, -0.015893179923295975], [1.8253436792292632e-05, -5.342477834346937e-06, 1.2788796084350906e-05, 1.0754013601399492e-05, 0.0729597806930542, -1.1119128430436831e-05, 1.1467942385934293e-05, 1.780820639396552e-05, 0.1439756155014038, 0.372358113527298, -0.11575933545827866, 0.2958146929740906, 1.0621652108966373e-05, 0.02176884189248085, -7.859170182200614e-06, 1.149963281932287e-05, -0.34966108202934265, 2.6915508897218388e-06, -0.19178558886051178, 0.011014435440301895, -0.2737621068954468, 1.0614092389005236e-05, -1.082897051674081e-05, -1.8725282643572427e-05, 1.0562152965576388e-05, 0.007234170101583004, -0.0027724341489374638, 0.024077478796243668, -7.849144822102971e-06, -1.269162748940289e-05, -1.1278821148152929e-05, -0.0003298041701782495], [-2.484206243491549e-11, 2.3475390034666255e-11, -2.34665481491092e-11, -2.3931030768142847e-11, -2.6230967620222145e-08, 2.3891741016135448e-11, -2.3843751625896026e-11, -8.241461332825217e-12, -1.3206675930632628e-07, -3.0477139034701395e-07, 5.652571033465392e-08, -2.388798066021991e-07, -2.392850327603835e-11, 5.01488273130235e-08, 2.375587920822042e-11, -2.3837353965716623e-11, 3.2337598554477154e-07, 5.551384872626297e-12, 9.384569921166985e-08, -1.822832729203583e-08, 2.1692200391498773e-07, -2.392858827748867e-11, 2.3918513003540198e-11, 9.58285100577383e-12, -2.392961523378645e-11, -3.273030912964714e-08, 1.4169232454008807e-09, 9.794858257805572e-09, -8.82948748837098e-12, 2.350097026704301e-11, 2.387305284012875e-11, 3.8974775407041307e-08], [-9.512469804906498e-12, 1.3273639999644704e-11, -1.9848336516026244e-11, -1.7104682253910042e-11, -2.3571873342120853e-08, 1.7608468502738894e-11, -1.8051964437160173e-11, 9.505277641375098e-12, 1.9727193034668744e-07, 2.148340030316831e-07, 1.5663577812574658e-07, 1.1168017977070122e-07, -1.695945293922474e-11, -1.7319709399998828e-07, 1.450227004456961e-11, -1.808250597867822e-11, -1.27753338574621e-07, 2.380658170597627e-11, 6.244851391556949e-08, -2.322081193995018e-08, 3.0535783679397355e-08, -1.6951464537617866e-11, 1.7225842280366166e-11, 2.132652041075822e-11, -1.6888962450778422e-11, -7.971213022983648e-08, -5.970399996613196e-08, -1.4822505534084485e-07, 2.165647348950639e-11, 1.9708516069139037e-11, 1.78103538861496e-11, 2.0639509656916744e-08], [-8.742464217836865e-12, 1.3163736593824193e-11, -1.8569163567905278e-11, -1.623537936035202e-11, -4.930110364398388e-08, 1.666017497570227e-11, -1.7034746876976037e-11, 7.846823885104826e-12, 1.724558131854792e-07, 1.8322282357985387e-07, 1.3025216105688742e-07, 8.657568884018474e-08, -1.611592109762583e-11, -1.7181619682560267e-07, 1.4113704996376875e-11, -1.7060099860577438e-11, -1.0307719833235751e-07, 2.0747577267332673e-11, 5.189583518472318e-08, -2.3661590020651602e-08, 3.6128781744082517e-08, -1.610899608150973e-11, 1.6338303973628676e-11, 1.7211086722479507e-11, -1.6056997745317325e-11, -7.181090921903888e-08, -4.221989868824494e-08, -1.6172769790046004e-07, 1.567835444804544e-11, 1.844953530227844e-11, 1.6830216040264467e-11, 3.457055530731168e-09], [-1.2500259799708147e-05, 8.660504136059899e-06, -1.5149317732721101e-05, -1.2854559827246703e-05, -0.03560956194996834, 1.3282922736834735e-05, -1.3667407984030433e-05, 7.106999873940367e-06, 0.011652120389044285, 0.27520304918289185, -0.14779792726039886, 0.34690266847610474, -1.2701875675702468e-05, 0.015036330558359623, 1.0107514754054137e-05, -1.3702398973691743e-05, -0.30147069692611694, 2.8878746888949536e-05, -0.21513456106185913, -0.005435467232018709, -0.27488356828689575, -1.2694838005700149e-05, 1.2948510629939847e-05, 3.551591362338513e-05, -1.2633011465368327e-05, -0.012163474224507809, 0.02793576568365097, 0.022658854722976685, 3.4507920645410195e-05, 1.5026260371087119e-05, 1.3464110452332534e-05, 0.006245923228561878], [2.7748526133103413e-12, -2.930981195595206e-13, 6.931384719660594e-12, 4.464490409306077e-12, -8.254530570184215e-08, -4.9182932032598714e-12, 5.32875219644291e-12, -5.6548728373517765e-12, 2.8924567629928788e-08, -8.848753907386708e-08, 1.1394441656875642e-07, -1.6494466592575918e-07, 4.297453018442532e-12, -1.0093712177194902e-07, -1.6433583010025399e-12, 5.362742368231199e-12, 1.4142504767278297e-07, -3.527512483503248e-12, 9.680807977474615e-08, -1.3256730824195984e-08, 1.7362054904879187e-07, 4.2861200699739754e-12, -4.5595732051095794e-12, -9.343372429915231e-12, 4.2200687389026825e-12, -3.773731904743727e-08, -1.220623779829566e-08, -1.2230954382630443e-07, -1.4673541895438014e-11, -6.790578516158163e-12, -5.111897450477132e-12, -3.3947604727302405e-09], [-5.005692041426535e-12, 1.102558148946553e-11, -9.597979529207823e-12, -9.848080684271565e-12, -7.961334347328375e-08, 9.789691626793662e-12, -9.734314049270054e-12, -2.5398973289153526e-12, 8.857470845669013e-08, -2.74236509056891e-08, 1.461718142081736e-07, -1.374088896000103e-07, -9.888493669729659e-12, -1.8365982157320104e-07, 1.0562127561453138e-11, -9.726345596983155e-12, 1.0455696042299678e-07, 1.559178567506203e-12, 1.2239165414484887e-07, -2.7904647481591383e-08, 1.803829405844226e-07, -9.890645594201608e-12, 9.841460979487238e-12, -5.723641179067318e-12, -9.904741089805658e-12, -4.191551639110003e-08, -1.715949160541186e-08, -1.9488929581257253e-07, -1.4427066312439063e-11, 9.613311882650244e-12, 9.759615858528914e-12, -4.361574568179094e-08], [-6.024447433972124e-12, 1.0561472703340957e-11, -7.400824744707712e-12, -8.493370937112665e-12, -4.4869032933547714e-09, 8.294876070735757e-12, -8.105643760358827e-12, -3.8620929371235846e-12, 1.6284420212286932e-07, -8.907714033057346e-08, 3.218571578145202e-07, -2.657654363247275e-07, -8.584741424677578e-12, -2.2287790102382132e-07, 9.946864512611064e-12, -8.086474198587545e-12, 2.065976616449916e-07, 1.4675109001258124e-12, 2.8653070671680325e-07, -3.934531989102652e-08, 3.3768154139579565e-07, -8.591743635988358e-12, 8.457915791348913e-12, -5.928970855939575e-12, -8.626947246848093e-12, -6.106019156959519e-08, -7.62471756843297e-08, -1.833070797374603e-07, -1.2657988372744011e-11, 7.469586581210219e-12, 8.200915641021211e-12, -6.5590359810130394e-09], [-5.858296920485673e-12, 1.1234827304584805e-11, -8.900490587604448e-12, -9.583611682018045e-12, -4.3591501963646806e-08, 9.453184762753253e-12, -9.328805089525716e-12, -3.2560334636833055e-12, 1.3005053745018813e-07, -5.866279906285854e-08, 2.429129040137923e-07, -2.089400936711172e-07, -9.6508174715626e-12, -2.0913874720918102e-07, 1.0686493356892868e-11, -9.314964598272635e-12, 1.5916019435735507e-07, 2.0068315498972256e-12, 2.142041495289959e-07, -3.620320754293971e-08, 2.68888328491812e-07, -9.6554569894991e-12, 9.56230927773305e-12, -5.734624147074596e-12, -9.680604408368598e-12, -5.3367681829286084e-08, -4.826568300586587e-08, -1.9387344707411103e-07, -1.3538699675241794e-11, 8.943372084568857e-12, 9.390063379632885e-12, -2.627410466971014e-08], [-1.8116614228347316e-05, 3.588759864214808e-05, -2.2699532564729452e-05, -2.7936050173593685e-05, -0.16123540699481964, 2.698669777601026e-05, -2.611436320876237e-05, 2.443529592710547e-05, -0.04629668593406677, -0.031863246113061905, 0.07871352881193161, -0.189421609044075, -2.8340480639599264e-05, -0.06759244203567505, 3.4009484807029366e-05, -2.604094879643526e-05, 0.13584046065807343, -5.20792218594579e-06, 0.0107292914763093, -0.015842711552977562, 0.08964955061674118, -2.8360964279272594e-05, 2.775835309876129e-05, -1.307404090766795e-05, -2.8509628464234993e-05, -0.005488362163305283, 0.024273201823234558, -0.04627319425344467, -3.55047159246169e-05, 2.3036980564938858e-05, 2.6573221475700848e-05, 0.05840519815683365], [-5.88908869586513e-12, 1.1140813965804242e-11, -8.653948217751672e-12, -9.410439441581708e-12, -3.779181767527007e-08, 9.267730680107e-12, -9.131686726226995e-12, -3.3684548206291964e-12, 1.3583247948645294e-07, -6.371449501330062e-08, 2.5639852196945867e-07, -2.1887429113576218e-07, -9.482082653777812e-12, -2.1207296185821178e-07, 1.0578146865392046e-11, -9.11686958565694e-12, 1.6726127682886727e-07, 1.9355760483980022e-12, 2.2682391431771975e-07, -3.694578509794155e-08, 2.809867964970181e-07, -9.487101208793813e-12, 9.386602606298311e-12, -5.789614447582192e-12, -9.514073556760039e-12, -5.4779139446736735e-08, -5.286933557613338e-08, -1.9304232523609244e-07, -1.3430184915563803e-11, 8.701424997203944e-12, 9.199026956840939e-12, -2.33846062513976e-08], [-5.901985931228149e-12, 1.1030269579659358e-11, -8.39693939380659e-12, -9.223845645611739e-12, -3.219329514081437e-08, 9.06924535470921e-12, -8.92200983232394e-12, -3.4786023887789508e-12, 1.4107969548149413e-07, -6.85075747242081e-08, 2.6885146553468076e-07, -2.2803628496603778e-07, -9.29966000040583e-12, -2.1456546051012992e-07, 1.0453653567776833e-11, -8.906281094567259e-12, 1.7481595193657995e-07, 1.84547321001316e-12, 2.3839619700538606e-07, -3.754896127361462e-08, 2.920828308106138e-07, -9.305098358503017e-12, 9.197525553672481e-12, -5.850334539730939e-12, -9.333832318159097e-12, -5.6056936870163554e-08, -5.718075613003748e-08, -1.9197224787603773e-07, -1.3331489558121579e-11, 8.448829309781747e-12, 8.995239449138825e-12, -2.0543302170494826e-08], [-5.365877447233158e-12, 5.369943205379979e-12, -5.4403569323124845e-12, -5.486367870427555e-12, -2.2273909383585533e-09, 5.484279263362479e-12, -5.4807491010888665e-12, -2.9778195968083176e-12, -2.2517541609090586e-08, -6.350308012770256e-08, 1.502276347764564e-08, -4.362048500183846e-08, -5.484646157377648e-12, 1.0967353247792744e-08, 5.433604087501376e-12, -5.479979317546402e-12, 6.747492875547323e-08, 1.3127742165899847e-13, 2.106380492250537e-08, -5.0232018544704715e-09, 4.538827624855912e-08, -5.484661336208063e-12, 5.485302750213306e-12, 1.3567585640042457e-12, -5.484198165039977e-12, -1.1408552325065102e-08, 3.642856905017311e-09, 5.572882599835793e-09, -3.037877241429676e-12, 5.444112174957105e-12, 5.483177713955234e-12, 1.2415973138502068e-08], [0.00012460512516554445, -0.0001275148242712021, 0.00015572945994790643, 0.0001454079319955781, 0.028475672006607056, -0.0001475326280342415, 0.0001493700547143817, 5.335233254299965e-06, -0.1387970745563507, 0.2899485230445862, -0.11755745857954025, 0.2368987649679184, 0.00014465230924542993, -0.05610431358218193, -0.0001328825019299984, 0.0001495104661444202, -0.29665395617485046, -7.3337068897672e-05, -0.20055682957172394, -0.007336837705224752, -0.26049789786338806, 0.00014459982048720121, -0.00014586430916097015, -9.293683979194611e-05, 0.00014429075235966593, -0.033598702400922775, -0.01706901378929615, 0.024281559512019157, -2.4925807338149752e-06, -0.00015522718604188412, -0.00014840494259260595, 0.04324482008814812], [1.5148045349633321e-05, -1.7295460565946996e-05, 4.140472356084501e-06, 1.0081943401019089e-05, -0.028065813705325127, -8.98931557458127e-06, 8.033428457565606e-06, -4.265659299562685e-06, 0.040724609047174454, 0.21144287288188934, -0.006616730242967606, 0.09895046800374985, 1.041111954691587e-05, -0.059822928160429, -1.5642361177015118e-05, 7.962246854731347e-06, -0.1343013048171997, 7.289923814823851e-06, -0.04347490519285202, 0.012829404324293137, -0.11672939360141754, 1.0437575838295743e-05, -9.821254025155213e-06, -6.112975825089961e-06, 1.057849294738844e-05, -0.07801467180252075, -0.08195362985134125, 0.03446665406227112, 2.0889903680654243e-05, -4.452092071005609e-06, -8.546055141778197e-06, -0.026908041909337044], [8.965982851805165e-05, -8.940451516536996e-05, 9.823498112382367e-05, 9.38556986511685e-05, -0.018537815660238266, -9.461914305575192e-05, 9.532539115753025e-05, -2.398738797637634e-05, 0.03891614452004433, 0.09940881282091141, 0.11423442512750626, 0.01629006862640381, 9.360882540931925e-05, -0.12815797328948975, -9.055393456947058e-05, 9.538543235976249e-05, -0.03302602097392082, -6.521707109641284e-05, -0.07376120984554291, 0.012219933792948723, -0.007554075215011835, 9.359480463899672e-05, -9.402168507222086e-05, -8.53245219332166e-05, 9.349326865049079e-05, 0.023967286571860313, 0.07179137319326401, -0.2176293581724167, -2.8297463359194808e-05, -9.798493556445464e-05, -9.494700498180464e-05, 0.0044676088728010654], [6.528274752781726e-06, -1.0826362085936125e-05, 1.6914042134885676e-05, 1.3940343706053682e-05, -0.016099145635962486, -1.4445552551478613e-05, 1.493235777161317e-05, -9.488431714999024e-06, 0.00900085549801588, 0.18091216683387756, 0.06108991801738739, -0.07269426435232162, 1.3759514331468381e-05, -0.001003888202831149, -1.1661698408715893e-05, 1.4968069990572985e-05, -0.05756103992462158, 6.274057341215666e-06, -0.039490632712841034, -0.042372606694698334, 0.03774721547961235, 1.3751238839176949e-05, -1.403604073857423e-05, -1.923950094351312e-06, 1.3680293704965152e-05, -0.05329226329922676, -0.08572442084550858, 0.055254239588975906, 1.6255968148470856e-05, -1.672883990977425e-05, -1.4668165931652766e-05, -0.1725088357925415], [-5.865777481794954e-12, 1.1284573102343654e-11, -9.01213999260353e-12, -9.666645088557413e-12, -4.533762876235414e-08, 9.541061517237548e-12, -9.421297075817847e-12, -3.212957894530022e-12, 1.2812810723517032e-07, -5.700025695887234e-08, 2.3841742802233057e-07, -2.0554803370487207e-07, -9.732113552540778e-12, -2.081212073790084e-07, 1.074331769379544e-11, -9.40779572300432e-12, 1.5646875795027881e-07, 2.0331421008573658e-12, 2.0998437832986383e-07, -3.59448435460763e-08, 2.6480384462956863e-07, -9.736584802300108e-12, 9.646349691250222e-12, -5.704972952380594e-12, -9.76100190258622e-12, -5.287190418812315e-08, -4.674879860999681e-08, -1.9400498274535494e-07, -1.3568652278139748e-11, 9.053246867452014e-12, 9.480110273185627e-12, -2.7196019658504156e-08], [5.9852816775674e-05, -8.033437916310504e-05, 9.085456258617342e-05, 8.698753663338721e-05, 0.013943355530500412, -8.76034828252159e-05, 8.81921878317371e-05, -1.5721820091130212e-05, -0.03769707307219505, -0.004324204288423061, 0.047259371727705, -0.05579403042793274, 8.68021379574202e-05, 0.17554132640361786, -8.321784844156355e-05, 8.823706593830138e-05, 0.08914870768785477, -3.157200262648985e-05, 0.04090913012623787, -0.1141086146235466, 0.13314040005207062, 8.679210441187024e-05, -8.71269658091478e-05, -3.292972905910574e-05, 8.670846000313759e-05, -0.04327914118766785, -0.0390133298933506, -0.007972241379320621, 1.953053470060695e-05, -9.063225297722965e-05, -8.786911348579451e-05, -0.1621159464120865], [-5.431115192994218e-12, 1.1314307130083634e-11, -9.66968172200211e-12, -1.002332765398517e-11, -6.961413134831673e-08, 9.94781947788459e-12, -9.875970700956582e-12, -2.7478334278102645e-12, 9.969181746782851e-08, -3.624102973276422e-08, 1.7369988825066685e-07, -1.581181976462176e-07, -1.0070267536521627e-11, -1.9101803161447606e-07, 1.0831164090618906e-11, -9.866552019843766e-12, 1.2011643946152617e-07, 1.8737947391628262e-12, 1.486948519868747e-07, -3.08028731410559e-08, 2.0603729922186176e-07, -1.0073020542678002e-11, 1.0013261053654077e-11, -5.6423771904734465e-12, -1.008979878813765e-11, -4.541239206901082e-08, -2.5534783176794917e-08, -1.941023555218635e-07, -1.417996189218007e-11, 9.691725720573086e-12, 9.909812553887676e-12, -3.8561751125598676e-08], [-5.89642744353025e-12, 1.1013326535469492e-11, -8.365888710948344e-12, -9.199428545325627e-12, -3.1760258423219057e-08, 9.043727572377591e-12, -8.895425195054596e-12, -3.4888775896080304e-12, 1.414772299312972e-07, -6.888436843155432e-08, 2.698039622828219e-07, -2.2874465344102646e-07, -9.27565142749831e-12, -2.147355644410709e-07, 1.0435198712077653e-11, -8.87959931278326e-12, 1.7539667851451668e-07, 1.8327763352116166e-12, 2.3928339487611083e-07, -3.758530908726243e-08, 2.929295703779644e-07, -9.281096724489402e-12, 9.172852581673663e-12, -5.859192905161015e-12, -9.310019769004363e-12, -5.615265052938412e-08, -5.7518779073006954e-08, -1.9187309874268976e-07, -1.3324899343636343e-11, 8.418190623749044e-12, 8.969204719211366e-12, -2.031416279635323e-08], [8.668905138620175e-06, -1.6009746104828082e-05, 3.555685543688014e-05, 2.756170761131216e-05, 0.06773366779088974, -2.8953161745448597e-05, 3.021614975295961e-05, -2.1229398043942638e-06, 0.051284242421388626, 0.1124761775135994, -0.04934583604335785, 0.11536920070648193, 2.710797343752347e-05, 0.06842702627182007, -1.9661794794956222e-05, 3.031632149941288e-05, -0.12026818841695786, -1.08053163785371e-05, -0.07763918489217758, -0.04321972653269768, -0.08484859764575958, 2.707688690861687e-05, -2.787021003314294e-05, -9.077484719455242e-06, 2.6889687433140352e-05, 0.04797016456723213, 0.014098498970270157, 0.04418032988905907, -5.093227173347259e-06, -3.5089728044113144e-05, -2.9536773581639864e-05, 0.015104237012565136], [-7.479612415539627e-12, 2.2369228865060098e-12, 4.362084912029607e-12, 1.0145654932500192e-12, -6.670541341513569e-10, -1.5672333222860324e-12, 2.0828035476871953e-12, -5.664284579570689e-12, 3.588394648090798e-08, -3.2270023098135425e-07, 1.8921966216112196e-07, -3.443237233113905e-07, 8.406738846722384e-13, 9.285126445490732e-09, 1.5706095278511523e-12, 2.123776631987595e-12, 3.468701379460981e-07, -8.998611859996342e-13, 2.8206048341417045e-07, -2.766457285474644e-08, 3.291457346676907e-07, 8.278706496375743e-13, -1.1377270653367688e-12, 3.3672600298351174e-12, 7.559481469618379e-13, -1.8939736889933556e-08, -2.015893230122856e-08, 3.6539948844449555e-09, -2.5013316071187397e-12, -4.159962305183562e-12, -1.803884949400092e-12, 2.8427365350580658e-08], [6.828104960732162e-05, -7.24431301932782e-05, 8.594219980295748e-05, 8.088280446827412e-05, -0.03256046026945114, -8.18420376162976e-05, 8.26924224384129e-05, -1.3751534424955025e-05, 0.015064177103340626, 0.19822120666503906, -0.08996684849262238, 0.13056030869483948, 8.058708772296086e-05, 0.011103254742920399, -7.561044185422361e-05, 8.27538751764223e-05, -0.18542826175689697, -1.8974924387293868e-05, -0.25746551156044006, 0.07595392316579819, -0.14876510202884674, 8.056771184783429e-05, -8.1103433331009e-05, -5.301647979649715e-05, 8.044188871281222e-05, -0.009025894105434418, -0.07268928736448288, -0.03003513254225254, -9.139905159827322e-06, -8.56910555739887e-05, -8.22349320515059e-05, -0.025513995438814163], [3.153965008095838e-05, -2.4560547899454832e-05, 2.8636472052312456e-05, 2.7642645363812335e-05, 0.029942506924271584, -2.788211168081034e-05, 2.8086571546737105e-05, 1.184486063721124e-05, 0.021503586322069168, -0.010495295748114586, 0.061316195875406265, -0.05586919188499451, 2.7528016289579682e-05, -0.04921255260705948, -2.5710207410156727e-05, 2.810598562064115e-05, 0.00019558930944185704, -8.309400072903372e-06, 0.04023038595914841, 0.013562353327870369, 0.03238299489021301, 2.752062391664367e-05, -2.768384547380265e-05, -9.89527688943781e-06, 2.748177394096274e-05, 0.03735912963747978, 0.01699836552143097, 0.026281263679265976, 2.627917183417594e-06, -2.8589998692041263e-05, -2.7982834581052884e-05, 0.07467886060476303], [2.0840709112235345e-05, -4.946761328028515e-05, 9.667290578363463e-05, 7.474581070709974e-05, 0.07470391690731049, -7.851177360862494e-05, 8.193204848794267e-05, -5.735016748076305e-05, -0.006997625343501568, 0.13223566114902496, -0.04628447815775871, 0.014922644942998886, 7.357215508818626e-05, 0.05648031830787659, -5.5792988860048354e-05, 8.219672599807382e-05, -0.0883898213505745, -0.00010960542567772791, -0.14332535862922668, -0.039346497505903244, 0.0221661776304245, 7.348761573666707e-05, -7.560211815871298e-05, -7.518212078139186e-05, 7.299215212697163e-05, -0.0009602183126844466, -0.057335201650857925, 0.007268296554684639, -6.027483323123306e-05, -9.54087299760431e-05, -8.008525765035301e-05, 0.0038228644989430904], [-5.864515036785312e-12, 1.128531643135311e-11, -9.01646465822914e-12, -9.669320899519107e-12, -4.544073561874029e-08, 9.544019220764088e-12, -9.42451672258926e-12, -3.209397591436014e-12, 1.2799135618024593e-07, -5.690013082926271e-08, 2.3812182803339965e-07, -2.0533700251235132e-07, -9.734680075923485e-12, -2.0803709332994913e-07, 1.0744441794607873e-11, -9.41105526841568e-12, 1.5629390759386297e-07, 2.035010398040993e-12, 2.09707835097106e-07, -3.592436570443169e-08, 2.6453352575117606e-07, -9.739140049980222e-12, 9.64910183004486e-12, -5.702649723965392e-12, -9.763558017628071e-12, -5.2834820962743834e-08, -4.66490703843192e-08, -1.9399371353756578e-07, -1.3568506561367766e-11, 9.057491735797729e-12, 9.483197213611128e-12, -2.724807401932594e-08], [-5.87363100865157e-12, 1.1224907288387431e-11, -8.863249544022178e-12, -9.560025514276926e-12, -4.232240158330569e-08, 9.427325239896867e-12, -9.300822265134734e-12, -3.2776279520335683e-12, 1.3131504772445624e-07, -5.971811845029151e-08, 2.4580711510679976e-07, -2.1103846847836394e-07, -9.628056164834309e-12, -2.098008593520717e-07, 1.067454891839903e-11, -9.286803964725365e-12, 1.6087565768430068e-07, 1.9944811861100087e-12, 2.1692812879336998e-07, -3.6377965528799905e-08, 2.7147675041305774e-07, -9.632761602262896e-12, 9.538247795759514e-12, -5.742243919942824e-12, -9.65824295540152e-12, -5.366406341522634e-08, -4.9253959133466196e-08, -1.9371005066659563e-07, -1.3514031907413404e-11, 8.907008811065431e-12, 9.363183839372624e-12, -2.5688031257686816e-08], [-8.757979584606002e-12, 4.080713631587907e-12, 2.423326079734056e-12, -7.407133717149406e-13, -4.77764772188749e-10, 2.1528060638407315e-13, 2.7291507270245374e-13, -7.025300046564764e-12, -3.806359316627095e-08, -2.9207959073573875e-07, 1.4692724903397902e-07, -3.056237858345412e-07, -9.07219124043207e-13, 3.658925251670553e-08, 3.2847190679224925e-12, 3.122928890313126e-13, 3.157364005801355e-07, 4.758252711116462e-13, 2.100852185549229e-07, -2.847051128185285e-08, 2.8440337018764694e-07, -9.190525944446915e-13, 6.235373003517231e-13, 2.8749955974932684e-12, -9.879202490792327e-13, -2.5380916923722907e-08, -1.885356937236793e-08, 2.3921035818830205e-08, -4.364043848514854e-12, -2.2332162161187163e-12, -9.086328254203063e-15, 3.9691776976269466e-08], [-5.862392168931585e-12, 1.1299562847899569e-11, -9.052362158479266e-12, -9.694949704153188e-12, -4.6173063594778796e-08, 9.571409637088024e-12, -9.45349614561719e-12, -3.194713807733174e-12, 1.272045011546652e-07, -5.624373144996753e-08, 2.3630222756310104e-07, -2.0398101696628146e-07, -9.759695655808809e-12, -2.0761596886131883e-07, 1.0760873095372325e-11, -9.4401942860034e-12, 1.552208885868822e-07, 2.042092840312537e-12, 2.0799514288682985e-07, -3.5814029075709186e-08, 2.6289106358490244e-07, -9.76410619024648e-12, 9.675068038395018e-12, -5.694921097199046e-12, -9.788228387541675e-12, -5.264008962058142e-08, -4.6036348066991195e-08, -1.940543938871997e-07, -1.3583856262044947e-11, 9.092742184191316e-12, 9.511340499923637e-12, -2.7611127606519403e-08], [-7.86621676525101e-05, 4.766500569530763e-05, -7.942722731968388e-05, -6.421203579520807e-05, 0.2592517137527466, 6.676116026937962e-05, -6.911857053637505e-05, -2.0009558284073137e-05, -0.073725126683712, 0.2939472496509552, 0.034707024693489075, 0.39776790142059326, -6.343302084133029e-05, -0.20769953727722168, 5.2237315685488284e-05, -6.92989124218002e-05, -0.5495663285255432, 5.758843326475471e-05, -0.30924326181411743, 0.0350821390748024, -0.3603772521018982, -6.338163802865893e-05, 6.477988790720701e-05, 0.0001225894084200263, -6.30528520559892e-05, 0.011765181086957455, 0.07914324104785919, -0.028764203190803528, 3.395972089492716e-05, 7.85583833931014e-05, 6.783497519791126e-05, 0.002094544470310211], [-3.344744641253783e-07, -9.279012374463491e-06, 2.3253902327269316e-05, 1.6998155842884444e-05, -0.13476566970348358, -1.8054910469800234e-05, 1.9030510884476826e-05, 7.327314506255789e-06, -0.0697961151599884, 0.05178213492035866, -0.14659085869789124, 0.2843690514564514, 1.6666632291162387e-05, 0.18097668886184692, -1.1521527085278649e-05, 1.9102781152469106e-05, -0.040590088814496994, 1.3228626812633593e-05, -0.26387548446655273, -0.035743676126003265, -0.10106653720140457, 1.6643254639348015e-05, -1.7236148778465576e-05, 1.9070856069447473e-05, 1.6503438018844463e-05, -0.08117442578077316, 0.02119480073451996, -0.017101168632507324, 2.4351060346816666e-05, -2.2888387320563197e-05, -1.850253283919301e-05, 0.04073622450232506], [3.594771260395646e-05, -4.160582830081694e-05, -3.964860297855921e-07, 1.7327507521258667e-05, -0.12853780388832092, -1.420268563379068e-05, 1.1358474694134202e-05, 6.164441583678126e-05, 0.003815294709056616, -0.0542195700109005, -0.16488075256347656, 0.1404443234205246, 1.8452630683896132e-05, 0.3035535216331482, -3.507925430312753e-05, 1.1131437531730626e-05, -0.08073657006025314, 4.6397271944442764e-05, 0.02969491295516491, 0.03684594854712486, -0.09449763596057892, 1.8522276150179096e-05, -1.6672547644702718e-05, 3.5486911656334996e-05, 1.896376852528192e-05, -0.07436297833919525, -0.022533612325787544, -0.0013114650500938296, 0.00012753825285471976, -6.865593036309292e-07, -1.2872106708528008e-05, 0.01911826990544796], [-2.3646865715543086e-11, 2.1662959620583067e-11, -2.043106135662942e-11, -2.1414607934144847e-11, -1.619929079765825e-08, 2.1281778422865827e-11, -2.1149500553652167e-11, -9.290670663353318e-12, -1.239862683632964e-07, -3.2634144986332103e-07, 7.781680011476055e-08, -2.6602228331285005e-07, -2.1443161482559425e-11, 4.9032593096853816e-08, 2.1746337369732416e-11, -2.1136798908361065e-11, 3.468024374342349e-07, 4.029547962663971e-12, 1.2265572024716676e-07, -1.578312236460988e-08, 2.410342290204426e-07, -2.1445555400956273e-11, 2.13815822686092e-11, 7.917842596849578e-12, -2.14593239011851e-11, -3.164832662605477e-08, -5.713812534224871e-09, 1.876972000047772e-08, -9.803421963106018e-12, 2.0495116020979864e-11, 2.1223930599112428e-11, 4.5179078256296634e-08], [-6.010730975447576e-12, 1.060509405986787e-11, -7.486429878800216e-12, -8.557118555407861e-12, -7.176817806708868e-09, 8.362163392283684e-12, -8.176402263582183e-12, -3.836625895453638e-12, 1.6091243537630362e-07, -8.729137590535174e-08, 3.170682134623348e-07, -2.6243992579111364e-07, -8.647215755941406e-12, -2.222638073590133e-07, 9.99283034791576e-12, -8.15751372701401e-12, 2.0382491072723496e-07, 1.4893528034118364e-12, 2.822803253366146e-07, -3.922358615682242e-08, 3.3368340268680186e-07, -8.654088730353227e-12, 8.5224006671214e-12, -5.9402968655142274e-12, -8.68879707766057e-12, -6.062142432483597e-08, -7.448331729165147e-08, -1.8430110060307925e-07, -1.2745076695408475e-11, 7.553769242052422e-12, 8.269868297106076e-12, -7.928076861674072e-09], [-5.894480216428466e-12, 1.109012100902751e-11, -8.535130067988117e-12, -9.324278328615154e-12, -3.5259219544059306e-08, 9.176049677039888e-12, -9.034795481199787e-12, -3.4195905655731718e-12, 1.3827434486302081e-07, -6.589641543541802e-08, 2.6215388970740605e-07, -2.231111153605525e-07, -9.397849685954807e-12, -2.1326322041659296e-07, 1.0520872367747458e-11, -9.019554200739854e-12, 1.7072983382604434e-07, 1.8951333558003824e-12, 2.321830834262073e-07, -3.723902253227607e-08, 2.861260668396426e-07, -9.403080744596615e-12, 9.299278361241115e-12, -5.8187491283612225e-12, -9.430874484128715e-12, -5.537620495488227e-08, -5.485749454692268e-08, -1.9261497641309688e-07, -1.3386036203100193e-11, 8.584667698929849e-12, 9.104903463119651e-12, -2.2109306385686978e-08], [-1.791764771041926e-05, 1.495487867941847e-05, -1.4782889593334403e-05, -1.5988131053745747e-05, -0.12071168422698975, 1.5857234757277183e-05, -1.570714812260121e-05, -5.931467512709787e-06, 0.009950860403478146, -0.010740409605205059, -0.053805623203516006, 0.1466345638036728, -1.6021838746382855e-05, 0.09727761894464493, 1.581742071721237e-05, -1.569562664371915e-05, 0.005173261743038893, 1.8955706764245406e-05, -0.14047518372535706, -0.03743439167737961, -0.0869901031255722, -1.60233503265772e-05, 1.596161200723145e-05, 1.2993928066862281e-05, -1.6036336091929115e-05, 0.009913107380270958, 0.09319967776536942, 0.020088575780391693, 4.1554517338227015e-06, 1.4880585695209447e-05, 1.5790637917234562e-05, 0.07508683949708939], [-9.343200702005561e-08, 9.680051960003766e-08, -7.810736235569493e-08, -8.325694977884268e-08, -0.0003987570817116648, 8.243875981861493e-08, -8.164374065700031e-08, 1.0025983954164985e-07, 5.559731653193012e-05, -2.9374721179920016e-06, 1.9101216821582057e-06, -0.00019431649707257748, -8.34144771033607e-08, -0.00016609679732937366, 8.902040349312301e-08, -8.158906439348357e-08, 7.302499579964206e-05, 2.474514531058958e-07, -1.5824913646156347e-07, 0.00028613387257792056, -0.00012883271847385913, -8.345270430254459e-08, 8.304559173666348e-08, 1.6138508840413124e-07, -8.351748448376384e-08, 0.00020234407566022128, -7.982477654877584e-06, 0.0002482628624420613, 1.147841715010145e-07, 7.835696180791274e-08, 8.209993751506772e-08, 5.9547430282691494e-05], [8.773586301913383e-09, -2.672320587038257e-09, -4.646920714890257e-08, -2.9244864307997886e-08, 0.0004774798289872706, 3.234681145158902e-08, -3.516146662718711e-08, -8.47788683699946e-08, -6.949776434339583e-05, 6.220488103281241e-06, -2.0373370716697536e-05, 0.00022270448971539736, -2.828412171140826e-08, 0.00013550004223361611, 1.038462471569801e-08, -3.536399262316081e-08, -6.01127503614407e-05, -1.7279958797189465e-07, -4.83025360153988e-05, -0.00037213333416730165, 0.0001943873066920787, -2.819017730359974e-08, 2.994334025174794e-08, -8.439090493084223e-08, -2.7804626157035273e-08, -0.00016501078789588064, 0.00011950292537221685, -0.00032975393696688116, -7.93340717564206e-08, 4.55495303697262e-08, 3.3630573881282544e-08, 1.7672386093181558e-05], [-7.062803319968225e-08, 6.460887647108393e-08, -5.083450815845936e-08, -5.3825164769705225e-08, -0.0006771567277610302, 5.3335604377480195e-08, -5.286534232595841e-08, 1.4456821872954606e-07, 0.00012628440163098276, 1.5695733281972934e-06, 6.53912138659507e-06, -0.00029934290796518326, -5.3857181825378575e-08, -0.00019142615201417357, 5.743353881371149e-08, -5.2847553888568655e-08, 0.00010387386282673106, 3.015379377302452e-07, 4.2634936107788235e-05, 0.0004920036881230772, -0.00024341308744624257, -5.388729817923377e-08, 5.367948219259233e-08, 1.647049003850043e-07, -5.3901345609119744e-08, 0.0001902423973660916, -0.00018470660143066198, 0.00044518138747662306, 1.772763056351323e-07, 5.093618682394663e-08, 5.314570117320727e-08, -3.6922072467859834e-05], [-5.115207102335262e-08, 4.3719396103369945e-08, -1.6745147490837553e-08, -2.512222607720105e-08, -0.0005917836097069085, 2.3656136605154643e-08, -2.2305744806772054e-08, 1.2420754558206681e-07, 0.00010324153845431283, -1.5875930330366828e-06, 1.1400808034522925e-05, -0.0002701980993151665, -2.5497318034695127e-08, -0.00017131795175373554, 3.438779927478208e-08, -2.2218550554953254e-08, 8.738852193346247e-05, 2.5764748556866834e-07, 4.075859033036977e-05, 0.0004423318605404347, -0.00022198828810360283, -2.5551811333457408e-08, 2.4769400752688853e-08, 1.4183800089995202e-07, -2.5703416284272862e-08, 0.00017963982827495784, -0.00015287913265638053, 0.0003947374352719635, 1.4726099095696554e-07, 1.7159031528990454e-08, 2.3056680120703277e-08, -2.421009230602067e-05], [7.041763456072658e-05, -4.884759255219251e-05, 0.00010200739052379504, 8.449769666185603e-05, 0.3386651277542114, -8.790671563474461e-05, 9.088686056202278e-05, 5.282872371026315e-05, 0.04327547550201416, 0.09662466496229172, 0.14472557604312897, -0.2551560401916504, 8.324684313265607e-05, 0.009403595700860023, -6.146234954940155e-05, 9.111349936574697e-05, -0.014735444448888302, 3.401224603294395e-05, 0.04089100658893585, 0.1776093691587448, 0.10608697682619095, 8.31672441563569e-05, -8.522788994014263e-05, -9.544909516989719e-06, 8.267100929515436e-05, 0.0019571431912481785, -0.35668033361434937, 0.8504083752632141, 3.953778286813758e-05, -0.00010106328409165144, -8.930795593187213e-05, 0.3468821048736572], [5.4956437622877274e-08, -4.768693884216191e-08, 2.3117346259482474e-08, 3.051465924386321e-08, 0.000607068242970854, -2.9227047448898702e-08, 2.8037238308797896e-08, -1.2819319294976594e-07, -0.00010722756996983662, 9.885796998787555e-07, -1.0675425073713996e-05, 0.0002756958419922739, 3.0826758035118473e-08, 0.00017545277660246938, -3.874564313832707e-08, 2.7962725468455574e-08, -9.02371684787795e-05, -2.6620887183526065e-07, -4.112755414098501e-05, -0.00045150521327741444, 0.00022610211453866214, 3.087678734914334e-08, -3.019965788553236e-08, -1.4661569025520294e-07, 3.100314671655724e-08, -0.00018161043408326805, 0.0001582792028784752, -0.00040365723543800414, -1.5335503178448562e-07, -2.3474536092749076e-08, -2.8702382692813444e-08, 2.6153136786888354e-05], [-5.836016114812992e-08, 5.1257821098715795e-08, -2.8857320089059613e-08, -3.53714852963094e-08, -0.0006209046114236116, 3.424448991040663e-08, -3.31993348368087e-08, 1.3167367285404907e-07, 0.00011088929022662342, -5.371741735871183e-07, 9.98659470496932e-06, -0.0002805441617965698, -3.5626815275691115e-08, -0.00017905139247886837, 4.266982145395559e-08, -3.313624930001424e-08, 9.290181333199143e-05, 2.737414774856006e-07, 4.143543264945038e-05, 0.0004596685466822237, -0.00022980727953836322, -3.567280160154951e-08, 3.509038748461535e-08, 1.5074199666287313e-07, -3.577646268126955e-08, 0.00018338527297601104, -0.000163160206284374, 0.0004117728676646948, 1.5862937630117813e-07, 2.9163469861259728e-08, 3.37872059219535e-08, -2.7979176593362354e-05], [1.377488256792958e-08, 1.2884463274076552e-08, 1.2501229385009083e-08, 3.48266926408769e-09, 0.000135142428916879, -5.245850864810109e-09, 6.805444208168865e-09, -9.488881147490247e-08, 3.479828228591941e-05, -8.290368896268774e-06, -3.226297121727839e-05, -7.491262294934131e-06, 2.831208822939857e-09, 2.265984221594408e-05, 7.806177038105488e-09, 6.943081221066905e-09, 2.0793397197849117e-05, -1.8127116163668688e-07, -7.057622860884294e-05, -3.3701089705573395e-05, 5.522976061911322e-05, 2.787112540758585e-09, -3.85811116387913e-09, -1.4334845843677613e-07, 2.5300506134584566e-09, 4.210519909975119e-05, 9.325692371930927e-05, -4.190953040961176e-05, -2.2394344512122188e-07, -1.2023831708063426e-08, -5.979927220067793e-09, 5.087063618702814e-05], [4.1541810787748545e-05, -3.9732069126330316e-05, 4.649642505683005e-05, 4.5031585614196956e-05, 0.12096081674098969, -4.538712164503522e-05, 4.568205986288376e-05, 2.3374490410787985e-05, 0.36458051204681396, 0.08106750249862671, 0.00040850654477253556, 0.01009658258408308, 4.486265970626846e-05, 0.1392478495836258, -4.182616976322606e-05, 4.570358578348532e-05, -0.04817609116435051, 1.1265922694292385e-05, 0.010097146034240723, -0.033263832330703735, -0.06741698086261749, 4.485229874262586e-05, -4.509358404902741e-05, -3.147300276395981e-06, 4.4790900574298576e-05, 0.02499471791088581, -0.011443673633038998, -0.20219488441944122, 1.4510270375467371e-05, -4.641487976186909e-05, -4.553169492282905e-05, 0.07529868185520172], [7.794099474267568e-06, 2.6531615731073543e-06, 1.7053918782039545e-05, 7.378312147920951e-06, -0.06370238959789276, -8.885222996468656e-06, 1.0353533980378415e-05, -3.402155198273249e-05, -0.05496510863304138, 0.24431760609149933, 0.033751390874385834, 0.00033745099790394306, 6.838331046310486e-06, -0.0995749905705452, -3.579411895771045e-07, 1.0465483683219645e-05, 0.07335971295833588, -2.0134320948272943e-05, -0.1149754747748375, 0.005991773679852486, 0.021521545946598053, 6.805693374190014e-06, -7.675678716623224e-06, -3.364250369486399e-05, 6.599035259569064e-06, -0.3179808557033539, -0.14209511876106262, 0.09021787345409393, -3.745004505617544e-05, -1.6391448298236355e-05, -9.559288628224749e-06, 0.06227388605475426], [-0.0002169639483327046, 0.00022522592917084694, -0.0002765276003628969, -0.0002579120919108391, 0.025492703542113304, 0.0002615117991808802, -0.00026466924464330077, 3.5820929042529315e-05, 0.03044304810464382, 0.12400342524051666, 0.21173064410686493, -0.14617818593978882, -0.0002566747716628015, -0.18429315090179443, 0.00023637396225240082, -0.0002649098460096866, 0.19309471547603607, 0.0001439743209630251, 0.09436101466417313, 0.06263219565153122, 0.25359728932380676, -0.00025658911908976734, 0.00025870019453577697, 0.0001833028218243271, -0.00025608387659303844, -0.1783294677734375, -0.41757673025131226, 0.05580781027674675, 3.364878648426384e-05, 0.0002755515743046999, 0.0002629886439535767, 0.09248920530080795], [0.00024402486451435834, -0.00038454943569377065, 0.0005604390171356499, 0.0004839103203266859, 0.08676374703645706, -0.0004975944175384939, 0.0005099453846924007, -0.000122168697998859, -0.18197228014469147, 0.14352336525917053, -0.19130250811576843, 0.013097411952912807, 0.0004792965773958713, 0.0597069077193737, -0.0004109043802600354, 0.0005108607583679259, -0.00046848825877532363, -0.000247504300205037, -0.21320262551307678, 0.2333921194076538, -0.15565858781337738, 0.00047898065531626344, -0.0004868765827268362, -0.00016136265185195953, 0.0004771000531036407, -0.47408556938171387, 0.41433200240135193, -0.0032688702922314405, -3.5979028325527906e-05, -0.0005559882847592235, -0.0005033325869590044, -0.14774423837661743], [-4.9936691226548646e-08, 4.249052310001389e-08, -1.473353972158975e-08, -2.3430647644318014e-08, -0.0005865361890755594, 2.1906192415599435e-08, -2.0503284403616817e-08, 1.22741681707339e-07, 0.00010197700612479821, -1.7570425825397251e-06, 1.1588961569941603e-05, -0.0002682887716218829, -2.382651231869204e-08, -0.00016968086129054427, 3.3034769586492985e-08, -2.0412031176419987e-08, 8.633119432488456e-05, 2.5459095809310384e-07, 4.063676169607788e-05, 0.00043922316399402916, -0.00022048070968594402, -2.38823663067933e-08, 2.3065313214942762e-08, 1.4007132165261282e-07, -2.404254217935886e-08, 0.00017902397667057812, -0.00015131795953493565, 0.0003917163994628936, 1.449489133165116e-07, 1.516599290596332e-08, 2.1282287931967403e-08, -2.3824266463634558e-05], [7.275244570337236e-05, -3.182368527632207e-05, 1.5673261799520333e-08, 1.6178562873392366e-05, -0.33503252267837524, -1.3530440810427535e-05, 1.1063718375226017e-05, -9.093318112718407e-06, -0.042229097336530685, -0.21594388782978058, -0.1168343648314476, 0.2014634609222412, 1.7048301742761396e-05, 0.24261808395385742, -2.8834225304308347e-05, 1.0871126505662687e-05, -0.10618899762630463, -1.6628537196083926e-06, -0.02642524056136608, 0.0656830221414566, -0.1308174580335617, 1.710342439764645e-05, -1.5607536624884233e-05, -4.014496153104119e-05, 1.7455276974942535e-05, 0.015262547880411148, -0.3768760561943054, 0.8492527604103088, 2.0174442397546954e-05, -1.0614834309308208e-06, -1.2392187272780575e-05, -0.1651017814874649], [2.7812582459318946e-08, -2.0744924000837273e-08, -2.0009558454603393e-08, -6.056872781101674e-09, 0.0005092315841466188, 8.546005680898361e-09, -1.0814249051804836e-08, -9.81369012720279e-08, -8.076868107309565e-05, 4.931344392389292e-06, -1.5945035556796938e-05, 0.00023777478781994432, -5.317293272355528e-09, 0.00014627665223088115, -9.169434989075853e-09, -1.0974212649728088e-08, -6.995996955083683e-05, -2.0307452075485344e-07, -4.27199702244252e-05, -0.00039131802623160183, 0.00020103952556382865, -5.237864364460165e-09, 6.6261387487998036e-09, -1.0758571278302043e-07, -4.940384989993163e-09, -0.000169821287272498, 0.00012731530296150595, -0.00034795072861015797, -1.0409629425112144e-07, 1.927477200069916e-08, 9.573925652262005e-09, 1.841520133893937e-05], [-5.8610361008959444e-08, 5.153161808379991e-08, -2.9308168336683593e-08, -3.5749522453443205e-08, -0.0006219520000740886, 3.463594211439158e-08, -3.3602614024630384e-08, 1.3195061399073893e-07, 0.00011113698565168306, -5.198782560000836e-07, 9.936761671269778e-06, -0.0002809156430885196, -3.600032627559813e-08, -0.00017933222989086062, 4.297219646787198e-08, -3.354035982283676e-08, 9.31273607420735e-05, 2.743235540947353e-07, 4.145387720200233e-05, 0.00046026258496567607, -0.00023007826530374587, -3.604607101692636e-08, 3.54711318095724e-08, 1.5105884187960328e-07, -3.614770349713581e-08, 0.00018352759070694447, -0.0001635001681279391, 0.00041237767436541617, 1.5903802363936848e-07, 2.961007794510806e-08, 3.41839800910293e-08, -2.8108101105317473e-05], [0.00019247166346758604, -0.0001687136391410604, 0.00019888619135599583, 0.0001847460662247613, -0.10937640070915222, -0.00018718191131483763, 0.00018947452190332115, -4.501913645071909e-05, -0.017946654930710793, -0.04374678432941437, 0.15552300214767456, -0.2006482630968094, 0.00018395864753983915, -0.0124452980235219, -0.0001737947022775188, 0.00018966200877912343, 0.22166258096694946, -0.00012352803605608642, 0.07723194360733032, 0.029883049428462982, 0.18376994132995605, 0.00018390631885267794, -0.0001852703426266089, -0.0001440241903765127, 0.00018358514353167266, -0.08193604648113251, 0.026217132806777954, -0.0032415210735052824, -1.593016531842295e-05, -0.00019811297534033656, -0.00018823986465577036, -0.019225994125008583], [-8.163776499259257e-08, 8.69383995905082e-08, -9.304282855282509e-08, -9.431219893940579e-08, 0.0003660833172034472, 9.415665402912055e-08, -9.401911427175946e-08, -2.0876638018307858e-07, 5.088028046884574e-05, -4.301910848880652e-06, -4.0602535591460764e-05, 0.00013839418534189463, -9.436887893343737e-08, 0.0001393281709169969, 9.30812191768382e-08, -9.397350453355102e-08, -2.5966484827222303e-05, -3.988835999280127e-07, -8.543657168047503e-05, -0.0002076066448353231, 0.00015001605788711458, -9.435512282607306e-08, 9.426462810324665e-08, -2.544205131016497e-07, -9.43962064070547e-08, -9.90561384242028e-05, 5.2458086429396644e-05, -0.00018127479415852576, -3.809118709341419e-07, 9.315427718092906e-08, 9.408022805246219e-08, 3.0854887882014737e-05], [-1.1502185770950746e-05, -1.4049584933673032e-05, -2.766675424936693e-05, -1.665410127316136e-05, 0.04951262101531029, 1.898318441817537e-05, -2.0953155399183743e-05, 4.237880784785375e-05, 0.14257755875587463, 0.03842616453766823, 0.031078722327947617, 0.0497596338391304, -1.584152596478816e-05, 0.0400473028421402, -1.3480442930813297e-06, -2.109998786181677e-05, -0.06438582390546799, 2.045160363195464e-05, 0.36248940229415894, -0.058453865349292755, 0.11223187297582626, -1.5791525584063493e-05, 1.7181515431730077e-05, 9.579189645592123e-05, -1.545257146062795e-05, 0.1720760613679886, -0.00010769246728159487, -0.08785906434059143, 0.00011164898023707792, 2.717426286835689e-05, 1.9909390175598674e-05, 0.056582748889923096], [-8.938957034843042e-05, 0.00022608708241023123, -0.0003185778623446822, -0.0002735489106271416, 0.0010845186188817024, 0.000281370768789202, -0.00028838517027907073, 0.00013039518671575934, 0.0842907652258873, -0.13167643547058105, 0.011616797186434269, -0.1398903727531433, -0.00027114481781609356, -0.09875155240297318, 0.000235660481848754, -0.00028888974338769913, -0.13359752297401428, 0.000197650893824175, -0.044173695147037506, -0.04831516742706299, -0.3231838643550873, -0.0002709744730964303, 0.0002753330918494612, 0.00011482054105727002, -0.0002699490578379482, 0.08198703080415726, -0.728533923625946, -0.19700993597507477, 1.4591731996915769e-05, 0.0003159418411087245, 0.0002846158167812973, 0.31351983547210693], [0.00031251012114807963, -0.00031442829640582204, 0.00031104404479265213, 0.0003191727155353874, 0.04164807125926018, -0.00031839319854043424, 0.0003174841986037791, 0.00010956764890579507, 0.2964233458042145, 0.13775630295276642, 0.006259463261812925, -0.13748081028461456, 0.0003192572621628642, 0.12846709787845612, -0.00031826156191527843, 0.0003174010489601642, 0.13251346349716187, -4.114400871912949e-05, 0.07207485288381577, 0.2254078984260559, 0.08774220943450928, 0.00031926610972732306, -0.000318963109748438, -0.00011437079956522211, 0.00031931791454553604, -0.4190536439418793, 0.17360138893127441, -0.020448120310902596, 0.0001720530417514965, -0.0003116595617029816, -0.00031801784643903375, -0.0535176545381546], [-4.9850353178726436e-08, 4.240192907900564e-08, -1.4603647180422286e-08, -2.331766602026164e-08, -0.0005861871759407222, 2.1790109272501468e-08, -2.038456337061234e-08, 1.2266551152606553e-07, 0.000101879944850225, -1.7724812551023206e-06, 1.160421106760623e-05, -0.0002681635378394276, -2.3714678221153918e-08, -0.00016958072956185788, 3.29396456777431e-08, -2.0293025926321206e-08, 8.627457282273099e-05, 2.544148287597636e-07, 4.062817242811434e-05, 0.00043900529271923006, -0.00022037602320779115, -2.3770574841819325e-08, 2.295161039000959e-08, 1.399804432367091e-07, -2.3931068682259138e-08, 0.00017897944780997932, -0.00015119899762794375, 0.00039151275996118784, 1.4484042765161576e-07, 1.5037358025438152e-08, 2.1165050156923826e-08, -2.379191391810309e-05], [5.199805386268963e-08, -4.461130131971913e-08, 1.81752746186703e-08, 2.6333271563316885e-08, 0.0005950650665909052, -2.4906814388714338e-08, 2.359249329231261e-08, -1.2506070845574868e-07, -0.00010412270785309374, 1.4463768138739397e-06, -1.1225007256143726e-05, 0.0002713939466048032, 2.6694248589365088e-08, 0.0001721388689475134, -3.5367804684938164e-08, 2.350814476415053e-08, -8.797199552645907e-05, -2.594975114789122e-07, -4.083355815964751e-05, -0.0004443352809175849, 0.00022281012206804007, 2.674770804844684e-08, -2.5988693863610024e-08, -1.4286973737398512e-07, 2.689371925157502e-08, -0.00018009248015005141, 0.00015413822256959975, -0.00039664734504185617, -1.4856212260383472e-07, -1.8576415072857344e-08, -2.4324323888436084e-08, 2.4711676815059036e-05], [5.150446469315284e-08, -4.117981333706666e-08, 7.941076773931854e-08, 6.171303823521157e-08, 0.0003079308371525258, -6.502177996026148e-08, 6.794364537654474e-08, -2.3717302610748447e-07, 5.412650716607459e-05, -8.264521056844387e-06, -3.280573946540244e-05, 0.0001622548297746107, 6.051195811096477e-08, 0.00018036915571428835, -4.3895184376196994e-08, 6.819864495355432e-08, -4.621245534508489e-05, -4.883229962615587e-07, -3.489674782031216e-05, -0.000168248254340142, 0.00011689370876410976, 6.045342360039285e-08, -6.24265581450345e-08, -3.691411336603778e-07, 5.995758556309738e-08, -0.00015221592911984771, -1.3058976037427783e-05, -0.0001522206439403817, -4.489378113703424e-07, -7.839517479624192e-08, -6.640750882525026e-08, 8.616244485892821e-06], [-4.935589004162466e-08, 4.189675806287596e-08, -1.3773020945961889e-08, -2.2620223916192117e-08, -0.0005840751109644771, 2.106848207006351e-08, -1.9640953752286805e-08, 1.220699203940967e-07, 0.00010135539923794568, -1.860439056144969e-06, 1.1689091479638591e-05, -0.0002673873968888074, -2.30255725597317e-08, -0.00016895031149033457, 3.238259793647558e-08, -1.9547920615536896e-08, 8.586612239014357e-05, 2.5317734753116383e-07, 4.058156264363788e-05, 0.000437741371570155, -0.00021979573648422956, -2.308234492431893e-08, 2.2249299291843272e-08, 1.3927096631505265e-07, -2.3246339964089202e-08, 0.00017872764146886766, -0.00015051386435516179, 0.0003902892640326172, 1.439070587139213e-07, 1.4214375454457695e-08, 2.0433086334037398e-08, -2.3582017092849128e-05], [-6.570186815224588e-05, 6.094162381486967e-05, -7.504179666284472e-05, -6.969405512791127e-05, 0.045954689383506775, 7.073368760757148e-05, -7.16636932338588e-05, 4.934373691867222e-07, -0.03870823234319687, 0.009531932882964611, -0.00845192838460207, 0.1240398958325386, -6.930767267476767e-05, 0.031865812838077545, 6.36396071058698e-05, -7.17359798727557e-05, -0.037533681839704514, 4.3801490392070264e-05, -0.003921571187674999, -0.018192673102021217, 0.19189949333667755, -6.928259244887158e-05, 6.990776455495507e-05, 5.015730857849121e-05, -6.913198012625799e-05, 0.4696182310581207, 0.07217347621917725, 0.09148772805929184, 1.1781643479480408e-05, 7.47573867556639e-05, 7.117264613043517e-05, -0.0654771625995636], [0.00011765085946535692, -0.0001864638616098091, 0.0002185654448112473, 0.00020339811453595757, 0.05721588060259819, -0.00020631038933061063, 0.0002088573237415403, -7.214472134364769e-05, 0.21903981268405914, -0.3467395007610321, 0.012040055356919765, -0.4472491443157196, 0.0002024779241764918, 0.20229187607765198, -0.0001894708548206836, 0.00020902647520415485, -0.3257017433643341, -0.0001326331403106451, -0.00857577659189701, 0.8980105519294739, -0.5884753465652466, 0.00020240398589521646, -0.000204057214432396, -7.212834316305816e-05, 0.00020201959705445915, 0.4600440263748169, 0.12168951332569122, -0.2107357531785965, 2.851261706382502e-05, -0.00021780593669973314, -0.00020750283147208393, 0.22882379591464996], [0.0001053665328072384, -5.758291081292555e-05, 9.879419667413458e-05, 8.36707913549617e-05, -0.31014135479927063, -8.644404442748055e-05, 8.895887731341645e-05, 3.819623088929802e-05, -0.21026770770549774, 0.22871308028697968, 0.5189279317855835, 0.5946681499481201, 8.261247421614826e-05, -0.28251883387565613, -6.607593968510628e-05, 8.91594318090938e-05, 0.2368144392967224, -5.793369564344175e-05, -0.21452997624874115, -0.0335114449262619, 0.2599842846393585, 8.255131979240105e-05, -8.423619874520227e-05, -9.501186286797747e-05, 8.214272384066135e-05, -0.5160536766052246, -1.7012141942977905, 0.29254430532455444, -0.0001100864028558135, -9.790506010176614e-05, -8.762606012169272e-05, 1.015871524810791], [1.2193426357498538e-07, -1.2387124570523156e-07, 2.2608503513765754e-07, 1.8422792891215067e-07, 0.00016396900173276663, -1.9194294509361498e-07, 1.98838051801431e-07, -2.119693078839191e-07, 4.637818710762076e-05, -6.4798141465871595e-06, 1.1889329471159726e-05, 5.775211320724338e-05, 1.8156251258005796e-07, 0.00014164588355924934, -1.4029726003172982e-07, 1.99387628185832e-07, -3.240228397771716e-05, -4.789642957803153e-07, 1.9360111764399335e-05, 3.2657524570822716e-05, -2.188796997870668e-06, 1.8137815516183764e-07, -1.8590300498999568e-07, -3.651845759122807e-07, 1.8029878390279919e-07, -6.0769281844841316e-05, -6.823549483669922e-05, 1.893993976409547e-05, -4.5312529550756153e-07, -2.237329539411803e-07, -1.9515996996233298e-07, -2.2481201085611247e-05], [6.978448396921522e-08, -6.367741889334866e-08, 4.920807228359081e-08, 5.2484605106428717e-08, 0.0006722022080793977, -5.1943509049579006e-08, 5.142677039771115e-08, -1.4345206977850467e-07, -0.00012496431008912623, -1.4098181964072865e-06, -6.818903329985915e-06, 0.000297722959658131, 5.2534726791009234e-08, 0.00019030530529562384, -5.6390078384538356e-08, 5.140538661407845e-08, -0.00010287886107107624, -2.992360350617673e-07, -4.251493373885751e-05, -0.0004892036085948348, 0.00024219970509875566, 5.256615764892558e-08, -5.232806188359973e-08, -1.6361832422262523e-07, 5.2587207477472475e-08, -0.00018974208796862513, 0.00018284653197042644, -0.00044221009011380374, -1.7567575127941382e-07, -4.93262710676845e-08, -5.1732218508959704e-08, 3.6204841308062896e-05], [5.6510508272822335e-08, -4.931528252427597e-08, 2.5750823695602776e-08, 3.273832405170651e-08, 0.0006135037983767688, -3.152505811954143e-08, 3.0402294015630105e-08, -1.2984396846604795e-07, -0.00010890961857512593, 7.797099215167691e-07, -1.0370930795033928e-05, 0.00027797327493317425, 3.302388762449482e-08, 0.0001771804818417877, -4.05366833433618e-08, 3.0333342948551945e-08, -9.1477733803913e-05, -2.697437935239577e-07, -4.127767897443846e-05, -0.00045530879287980497, 0.00022785137116443366, 3.3072119265398214e-08, -3.243867752189544e-08, -1.4856523478101735e-07, 3.318803720731012e-08, -0.00018242905207443982, 0.00016051437705755234, -0.00040742766577750444, -1.558641145038564e-07, -2.6084423510042143e-08, -3.1031767377953656e-08, 2.696795309020672e-05], [-0.00032109697349369526, 0.0002938034594990313, -0.0003920181770808995, -0.00035563833080232143, -0.21867655217647552, 0.0003625378885772079, -0.00036869163159281015, -3.125415969407186e-05, -0.10703062266111374, 0.1260499358177185, 0.5678813457489014, 0.4731079936027527, -0.0003530005633365363, -0.020966829732060432, 0.00031275980290956795, -0.0003691748424898833, -0.03758661821484566, 0.00020433698955457658, -0.05239201337099075, 0.32211068272590637, 0.021394114941358566, -0.00035283295437693596, 0.0003570438420865685, 0.00024497631238773465, -0.0003518091107252985, -0.2850897014141083, -0.908471405506134, -0.2950555384159088, 0.00013638573000207543, 0.0003898899012710899, 0.0003654472529888153, 0.999262273311615], [3.2331990817285883e-12, -7.34386130466641e-13, 4.1829764478584774e-12, 2.9876847523757633e-12, -9.855875759967603e-08, -3.2096760145539083e-12, 3.411895982755042e-12, -3.3548871688528215e-13, 5.7834419919799984e-08, 2.903118812014327e-08, 6.219772785698297e-08, -3.2647360370674505e-08, 2.8958038224280447e-12, -1.0313072351664232e-07, -1.4786572574004841e-12, 3.4294221108732703e-12, 1.6541685354809488e-08, 3.701131415234649e-12, 2.735707127499154e-08, -6.9975198968563745e-09, 6.955377074291391e-08, 2.8892532897423218e-12, -3.030265708497959e-12, -5.558721343466855e-13, 2.854598718862733e-12, -4.5097273471128574e-08, -5.32836308408946e-09, -1.274642897897138e-07, -2.628264142781611e-12, -4.1101180618674515e-12, -3.3063608274874756e-12, 7.925456735335956e-09], [-7.21633213254802e-12, 1.3071719054402742e-11, -1.6546514158832792e-11, -1.4858331578992967e-11, -9.341379580973808e-08, 1.5156109006708718e-11, -1.542043055746678e-11, 4.367482504125109e-12, 1.1552948109283534e-07, 1.244347771489629e-07, 6.536126306855294e-08, 5.181536266718467e-08, -1.4780267287850535e-11, -1.703107272987836e-07, 1.3532784268188713e-11, -1.5437793404737832e-11, -5.964668048363819e-08, 1.3586484368111051e-11, 1.5763788496769848e-08, -1.903260837821108e-08, 3.2686134687764934e-08, -1.4775042300740893e-11, 1.493130792618036e-11, 8.750343331864752e-12, -1.4740300993687505e-11, -5.572505301643105e-08, -5.567498018166361e-09, -1.8292136871878029e-07, 3.1260311179892586e-12, 1.645778305303658e-11, 1.5275341755383032e-11, -2.0424982594136054e-08], [-1.431618105313115e-11, 1.9086215247154925e-11, -2.80223361875942e-11, -2.4261316913798403e-11, -1.817972261619616e-08, 2.4948834664861863e-11, -2.55567927931466e-11, 1.0754556099834556e-11, 1.9859318456383335e-07, 2.215928134319256e-07, 1.589741032148595e-07, 1.1732630156302548e-07, -2.405509298697428e-11, -2.0077409601526597e-07, 2.0690173532789125e-11, -2.559989373263072e-11, -1.3088850892017945e-07, 2.813550781244345e-11, 6.337020153068806e-08, -1.8458345962812928e-08, 3.056799258160936e-08, -2.404365422037369e-11, 2.4421858632606153e-11, 2.5220931246239253e-11, -2.395705508972945e-11, -8.397780248969866e-08, -6.465089796847678e-08, -1.7954636177819339e-07, 2.3559867598499373e-11, 2.7826010592924e-11, 2.5226877878314902e-11, 1.9999177425233938e-08], [-1.1047116346696306e-11, 1.6426887627929432e-11, -2.2660952975206428e-11, -1.992275615314565e-11, -5.720047369095482e-08, 2.0418241750141952e-11, -2.085655953498744e-11, 7.7087017325006e-12, 1.6276176495466643e-07, 1.755427092575701e-07, 1.195654988350725e-07, 8.115671334962826e-08, -1.9780422091941752e-11, -1.9091910985480354e-07, 1.7465019014339944e-11, -2.0886859949942327e-11, -9.511910548098967e-08, 2.164547013849827e-11, 4.753465887574748e-08, -2.0979317838509814e-08, 3.847036111892521e-08, -1.9772060724787544e-11, 2.004038601732816e-11, 1.7443248234716435e-11, -1.971123958499632e-11, -7.208355867760474e-08, -3.631735268072589e-08, -1.8540492874308256e-07, 1.3865644743482619e-11, 2.2518056863596314e-11, 2.0617752297114045e-11, -3.307907836536117e-10], [-1.0976540579576977e-05, 2.268511161673814e-05, -5.613790563074872e-06, -1.0853971616597846e-05, 0.04259996488690376, 9.782609595276881e-06, -8.852858627506066e-06, 3.3441003324696794e-05, 0.07415047287940979, 0.12899167835712433, 0.12586760520935059, -0.11499037593603134, -1.1314283256069757e-05, -0.12197721004486084, 1.903701740957331e-05, -8.781745236774441e-06, -0.03676854074001312, 1.4359473425429314e-05, 1.0180513072555186e-06, 0.02922378107905388, -0.007351752836257219, -1.1339868251525331e-05, 1.0646297596395016e-05, 5.322381184669212e-07, -1.1513327081047464e-05, 0.02414887771010399, 0.014297678135335445, 0.06663817167282104, -1.699780477792956e-05, 5.921562205912778e-06, 9.337540177511983e-06, 0.12538878619670868], [-1.1571966475332207e-11, 1.6861151364011562e-11, -2.3527305104131813e-11, -2.062543365266567e-11, -5.1439553061527477e-08, 2.1151658549656283e-11, -2.1617161186093803e-11, 8.217425004342083e-12, 1.6924481371916045e-07, 1.8348369223986083e-07, 1.263833837583661e-07, 8.699272768808441e-08, -2.047294625495688e-11, -1.9320923172472249e-07, 1.7989994910427853e-11, -2.164951377892077e-11, -1.0115520865383587e-07, 2.275137023222129e-11, 5.0647358307287504e-08, -2.0761740771035875e-08, 3.7596791457872314e-08, -2.0464106104123303e-11, 2.0749983328793853e-11, 1.872913109324248e-11, -2.0399161526629683e-11, -7.422914194421537e-08, -4.095176109331078e-08, -1.8529200929151557e-07, 1.5472914616232458e-11, 2.337587588774337e-11, 2.1363728494594447e-11, 2.747933658397983e-09], [-1.2049308599493269e-11, 1.7248683384374353e-11, -2.431648285505794e-11, -2.1262595850668475e-11, -4.58640698752788e-08, 2.1817408990543186e-11, -2.2308080729893653e-11, 8.687057150014166e-12, 1.751192542087665e-07, 1.9081089419614727e-07, 1.326418725966505e-07, 9.250934596138904e-08, -2.1100681965591228e-11, -1.9512626181494852e-07, 1.846194030985515e-11, -2.2342310293521628e-11, -1.0678207473802104e-07, 2.3759964482006346e-11, 5.3360864171736466e-08, -2.0465700245608787e-08, 3.660425917928478e-08, -2.10913977255478e-11, 2.139353971752911e-11, 1.9917472185437823e-11, -2.1022661042535695e-11, -7.617511954549627e-08, -4.53020412294336e-08, -1.8494212383757258e-07, 1.696669194028999e-11, 2.4157151973236424e-11, 2.2041174441156386e-11, 5.7353624072220555e-09], [-6.239654626316593e-12, 6.424406145955075e-12, -7.069350313471112e-12, -6.874120630356861e-12, -2.8413453811992895e-09, 6.9157344781412e-12, -6.951635447838278e-12, -2.6051465672194407e-12, -2.479703908875308e-08, -5.771983069280395e-08, 9.289240487930783e-09, -3.569811468651096e-08, -6.857384018260637e-12, 1.2056714737695984e-08, 6.582325830228886e-12, -6.9538433171423275e-12, 6.084152204266502e-08, 1.0527867640164335e-12, 1.3965461675979896e-08, -5.114688672591683e-09, 3.826034955523028e-08, -6.8564594106479415e-12, 6.88244730304155e-12, 2.3430610750219127e-12, -6.849981519507775e-12, -1.2114240277583121e-08, 2.0735437811225665e-09, 3.937218551186561e-09, -2.4168447191469378e-12, 7.059430297273739e-12, 6.9329823999819684e-12, 1.0426499663651612e-08], [6.572977872565389e-05, -5.378677087719552e-05, 7.246795576065779e-05, 6.485800258815289e-05, -0.11592517048120499, -6.628612754866481e-05, 6.756923539796844e-05, 1.9906923625967465e-05, -0.03793351724743843, 0.09594232589006424, -0.050396036356687546, 0.04562574252486229, 6.436455441871658e-05, 0.008199546486139297, -5.70434276596643e-05, 6.767229933757335e-05, -0.12564069032669067, -3.756203659577295e-05, -0.055699292570352554, 0.010626900009810925, -0.1212271898984909, 6.433010275941342e-05, -6.516419671243057e-05, -4.4307791540632024e-05, 6.413031223928556e-05, 0.04390043020248413, -0.024144982919096947, 0.0760892927646637, -1.6973559468169697e-05, -7.206604641396552e-05, -6.688614666927606e-05, 0.060060035437345505], [4.300644650356844e-05, -6.169173866510391e-05, 7.363003533100709e-05, 6.818502879468724e-05, 0.03444257751107216, -6.910678348504007e-05, 6.996832235017791e-05, -5.52090250494075e-06, 0.044402021914720535, 0.2758769094944, -0.024083707481622696, 0.15077351033687592, 6.787903112126514e-05, -0.029754098504781723, -6.352725176839158e-05, 7.003404607530683e-05, -0.18607115745544434, -2.4749233489274047e-05, -0.10289832949638367, 0.009909178130328655, -0.12062270194292068, 6.786019366700202e-05, -6.837855471530929e-05, -2.7287831471767277e-05, 6.773448694730178e-05, -0.053316544741392136, -0.0010041844798251987, -0.02134086564183235, 2.5658655431470834e-05, -7.330075459321961e-05, -6.95040580467321e-05, -0.07549489289522171], [1.0478902368049603e-05, -4.818052730115596e-06, -2.043928134298767e-06, 7.020954058134521e-07, -0.05033278092741966, -1.9437199227922974e-07, -2.5312931484222645e-07, -3.4476495329727186e-06, 0.0376942940056324, 0.14686961472034454, 0.004440391436219215, 0.1602136641740799, 8.761503522691783e-07, -0.10343875735998154, -3.705783910845639e-06, -2.836345629475545e-07, -0.0996541976928711, -2.12732902582502e-06, -0.08579349517822266, -0.04687923938035965, -0.061446309089660645, 8.90525484464888e-07, -5.922369155086926e-07, -1.7063648556359112e-05, 9.6074336397578e-07, -0.007315085735172033, 0.0976235494017601, -0.31385764479637146, -5.123951723362552e-06, 1.8858731891668867e-06, 1.3963421530149844e-08, -0.11043291538953781], [-1.2131694347772282e-05, -8.279484063677955e-06, 1.81542072823504e-05, 1.424713173037162e-05, 0.15517152845859528, -1.4965613445383497e-05, 1.560139389766846e-05, -3.850242865155451e-05, 0.028694922104477882, 0.29777857661247253, 0.05988730117678642, 0.14277301728725433, 1.4026244571141433e-05, 0.0034943162463605404, -1.0247929822071455e-05, 1.5643749065930024e-05, -0.2416229546070099, -1.0064283742394764e-05, -0.07000397145748138, -0.01652766950428486, -0.1028730645775795, 1.4012101928528864e-05, -1.4409901268663816e-05, -6.172754183353391e-07, 1.3914310329710133e-05, -0.02162063494324684, -0.10337401181459427, 0.11035456508398056, 3.4985987440450117e-06, -1.7938435121322982e-05, -1.5257769518939313e-05, -0.09801218658685684], [-1.0898084518151663e-11, 1.6311226674892154e-11, -2.2416802789027024e-11, -1.9727015160286854e-11, -5.892927745776433e-08, 2.0213339682606524e-11, -2.0643639575546047e-11, 7.544690566740897e-12, 1.6058091034665267e-07, 1.7290930998115073e-07, 1.172735935028868e-07, 7.932561629786505e-08, -1.9587683905419873e-11, -1.9013342011930945e-07, 1.7322039636002984e-11, -2.0673365797030385e-11, -9.31292660766303e-08, 2.1283216508627412e-11, 4.645412943204974e-08, -2.1049038068099435e-08, 3.867831210868644e-08, -1.9579433560568127e-11, 1.9842587642426857e-11, 1.7027830534477317e-11, -1.9519819788316184e-11, -7.133942858672526e-08, -3.480007393363849e-08, -1.8533567924805538e-07, 1.33339901620122e-11, 2.227640814866927e-11, 2.0409146594957406e-11, -1.363900881123925e-09], [3.708941949298605e-05, -5.144015449332073e-05, 5.283550126478076e-05, 5.289606633596122e-05, 0.14522476494312286, -5.2896502893418074e-05, 5.2897939895046875e-05, -1.8370092220720835e-05, 0.06406060606241226, 0.1967300921678543, 0.12833957374095917, 0.06329891085624695, 5.288307147566229e-05, -0.003445219714194536, -5.232411058386788e-05, 5.289725959300995e-05, -0.11613015830516815, -2.049596150754951e-05, 0.06284134835004807, -0.06288810074329376, 0.020780105143785477, 5.288448301143944e-05, -5.2891773520968854e-05, -2.084038897010032e-05, 5.287735984893516e-05, -0.04277936369180679, -0.06555463373661041, 0.038673657923936844, 1.5253163837769534e-05, -5.283965583657846e-05, -5.2897725254297256e-05, -0.07446000725030899], [-8.353552224948935e-12, 1.411900197451077e-11, -1.83247948065679e-11, -1.6356145604579098e-11, -8.325788769525388e-08, 1.6706622196771548e-11, -1.7017307701872042e-11, 5.245262123948491e-12, 1.286671960087915e-07, 1.3719785840748955e-07, 8.204781209997236e-08, 5.7230703731647736e-08, -1.6261124391458992e-11, -1.766124171354022e-07, 1.4731433087278312e-11, -1.7038105301625528e-11, -6.769268168227427e-08, 1.587710692085853e-11, 2.682266497799901e-08, -2.0288165814008607e-08, 3.690935912459281e-08, -1.6255042450952217e-11, 1.6441060318728162e-11, 1.1082123066441518e-11, -1.6213403883358346e-11, -6.042029099262436e-08, -1.379223935060736e-08, -1.8329457418531092e-07, 5.971170606577925e-12, 1.822159610698204e-11, 1.6847200717817756e-11, -1.4706761142235791e-08], [-1.2083106216975725e-11, 1.727422718755811e-11, -2.4371060725059124e-11, -2.1306286596134427e-11, -4.543091236541841e-08, 2.1863143240263838e-11, -2.2355634704540606e-11, 8.720935432138255e-12, 1.7554818043663545e-07, 1.9134230910822225e-07, 1.3311934310422657e-07, 9.290634750414029e-08, -2.114367882166679e-11, -1.9525353422977787e-07, 1.8493696157806383e-11, -2.2390034271069226e-11, -1.0719150367322072e-07, 2.383265980399063e-11, 5.357484056389694e-08, -2.0439584247355924e-08, 3.653768487765774e-08, -2.113435641770689e-11, 2.143768842999272e-11, 2.0004954290331334e-11, -2.106534564838558e-11, -7.631998499846304e-08, -4.564160605013967e-08, -1.8491320474822714e-07, 1.707867007538777e-11, 2.4211221569259145e-11, 2.2087732684528127e-11, 5.9599640778174034e-09], [4.894654921372421e-06, -3.59132332050649e-06, 5.728967607865343e-06, 5.879942818864947e-06, 0.10340762883424759, -5.888057330594165e-06, 5.8821524362429045e-06, -1.0008447134168819e-05, 0.06140931323170662, 0.19989719986915588, -0.0180598683655262, 0.16537901759147644, 5.874067028344143e-06, -0.030037572607398033, -4.997748874302488e-06, 5.884222900931491e-06, -0.24328450858592987, 6.530329756060382e-06, -0.09665378928184509, -0.013755891472101212, -0.16276443004608154, 5.872473593626637e-06, -5.88381226407364e-06, 9.752427104103845e-06, 5.870309450983768e-06, 0.05058818310499191, -0.03936540335416794, -0.05078057572245598, 7.55032715460402e-06, -5.755196980317123e-06, -5.885381142434198e-06, 0.01210799254477024], [-1.0137880986083037e-11, 5.332843108080132e-12, -1.554093659317246e-12, -3.759020872351471e-12, -6.581487355106219e-09, 3.4144165359656364e-12, -3.085980256056775e-12, -3.1214542669383283e-12, 3.577450158331885e-08, -2.5863445785034855e-07, 1.584554780720282e-07, -2.6834470645553665e-07, -3.863260839703786e-12, 6.494533355549947e-09, 5.176877589802009e-12, -3.0591382291916824e-12, 2.801087646275846e-07, 4.166166977376262e-12, 2.341929956628519e-07, -2.505587737289261e-08, 2.692791554181895e-07, -3.871630880475374e-12, 3.681604500427316e-12, 9.285776141065849e-12, -3.915149020955466e-12, -2.4340728543847945e-08, -2.2570850077840987e-08, -9.856879756853232e-09, 3.4304718354166708e-12, 1.693594917084873e-12, 3.264945822381571e-12, 2.4816863231080788e-08], [3.818978802883066e-05, -3.843700324068777e-05, 4.719702701549977e-05, 4.4114200136391446e-05, -0.016654836013913155, -4.47155543952249e-05, 4.524023097474128e-05, -1.59789760800777e-05, -8.271018305094913e-05, 0.17673112452030182, -0.054026950150728226, 0.128262460231781, 4.392202754388563e-05, 0.0023360582999885082, -4.059099592268467e-05, 4.527863347902894e-05, -0.17443370819091797, -1.2731758033623919e-05, -0.16349616646766663, 0.03538888320326805, -0.13552774488925934, 4.3909454689128324e-05, -4.425205406732857e-05, -3.340367766213603e-05, 4.382811675895937e-05, -0.004060895182192326, -0.049717746675014496, 0.02950475923717022, -1.9478498870739713e-05, -4.704610546468757e-05, -4.4959171646041796e-05, 0.02258242294192314], [1.1166977856191806e-05, -4.877259470958961e-06, 1.0432057706566411e-06, 2.6654374778445344e-06, 0.013163330033421516, -2.377367081862758e-06, 2.1264606857585022e-06, 2.0678409782703966e-05, 0.07609718292951584, 0.19649925827980042, 0.0036508047487586737, 0.14008665084838867, 2.742556034718291e-06, -0.07010918110609055, -4.19821390096331e-06, 2.109941760863876e-06, -0.18882319331169128, 1.2034869541821536e-05, -0.050073254853487015, 0.002262621419504285, -0.10230186581611633, 2.7486157705425285e-06, -2.592825012470712e-06, 1.0681796993594617e-05, 2.785476908684359e-06, 0.009267210029065609, -0.0019343096064403653, -0.031365953385829926, 2.5345085305161774e-05, -1.1302026905468665e-06, -2.2631572846876225e-06, 0.0007780291489325464], [2.5265593649237417e-05, -2.3013308236841112e-05, 3.8030921132303774e-05, 3.161437780363485e-05, 0.1350931078195572, -3.2807682146085426e-05, 3.386272874195129e-05, 1.6559548384975642e-05, 0.15232817828655243, 0.22594276070594788, 0.013846215792000294, 0.14157867431640625, 3.1225619750330225e-05, -0.04727693647146225, -2.5222265321644954e-05, 3.394509622012265e-05, -0.23654811084270477, -1.3758920431428123e-05, -0.0759178102016449, 0.016766520217061043, -0.14009498059749603, 3.119702887488529e-05, -3.188588743796572e-05, -1.015039197227452e-05, 3.103807466686703e-05, 0.006883060559630394, -0.09697096049785614, -0.0025597838684916496, 8.202464414353017e-06, -3.7698457163060084e-05, -3.3297863410552964e-05, 0.009666090831160545], [-1.0887853119090352e-11, 1.630227723647959e-11, -2.239862982589269e-11, -1.9712389706660893e-11, -5.9035496491333106e-08, 2.0198061972953596e-11, -2.062777032518781e-11, 7.53327174946028e-12, 1.6041833816871076e-07, 1.7271798924411996e-07, 1.1712300818089716e-07, 7.91892276197359e-08, -1.95732614144406e-11, -1.9006034790436388e-07, 1.7311152511467753e-11, -2.065744450496787e-11, -9.298425140968902e-08, 2.125875690761614e-11, 4.638265593825963e-08, -2.1051910437108745e-08, 3.869789466648399e-08, -1.956505270295228e-11, 1.9827806063688058e-11, 1.7000572824499294e-11, -1.950553607521499e-11, -7.128917900445231e-08, -3.469929765742563e-08, -1.8530752754486457e-07, 1.3299290488322235e-11, 2.225841906622339e-11, 2.0393598268442226e-11, -1.4194738717776545e-09], [-1.117071712908313e-11, 1.6533344138203176e-11, -2.2865492485535377e-11, -2.0090035537934092e-11, -5.5936443033033356e-08, 2.0592501662197726e-11, -2.103700026678812e-11, 7.818746518284403e-12, 1.641688953668563e-07, 1.7725085399433738e-07, 1.2103880919767107e-07, 8.241628535188283e-08, -1.9945396029230622e-11, -1.9144802365644864e-07, 1.7591910567160696e-11, -2.1067781200145852e-11, -9.64092023991725e-08, 2.1885082288064517e-11, 4.823327870440153e-08, -2.0954356472202562e-08, 3.829951822353905e-08, -1.993692363977395e-11, 2.0209233592138887e-11, 1.772162104562991e-11, -1.9875134524283133e-11, -7.253695599729326e-08, -3.7315267320536805e-08, -1.8540451662829582e-07, 1.4207987217296214e-11, 2.2720669096143453e-11, 2.0794872768181705e-11, 2.808054344605182e-10], [-1.099356630035464e-11, 6.816425895950218e-12, -3.3576973666737953e-12, -5.275986245112385e-12, -1.2856760100987685e-09, 4.976079878010742e-12, -4.690955523328766e-12, -3.969522627267352e-12, -3.4995618847233345e-08, -2.2064789106934768e-07, 1.1996915816325782e-07, -2.2860834292259824e-07, -5.367460382404987e-12, 3.038895712847989e-08, 6.565419215232016e-12, -4.666921363249976e-12, 2.420808584702172e-07, 5.623807409343984e-12, 1.6249248346866807e-07, -2.5347716814394516e-08, 2.2220964979169366e-07, -5.374408383607143e-12, 5.208544533175097e-12, 8.76680238820482e-12, -5.41256926431255e-12, -2.921369102182325e-08, -2.0283916768448762e-08, 2.996155767931441e-09, 2.132674462376749e-12, 3.479146441429104e-12, 4.846201131364358e-12, 3.3678162481010077e-08], [-1.0822097558371713e-11, 1.6249182555050368e-11, -2.2291394424778233e-11, -1.9625580674476062e-11, -5.97605875896079e-08, 2.0107375833799956e-11, -2.0533710148873396e-11, 7.46656816236202e-12, 1.5953568777149485e-07, 1.7166597388040827e-07, 1.1618499229371082e-07, 7.845817151519441e-08, -1.9487701383158473e-11, -1.897337398304444e-07, 1.724662773705532e-11, -2.0563117181238155e-11, -9.219676400107346e-08, 2.1111442455312712e-11, 4.592798319436042e-08, -2.1071365097213857e-08, 3.876530030311187e-08, -1.9479546448097906e-11, 1.9740134873935666e-11, 1.6831251670179626e-11, -1.9420560645744267e-11, -7.099157528500655e-08, -3.408502280421999e-08, -1.8529088663399307e-07, 1.3085730415918206e-11, 2.2152203682512805e-11, 2.030135434760716e-11, -1.826771622859269e-09], [1.5539397281827405e-05, -1.9275832528364845e-05, 2.5386278139194474e-05, 2.4219934857683256e-05, 0.01673242636024952, -2.4492112061125226e-05, 2.4733324607950635e-05, 3.6987567000323907e-05, 0.10421107709407806, 0.08480223268270493, 0.07605687528848648, 0.07819864153862, 2.409554144833237e-05, -0.003360426751896739, -2.140842298103962e-05, 2.4749308067839593e-05, -0.1076212003827095, 1.5549343515885994e-05, 0.00932760164141655, -0.05739274248480797, 0.026624195277690887, 2.4087463316391222e-05, -2.4275184841826558e-05, 2.8359323550830595e-05, 2.4042987206485122e-05, -0.00015636367606930435, -0.03641698509454727, 0.08468712866306305, 3.66893618775066e-05, -2.5332059522042982e-05, -2.4610524633317254e-05, -0.05648612231016159], [-3.794721851591021e-05, 3.839512646663934e-05, -5.015132774133235e-05, -4.59776128991507e-05, -0.0756862461566925, 4.680934580392204e-05, -4.753148459712975e-05, 1.0913027836068068e-05, 0.007559091784060001, 0.3461432158946991, -0.17081129550933838, 0.5541308522224426, -4.567831274471246e-05, 0.05403051897883415, 4.082965824636631e-05, -4.7586916480213404e-05, -0.3294435441493988, 3.2592215575277805e-05, -0.279697060585022, -0.03365021198987961, -0.30425330996513367, -4.565856943372637e-05, 4.615834404830821e-05, 3.448084316914901e-05, -4.5539865823229775e-05, -0.09490905702114105, 0.025309812277555466, -0.13139669597148895, 3.2892032322706655e-05, 4.993195034330711e-05, 4.7149860620265827e-05, 0.006808361504226923], [5.854780465597287e-05, -4.526324482867494e-05, 5.146698094904423e-05, 5.058720489614643e-05, 0.03172166645526886, -5.0790822569979355e-05, 5.09792662342079e-05, 3.159187326673418e-05, 0.1587657779455185, 0.28620797395706177, -0.07985305041074753, 0.0964333713054657, 5.0507303967606276e-05, 0.017314011231064796, -4.8148769565159455e-05, 5.099821282783523e-05, -0.24654679000377655, -1.1881958926096559e-05, -0.09559103101491928, 0.018217500299215317, -0.15946270525455475, 5.050155596109107e-05, -5.0628579629119486e-05, -3.0133776817820035e-05, 5.046990918344818e-05, 0.013683484867215157, 0.011274381540715694, 0.015041062608361244, -4.538443363344413e-07, -5.14563980686944e-05, -5.0876897148555145e-05, -0.0007969606667757034], [-2.4630190248453587e-11, 2.2689333051273408e-11, -2.241226822186082e-11, -2.30101354636858e-11, -2.413841748705181e-08, 2.294835155236541e-11, -2.2879859465363417e-11, -8.430128990710717e-12, -1.322986094010048e-07, -3.0319364441311336e-07, 6.195229218519671e-08, -2.3724798836610717e-07, -2.3014276248622956e-11, 