{"model_data": {"model": "SimpleRNN", "input_size": 2, "skip": 1, "output_size": 1, "unit_type": "LSTM", "num_layers": 1, "hidden_size": 32, "bias_fl": true}, "state_dict": {"rec.weight_ih_l0": [[1.944861764968664e-07, -1.195920845020737e-06], [4.5635914602826233e-07, -4.231138461818773e-07], [3.481905253011064e-07, -9.830283431710996e-08], [2.601274502467277e-07, 2.576427675649029e-07], [-0.009043700061738491, 0.15397508442401886], [1.361741936989347e-07, -4.159240660217556e-11], [4.4679475763587106e-07, -2.1466625810262485e-07], [7.073866754581104e-07, -1.5867163938310114e-06], [0.019486593082547188, -0.07940050959587097], [0.019832884892821312, 0.04426880553364754], [-0.05504696071147919, 0.2736300230026245], [0.00915902853012085, 0.0894685611128807], [1.4811003268278e-07, -1.0092386304449974e-07], [-0.0015054866671562195, 0.12316145747900009], [3.489173252546607e-07, -4.789106924363296e-07], [3.4982857499699094e-08, -4.796163466380676e-07], [-0.0219357181340456, 0.1010134294629097], [5.704000827222444e-08, -4.154501596076443e-07], [0.029953619465231895, 0.09578744322061539], [-0.030605273321270943, 0.14941701292991638], [0.010892068967223167, 0.1267825961112976], [2.635558473684796e-07, -6.831589303146757e-07], [4.624099005923199e-07, -1.111062488234893e-06], [4.04144032017939e-07, -5.813977281832194e-07], [1.249223657850962e-07, -3.6151415194751735e-09], [0.014343776740133762, -0.5038287043571472], [-0.07011685520410538, 0.39291784167289734], [0.027988111600279808, 0.3383997976779938], [1.1303069413770572e-07, -1.4663730496522476e-07], [0.03887854143977165, 0.12798789143562317], [2.653812600783567e-07, -4.821018819711753e-07], [0.05260121077299118, 0.3012343943119049], [1.7160344611966138e-07, -1.0919678743448458e-06], [4.072177262059995e-07, -4.5391971070785075e-07], [3.183159833497484e-07, -9.221854924135187e-08], [2.5298169248344493e-07, 2.289141747269241e-07], [-0.0014691465767100453, -0.06536205112934113], [1.3931436626535287e-07, -5.2596387689618496e-08], [4.137573057505506e-07, -2.0211419382576423e-07], [6.389763029801543e-07, -1.5249743228196166e-06], [-0.015364233404397964, 0.265802264213562], [-0.01969721168279648, 0.14182408154010773], [-0.088777095079422, 0.041815582662820816], [-0.04082047939300537, 0.14073458313941956], [1.389351496072777e-07, -1.2782108171904838e-07], [-0.07562543451786041, 0.1138237714767456], [3.11060034619004e-07, -5.808747118862811e-07], [3.3187070869189483e-08, -5.113099064146809e-07], [-0.019908444955945015, 0.17040468752384186], [6.181705458629949e-08, -4.729018314719724e-07], [0.06527964025735855, 0.20810292661190033], [-0.03872893378138542, -0.06669744849205017], [0.024723079055547714, 0.20679625868797302], [2.6024397925539233e-07, -7.387654363810725e-07], [4.1472583234281046e-07, -1.1072116876675864e-06], [3.697223007748107e-07, -5.941151357546914e-07], [1.2845654850934807e-07, -5.910822409305183e-08], [-0.0009017696720547974, 0.510259747505188], [-0.07033635675907135, 0.11416814476251602], [-0.0136942770332098, -0.010157809592783451], [1.098432349522227e-07, -1.5575329825878725e-07], [0.06869891285896301, 0.029942717403173447], [2.5425049443583703e-07, -5.276981482893461e-07], [0.044532764703035355, 0.042684655636548996], [0.00021173711866140366, -1.5943598555168137e-05], [-0.00036776752676814795, -8.4658759078593e-06], [-0.00032359635224565864, -3.3615091524552554e-05], [0.0002815157640725374, 5.868208972970024e-05], [-0.005195015110075474, -0.04725043848156929], [0.00021812683553434908, 6.133177521405742e-05], [0.00032449892023578286, 2.5232337065972388e-05], [-0.0004077135818079114, 9.373972716275603e-06], [-0.007139307446777821, -0.7117168307304382], [-0.311309814453125, 0.02300971746444702], [0.8938514590263367, -0.16472189128398895], [-0.29415255784988403, 0.3131594955921173], [0.00020014558685943484, 2.3392436560243368e-05], [0.0944812074303627, -0.08522268384695053], [0.00028483907226473093, -3.96313080273103e-05], [-0.00020026499987579882, 2.641354512888938e-06], [-0.16000846028327942, -0.23288854956626892], [-0.00018314288172405213, -1.7261703760595992e-05], [0.06035830080509186, -0.25065967440605164], [0.3255601227283478, 0.07247839123010635], [-0.265948086977005, -0.42679086327552795], [0.00020981502893846482, -2.5679315513116308e-05], [0.0003634864988271147, -7.17352975243557e-07], [0.00032409446430392563, 5.464703917823499e-06], [0.00021814067440573126, 6.21443978161551e-05], [0.20116174221038818, -0.00044508857536129653], [-1.559868335723877, 0.18268321454524994], [1.4769930839538574, -0.05136717110872269], [-8.398942736675963e-05, -4.5093958760844544e-05], [-0.016321994364261627, -0.0007225972367450595], [0.00021382518752943724, -5.367625271901488e-05], [0.6475497484207153, 0.21661674976348877], [2.056728618526904e-07, -1.198308268612891e-06], [4.670652913318918e-07, -4.252090093359584e-07], [3.586813477340911e-07, -1.0001546968396724e-07], [2.7096982080365706e-07, 2.558831226906477e-07], [-0.022570466622710228, 0.04585583135485649], [1.4175203943977976e-07, -2.0308605908070376e-09], [4.600220506745245e-07, -2.1669599448159715e-07], [7.358684115388314e-07, -1.5915875337668695e-06], [0.03502287343144417, 0.1283809244632721], [-0.00023495362256653607, 0.2062087059020996], [-0.15758250653743744, 0.2811657786369324], [0.0322793684899807, 0.2396707832813263], [1.510063185605759e-07, -1.0267999783764026e-07], [0.010396022349596024, 0.21890489757061005], [3.5783978091785684e-07, -4.78276717785775e-07], [4.0498491671314696e-08, -4.809219831258815e-07], [-0.03089391626417637, 0.22938232123851776], [5.962306204310153e-08, -4.17045214362588e-07], [0.04034571349620819, 0.20120379328727722], [-0.04593542590737343, 0.15730953216552734], [-0.006149725057184696, 0.22271448373794556], [2.6827515853256045e-07, -6.832414669588616e-07], [4.7614369691473257e-07, -1.1140782589791343e-06], [4.096301893241616e-07, -5.832034730701707e-07], [1.3009899646476697e-07, -5.567493133185053e-09], [-0.026227561756968498, 0.07908212393522263], [-0.07187245041131973, 0.4093693196773529], [0.033366598188877106, 0.18830469250679016], [1.1456175030843951e-07, -1.4887461929902202e-07], [0.04903962090611458, 0.13914969563484192], [2.627368758112425e-07, -4.807611730939243e-07], [0.11039243638515472, 0.32001975178718567]], "rec.weight_hh_l0": [[1.7755448500356152e-10, -1.0565347208224551e-10, -8.051112554419149e-11, 3.306157084215222e-11, -3.4189673669970944e-07, 1.6860247573080578e-11, 9.682483287365429e-11, -2.088021561208464e-10, -7.87458986906131e-07, -1.472402800573036e-06, -3.674056472391385e-07, -9.706305945655913e-07, 2.371635353382029e-11, 1.137006961471343e-06, -5.960217042133564e-11, 3.921211445823136e-12, 1.3316235936144949e-06, 1.9280285701306354e-11, -1.6299540561703907e-07, 1.1605715855012022e-07, 5.693178763976903e-07, -4.1790487737003446e-11, 1.6957377169113386e-10, 1.283260026019306e-10, 1.6017220536013177e-11, 3.783209479024663e-08, -5.007540337942373e-08, 2.9926746947239735e-07, -4.6251346502712565e-11, 7.038071236920018e-10, -7.233747628676568e-11, 6.823374292252993e-07], [2.1530403848668556e-10, -3.69688751833408e-10, -3.57769203152003e-10, 3.2631483626310853e-10, 7.929428420538898e-07, 2.9393890099704834e-10, 3.5489244876174553e-10, -3.2936769978064717e-10, 9.092713071368053e-08, -4.896189693681663e-07, 8.763821597312926e-07, -3.840870874682878e-07, 1.1412687461742621e-10, 4.2303648228880775e-07, 7.496216147817591e-11, -8.171882615037873e-11, 2.8706128318845003e-07, -1.7399630347636474e-10, 3.490759764579465e-11, 1.9451509558621183e-07, 4.6603179981730136e-08, 5.3874130850894986e-11, 3.349913957340078e-10, 3.7335720626252566e-10, 2.9658364653073477e-10, -2.4377666107966434e-08, -3.670480737127946e-07, 9.748424645295017e-07, -1.8834299397862964e-10, -3.5928582065025694e-07, -4.68029157096872e-11, 6.557369829351956e-07], [1.8899092013580088e-10, -3.312805585409251e-10, -3.4848374186324804e-10, 3.3766486828845643e-10, 7.641340289410437e-07, 3.116823465987295e-10, 3.3350058825654116e-10, -2.7501939614538173e-10, 4.012479735138186e-07, -3.64969174881935e-08, 7.030272399788373e-07, -1.2761826440055302e-07, 1.6550207038168452e-10, 6.384922812685545e-08, 1.7355092363224855e-10, -1.232676599682847e-10, -1.1091845664168432e-07, -2.1422302820539585e-10, 1.27427554730275e-07, 1.1144695832854268e-07, -7.72054420394852e-08, 1.2166653795553373e-10, 2.750869809720058e-10, 3.214370158932667e-10, 3.1274777212431104e-10, -1.014657957654208e-08, -3.8802264157311583e-07, 7.433626478814404e-07, -2.3166663032370138e-10, -2.713127287279349e-07, 1.9631647002471553e-11, 1.2440381169653847e-07], [1.3117777697413402e-10, -2.4915700058691925e-10, -2.690228040336251e-10, 2.6719884638204405e-10, 4.2672257904996513e-07, 2.4041013624298557e-10, 2.5721008656276467e-10, -1.9049220534306244e-10, 5.440035693027312e-07, 3.5446984725240327e-07, 4.462851279640745e-07, 2.313908282758348e-07, 1.284211764707166e-10, -2.2319932213576976e-07, 1.7454630796276405e-10, -8.076631030640158e-11, -4.4049971847925917e-07, -1.853433934106974e-10, 7.711562233225777e-08, 9.012385504547638e-08, -2.691603810944798e-07, 1.209838201843283e-10, 1.89074964018765e-10, 2.2999434301507193e-10, 2.405589893950122e-10, -5.254966684020701e-09, -3.24398172324436e-07, 2.2820425726877147e-07, -1.8154806824544067e-10, -2.0836371561472333e-07, 4.1522285609829623e-11, -2.5852995122477296e-07], [2.6614350645104423e-05, 3.6780671507585794e-05, 5.623750985250808e-05, -9.239253995474428e-05, 0.024190984666347504, -9.54025745159015e-05, -5.420275920187123e-05, 1.7582613054401008e-06, -0.05596199259161949, 0.15164990723133087, 0.017227495089173317, 0.04237651824951172, -6.981526530580595e-05, -0.17686371505260468, -0.00011682981858029962, 6.852273509139195e-05, -0.11807294934988022, 0.00010762740566860884, -0.15117716789245605, -0.008085515350103378, -0.10693588852882385, -0.00010023621143773198, -2.1473831566254376e-06, -1.552463618281763e-05, -9.572407725499943e-05, 0.013372077606618404, -0.012438498437404633, -0.026033611968159676, 8.291836275020614e-05, -0.017384706065058708, -7.870616536820307e-05, -0.05588916689157486], [1.0080918044774734e-10, -1.8389723077660847e-10, -1.9206389256787304e-10, 1.8308367322195096e-10, 1.4751580579286383e-07, 1.634499757763308e-10, 1.8656545752726572e-10, -1.3472729876173872e-10, 1.9881915136465977e-07, -5.342040765299316e-08, 4.621874438726081e-08, 1.7105254812577186e-07, 7.675566432441272e-11, 1.0533762662134905e-07, 1.3543197119325612e-10, -5.535551531044014e-11, -4.661311336917606e-08, -1.594026577400598e-10, -1.0481056023081692e-07, 3.02081808456478e-08, -1.9910683590751432e-07, 1.1530087301592218e-10, 1.363898854966905e-10, 1.6090406784741162e-10, 1.6424571425144308e-10, 1.6787851109256735e-08, -1.3779884966425016e-07, 1.5976063139078178e-07, -1.35994715488863e-10, -1.2569689999963884e-07, 6.019113679700538e-11, -1.0914486381352617e-07], [2.1249918491506037e-10, -3.3878297389655643e-10, -3.426246231175156e-10, 3.1603769601318277e-10, 7.841570663913444e-07, 2.7727323215209765e-10, 3.3563801737912513e-10, -3.145354809941381e-10, 2.8485851544246543e-07, -1.8287927616711386e-07, 7.919108497844718e-07, -2.628075321808865e-07, 1.4155376870661485e-10, 1.706116279365233e-07, 1.3265483156388314e-10, -8.393844647125448e-11, 2.1881882972252242e-08, -1.7163333254632818e-10, 1.217961198562989e-07, 1.8278880986599688e-07, -3.058058473115466e-09, 7.57655466143703e-11, 3.019668681769616e-10, 3.3545516364696937e-10, 2.777329199954437e-10, -8.686408925484557e-09, -4.385778993309941e-07, 8.183670274775068e-07, -1.9804165252157446e-10, -3.0855218824399344e-07, -1.642067905260891e-11, 2.641790786128695e-07], [3.2789029824620286e-10, -3.202159093440571e-10, -2.83765566599925e-10, 2.0248865084671053e-10, -5.415929749119641e-08, 1.418149347953701e-10, 3.1221694674066214e-10, -4.3776735014766643e-10, -9.511409757578804e-07, -1.9236881598772015e-06, 2.3361964451851236e-07, -1.33495552745444e-06, 4.661572169939454e-11, 1.5380148852273123e-06, -4.6700386613363065e-11, 4.9480631397758046e-11, 1.6399415017076535e-06, -3.557748193272481e-11, -1.0607181621935524e-07, 4.934622097607644e-07, 6.629520612477791e-07, -6.88261878045715e-11, 3.7911063177631377e-10, 3.602093068266754e-10, 1.4068514408993593e-10, -8.951230512366237e-08, -3.8256081325016567e-07, 8.064911298788502e-07, -1.2217329925512388e-10, -2.9310663762771583e-07, -1.395214915822507e-10, 1.342330051556928e-06], [-9.447083721170202e-05, 7.542318053310737e-05, 1.136155697167851e-05, 6.453876267187297e-05, -0.11381856352090836, 9.185871022054926e-05, -1.3716733519686386e-05, 0.0001253751979675144, -0.0965423434972763, -0.055301763117313385, 0.011989889666438103, -0.07499672472476959, 9.777017112355679e-05, 0.06683599203824997, 0.00010592135367915034, -6.961709732422605e-05, 0.03402275592088699, -0.00010062198271043599, 0.07143945246934891, 0.005538866855204105, 0.042135242372751236, 8.425146370427683e-05, -0.00013103385572321713, -0.00011099143011961132, 8.98327270988375e-05, 0.009464609436690807, -0.017811544239521027, -0.0178814884275198, -0.0001136784630944021, 0.01582842878997326, 5.1674232963705435e-06, -0.04042509198188782], [-4.919764614896849e-05, 2.4399141693720594e-05, 1.9106207673758036e-06, 8.18302396510262e-06, 0.006200670730322599, -9.796370250114705e-06, -7.327913863264257e-06, 5.85443849558942e-05, 0.01276897918432951, 0.07647205889225006, 0.012581199407577515, 0.019347716122865677, -6.7590526668936945e-06, -0.02828722447156906, 2.7035901439376175e-05, 8.027025614865124e-06, -0.05619662255048752, -1.1445883501437493e-05, -0.03640982136130333, -0.01147390529513359, -0.029448581859469414, 1.245505700353533e-05, -5.858994336449541e-05, -3.790098708122969e-05, -1.0027379175880924e-05, -0.017884254455566406, -0.06652339547872543, 0.036094799637794495, 1.654698462516535e-05, -0.011088797822594643, 3.6803485272685066e-05, -0.04605945199728012], [-3.812728755292483e-05, 2.76120536000235e-05, 2.0181474610581063e-05, -5.680177309841383e-06, 0.04238692671060562, -2.196132754761493e-06, -2.06455442821607e-05, 3.610000931075774e-05, 0.03437426686286926, 0.2578918933868408, 0.02799585834145546, 0.2522878646850586, 2.952163777081296e-05, -0.20422367751598358, 3.850608482025564e-05, -4.814421117771417e-05, -0.2154359519481659, -3.981540430686437e-06, -0.15494216978549957, -0.02249753475189209, -0.181459441781044, 3.2210064091486856e-05, -3.6073422961635515e-05, -3.5731078241951764e-05, -2.1853013549844036e-06, -0.03065638802945614, 0.02302444726228714, -0.09389300644397736, 6.50905985821737e-06, -0.02104998007416725, 6.561456393683329e-05, -0.06857256591320038], [6.659158680122346e-05, -5.32438098161947e-05, -4.759324656333774e-05, 3.166633177897893e-05, 0.008941669948399067, 1.7414549802197143e-05, 5.210108065512031e-05, -7.795610144967213e-05, 0.060615815222263336, 0.11880487203598022, 0.03887908533215523, -0.005141983740031719, 2.748420047282707e-05, -0.08467366546392441, 3.0932744266465306e-05, -1.1193185855518095e-05, -0.07920008897781372, -1.9833951228065416e-05, -0.03507068380713463, -0.00898035243153572, -0.015090908855199814, 2.0858746211160906e-05, 6.22881852905266e-05, 5.268243694445118e-05, 1.6119558495120145e-05, -0.00849281344562769, -0.034837547689676285, 0.05401930585503578, -3.984314025728963e-05, -0.0001502810773672536, 1.2004058589809574e-05, -0.04509628936648369], [9.416793039784821e-11, -1.2123606285552313e-10, -1.3816041366521148e-10, 1.4034948203622832e-10, -1.7211721115018008e-07, 1.3291667766424098e-10, 1.4003376236360054e-10, -1.216574341267318e-10, 5.3069427963237104e-08, -1.3721113134579355e-07, -1.2877715960257774e-07, 2.351536743105953e-08, 1.1480302819499855e-10, 1.2168305829618475e-07, 1.1913027508914098e-10, -9.094479336280159e-11, 4.2795161192543674e-08, -1.0355709345599706e-10, -1.3701419732115028e-07, 1.522567174561118e-07, -1.5500526728828845e-07, 8.834034892490905e-11, 1.043183109339374e-10, 1.1458498039296217e-10, 1.3215320504578187e-10, -6.553246834073434e-08, -7.14460739459355e-08, -3.1155103386026894e-08, -1.2334308574502018e-10, -9.059072425543491e-08, 4.275112555629512e-11, -2.722385161746388e-08], [-5.78631843382027e-05, 1.865995909611229e-05, 1.2562703886942472e-05, -2.5814588298089802e-05, 0.16564680635929108, -3.3513068046886474e-05, -1.1857649951707572e-05, 2.629671507747844e-05, 0.034710269421339035, 0.16688203811645508, 0.09213738143444061, 0.06146423891186714, 1.5246393559209537e-05, -0.09088937938213348, 8.884064300218597e-06, -2.7942944143433124e-05, -0.13991956412792206, 2.2212343537830748e-05, -0.00874393992125988, -0.04236453399062157, -0.03970574215054512, 4.112465830985457e-06, -4.2210456740576774e-05, -4.655437805922702e-05, -3.3795244235079736e-05, -0.02699330635368824, -0.05586773157119751, 0.11651582270860672, 2.546994983276818e-05, -0.04444734752178192, 5.650113962474279e-05, -0.05726749449968338], [1.4777006007715698e-10, -1.5959257526620974e-10, -1.7585358169647236e-10, 1.5562719168915606e-10, 1.9660765815388004e-07, 1.1112194497897576e-10, 1.831498008808552e-10, -2.3135326987500093e-10, 1.943484022604025e-07, -3.491811639833031e-07, 2.995518855186674e-07, -5.62252978397737e-07, 1.6494922094878461e-10, 2.9378216481745767e-07, 2.1853727161236236e-10, -1.008085767639777e-10, 2.413970321413217e-07, -6.950413855566495e-11, 2.1983952080972813e-07, 3.1485706131206825e-07, 1.4595481445667247e-07, 9.198481559780092e-11, 1.6358270293892474e-10, 1.4704121253927838e-10, 1.067855942560314e-10, -1.0004131212326683e-07, -3.6049050322617404e-07, 3.9002853213787603e-07, -1.051657788631033e-10, -1.3238813778571057e-07, 8.646940108381074e-11, 1.0463998734167035e-07], [3.6344243586894365e-11, -5.5748551608392205e-11, -7.823702102838226e-11, 9.863821565092579e-11, -4.905140826849674e-07, 1.2271611504743873e-10, 8.001671547575029e-11, -3.775293619390219e-11, -3.1982293080545787e-07, -6.614203016397369e-07, -4.5425016992339806e-07, -9.682155166501616e-08, 1.1065497129703061e-10, 5.138950882610516e-07, 8.983406379892145e-11, -1.3103793050639467e-10, 5.369999485083099e-07, -1.074080546725753e-10, -2.115271371394556e-07, 1.1739130201249282e-07, -3.58463871918957e-08, 1.0157590046855347e-10, 3.849422169910355e-11, 5.472078692947413e-11, 1.2354763045951955e-10, -1.1073317551790751e-07, 9.733469852335475e-08, -1.1340708283569256e-07, -1.2773854196623802e-10, -2.752349281820443e-08, 6.349193393262453e-11, 2.1883462864025205e-07], [5.902289194636978e-05, -6.213896267581731e-05, -6.024849062669091e-05, 5.149533899384551e-05, 0.02745419181883335, 4.7787860239623114e-05, 5.9141162637388334e-05, -6.84966507833451e-05, 0.05033675208687782, 0.1122858002781868, 0.005325768142938614, 0.0782337486743927, 6.0433867474785075e-05, -0.08659566193819046, 5.9538833738770336e-05, -8.053756755543873e-05, -0.08893050253391266, -6.814313383074477e-05, -0.016102489084005356, -0.027192147448658943, -0.03847380355000496, 7.122902025002986e-05, 6.524730270029977e-05, 6.239095819182694e-05, 4.784514385391958e-05, -0.010501362383365631, -0.01073791179805994, -0.014170448295772076, -7.148175063775852e-05, 0.01269721519201994, 5.996098116156645e-05, -0.02725902758538723], [4.078545834396152e-11, -9.619834095975222e-11, -9.541926970779713e-11, 9.050195315385423e-11, 5.216412191089148e-08, 8.598738387988192e-11, 9.402874312502973e-11, -6.249490508425382e-11, -6.167416444213814e-08, -3.911396220246388e-07, 1.0935303862424917e-07, -3.234715961752954e-07, 3.3735979287907725e-11, 3.029498998330382e-07, 6.416523562480236e-11, -4.547164034196527e-11, 3.431466382153303e-07, -8.86110768094639e-11, 1.2425758200151904e-07, 1.208948496866924e-08, 1.6328782237451378e-07, 6.675263813926691e-11, 7.027520926294883e-11, 8.065146467339801e-11, 8.74714814469435e-11, 1.9891196245680476e-08, -2.268063425958644e-08, 7.279246005964524e-08, -6.088116816238553e-11, -4.561838551353503e-08, 3.7990763313011655e-11, 3.3051914982706876e-08], [-0.0001143240588135086, 0.00012537564907688648, 0.000104948238003999, -7.022718637017533e-05, -0.01038147322833538, -6.324351852526888e-05, -0.00010412481788080186, 0.0001311390078626573, 0.021102018654346466, 0.09987754374742508, 0.011079088784754276, 0.07214365154504776, -4.986445856047794e-05, -0.07402606308460236, -1.3401033356785774e-05, 8.388972491957247e-05, -0.0800439640879631, 4.938255369779654e-05, -0.11604364216327667, 0.038754843175411224, -0.039951860904693604, -4.2246781958965585e-05, -0.00013479987683240324, -0.0001327364589087665, -6.474906695075333e-05, -0.04388900846242905, -0.06261617690324783, 0.02199033461511135, 5.1914394134655595e-05, -0.011617171578109264, -2.1950023437966593e-05, 0.014882407151162624], [-1.1661431017273571e-05, -9.028181011672132e-06, -7.708044904575218e-06, 9.411908649781253e-06, -0.02043065056204796, 9.133859748544637e-06, 6.235643922991585e-06, 8.727652129891794e-06, 0.09703128039836884, 0.1866428703069687, 0.06354416906833649, 0.11442840099334717, -3.291076791356318e-05, -0.1842126101255417, 4.528269710135646e-05, 2.6601905119605362e-05, -0.14886680245399475, -2.5399520382052287e-05, -0.033777181059122086, -0.006456841714680195, -0.052537981420755386, 2.4899374693632126e-05, 2.9688399081351236e-06, 5.544783562072553e-06, 9.98620453174226e-06, -0.004311118274927139, -0.0023593634832650423, -0.04949338361620903, 1.3807461982651148e-05, -0.001057333080098033, 3.1801497243577614e-05, -0.03347764536738396], [0.0001254727249033749, -0.00013173450133763254, -0.00014277482114266604, 0.00011095509398728609, 0.005687503144145012, 9.755874634720385e-05, 0.00013768445933237672, -0.00013030492118559778, 0.050110869109630585, 0.09393326193094254, 0.012061366811394691, 0.05493393912911415, 8.990246715256944e-05, -0.04478590935468674, 4.2609728552633896e-05, -8.90875089680776e-05, -0.098816879093647, -9.945382771547884e-05, -0.08207637816667557, -0.015961596742272377, 0.007328741252422333, 2.9781296689179726e-05, 0.00011734016152331606, 0.0001221775746671483, 9.675783076090738e-05, -0.022050729021430016, -0.059000782668590546, 0.05715659260749817, -0.00015189462283160537, -0.0164222102612257, -3.197027763235383e-05, -0.028072450309991837], [6.178392519817777e-11, -8.286457631179189e-11, -6.161637172708012e-11, 3.3380281178052584e-11, 2.603688358249201e-07, -8.419782232538253e-12, 8.044654525862782e-11, -1.35152236624414e-10, -1.959234481319072e-07, -6.338091225188691e-07, 4.370978388124058e-07, -6.55410076433327e-07, 1.2230503936005999e-11, 5.029333465245145e-07, 4.016386875860256e-11, 1.9830045591695544e-11, 5.725614187213068e-07, 2.93925855876509e-11, 1.7248613914944144e-07, 2.5141861215161043e-07, 3.140304443149944e-07, -2.33388586234895e-11, 9.852996890602483e-11, 7.644009730745083e-11, -1.0013586314305822e-11, -4.5133784709605607e-08, -1.5584213031161198e-07, 4.6765174488427874e-07, 4.293778527175718e-11, -1.5986819335012115e-07, 2.2752973550393962e-12, 3.698222883485869e-07], [2.3867610665639916e-10, -2.928230713461488e-10, -2.548158350990093e-10, 1.967980639561162e-10, 8.357812930626096e-08, 1.5610715498048933e-10, 2.715879188208703e-10, -3.412471694108632e-10, -5.503659963324026e-07, -1.3738748521063826e-06, 3.348642962919257e-07, -8.682945917826146e-07, 3.775825138663258e-11, 1.0925886044788058e-06, -2.956469097314951e-11, 1.1621133742811818e-11, 1.152083541455795e-06, -5.858835638861137e-11, -1.318175577580405e-07, 3.015576623965899e-07, 3.961028482990514e-07, -3.357586778052202e-11, 3.19793413972036e-10, 3.152833272235256e-10, 1.5726103752555787e-10, -2.6372813266561934e-08, -2.399074503500742e-07, 6.50627953291405e-07, -9.539796730351213e-11, -2.503471137060842e-07, -1.025452431302476e-10, 9.937413096849923e-07], [1.998828186300372e-10, -3.3157385170845544e-10, -3.0205524192972177e-10, 2.647175811887337e-10, 4.617777165094594e-07, 2.2560471546473337e-10, 3.0679100926356284e-10, -3.194315367771594e-10, -3.390346448028936e-09, -7.318781740650593e-07, 6.733883424203668e-07, -4.3752197598223574e-07, 6.800877916379733e-11, 5.921066303926636e-07, 3.42991711421714e-11, -2.6492419369361642e-11, 5.568722940552107e-07, -1.06705685953834e-10, -9.753132701462164e-08, 2.2111412079084403e-07, 1.2125602211199293e-07, 8.146797472741163e-12, 3.1959485058408177e-10, 3.3967095802722724e-10, 2.276763499953205e-10, 1.560720774840263e-09, -2.7074921149505826e-07, 7.417963274747308e-07, -1.1235064267811623e-10, -3.069488627716055e-07, -7.187741374314882e-11, 7.106183375071851e-07], [9.660590383209211e-11, -1.8232249043848014e-10, -1.903687069093607e-10, 1.819162737115576e-10, 1.4810608206516918e-07, 1.6340685748961192e-10, 1.8430817982917347e-10, -1.2887375888670505e-10, 1.9735529122044682e-07, -6.078924741359515e-08, 4.1470038070201554e-08, 1.7667630913820176e-07, 7.40212613425939e-11, 1.1110176956208306e-07, 1.3483811289738412e-10, -5.541907557859993e-11, -3.966631823004718e-08, -1.6180327910841896e-10, -1.0509893400012515e-07, 2.053392655909647e-08, -1.9915081850285787e-07, 1.174531305547788e-10, 1.3295130274482148e-10, 1.5878673376157337e-10, 1.6436875471814716e-10, 1.698349372247776e-08, -1.3011049304623157e-07, 1.5747821180411847e-07, -1.3567297285632662e-10, -1.23364159776429e-07, 6.262738244666721e-11, -1.0791369220441993e-07], [-0.0003752057673409581, 0.00020004565885756165, 0.00010804462363012135, -9.517328726360574e-05, -0.30858972668647766, -0.00014663529873359948, -9.447466436540708e-05, 0.0003656625049188733, 0.046660736203193665, -0.5933660864830017, 0.09057725965976715, -0.28983545303344727, -0.00010689130431273952, 0.6201483607292175, -7.783718319842592e-05, 5.548367334995419e-05, 0.49647367000579834, -0.00012813316425308585, 0.1005542129278183, -0.10533538460731506, 0.3898513913154602, 3.818747427430935e-05, -0.00037750243791379035, -0.00034464013879187405, -0.00014491470938082784, -0.009259378537535667, -0.12021565437316895, 0.20595817267894745, 3.490038216114044e-05, 0.016245108097791672, 0.00018797189113683999, -0.0563412569463253], [-5.811278356304683e-07, -3.824574378086254e-05, -4.649867332773283e-05, 5.56271115783602e-05, -0.01829194277524948, 5.669108941219747e-05, 4.2371331801405177e-05, 1.1889854931723676e-06, 0.03315500542521477, 0.3081963360309601, -0.011739243753254414, 0.4386792778968811, 2.097458673233632e-05, -0.24590298533439636, 5.2350656915223226e-05, -1.9828696167678572e-05, -0.31014594435691833, -5.837960270582698e-05, -0.21255123615264893, 0.0007838530582375824, -0.29197126626968384, 5.0784292398020625e-05, 1.2310248166613746e-05, 3.377248867764138e-05, 5.7238226872868836e-05, -0.05542285367846489, 0.04473012313246727, -0.06198921054601669, -4.404858555062674e-05, -0.03269913047552109, 3.833731170743704e-05, 0.022154025733470917], [0.00011293349234620109, -0.00013027459499426186, -0.00010894611477851868, 7.160218228818849e-05, 0.09496286511421204, 5.5988741223700345e-05, 0.0001126571005443111, -0.00013171597674954683, 0.11153822392225266, 0.3661039471626282, 0.021373264491558075, 0.27037540078163147, 2.2410387828131206e-05, -0.28036263585090637, 4.566576080833329e-06, -3.184562228852883e-05, -0.349216490983963, -6.323998240986839e-05, -0.16918329894542694, 0.032105375081300735, -0.26835310459136963, 3.4583750675665215e-05, 0.00013138331996742636, 0.00012867814803030342, 5.720985063817352e-05, -0.015395893715322018, 0.022369910031557083, 0.02793106809258461, -5.863781916559674e-05, -0.049057088792324066, 1.001588088911376e-06, 0.024659734219312668], [9.537574896523182e-11, -1.3677989296745352e-10, -1.53858981111199e-10, 1.606445670931933e-10, -9.398473110877603e-08, 1.578521202638683e-10, 1.5092230243318738e-10, -1.213187467152821e-10, -1.6711934947011287e-08, -2.745221934219444e-07, -1.246505405561038e-07, 1.2242746549873118e-07, 1.0082441131986641e-10, 2.762179462934e-07, 1.0880336215324249e-10, -9.089361902026027e-11, 1.6718757933631423e-07, -1.2500801782611148e-10, -1.4221801336589124e-07, 9.069126605254496e-08, -1.43319823564525e-07, 9.059411554268593e-11, 1.1535245675320382e-10, 1.2981341002138436e-10, 1.5833583055790967e-10, -1.9953494856395082e-08, -8.13920131292889e-09, 1.6398779223436577e-07, -1.3318597613665162e-10, -7.212162955738677e-08, 3.806110288051556e-11, 1.428658862323573e-07], [-6.431053861888358e-06, 4.051588348374935e-06, -1.1822574379038997e-05, 2.3565062292618677e-05, 0.0010525222169235349, 2.5212155378540047e-05, 7.444905349984765e-06, 1.0504544661671389e-05, 0.04439963400363922, 0.1114807277917862, 0.04326743260025978, 0.10039374232292175, 4.0829436329659075e-05, -0.11673983931541443, 2.117473013640847e-05, -3.110118268523365e-05, -0.12238693237304688, -1.7186064724228345e-05, -0.04557623341679573, 0.028231415897607803, -0.08662715554237366, 1.1684236596920528e-05, -1.4607819139200728e-05, -6.591575584025122e-06, 2.4586695872130804e-05, 0.005775497294962406, -0.0422234870493412, 0.0018338002264499664, -3.470914452918805e-05, -0.03625662252306938, 7.974978871061467e-06, -0.07363805919885635], [6.421905368592107e-11, -8.539274842789268e-11, -5.6865154945962004e-11, 1.3511487068074146e-11, 3.524212388583692e-07, -3.826811090235083e-11, 7.289969322643586e-11, -1.4383029489639654e-10, 5.1259601008268874e-08, -3.3623896911194606e-07, 5.217626153353194e-07, -5.433670366983279e-07, 2.5307674358931997e-11, 2.494138016118086e-07, 7.957322994966987e-11, 1.1520414830434866e-11, 3.120235589904041e-07, 3.665838119171205e-11, 1.4639442724728724e-07, 2.3280703942418768e-07, 2.4053531433310127e-07, 1.2034507505115366e-12, 1.0041736192567541e-10, 7.388725048462774e-11, -4.094280123267957e-11, -3.5783319418669635e-08, -2.292983651841496e-07, 5.067692541160795e-07, 5.168894826046433e-11, -1.6493808630002604e-07, 5.378708242687047e-11, 3.4293324802092684e-07], [-3.775259028770961e-05, 5.096475797472522e-05, 4.580931636155583e-05, -3.4124921512557194e-05, 0.0414685420691967, -2.0735244106617756e-05, -4.488333433982916e-05, 5.5202261137310416e-05, -0.004822753369808197, 0.24583368003368378, -0.02047344297170639, 0.26827457547187805, 2.006115573749412e-05, -0.18036675453186035, -2.8971078791073523e-05, -2.2019212337909266e-05, -0.2620236277580261, 3.208125417586416e-05, -0.20093974471092224, -0.013018052093684673, -0.2367580085992813, -2.0008679712191224e-05, -5.024976053391583e-05, -4.706305844592862e-05, -2.1160598407732323e-05, -0.010015232488512993, -0.016955751925706863, 0.04837984964251518, 1.1824487955891527e-05, -0.04442828893661499, -2.16453627217561e-05, -0.039722543209791183], [1.6886718412489898e-10, -1.0016726337269688e-10, -7.266309082210043e-11, 2.4367825465776427e-11, -3.4002368920482695e-07, 7.383583328079979e-12, 8.856549521540913e-11, -2.0089395424971457e-10, -7.587869959024829e-07, -1.3665085134562105e-06, -3.5441598811303265e-07, -8.878897119757312e-07, 1.6244314920976777e-11, 1.0569560799922328e-06, -6.848838163264759e-11, 6.645415554645817e-12, 1.2355247918094392e-06, 2.7549488731959393e-11, -1.5714692835899768e-07, 9.759135366493865e-08, 5.26666212863347e-07, -4.9357094800139834e-11, 1.6382119272240203e-10, 1.2192671872135463e-10, 6.694539020357659e-12, 4.609396597743398e-08, -5.635954991589642e-08, 2.41719106952587e-07, -3.36355075736261e-11, 1.67979035126109e-08, -7.531263807036837e-11, 6.222836645974894e-07], [1.9707825649195598e-10, -3.4782063340621505e-10, -3.3373354080268314e-10, 3.0418220720029865e-10, 7.1541029456057e-07, 2.743340554722806e-10, 3.3135255650407203e-10, -3.124006886512376e-10, 3.615845756144154e-08, -5.254832444734348e-07, 8.213781939048204e-07, -4.220692062517628e-07, 1.0505112058023514e-10, 4.417676962020778e-07, 7.180164102171815e-11, -7.769788284983647e-11, 3.378551980404154e-07, -1.5891556126579331e-10, 2.0109535370238518e-08, 1.6841360661601357e-07, 9.572719505968053e-08, 4.859433341830588e-11, 3.1714977866137417e-10, 3.494528277858677e-10, 2.7698995874736454e-10, -4.338794212799257e-09, -3.4823440842046693e-07, 8.976948606687074e-07, -1.678197997234676e-10, -3.0570376452487835e-07, -4.3580319908365084e-11, 6.092515150157851e-07], [1.7427828624683173e-10, -3.10818676352298e-10, -3.2682814787854397e-10, 3.176088836376323e-10, 7.133442636586551e-07, 2.93016944041824e-10, 3.1247657239497073e-10, -2.6061375280050925e-10, 3.6328154351394915e-07, -4.1862392663460923e-08, 6.694544367746857e-07, -1.398985602918401e-07, 1.5763421123971e-10, 6.272856012401462e-08, 1.644881730822334e-10, -1.1934674082336727e-10, -9.812207224513259e-08, -1.9715594434810413e-10, 1.3961067679701955e-07, 9.498993591705585e-08, -5.504683642243435e-08, 1.1119241638546384e-10, 2.5930632641113505e-10, 3.008081006505847e-10, 2.940297449960383e-10, 5.084721088621791e-09, -3.7669923358407686e-07, 6.819641953370592e-07, -2.130980947256944e-10, -2.3505317869876308e-07, 1.8016588221314578e-11, 9.432108782903015e-08], [1.2602664745120506e-10, -2.342015748002524e-10, -2.539657650846294e-10, 2.5299276562584794e-10, 3.931309322524612e-07, 2.2681015399150795e-10, 2.432213042080633e-10, -1.8523353684241073e-10, 4.911108817395871e-07, 3.0631952085968805e-07, 4.1622067215030256e-07, 1.9479483626128058e-07, 1.254676362805185e-10, -1.891264957976091e-07, 1.6593532103925668e-10, -7.78957592872942e-11, -3.94133991221679e-07, -1.7004350705285276e-10, 7.370197607770024e-08, 9.1478504771203e-08, -2.445904954129219e-07, 1.1033036290131193e-10, 1.8048010308469031e-10, 2.1706168806812087e-10, 2.2674336019878893e-10, 9.114285992595228e-10, -3.137399176011968e-07, 2.2552774225914618e-07, -1.7041851263499552e-10, -1.9178051502422022e-07, 3.7525881707578534e-11, -2.3326340681251168e-07], [0.00011826984700746834, -9.669352584751323e-05, -4.9060501623898745e-05, -3.6194596759742126e-05, -0.0009576781303621829, -9.138685709331185e-05, 7.447358802892268e-05, -0.00014410084986593574, -0.04796871915459633, -0.025542719289660454, 0.07931505143642426, -0.18793262541294098, -7.60558687034063e-05, -0.008356058038771152, -0.00014355179155245423, 7.579144585179165e-05, 0.10013853758573532, 6.965806824155152e-05, -0.06849829107522964, -0.015502909198403358, 0.07420168817043304, -0.00011082385026384145, 0.0001163524211733602, 8.045766298891976e-05, -9.158605098491535e-05, -0.013501272536814213, -0.08848288655281067, 0.03719928860664368, 7.93509025243111e-05, 0.0064325882121920586, -0.00011598313722060993, -0.07984140515327454], [1.0176406245454572e-10, -1.7684667619199956e-10, -1.8435834803209872e-10, 1.7449927613988336e-10, 1.2089363110590057e-07, 1.5493953342549105e-10, 1.7986449829532347e-10, -1.360314777487659e-10, 1.5040339462757402e-07, -1.1685754941481719e-07, 2.2223225926154555e-08, 1.1835467006449107e-07, 7.569431192955278e-11, 1.4946415660688217e-07, 1.2984374686553224e-10, -5.3215071238454925e-11, 1.5657418472869722e-08, -1.4977237505764407e-10, -1.0747766765462075e-07, 3.6418576598862273e-08, -1.652160648291101e-07, 1.0850940285189736e-10, 1.3456967484781757e-10, 1.5549650456136987e-10, 1.555535561470478e-10, 1.9388966876476843e-08, -1.3559021283526818e-07, 1.6673979530423821e-07, -1.3052393887935665e-10, -1.1602465832538655e-07, 5.66802750567863e-11, -7.983700811564631e-08], [1.9608628609724121e-10, -3.1627850338722396e-10, -3.18029963475297e-10, 2.925602260450688e-10, 7.395761940642842e-07, 2.551616140600288e-10, 3.119639546689257e-10, -2.986503266910745e-10, 2.480890088918386e-07, -1.8157952297315205e-07, 7.565322448499501e-07, -2.712998252718535e-07, 1.317541908907316e-10, 1.6627984678052599e-07, 1.2161716078651352e-10, -7.945672592102326e-11, 2.81256049561307e-08, -1.5230161576340606e-10, 1.3330843273706705e-07, 1.630198340762945e-07, 1.716570530163608e-08, 6.425655840747169e-11, 2.8481308977923447e-10, 3.1257052501842963e-10, 2.5559840355349195e-10, 1.0584423115744812e-08, -4.2203129169138265e-07, 7.597597573294479e-07, -1.7619541936575445e-10, -2.7191964591111173e-07, -1.7249833506038925e-11, 2.3268621873739903e-07], [3.032222251064809e-10, -2.8546626174019707e-10, -2.4286317401589486e-10, 1.595566456735753e-10, -6.760211590517429e-08, 1.0067966599303091e-10, 2.724872827375435e-10, -4.123833219349393e-10, -9.893528840621002e-07, -1.861174951045541e-06, 1.9484424740312534e-07, -1.2819579069400788e-06, 2.436293007612722e-11, 1.4965362424845807e-06, -7.609364527372264e-11, 6.084856923882498e-11, 1.5918772078293841e-06, 2.2987013903680645e-14, -9.692483615708625e-08, 4.3748019606937305e-07, 6.525062303808227e-07, -9.456104649308017e-11, 3.535381154495809e-10, 3.250968938495191e-10, 9.96437585221166e-11, -5.946100145592936e-08, -3.602455365125934e-07, 7.603974836456473e-07, -8.292809494658826e-11, -2.483120624674484e-07, -1.4744945542322085e-10, 1.2811856322514359e-06], [-0.00020815707102883607, 0.0001701987348496914, 7.225874287541956e-05, 3.9378392102662474e-05, -0.0992804542183876, 7.738092972431332e-05, -7.18698647688143e-05, 0.00024092744570225477, -0.24385108053684235, 0.24401316046714783, -0.042721495032310486, 0.2224479466676712, 0.00014790098066441715, -0.21463245153427124, 0.00012968096416443586, -0.00011551372153917328, -0.2564604580402374, -0.00010106641275342554, -0.19831015169620514, -0.01977870799601078, -0.2398676574230194, 0.00011678331793518737, -0.0002579550782684237, -0.00023586982570122927, 7.367171929217875e-05, -0.033707842230796814, -0.005140547640621662, 0.11640828847885132, -0.00011710842227330431, -0.028054874390363693, 6.608730473089963e-05, 0.05649543181061745], [-3.363703945069574e-05, -4.26787264586892e-05, -8.456566138193011e-05, 9.365590813104063e-05, -0.00862045492976904, 5.685539508704096e-05, 7.927579281385988e-05, 3.238854696974158e-05, 0.02895805425941944, 0.19429804384708405, 0.010395226068794727, 0.13528981804847717, 3.2739095331635326e-05, -0.09057466685771942, 9.953615517588332e-05, -2.927121204265859e-05, -0.1402331441640854, -9.892150410450995e-05, -0.08363191038370132, -0.03579487279057503, -0.08903402090072632, 8.094299118965864e-05, -3.267261854489334e-05, 2.258861542259183e-07, 5.679059904650785e-05, -0.05648481100797653, -0.10472134500741959, 0.006180042866617441, -4.578581501846202e-05, -0.0016944301314651966, 8.612149395048618e-05, -0.06848340481519699], [-7.296818512259051e-05, -5.471614713314921e-05, -7.405852375086397e-05, 5.356474866857752e-05, 0.09040436148643494, 1.290366708417423e-05, 5.725438677472994e-05, 3.0510404030792415e-05, 0.0734301283955574, 0.06251145154237747, 0.1383439600467682, 0.030910588800907135, 8.304700713779312e-06, -0.04805251955986023, 0.00010021434718510136, -1.6958594642346725e-05, 0.033851224929094315, -7.498950435547158e-05, -0.014476529322564602, -0.05469641461968422, 0.038848020136356354, 6.262346141738817e-05, -2.0199604477966204e-05, 7.2021052801574115e-06, 1.3592573850473855e-05, -0.023672208189964294, 0.056988030672073364, -0.16563482582569122, 3.6582216580427485e-06, 0.011972283013164997, 0.00010675509838620201, -0.0711672231554985], [9.127346856985241e-05, -1.6016292647691444e-06, -1.2996537407161668e-05, 3.235310214222409e-05, -0.06914345920085907, 2.69034080702113e-05, 1.3032472452323418e-05, -2.986167964991182e-05, 0.08012411743402481, 0.19834230840206146, -0.0005788028356619179, 0.0010795037960633636, 5.6457865866832435e-05, -0.14269006252288818, 5.586461702478118e-05, -1.4678556908620521e-05, -0.07715114951133728, -1.775913915480487e-05, -0.10998443514108658, -0.055194079875946045, 0.0015936905983835459, 2.3283675545826554e-05, 3.0386867365450598e-05, 3.977542291977443e-05, 2.3555036023026332e-05, -0.04150184243917465, -0.03620234504342079, 0.020351022481918335, -6.73718168400228e-05, 0.04550471156835556, 4.4979779545428755e-07, -0.11587626487016678], [9.916733406667433e-11, -1.2881126720820646e-10, -1.4679267523742823e-10, 1.4833841099903822e-10, -1.907678353063602e-07, 1.4249496027574082e-10, 1.478153849321373e-10, -1.2569680019058893e-10, 6.334225588489062e-08, -1.5270100561792788e-07, -1.4776216517020657e-07, 1.2771973700864692e-08, 1.1894671358980702e-10, 1.263359905578909e-07, 1.3142417709666177e-10, -9.457116340039207e-11, 5.898593258280016e-08, -1.161394869164667e-10, -1.421956312697148e-07, 1.510640004198649e-07, -1.5042603251913533e-07, 1.0102823438939978e-10, 1.0930926302998856e-10, 1.2117945535905505e-10, 1.4181217311559635e-10, -7.528411316570782e-08, -6.67974049406439e-08, -4.032800404729642e-08, -1.3513186403191213e-10, -8.802738449276148e-08, 5.032451191877563e-11, -3.285870064928531e-08], [-1.6247660823864862e-05, -6.332889461191371e-05, -5.5837008403614163e-05, 9.737507753015961e-06, 0.1592390090227127, -2.517267239454668e-05, 5.2856885304208845e-05, -3.593268047552556e-05, -0.11655697226524353, 0.10719550400972366, -0.06076664477586746, 0.05472120642662048, 1.594181958353147e-05, -0.05089955776929855, 3.5253808164270595e-05, -5.2112849516561255e-05, -0.07748859375715256, -2.0446608687052503e-05, -0.17633844912052155, -0.11572466790676117, -0.05609901249408722, 3.616750836954452e-05, 2.771378422039561e-05, 2.769699494820088e-05, -2.4375929569941945e-05, -0.06039902940392494, -0.027877740561962128, -0.00656508281826973, 5.646576482831733e-06, -0.02287469059228897, 0.00011566177272470668, -0.09942953288555145], [1.4798987035824496e-10, -1.6271672897971712e-10, -1.8045419325485312e-10, 1.6106165012796936e-10, 1.690649185093207e-07, 1.2016025674466135e-10, 1.8645970878417018e-10, -2.2742517591378686e-10, 1.7867077417577093e-07, -4.401344142479502e-07, 2.57852434515371e-07, -6.267320031838608e-07, 1.6619949860796623e-10, 3.5206224424655375e-07, 2.314299307748513e-10, -1.0414295814609176e-10, 3.2971254881886125e-07, -8.47806269632656e-11, 2.279450654896209e-07, 2.9846634674868255e-07, 1.9079865865023748e-07, 1.0803190980679389e-10, 1.6282900028308234e-10, 1.4847953422325588e-10, 1.1606220845505888e-10, -1.0801374372704231e-07, -3.258267895489553e-07, 3.94966690464571e-07, -1.1681430822640948e-10, -1.185629727729065e-07, 9.64567037353703e-11, 1.0704605557521063e-07], [4.135216474798753e-11, -6.532313578944127e-11, -8.848700938646203e-11, 1.0771223496464088e-10, -4.877943524661532e-07, 1.3287172750953147e-10, 8.978036369899911e-11, -4.191672356435028e-11, -3.1536333722215204e-07, -6.843500841569039e-07, -4.7043056383699877e-07, -1.0676517803176466e-07, 1.1328923910092215e-10, 5.301425289871986e-07, 1.0138212491739296e-10, -1.3374573670787981e-10, 5.549164825424668e-07, -1.2215092826117768e-10, -2.2200494242952118e-07, 1.189095044651367e-07, -3.5656135821682255e-08, 1.1556246931609948e-10, 4.4308549884686244e-11, 6.277622172090602e-11, 1.3386340647070227e-10, -1.1841519409472312e-07, 1.0699899632982124e-07, -9.413282242576315e-08, -1.3997072945137745e-10, -3.593615716113163e-08, 7.246211269906766e-11, 2.3704362206444785e-07], [0.00012294872431084514, -9.296399366576225e-05, -9.735207277117297e-05, 0.00010155091877095401, 0.04515371099114418, 0.00010093660239363089, 8.751131827011704e-05, -0.00010418617603136227, 0.055256426334381104, 0.15749895572662354, -0.03334741294384003, 0.14231251180171967, 0.00012380820407997817, -0.11356602609157562, 0.00011554047523532063, -0.0001354620180791244, -0.13452228903770447, -0.00012443045852705836, -0.04417403042316437, -0.03646245226264, -0.08717862516641617, 0.00012799118121620268, 0.00011171006190124899, 0.0001252887159353122, 0.00010030208068201318, -0.01781211420893669, -0.008729594759643078, 0.04013199731707573, -0.00014719576574862003, 0.007958108559250832, 9.52307163970545e-05, 0.021600132808089256], [3.6767061617482e-11, -8.855503830229594e-11, -8.794083516949769e-11, 8.382719518529314e-11, 3.3341823524324354e-08, 8.030151543714226e-11, 8.729664213724675e-11, -5.84111647938812e-11, -1.0593465304964411e-07, -4.570732983211201e-07, 8.805776019471523e-08, -3.8074222175055183e-07, 3.127062844776596e-11, 3.5319590097060427e-07, 6.164237870143197e-11, -4.308552473131222e-11, 4.0649678112458787e-07, -8.397998962905717e-11, 1.3481890448474587e-07, 1.5214943971386674e-08, 1.9868899414632324e-07, 6.40658498474167e-11, 6.476422176326935e-11, 7.318549932744389e-11, 8.174252247306057e-11, 2.4889889260748532e-08, -2.050759562166604e-08, 7.585425265688173e-08, -5.677400563564028e-11, -3.7312243961196145e-08, 3.7395069679702075e-11, 5.5823452527192785e-08], [-0.00020597397815436125, 0.00017864890105556697, 0.00015370907203759998, -0.00014250505773816258, -0.08805719763040543, -0.0001700492575764656, -0.00014971486234571785, 0.0001805646752472967, 0.02861287072300911, 0.19005732238292694, -0.025240818038582802, 0.16154564917087555, -0.00015472088125534356, -0.15231426060199738, -5.505026274477132e-05, 0.00021681694488506764, -0.15826746821403503, 0.00012087926006643102, -0.27629995346069336, 0.08774430304765701, -0.10382430255413055, -0.00013480757479555905, -0.00020011521701235324, -0.00021151073451619595, -0.00017238307918887585, -0.10220140218734741, -0.14066511392593384, -0.00824266392737627, 0.00016392880934290588, -0.020369304344058037, -4.789475497091189e-05, -0.008180311881005764], [-8.410874215769581e-06, -1.7039561498677358e-05, -1.0961894986394327e-05, 5.856543793925084e-06, -0.07466723024845123, -8.781301403359976e-06, 6.346910595311783e-06, -7.911665306892246e-06, -0.0022221982944756746, -0.014200208708643913, 0.03253447636961937, -0.05911542475223541, -8.479789539705962e-05, -0.032542187720537186, 1.9686671294039115e-05, 8.550014899810776e-05, 0.05848403647542, -9.776413207873702e-06, 0.012907655909657478, -0.014307313598692417, 0.09323295950889587, -1.852062086982187e-05, 1.8531038222135976e-05, 1.4770235793548636e-05, -7.886173989390954e-06, 0.023120472207665443, -0.0007027024985291064, 0.02350095473229885, 4.0386617911281064e-05, 0.012029816396534443, 6.180447371662012e-07, 0.028912726789712906], [8.075321966316551e-05, -9.845002932706848e-05, -0.0001702749723335728, 0.00017160018614958972, -0.01943991519510746, 0.00015767231525387615, 0.00015335391799453646, -9.36078231461579e-06, 0.03717933967709541, 0.13770586252212524, 0.015390926972031593, 0.0654735416173935, 0.00013749644858762622, -0.07732627540826797, 9.275209595216438e-05, -0.00010018175089498982, -0.13393311202526093, -0.00021584935893770307, -0.244517982006073, -0.01687074638903141, 0.02757461555302143, 0.00010516517068026587, -2.916546918640961e-06, 4.542264650808647e-05, 0.00015521154273301363, -0.03655964136123657, -0.1083836555480957, 0.0921253114938736, -0.0002985804167110473, -0.041356537491083145, -2.8784606911358424e-05, -0.04728473350405693], [6.186060691470985e-11, -8.229858461383799e-11, -6.01068153582851e-11, 3.0963193814459444e-11, 2.6347746029387054e-07, -9.895822009053923e-12, 7.957731001928536e-11, -1.3454552749703197e-10, -2.3459013220872293e-07, -6.959343181733857e-07, 4.1715432530509133e-07, -6.94149548507994e-07, 9.330077509195345e-12, 5.574762553806067e-07, 3.724355199241636e-11, 2.053741204877113e-11, 6.280851607698423e-07, 2.8466664789283946e-11, 1.7835883170391753e-07, 2.4714142909942893e-07, 3.3690986356305075e-07, -2.2353995390855808e-11, 9.86435585992318e-11, 7.583005057210102e-11, -1.135019161990769e-11, -3.936305503771109e-08, -1.350218781226431e-07, 4.985149075764639e-07, 4.306245984797563e-11, -1.617999174641227e-07, 3.490935839012277e-12, 4.035020992887439e-07], [2.2503159058384625e-10, -2.769076912212398e-10, -2.3626195444492737e-10, 1.7830108223204633e-10, 4.725040980702033e-08, 1.3883888483334772e-10, 2.531321541265896e-10, -3.283263660947e-10, -5.833160230395151e-07, -1.3701036323254812e-06, 3.027034836122766e-07, -8.639794373266341e-07, 2.8767025220255427e-11, 1.0912325478784624e-06, -3.5725429559096966e-11, 1.5965031380238415e-11, 1.1607811529756873e-06, -4.4465098270052295e-11, -1.1985289916083275e-07, 2.717172549182578e-07, 4.147780430230341e-07, -4.089015931407758e-11, 3.069829390689449e-10, 2.980735103186305e-10, 1.4001905190852426e-10, -1.1927289378377282e-08, -2.2734410265456972e-07, 6.093410434004909e-07, -7.720143274658753e-11, -2.1204769495852815e-07, -1.0222625523859108e-10, 9.538179028822924e-07], [1.9025815645168365e-10, -3.222978550709854e-10, -2.9066613005390707e-10, 2.5339003117963443e-10, 4.2531169697213045e-07, 2.1508755887467146e-10, 2.953870759103694e-10, -3.1138475131697874e-10, -3.449220287166099e-08, -7.446527092724864e-07, 6.460065833380213e-07, -4.5292620143300155e-07, 6.234656541037609e-11, 5.991854550302378e-07, 3.333115380921292e-11, -2.505852816914178e-11, 5.797911626359564e-07, -9.940619855042243e-11, -8.051350164350879e-08, 2.023311225229918e-07, 1.474568875892146e-07, 6.385300708316999e-12, 3.1185301563319e-10, 3.2878408329217734e-10, 2.1723285670294246e-10, 1.4976610174244342e-08, -2.590440146832407e-07, 7.006969440226385e-07, -1.002505994884828e-10, -2.7394295898375276e-07, -6.840497612792262e-11, 6.773101972612494e-07], [9.744082624107975e-11, -1.749086986357895e-10, -1.8226903319984444e-10, 1.7294761456287944e-10, 1.1955069112445926e-07, 1.5449058698990825e-10, 1.7726323187083892e-10, -1.3017392719305576e-10, 1.4669363679331582e-07, -1.2732793663872144e-07, 1.618937339742388e-08, 1.2100413471216598e-07, 7.288738362865033e-11, 1.573110068875394e-07, 1.291398654679199e-10, -5.3120220028235465e-11, 2.5910967593745227e-08, -1.5172953171660453e-10, -1.071344613023939e-07, 2.714411451165688e-08, -1.629749561971039e-07, 1.103867899865385e-10, 1.309576891372899e-10, 1.5302019373830689e-10, 1.5526183116953973e-10, 1.9951981400367913e-08, -1.2817423566957586e-07, 1.6345251196980826e-07, -1.2981782315790724e-10, -1.1289840529116191e-07, 5.901718697076674e-11, -7.823827274933137e-08], [2.8201860914123245e-05, -0.00011748740507755429, -4.567781797959469e-05, -3.08993439830374e-05, 0.16619762778282166, -0.00013011659029871225, 6.633430893998593e-05, -1.6601703464402817e-05, 0.048253271728754044, 0.2865147292613983, 0.041247185319662094, 0.39722344279289246, -0.0001904211676446721, -0.6345345973968506, -6.813651270931587e-05, 0.00012353681086096913, -0.4400068521499634, 3.423786620260216e-05, -0.31040915846824646, 0.008800310082733631, -0.34514835476875305, -0.00016712641809135675, 3.7588728446280584e-05, 0.00011213886318728328, -0.00012645754031836987, 0.04415940120816231, 0.07851792126893997, -0.09315243363380432, 0.00012740978854708374, -0.05293002724647522, -6.776147347409278e-05, 0.02504906617105007], [-1.11366571218241e-05, 4.476915364648448e-06, -2.5192537123075454e-06, 9.813820724957623e-06, -0.11089593172073364, 6.980245416343678e-06, 1.9491719740472035e-06, 1.7523392671137117e-05, -0.10490282624959946, 0.019519183784723282, -0.08175607025623322, 0.21253058314323425, -3.854693204630166e-05, 0.0017741505289450288, -4.1376242734258994e-05, 4.537994755082764e-05, -0.010444669984281063, -4.614732915797504e-06, -0.20058925449848175, -0.006338841747492552, -0.10465256124734879, -2.6758754756883718e-05, -7.796106729074381e-06, 5.7160682445100974e-06, 7.410282250930322e-06, -0.058041010051965714, 0.018487701192498207, -0.00096887320978567, -9.318369848188013e-06, 0.0030525631736963987, -3.458426726865582e-05, 0.09959018975496292], [-0.00012812751810997725, 0.0003278834046795964, 0.0002587216440588236, -0.0001180750405183062, -0.05474572628736496, -1.1723069292202126e-05, -0.0002814947802107781, 0.000297725637210533, -0.04388254135847092, -0.0030052608344703913, -0.13260655105113983, 0.031201552599668503, 7.68850659369491e-05, 0.11603464186191559, 4.6477016439894214e-05, -0.0001288701459998265, -0.04562125355005264, 6.83285907143727e-05, -0.018608810380101204, 0.0595347099006176, -0.08415519446134567, 3.886488775606267e-05, -0.0002474857901688665, -0.00024085601035039872, -1.1170650395797566e-05, -0.05907749757170677, 0.04308168217539787, -0.06956642866134644, 1.3633791240863502e-05, 0.060551490634679794, 9.545578359393403e-05, 0.09425036609172821], [9.560763292171259e-11, -1.3662775077971645e-10, -1.5369393258080066e-10, 1.6015987147621757e-10, -9.468107720067565e-08, 1.5836000566427089e-10, 1.506623437119714e-10, -1.2037978946999317e-10, -2.3720488684375596e-08, -2.853706462246919e-07, -1.3488217120993795e-07, 1.0981741382920518e-07, 1.012751132956069e-10, 2.812682851072168e-07, 1.0926096138952346e-10, -9.294553321437249e-11, 1.757341578922933e-07, -1.2730634602053925e-10, -1.4481851451364491e-07, 8.678232887859849e-08, -1.3978937829506322e-07, 9.310640453064067e-11, 1.1499180774254825e-10, 1.2940172544606554e-10, 1.5891787885635722e-10, -1.792037984671424e-08, -3.2325211396511122e-09, 1.5766698879815522e-07, -1.3525155995175453e-10, -7.026833515055841e-08, 3.980479140741622e-11, 1.376540836872664e-07], [-1.2165349289716687e-05, 8.447538675682154e-06, -4.545879619399784e-06, 1.5832261851755902e-05, -0.04350809007883072, 1.0202059456787538e-05, 2.026220727202599e-06, 1.2391611562634353e-05, 0.014306594617664814, -0.017794588580727577, -0.018548011779785156, 0.03818962723016739, 8.16455121821491e-06, -0.03271172568202019, -2.0657924324041232e-05, -6.145236056909198e-06, -0.016005802899599075, -9.57729480433045e-06, -0.08230448514223099, 0.05607258528470993, -0.06650235503911972, -2.0949815734638833e-05, -1.784637242963072e-05, -9.120735739998054e-06, 1.0222737728327047e-05, -0.005250400397926569, -0.05111917108297348, 0.006522056180983782, -1.6542200683034025e-05, -0.04536101594567299, -1.7967215171665885e-05, -0.05730181559920311], [6.442631150793687e-11, -8.705319104462816e-11, -5.736465816252867e-11, 1.3031378059968901e-11, 3.5071948900622374e-07, -3.7544654885035555e-11, 7.356071307640377e-11, -1.4300650941212467e-10, 2.734996229492026e-08, -3.8085374853835674e-07, 5.012776114199369e-07, -5.753782943429542e-07, 2.210332264440673e-11, 2.832082657278079e-07, 7.985204164562276e-11, 1.2126777013121703e-11, 3.5330850778336753e-07, 3.197355574746652e-11, 1.50088638406487e-07, 2.2296990209724754e-07, 2.582968363640248e-07, 5.957324911154416e-12, 1.0133190120331648e-10, 7.459603768023015e-11, -4.0008395901791616e-11, -2.7237849309358353e-08, -2.0515231824447255e-07, 5.120882065057231e-07, 5.019072310541439e-11, -1.6172930372704286e-07, 5.6841805567975356e-11, 3.504046901525726e-07], [-0.00020998498075641692, 0.0002008394803851843, 0.0001956252963282168, -0.00017576506070327014, -0.030862560495734215, -0.000145308455103077, -0.00020188245980534703, 0.00023327181406784803, -0.0049169957637786865, -0.020843319594860077, 0.0009378754184581339, 0.09565628319978714, -3.2073916372610256e-05, 0.007912486791610718, -2.754548222583253e-05, -7.378472218988463e-06, 0.03955196589231491, 0.00011804149835370481, -0.09934229403734207, -0.05359738692641258, -0.06679486483335495, -1.8192678908235393e-05, -0.00021746079437434673, -0.00021518993889912963, -0.0001452118158340454, 0.028120044618844986, 0.06533320993185043, -0.020986072719097137, 0.00014932228077668697, -0.002523280680179596, 9.033625974552706e-05, 0.00924863200634718], [-1.8573142597233527e-06, 1.1986134040853358e-06, 7.630532081748242e-07, 4.9880924279932515e-08, -0.0001171012845588848, 5.854462301613239e-07, -9.403328249391052e-07, 2.321923602721654e-06, 0.00027711139409802854, -4.4469856220530346e-05, -0.00011911318870261312, -4.3805855966638774e-05, 2.1941427519323042e-07, 3.5928907891502604e-05, 1.2221594261063728e-06, -5.92405001498264e-07, -1.2986085494048893e-05, -9.00628833733208e-07, -2.896930709539447e-05, -9.672912710811943e-05, -0.0001184985158033669, 1.1128607866339735e-06, -1.937604338309029e-06, -1.3294588825374376e-06, 5.964636784483446e-07, 0.00028521777130663395, -0.00012160735059296712, 0.00013316447439137846, -3.6139371673016285e-07, -0.00019052799325436354, 1.0114972610608675e-06, -0.00012271884770598263], [1.3953942925581941e-06, -7.775233257234504e-07, -4.2365411445643986e-07, -3.9024692455313925e-07, -0.00015294602781068534, -8.519748462276766e-07, 5.766682420471625e-07, -1.690896283434995e-06, -0.0003003362799063325, 6.042605673428625e-05, 3.4530580705904868e-06, -9.085716737899929e-05, -7.838845590413257e-07, -4.820923277293332e-05, -1.3757114629697753e-06, 9.757717407410382e-07, 5.396442793426104e-05, 7.718901429143443e-07, 3.7274625356076285e-05, 0.00011755787272704765, 0.00019097460608463734, -1.0628958762026741e-06, 1.3834801393386442e-06, 8.793496704129211e-07, -8.486695719511772e-07, -0.00024211921845562756, 0.00011449404701124877, 5.161924855201505e-05, 4.1469863276688557e-07, 0.0003225673281121999, -9.701822136776173e-07, 0.00024398055393248796], [8.194646170522901e-07, -3.0269106332525553e-07, -1.232429127639989e-07, -4.1310218534817977e-07, -1.894494562293403e-05, -5.931958071414556e-07, 1.9495645631195657e-07, -8.831923992147495e-07, -0.0002699738834053278, 5.743173824157566e-05, 9.665497054811567e-05, -0.00010278415720677003, -7.03458624684572e-07, -4.5926717575639486e-05, -1.1317588359816e-06, 6.42175280063384e-07, 5.604296165984124e-05, 4.6969307732069865e-07, -5.7769986597122625e-05, 0.00010264736920362338, 0.00018537385039962828, -7.066105354169849e-07, 7.270051582963788e-07, 4.455316116036556e-07, -5.812838139718224e-07, -0.00019593152683228254, 0.00020345808297861367, -4.967624772689305e-05, 1.548081627333886e-07, 0.0003770984476432204, -6.64594608679181e-07, 0.00025657625519670546], [9.982343840420072e-08, -3.301215940609836e-07, -2.745707377016515e-07, 3.002716937317018e-07, -6.95841881679371e-05, 9.074081219750951e-08, 3.4265693216184445e-07, -4.095132339898555e-07, 0.00016300263814628124, -7.59113027015701e-05, -8.844587136991322e-05, 0.0001254507078556344, 4.2104684894184174e-07, 7.502805237891153e-05, 6.901045139784401e-07, -6.091477899872189e-08, -7.562792598037049e-05, -8.879881363554887e-08, 0.00013201223919168115, -4.134599294047803e-05, -0.0002161775773856789, 2.3803589499493683e-07, 2.138618100389067e-07, 1.1071337269186188e-07, 6.931274043608937e-08, 9.01637104107067e-05, -0.0002071281778626144, 5.7950514019466937e-05, 8.16220051547134e-08, -0.0003641950897872448, 2.893068540288368e-07, -0.00025660262326709926], [-0.00042178796138614416, 0.0003277854702901095, 0.00025921923224814236, -0.00021695028408430517, 0.24495577812194824, -0.000264243979472667, -0.0002172902022721246, 0.00018803308194037527, -0.011054787784814835, 0.1058560237288475, 0.3692173659801483, -0.3039022982120514, -1.882778451545164e-05, -0.12012311816215515, 0.00016101486107800156, 0.0001215755328303203, -0.04594087973237038, 0.0002846500719897449, 0.05777469277381897, 0.22044941782951355, 0.08422870934009552, -0.00018477169214747846, -0.00035843325895257294, -0.000519964552950114, -0.00027410133043304086, -0.02009916678071022, -0.30906346440315247, 0.7885906100273132, 0.00035330926766619086, -0.10337059199810028, 7.147438736865297e-05, 0.20833969116210938], [2.9975356596878555e-07, -4.828646069654496e-07, -2.6336286396144715e-07, -1.732200693993491e-08, 5.0289195314690005e-06, -3.914207127309055e-07, 4.0951485402729304e-07, -6.903418920956028e-07, 0.00010743060556706041, -5.372270243242383e-05, -0.00013121598749421537, 0.000171475054230541, -7.333808582643542e-08, 0.00010507096158107743, 4.130629349674564e-07, 4.77674745980039e-07, -9.984661301132292e-05, -3.7426360677272896e-08, 0.00015243135567288846, -9.16926292120479e-05, -0.00019375937699805945, 1.1669268928926613e-07, 4.0506500909032184e-07, 1.5617619908425695e-07, -4.108951543457806e-07, 4.9218189815292135e-05, -0.0001408399548381567, 1.2965263522346504e-05, 2.7629704391074483e-07, -0.00025143634411506355, 2.0775479470103164e-07, -0.00020552617206703871], [-8.799261195235886e-07, 3.9860768197286234e-07, 1.8321721029224136e-07, 3.977692983880843e-07, -2.241370793854003e-06, 6.342365850287024e-07, -2.7404334446146095e-07, 9.950199455488473e-07, 0.0002711999695748091, -7.11236207280308e-05, -3.2167936296900734e-05, 9.931468957802281e-05, 7.500191827602976e-07, 8.84968540049158e-05, 1.150392449744686e-06, -7.151394356696983e-07, -4.470459316507913e-05, -4.792302092937462e-07, 1.3067447071080096e-06, -7.483795343432575e-05, -0.00019116196199320257, 7.541778472841543e-07, -8.300725653498375e-07, -5.154971063348057e-07, 6.228348183867638e-07, 0.0002026186848524958, -0.00021358291269280016, 5.143820453668013e-05, -2.1994199528307945e-07, -0.0003792965435422957, 7.189581197053485e-07, -0.00027836914523504674], [2.0228080757078715e-06, -1.300410986004863e-06, -8.444222885373165e-07, -1.504771347526912e-07, 7.267301407409832e-05, -8.068754482337681e-07, 1.0259710734317196e-06, -2.493912234058371e-06, -0.00029172422364354134, 8.554753003409132e-05, -3.929510785383172e-05, 1.6007512385840528e-05, -4.918346121485229e-07, -5.306106686475687e-05, -1.2337605994616752e-06, 8.559593993595627e-07, 7.745014045212884e-06, 8.865868039720226e-07, 2.57187602983322e-05, -5.692146805813536e-05, 0.00021202242351137102, -1.1177287433383754e-06, 2.0682107333414024e-06, 1.3657165709446417e-06, -8.157686011145415e-07, -0.000346082029864192, 0.0002825787232723087, -4.32010019721929e-05, 4.2399568656037445e-07, 0.000227792959776707, -9.605292916603503e-07, 0.0002157576964236796], [-0.000103397986094933, 0.00015958186122588813, 0.0001272322260774672, -5.829738802276552e-05, 0.06792940944433212, -1.4073872080189176e-05, -0.00013283509179018438, 0.00012979391613043845, 0.3334265947341919, 0.15682154893875122, 0.004064824897795916, 0.03520529344677925, 3.5824217775370926e-05, 0.04378541186451912, 4.3621810618788004e-05, -2.6805224479176104e-05, 0.022719034925103188, 3.524818384903483e-05, -0.022111687809228897, -0.012605228461325169, -0.08136417716741562, 1.9769327991525643e-05, -0.0001287809427594766, -0.00014531146734952927, -1.57253543875413e-05, 0.025819167494773865, -0.020387422293424606, -0.08901214599609375, 2.227961340395268e-05, -0.007049104664474726, 1.7476870198152028e-05, 0.03991774842143059], [4.4414005969883874e-05, -0.0002624451881274581, -0.0003297378425486386, 0.0003083915507886559, 0.019618941470980644, 0.0002111501817125827, 0.0003274649498052895, -0.00011974255903623998, -0.09011776000261307, 0.24834202229976654, 0.0677136704325676, 0.038773421198129654, 0.00021352928888518363, -0.16151563823223114, 0.00033448534668423235, -0.00017161236610263586, 0.026293130591511726, -0.00028659249073825777, -0.1411944329738617, -0.09411805868148804, 0.06566253304481506, 0.00028503822977654636, 8.714000432519242e-05, 0.00014248426305130124, 0.00020882772514596581, -0.20591554045677185, -0.14796486496925354, 0.00100816844496876, -0.000206512791919522, 0.012136561796069145, 0.0002901899570133537, 0.06656346470117569], [0.00031172303715720773, -3.164248482789844e-05, 6.684859545202926e-05, -0.00016787234926596284, -0.04930596798658371, -0.00016162742394953966, -5.444519410957582e-05, -0.00016944795788731426, -0.12045284360647202, 0.22672203183174133, 0.3799024224281311, -0.04728790745139122, -0.00020460260566323996, -0.21404676139354706, -0.0003701693203765899, 0.00018560099124442786, 0.14741283655166626, 0.00029955842182971537, 0.12008903920650482, -0.17096081376075745, 0.43035492300987244, -0.00033439366961829364, 0.00018763427215162665, 0.0001549284061184153, -0.00016205718566197902, -0.28062358498573303, -0.8199238777160645, -0.01392257772386074, 0.00014107508468441665, 0.1972152590751648, -0.000323891727020964, 0.2710534334182739], [-0.0001791984832379967, 0.0005684466450475156, 0.00037095064180903137, -5.860648525413126e-05, 0.04007669910788536, 0.00010054875019704923, -0.00039295165333896875, 0.0005318548646755517, -0.10392506420612335, 0.07943179458379745, -0.11205960810184479, 0.05862957239151001, 0.0002331222640350461, -0.0370091013610363, -5.203738692216575e-05, -0.00016423818306066096, -0.08964235335588455, 0.00017650749941822141, -0.2202424556016922, -0.018424568697810173, -0.1580517441034317, -9.840209531830624e-05, -0.0004998882650397718, -0.00039372776518575847, 9.164832590613514e-05, -0.35970935225486755, 0.2666212320327759, 0.015288538299500942, -0.0001402847992721945, -0.11732438951730728, -0.00021639281476382166, -0.04947948828339577], [7.199906804089551e-07, -9.519651484879432e-07, -5.893812158319633e-07, 2.4703856738028662e-09, -0.00022752613585907966, -6.292080456660187e-07, 8.030532967495674e-07, -1.3643759757542284e-06, 0.00013162565301172435, -3.353455394972116e-05, -0.00014439821825362742, -1.619540125830099e-05, -3.479271981632337e-07, -2.9512611945392564e-05, 1.7513627881271532e-07, 1.0229497320324299e-06, 1.4445326996792573e-05, 1.8921878108812962e-07, 6.81821838952601e-05, 6.998667231528088e-05, -0.0001062535957316868, -2.4143028554135526e-07, 9.390161039846134e-07, 6.24336337295972e-07, -6.510941261694825e-07, 0.00018799830286297947, -0.0001912642183015123, 0.00021087221102789044, 4.6566549372073496e-07, -0.0001785319618647918, -6.789020545738822e-08, -0.00016205238352995366], [-0.0004772819811478257, 0.0008713337010703981, 0.0007789153605699539, -0.0006253725732676685, -0.244691401720047, -0.0004398552409838885, -0.0007814688142389059, 0.0007830585818737745, 0.32569006085395813, -0.1173502653837204, -0.08955395221710205, 0.28853753209114075, -0.0002676974982023239, 0.25180521607398987, -0.0002876269572880119, 0.00027145296917296946, -0.059884995222091675, 0.0003936920256819576, 0.26597702503204346, 0.017647122964262962, 0.05172068253159523, -0.00021745367848780006, -0.0007419895846396685, -0.0007396414293907583, -0.00044398370664566755, -0.04681064933538437, -0.09553006291389465, 0.616006076335907, 0.00027034286176785827, -0.08385393023490906, -0.00015339897072408348, -0.29474958777427673], [1.359296334157989e-06, -1.0166431820834987e-06, -5.742533630836988e-07, -3.0541080775492446e-08, -0.00015054472896736115, -6.988920517869701e-07, 8.569502369937254e-07, -2.1579860458587063e-06, 8.205838821595535e-05, -5.9602003602776676e-05, -0.00014267336518969387, -0.00011429082951508462, 9.799991040893019e-09, -9.63052807492204e-05, -4.988523869542405e-07, 8.231031642935704e-07, 0.00011921113036805764, 1.0017596423494979e-06, -9.98399846139364e-05, 0.00018959050066769123, -6.664509419351816e-05, -1.0185302699028398e-06, 1.5556743164779618e-06, 1.029021063914115e-06, -7.330152698159509e-07, 0.00011418706708354875, -7.367131911450997e-05, 0.00010360572923673317, 7.322205988202768e-07, -0.0002995861868839711, -7.184867740761547e-07, -0.00013589735317509621], [-7.56823453684774e-07, 9.119535775425902e-07, 4.2111929587917984e-07, 3.506846724121715e-07, -8.094597433228046e-05, 1.073124280992488e-06, -6.394280376298411e-07, 1.3395271025729016e-06, -0.00013849361857865006, -2.0110966943320818e-05, 0.00020519786630757153, -7.332374661928043e-05, 5.546314127968799e-07, -3.941070826840587e-05, -1.683711161604151e-07, -1.1669136483760667e-06, 5.49989053979516e-05, -3.1863541494203673e-07, -1.291794342250796e-05, 6.435232353396714e-05, 2.1341485989978537e-05, 1.6755910792198847e-07, -9.344904583485913e-07, -5.674114618159365e-07, 1.0955534435197478e-06, -0.00020350758859422058, 6.6619641074794345e-06, -1.7055697753676213e-05, -7.437965905410238e-07, 0.00014196964912116528, -1.7910508631757693e-07, 9.933619003277272e-05], [-0.00020295687136240304, -5.535046147997491e-05, -3.129235119558871e-05, 3.787457899306901e-05, -0.23523832857608795, -6.320095417322591e-05, 6.914360710652545e-05, 2.540838067943696e-05, -0.009202130138874054, -0.08570218086242676, 0.19616062939167023, -0.16758069396018982, -0.00018659101624507457, 0.04806101694703102, 4.166401777183637e-05, 0.00022323046869132668, 0.17738129198551178, -5.097961184219457e-05, 0.08876871317625046, 0.04074447974562645, 0.196780264377594, -1.1708857527992222e-05, -7.08390143699944e-05, -9.833422518568113e-05, -6.225279503269121e-05, -0.06403005868196487, 0.15274880826473236, -0.22243504226207733, 0.00014043168630450964, 0.0018450580537319183, 2.249324325021007e-06, 0.03274707496166229], [-6.937929128980613e-07, 5.501312330125074e-07, 2.260856462044103e-07, 1.5114123641524202e-07, -0.00023010822769720107, 6.186630798765691e-07, -3.966932524690492e-07, 1.273427528758475e-06, -0.00014541397104039788, -2.723552825045772e-05, 0.00027944421162828803, -8.574686216888949e-05, 1.4665116232492892e-08, -7.536886550951749e-05, -8.903870707399619e-08, -4.6787965857220115e-07, 4.522104427451268e-05, -6.381801540555898e-07, 5.7609919167589396e-05, 0.00017732840206008404, 4.132422327529639e-05, 3.790204914366768e-07, -8.41225698877679e-07, -4.3385230696912913e-07, 6.454046683757042e-07, -1.196183256979566e-05, -3.229405410820618e-05, 5.1993338274769485e-05, -6.949377961973369e-07, 0.00024553659022785723, 4.462276592676062e-08, 0.00013408232189249247], [0.00039300607750192285, -0.00036338347126729786, -0.00028556890902109444, 0.00014428245776798576, 0.033891040831804276, 0.00013761762238573283, 0.00026018483913503587, -0.00037187436828389764, 0.2409171164035797, 0.012504571117460728, 0.03201932832598686, 0.024441460147500038, 5.405047704698518e-05, -0.055823177099227905, -9.271041926695034e-05, -9.947726357495412e-05, -0.15668199956417084, -4.482981967157684e-05, 0.34044668078422546, -0.004726388491690159, 0.09355057775974274, 3.753611599677242e-05, 0.0004096452612429857, 0.00042177271097898483, 0.00014190813817549497, 0.16928763687610626, 0.09002669155597687, 0.0024339230731129646, -0.0001391434925608337, 0.10106091946363449, -3.2645698411215562e-06, -0.021654285490512848], [6.784252036595717e-05, -0.00021607161033898592, -0.00012561911717057228, 5.5306747526628897e-05, -0.005703015718609095, 6.105595821281895e-05, 0.00014734992873854935, -6.157648749649525e-05, 0.08967968821525574, -0.11268303543329239, 0.1695876568555832, -0.009818772785365582, -6.201335781952366e-05, -0.08592978119850159, -6.003907401463948e-05, -8.948494360083714e-05, -0.13559648394584656, -0.00016386550851166248, -0.014412268996238708, -0.010934433899819851, -0.16345837712287903, 6.617030157940462e-05, 0.00016073677397798747, 0.00015650516434106976, 6.57333730487153e-05, 0.2039443403482437, -0.7230616211891174, -0.3280145525932312, -7.41549811209552e-05, 0.029293591156601906, 3.685381307150237e-05, 0.41112983226776123], [8.853721374180168e-05, -0.00025724468287080526, -0.00025009267847053707, 0.00019636536308098584, 0.029406266286969185, 0.00012252900341991335, 0.000248062948230654, -0.0002597768325358629, 0.26125621795654297, 0.18105147778987885, -0.04100058600306511, -0.1688970923423767, 7.598380761919543e-05, 0.031405407935380936, 0.00018917405395768583, -6.327878509182483e-05, -0.0008075186051428318, -0.00018744711996987462, 0.012350298464298248, 0.09901993721723557, 0.12015865743160248, 0.00010090799332829192, 0.0002018890081671998, 0.00017058633966371417, 0.00012169815454399213, -0.3791237473487854, 0.06946443766355515, -0.036717042326927185, -0.00011572648509172723, -0.18355204164981842, 6.821416900493205e-05, -0.008101293817162514], [8.990519404505903e-07, -6.842055881861597e-07, -2.833993733020179e-07, -2.591990266864741e-07, 0.00017669594672042876, -8.788903187451069e-07, 5.323340701579582e-07, -1.5542404980806168e-06, 0.00012604841322172433, 3.8813091123302e-06, -0.00025186396669596434, -4.293004531064071e-05, -4.084111822066916e-07, 2.31753037951421e-05, -3.798598129378661e-07, 1.0373584018452675e-06, 3.482789179543033e-05, 9.063402330866666e-07, -0.00017822188965510577, -2.719835720199626e-05, 5.304266778694e-06, -8.650382028463355e-07, 1.0790556643769378e-06, 6.545147357428505e-07, -9.053540566128504e-07, 0.00011546257883310318, 0.00016511144349351525, -5.610062726191245e-05, 9.053312624018872e-07, -0.00018492667004466057, -4.4910285623700474e-07, -4.624969733413309e-05], [-1.8962202830152819e-06, 1.1605222880461952e-06, 7.238751891236461e-07, 1.942846523661501e-07, 8.007964788703248e-05, 8.205891504076135e-07, -9.073513069779438e-07, 2.3475338366552023e-06, 0.00026161104324273765, -5.724396760342643e-05, 4.373407500679605e-05, 4.443237776285969e-05, 4.908563369099284e-07, 8.799511124379933e-05, 1.3127803413226502e-06, -8.738814472053491e-07, -6.483162724180147e-05, -9.703076102596242e-07, -3.7722435081377625e-05, -4.8780810175230727e-05, -0.0001721027074381709, 1.1903000540769426e-06, -1.932843815666274e-06, -1.2682041869993554e-06, 8.294547342302394e-07, 0.00028772850055247545, -0.00010771327652037144, -6.029555152053945e-05, -4.900501835436444e-07, -0.000226503107114695, 1.0182579899264965e-06, -0.00017691770335659385], [-1.6857982245710446e-06, 9.802822660276433e-07, 5.560585805142182e-07, 2.9374746191024315e-07, 9.347458399133757e-05, 8.484690283694363e-07, -7.455952868440363e-07, 2.146333827113267e-06, 0.00026909966254606843, -6.0568039771169424e-05, 1.4104026377026457e-05, 0.00010321209992980585, 6.264606327022193e-07, 7.127151911845431e-05, 1.4984353811087203e-06, -9.515653687230952e-07, -7.77539680711925e-05, -1.0750253522928688e-06, 9.848597073869314e-06, -0.00011787616676883772, -0.00019561959197744727, 1.3217139667176525e-06, -1.7494583062216407e-06, -1.1432814517320367e-06, 8.538493148080306e-07, 0.0002532809157855809, -0.00010777950228657573, -4.484801320359111e-05, -5.673035730069387e-07, -0.00023121584672480822, 1.111759956984315e-06, -0.00015932550013531], [2.877385156807577e-07, -4.6959286237324704e-07, -2.51531702133434e-07, -2.4902144346583555e-08, 2.466956721036695e-05, -3.9277330188269843e-07, 3.9458271317016624e-07, -6.662565965598333e-07, 0.00010751791705843061, -5.213169424678199e-05, -0.00013269891496747732, 0.00017868606664706022, -7.371790644583598e-08, 0.00010967986600007862, 4.158524120612128e-07, 4.6654483298880223e-07, -0.00010661075793905184, -4.1402593353723205e-08, 0.00015224360686261207, -9.9774326372426e-05, -0.00019198283553123474, 1.2629931234187097e-07, 3.8922323142287496e-07, 1.4452483299010055e-07, -4.121124277389754e-07, 4.72385436296463e-05, -0.00013192171172704548, -5.300685756992607e-07, 2.7607671881924034e-07, -0.00025110310525633395, 2.1828871865636756e-07, -0.00020351956482045352], [-2.1516455035452964e-06, -3.300354364910163e-05, -2.64468981185928e-05, 3.151300006720703e-06, 0.07296944409608841, -9.942666565621039e-07, 2.0290410247980617e-05, 5.366967343434226e-06, -0.03445366397500038, -0.024449964985251427, -0.03615577891469002, 0.09826765954494476, -2.526402568037156e-05, 0.036807332187891006, -8.538150723325089e-06, -1.223403523908928e-05, -0.029168304055929184, -4.147759318584576e-05, -0.04076332971453667, 0.0694631040096283, 0.1388905644416809, 4.112648093723692e-05, 1.042548319674097e-05, 2.3253471226780675e-05, 1.8408577489026356e-06, 0.4323001205921173, 0.10677604377269745, 0.16045214235782623, -7.632556844328064e-06, 0.12475347518920898, 4.111000816919841e-05, -0.10641831904649734], [0.0005387367564253509, -0.00043594965245574713, -0.00038437219336628914, 0.00024595431750640273, 0.05966129153966904, 0.00010825956269400194, 0.00039683980867266655, -0.0006449379725381732, 0.13800594210624695, -0.3651997745037079, 0.06596146523952484, -0.29174649715423584, 5.784357199445367e-05, 0.1758636236190796, -0.00011804829409811646, 0.00013283065345603973, -0.15272118151187897, 9.582284110365435e-05, 0.0676141306757927, 0.9624730944633484, -0.608704686164856, -0.000292194657959044, 0.00047608770546503365, 0.00047558287042193115, 0.00010232579370494932, 0.5058332681655884, 0.1020941212773323, -0.09115058928728104, -9.196926839649677e-05, -0.13003729283809662, -0.0003538196033332497, 0.10918885469436646], [-0.00023391912691295147, -9.176234925689641e-06, -5.676921136910096e-05, 0.0001456625177524984, -0.3127540647983551, 0.00015913402603473514, 1.5643938240827993e-05, 0.0001639070687815547, -0.1707494705915451, 0.2002599686384201, 1.0608482360839844, 0.4776768982410431, 0.00016215723007917404, -0.16183733940124512, 0.0003057148423977196, -0.00020370088168419898, 0.2530805170536041, -0.0002678392338566482, -0.21802933514118195, 0.08014174550771713, 0.15182800590991974, 0.00033839017851278186, -8.825417171465233e-05, -7.700087735429406e-05, 0.00016222635167650878, -0.4188488721847534, -1.5300514698028564, 0.24783794581890106, -3.930276943719946e-05, 0.2511110305786133, 0.0003533892158884555, 0.9019395709037781], [-1.8079269636928075e-07, 4.6935636532907665e-07, 1.5631601968379982e-07, 2.122528286463421e-07, 3.40433580277022e-05, 6.713055995533068e-07, -3.215941148937418e-07, 6.330709538815427e-07, -0.0001383102498948574, -1.3614600902656093e-05, 0.00034908473026007414, -6.225868128240108e-05, 3.9238062754520797e-07, -8.106799941742793e-05, -3.8619401721007307e-07, -7.81205471866997e-07, 2.342797233723104e-05, -7.643947697033582e-08, -7.869561522966251e-05, 0.0001814510760596022, 7.927998376544565e-05, -7.600482376801665e-08, -3.683875036131212e-07, -1.0437209141400672e-07, 6.873208349134075e-07, -7.147016731323674e-05, 0.00016894133295863867, -0.00016994371253531426, -6.15284193372645e-07, 0.00013547753042075783, -2.8782980621144816e-07, 0.00011651875684037805], [0.0005111066275276244, -0.00019745982717722654, -0.0001913459855131805, 6.048242357792333e-05, 0.15645617246627808, -8.53385790833272e-05, 0.00024601168115623295, -0.00042848970042541623, -0.08029872924089432, 0.13135738670825958, -0.12715424597263336, -0.03305783122777939, 0.00014790642308071256, 0.23953093588352203, -3.7503126804949716e-05, 0.00011748406541300938, -0.004862046800553799, 0.00027948198840022087, -0.03805851563811302, -0.25814294815063477, 0.25050756335258484, -0.0002892919583246112, 0.00029763305792585015, 0.0003063683689106256, -0.00010314749670214951, -0.15082047879695892, 0.25358229875564575, -0.4251690208911896, 9.406178833160084e-06, -0.04631673917174339, -0.0001814170682337135, 0.14162197709083557], [1.0803748864418594e-06, -7.646808057870658e-07, -3.490664255423326e-07, -2.4491896510880906e-07, 0.00010724231105996296, -9.29105681279907e-07, 5.830538611917291e-07, -1.650333388170111e-06, 7.608041050843894e-05, 3.9555579860461876e-05, -0.00015564999193884432, -8.33138547022827e-05, -2.875545419556147e-07, -8.848537981975824e-05, -4.666995891966508e-07, 9.062125627679052e-07, 9.981537004932761e-05, 1.0481259096195572e-06, -0.00020414615573827177, 5.800502185593359e-05, 9.068953659152612e-05, -9.98035943666764e-07, 1.2415508763297112e-06, 8.217972435886622e-07, -9.561149454384577e-07, 0.00021203738288022578, 0.00016669038450345397, -1.3181181202526204e-05, 9.609805147192674e-07, -0.00013784326438326389, -4.637503252524766e-07, 4.7939618525560945e-05], [0.00024422325077466667, -5.4061791161075234e-05, 4.429403634276241e-05, -0.0001318477443419397, -0.30036500096321106, -6.458173447754234e-05, -2.1742285753134638e-05, -7.528651622124016e-05, -0.10432465374469757, 0.07747077196836472, 0.7442716360092163, 0.3804738223552704, -0.00015967684157658368, 0.01514788530766964, -0.00045992713421583176, 6.368324829963967e-05, -0.15784646570682526, 7.218385144369677e-05, -0.08599899709224701, 0.22307400405406952, 0.02566136047244072, -0.00018219661433249712, 0.00013588392175734043, 0.00021751494205091149, -5.89287665206939e-05, -0.24446985125541687, -0.5880482792854309, -0.18940630555152893, -8.437834912911057e-05, -0.0010247386526316404, -0.00017487026343587786, 0.80032879114151], [1.8245831234775522e-10, -1.0883345613610373e-10, -8.478888424701125e-11, 3.699788045374852e-11, -3.3599778248571965e-07, 1.9230741998832457e-11, 1.0129177357987018e-10, -2.1576650188759317e-10, -7.896250053818221e-07, -1.4784861832595197e-06, -3.8398064816647093e-07, -9.759371550899232e-07, 2.866631237941064e-11, 1.142727114711306e-06, -5.572415445742607e-11, 1.5531733885132404e-12, 1.334374815087358e-06, 1.9431617773180143e-11, -1.6183541617920127e-07, 1.1685250456139329e-07, 5.673225018654193e-07, -4.225695141024666e-11, 1.736959326370524e-10, 1.3147774535759993e-10, 1.8204921944930952e-11, 4.200810010956957e-08, -5.6152156702182765e-08, 3.1307766334975895e-07, -4.896530403364352e-11, -4.109218298964379e-09, -7.264644441562496e-11, 6.824673164373962e-07], [2.263547266290189e-10, -3.834755013532032e-10, -3.726366160083927e-10, 3.410635385225902e-10, 8.121525070237112e-07, 3.065803166890646e-10, 3.6962669036633145e-10, -3.498660527956332e-10, 8.744066093413494e-08, -4.971494718120084e-07, 8.633367656329938e-07, -3.881584120790649e-07, 1.3053187697398272e-10, 4.1748779722183826e-07, 9.136111311924822e-11, -9.677337403646291e-11, 2.8825436970691953e-07, -1.8000331780676504e-10, 2.7114901435254524e-09, 2.075772442822199e-07, 3.90990066989616e-08, 6.040590250222522e-11, 3.4988303920790997e-10, 3.850830487817092e-10, 3.0905458747731984e-10, -1.2539517868503935e-08, -3.8566884086321807e-07, 9.514409384792089e-07, -1.9631490877358715e-10, -3.6226850852472126e-07, -4.234776071476709e-11, 6.400506435966236e-07], [1.995963672118961e-10, -3.440460139003676e-10, -3.6228542388272444e-10, 3.5117139751683624e-10, 7.744746994831075e-07, 3.223143696384767e-10, 3.4766989287504657e-10, -2.949024635601205e-10, 3.9844775301389745e-07, -4.221470817356021e-08, 6.971685024836916e-07, -1.3308073221196537e-07, 1.8054528705402362e-10, 6.130805019211039e-08, 1.8832842230143143e-10, -1.3501759432710259e-10, -1.1203128025272235e-07, -2.181261976597071e-10, 1.2874139088125958e-07, 1.3164464007786592e-07, -8.347547009179834e-08, 1.260583304407703e-10, 2.8895283388230553e-10, 3.323401276400517e-10, 3.23127580248439e-10, -4.940080566839811e-10, -4.074134949405561e-07, 7.250817475323856e-07, -2.3815133198823446e-10, -2.7242606392974267e-07, 2.2831956811297793e-11, 1.0155325469440868e-07], [1.3818314548164068e-10, -2.5783372659127224e-10, -2.7827398718649476e-10, 2.767281126470067e-10, 4.194575637939124e-07, 2.474081495229541e-10, 2.672049526086795e-10, -2.0501780828574567e-10, 5.425064273367752e-07, 3.5008437748729193e-07, 4.525802523858147e-07, 2.2679680000692315e-07, 1.3858536540567457e-10, -2.243442054350453e-07, 1.844671915218754e-10, -8.681502045027045e-11, -4.3980503505736124e-07, -1.8630728904067695e-10, 7.55421467601991e-08, 1.1418581635780356e-07, -2.733274300226185e-07, 1.225775314583899e-10, 1.98815852670009e-10, 2.3755641898048907e-10, 2.473156124338516e-10, 5.143140913155264e-10, -3.399000831905141e-07, 2.173484290324268e-07, -1.8445399374567018e-10, -2.0929489608079166e-07, 4.24579676971959e-11, -2.670347214461799e-07], [0.00016787508502602577, -0.0001215495794895105, -7.200790423667058e-05, -4.950800757796969e-06, 0.11908306926488876, -4.315917249186896e-05, 9.460574801778421e-05, -0.0001709586358629167, 0.03066287562251091, 0.08061321824789047, 0.07051437348127365, -0.07676660269498825, -4.445999365998432e-05, -0.0951780304312706, -0.00014142508734948933, 4.738111965707503e-05, -0.05645132437348366, 4.3298401578795165e-05, -0.06501224637031555, -0.026006581261754036, -0.011840945109724998, -8.758503099670634e-05, 0.0001524862163932994, 0.00012539436283987015, -4.318282663007267e-05, -0.021779228001832962, -0.045317988842725754, 0.15904979407787323, 2.1878622646909207e-05, -0.04515678435564041, -0.00012960293679498136, 0.014499800279736519], [1.0392500054967613e-10, -1.891440615242601e-10, -1.9749780977296183e-10, 1.8914290966787206e-10, 1.2663593906836468e-07, 1.689586803799159e-10, 1.921760528489358e-10, -1.421519846278585e-10, 1.9811720619600237e-07, -5.621771492769767e-08, 4.09887768171302e-08, 1.68925339494308e-07, 8.24657286901953e-11, 1.0234288794208624e-07, 1.4081735777438098e-10, -6.024909737778472e-11, -4.5924601010938204e-08, -1.6148736514676187e-10, -1.0507714165441939e-07, 4.2365339680827674e-08, -2.010047381872937e-07, 1.1723626236470608e-10, 1.419109968425758e-10, 1.652972758670046e-10, 1.697153945157126e-10, 1.9720843624781992e-08, -1.4973149120578455e-07, 1.2984948227767745e-07, -1.3824111300131392e-10, -1.1831593127453743e-07, 6.042111255766258e-11, -1.2837654139730148e-07], [2.2385990283702029e-10, -3.5203412407369683e-10, -3.5670674747301234e-10, 3.2951172346251667e-10, 8.006981602193264e-07, 2.874567250898963e-10, 3.5014580124226313e-10, -3.352188526761779e-10, 2.814900312841928e-07, -1.8974508009250712e-07, 7.853087709008832e-07, -2.691661507014942e-07, 1.5644219253374558e-10, 1.690109741048218e-07, 1.4764515998688665e-10, -9.523140609424274e-11, 2.1211960188338708e-08, -1.753869272036468e-10, 1.2317900655034464e-07, 2.0276873158309172e-07, -9.792365140981474e-09, 8.03520305847627e-11, 3.1647970355486166e-10, 3.468839104847632e-10, 2.876496540960005e-10, 2.817433397694913e-09, -4.550752805698721e-07, 8.071803563325375e-07, -2.04189748442829e-10, -3.136413795346016e-07, -1.271023043758479e-11, 2.472697531175072e-07], [3.3892258444190304e-10, -3.291514283354502e-10, -2.9306232440795554e-10, 2.0965272573558735e-10, -2.107138818985277e-08, 1.4410234117079312e-10, 3.2223751444959703e-10, -4.541940989977178e-10, -9.575925332683255e-07, -1.9381523088668473e-06, 2.2056048010199447e-07, -1.3427680869426695e-06, 5.4340979632749864e-11, 1.5415865846080123e-06, -3.755834185326101e-11, 4.753725538209075e-11, 1.6465083945149672e-06, -3.527863765007133e-11, -1.0483631740498822e-07, 5.008166112929757e-07, 6.568671437889861e-07, -6.777495925591737e-11, 3.898126821333392e-10, 3.686159433247127e-10, 1.4261705705287397e-10, -7.40255217124286e-08, -3.797440797370655e-07, 8.271807701021316e-07, -1.2436555951733652e-10, -3.157755372740212e-07, -1.3665532594409058e-10, 1.3629656905322918e-06], [3.594447480281815e-05, 3.705743893078761e-06, -1.958513166755438e-05, 4.643426655093208e-05, -0.1037382185459137, 7.02767792972736e-05, 1.7090336768887937e-05, 3.3792854083003476e-05, -0.05754983797669411, 0.10625159740447998, -0.029080308973789215, 0.10437776148319244, 1.076999706128845e-05, -0.09392880648374557, 1.4118111721472815e-05, 5.8014893511426635e-06, -0.1452554166316986, -5.747421528212726e-05, -0.07238419353961945, 0.01000251155346632, -0.13104616105556488, 1.9955274183303118e-05, -1.688895827101078e-05, 4.12830331697478e-06, 7.010233821347356e-05, 0.023106170818209648, -0.04772072657942772, 0.041932348161935806, -8.72730088303797e-05, -0.026536790654063225, -6.621037755394354e-05, -0.01830700971186161], [3.89237429772038e-05, -7.740642467979342e-05, -0.00012017375411232933, 0.0001394394930684939, 0.04944060742855072, 0.00010421242041047662, 0.00012082453758921474, -1.8139116946258582e-05, 0.05397316440939903, 0.25567877292633057, 0.02157813124358654, 0.14260037243366241, 7.082644879119471e-05, -0.17405660450458527, 9.167852840619162e-05, -4.308908319217153e-05, -0.18844924867153168, -0.00010125538392458111, -0.1251133680343628, -0.02754095010459423, -0.10550795495510101, 6.701199163217098e-05, 1.4519448086502962e-05, 4.080134385731071e-05, 0.00010302841837983578, -0.07014697045087814, -0.011729973368346691, 0.0010175831848755479, -9.035037510329857e-05, -0.027481786906719208, 1.3441891496768221e-05, -0.09573274850845337], [-0.00011200695007573813, 0.00010088302951771766, 8.739034819882363e-05, -5.612553650280461e-05, 0.006264717783778906, -3.300225580460392e-05, -9.228505950886756e-05, 0.0001282256853301078, -0.004832134582102299, 0.25663211941719055, -0.022982310503721237, 0.3730708956718445, 3.7689296732423827e-06, -0.22400999069213867, 1.381703532388201e-05, -4.944198008161038e-05, -0.17468853294849396, 2.545069219195284e-05, -0.21847747266292572, -0.07841628789901733, -0.18405656516551971, 2.3622142180101946e-05, -0.00011238462320761755, -0.0001041107316268608, -3.192247459082864e-05, -0.0755329430103302, 0.087993323802948, -0.2883489727973938, 4.4566466385731474e-05, 0.027016611769795418, 8.575973333790898e-05, -0.08987528830766678], [7.75356420490425e-06, 1.6817143659864087e-06, -4.852894562645815e-06, 1.2906042456961586e-06, 0.09887735545635223, 3.55310044142243e-06, 3.7866370803385507e-06, 1.4036217180546373e-05, 0.07507406175136566, 0.2660329341888428, 0.07883157581090927, 0.15818360447883606, 2.8979773560422473e-05, -0.1766587644815445, 3.132299752905965e-05, -1.4149451999401208e-05, -0.22041955590248108, -1.4568542610504664e-05, -0.10794253647327423, -0.05584948509931564, -0.10241252183914185, 1.8829921828000806e-05, -1.2023528142890427e-05, -3.3693272598611657e-06, 2.178747081416077e-06, -0.03097306564450264, -0.035997215658426285, 0.023264529183506966, -3.5654884413816035e-05, -0.03357785567641258, 1.999590858758893e-05, -0.08402605354785919], [9.274499918054957e-11, -1.2053069653461534e-10, -1.3643933205464975e-10, 1.3920588293192537e-10, -1.8148956826280482e-07, 1.3088306827224727e-10, 1.390357967645528e-10, -1.218088963028663e-10, 5.252626067431265e-08, -1.4151551397389994e-07, -1.175191712832202e-07, 2.3078298383438778e-08, 1.1281112849426123e-10, 1.199947661234546e-07, 1.1850179171268849e-10, -8.729827971620807e-11, 4.641347217670955e-08, -1.0017732476885755e-10, -1.3903627404943109e-07, 1.6083102138964023e-07, -1.5693645138981083e-07, 8.621063585234623e-11, 1.0432010810745851e-10, 1.1420172446596766e-10, 1.3007467325465427e-10, -6.435968913365286e-08, -6.187607937135908e-08, -2.81406542512741e-08, -1.1837016089533137e-10, -9.339643725070346e-08, 4.15546590193383e-11, -1.4673071646598146e-08], [6.571186077053426e-06, -3.705572089529596e-05, -3.662220115074888e-05, 4.348175207269378e-05, 0.15298257768154144, 3.9533890230813995e-05, 3.8218917325139046e-05, -1.4295984328782652e-05, 0.04041026160120964, 0.24110639095306396, 0.033877696841955185, 0.16768433153629303, 3.4665208659134805e-06, -0.17800256609916687, 9.638644769438542e-06, -7.700651622144505e-06, -0.21449273824691772, -5.646060890285298e-05, -0.10712700337171555, -0.05464154854416847, -0.11309752613306046, 2.9176571842981502e-05, 1.8081043890560977e-05, 3.0164308554958552e-05, 4.0086477383738384e-05, -0.04608403146266937, -0.03422587364912033, 0.010417855344712734, -5.0470840506022796e-05, -0.03255963325500488, -6.0570610003196634e-06, -0.09730708599090576], [1.4469406228734272e-10, -1.5764636818182964e-10, -1.7173766575506733e-10, 1.517214964774638e-10, 1.829543805342837e-07, 1.04917685650463e-10, 1.8045175076419895e-10, -2.3021068384920795e-10, 1.9507471904489648e-07, -3.538656017099129e-07, 3.1483006068810937e-07, -5.638745506075793e-07, 1.574149005589831e-10, 2.873039193218574e-07, 2.1359058965941813e-10, -8.918664418100519e-11, 2.4358715222660976e-07, -6.249866596474973e-11, 2.1835359120814246e-07, 3.385144111689442e-07, 1.4189112107487745e-07, 8.599829182109886e-11, 1.624064632776978e-10, 1.4584315699561756e-10, 1.0051010718159503e-10, -9.878258566686782e-08, -3.489683706447977e-07, 3.8156085224727576e-07, -9.499440123406089e-11, -1.421924480382586e-07, 8.217654334785607e-11, 1.1867749805105632e-07], [3.490580047227354e-11, -5.524821572455707e-11, -7.727218864772567e-11, 9.79466993622502e-11, -4.920451033285644e-07, 1.2195711107665375e-10, 7.926843209604684e-11, -3.6865028391064314e-11, -3.200990761342837e-07, -6.627239486078906e-07, -4.54461542176432e-07, -9.740356432530461e-08, 1.0912364761805904e-10, 5.153261781742913e-07, 8.927934086466749e-11, -1.29518673563922e-10, 5.373461817725911e-07, -1.0681448087135337e-10, -2.1190888332967006e-07, 1.2008180760858522e-07, -3.497457967682749e-08, 1.0123324400979072e-10, 3.801157999472338e-11, 5.4237763585929244e-11, 1.2282308503586137e-10, -1.1226757834492673e-07, 9.350580398859165e-08, -1.1491439266819725e-07, -1.257043913405198e-10, -2.608585703001154e-08, 6.345271530427965e-11, 2.2057753312765271e-07], [4.610284304362722e-05, -3.8433860026998445e-05, -3.144849688396789e-05, 2.1796877263113856e-05, 0.04925727844238281, 1.947719465533737e-05, 2.656661490618717e-05, -3.747682785615325e-05, 0.06658662855625153, 0.22017137706279755, 0.0437852144241333, 0.1719646006822586, 1.8001401258516125e-05, -0.19013719260692596, 1.9563769455999136e-05, -3.5745255445363e-05, -0.22418427467346191, -5.741427594330162e-05, -0.09087445586919785, 0.003003257792443037, -0.14996203780174255, 4.3618067138595507e-05, 4.700192221207544e-05, 5.451523975352757e-05, 1.993461228266824e-05, -0.0007159519591368735, -0.013390169478952885, 0.00087326968787238, -6.046826092642732e-05, -0.02053019590675831, 3.870773070957512e-05, -0.006100634578615427], [4.254567878558824e-11, -9.978082249340048e-11, -1.001861163474338e-10, 9.648922633109791e-11, 2.6380066131537205e-08, 9.287847574368513e-11, 9.836041009458896e-11, -6.64288693497106e-11, -6.1705257792255e-08, -3.9244025629159296e-07, 9.604919881667229e-08, -3.2313977271769545e-07, 3.991728475538636e-11, 2.960958340736397e-07, 6.879020270078584e-11, -5.227707849941865e-11, 3.4473012533453584e-07, -9.288522728745363e-11, 1.281050998613864e-07, 1.3931341413808696e-08, 1.6510982447925926e-07, 6.974767291501038e-11, 7.327202733442562e-11, 8.322906253077633e-11, 9.438691495056162e-11, 1.9785312943554345e-08, -4.568888911649083e-08, 2.689751710249766e-08, -6.61298030224522e-11, -3.012404192759277e-08, 3.802972173283514e-11, 3.825289862646741e-09], [-0.00013296009274199605, 0.00013506339746527374, 0.00011653796536847949, -0.00010737620323197916, -0.0371849425137043, -0.00010384534834884107, -0.00011507164890645072, 0.00013388822844717652, -0.00764679117128253, 0.1941082924604416, 0.020073888823390007, 0.1673852503299713, -4.048165646963753e-05, -0.1349182277917862, -2.253049024147913e-05, 4.758033173857257e-05, -0.16948829591274261, 8.054852514760569e-05, -0.17403052747249603, 0.029004044830799103, -0.12143688648939133, -5.241117105470039e-05, -0.00014582618314307183, -0.00015428519691340625, -0.00010511596337892115, -0.04969429969787598, -0.07171279191970825, 0.034759510308504105, 8.891631296137348e-05, -0.031100569292902946, 2.343873529753182e-05, 0.010601530782878399], [-1.9477123714750633e-05, 4.797201199835399e-06, 6.167924311739625e-06, -6.119612407928798e-06, -0.020857838913798332, -6.956031484151026e-06, -7.42802558306721e-06, 1.8495078620617278e-05, 0.09958202391862869, 0.20030181109905243, 0.06986933946609497, 0.12232118844985962, -4.7482564696110785e-05, -0.18962152302265167, 3.46154956787359e-05, 3.830036803265102e-05, -0.14958986639976501, -1.1580566024349537e-05, -0.035908039659261703, -0.01214685570448637, -0.046182457357645035, 1.1886118045367766e-05, -7.661456947971601e-06, -7.3479745879012626e-06, -6.093006049923133e-06, -0.00781338382512331, -0.007766544818878174, -0.036983635276556015, 2.854435660992749e-05, 0.00100336957257241, 2.8505623049568385e-05, -0.03149167448282242], [0.00014730176189914346, -0.00019885112124029547, -0.00021871371427550912, 0.0001952199818333611, 0.09347059577703476, 0.00015856836398597807, 0.00020615465473383665, -9.042430610861629e-05, 0.14005307853221893, 0.18777525424957275, 0.09363479912281036, 0.13156327605247498, 3.222941086278297e-05, -0.21873149275779724, 1.876648525467317e-06, -3.671613012556918e-05, -0.20503993332386017, -0.0001831649278756231, -0.07893411815166473, 0.0398900993168354, -0.10570021718740463, 5.061440242570825e-05, 0.00012782540579792112, 0.00018775174976326525, 0.00016118804342113435, -0.0017439889488741755, -0.06783636659383774, -0.008188768289983273, -0.00017147889593616128, -0.03854399174451828, -9.225428948411718e-05, -0.013277504593133926], [5.977189576622521e-11, -8.215933489097438e-11, -6.000386298943283e-11, 3.1732557553842966e-11, 2.5095684463849466e-07, -1.0250184381832561e-11, 7.912519944808238e-11, -1.323061799007874e-10, -1.9618441626789718e-07, -6.35732249065768e-07, 4.302953584556235e-07, -6.55444011954387e-07, 7.680759674111304e-12, 5.031917567066557e-07, 3.62546208332315e-11, 2.4346372140549022e-11, 5.738284585277142e-07, 2.982477112500881e-11, 1.7497636406460515e-07, 2.5267993919442233e-07, 3.126142473774962e-07, -2.450488423288988e-11, 9.714826859630321e-11, 7.57840248888364e-11, -1.1753271966785661e-11, -4.377939433197753e-08, -1.5348750537214073e-07, 4.3977598807032336e-07, 4.558353694505968e-11, -1.6174844574834424e-07, 6.620547751516603e-13, 3.6562221339409007e-07], [2.4605961712609314e-10, -2.9932167855406533e-10, -2.6211063874903573e-10, 2.0371053455203736e-10, 1.0227122260175747e-07, 1.606418886801464e-10, 2.7904900612440997e-10, -3.537271864306746e-10, -5.540503593692847e-07, -1.382584628117911e-06, 3.248458426696743e-07, -8.728229090593231e-07, 4.6304429041077455e-11, 1.0932294571830425e-06, -2.0649353754675914e-11, 6.021230389285925e-12, 1.1568421314223087e-06, -5.905295696884139e-11, -1.3075529636807914e-07, 3.080895396578853e-07, 3.9092148540476046e-07, -3.195524053700716e-11, 3.2795616222713875e-10, 3.2141178607503207e-10, 1.6156655180399326e-10, -1.6828664683998795e-08, -2.41707283521464e-07, 6.54746486361546e-07, -9.81697431678974e-11, -2.618123460251809e-07, -1.0045106413336669e-10, 1.0037072115665069e-06], [2.0770672681802438e-10, -3.399644732393625e-10, -3.114563884576427e-10, 2.7408583735955006e-10, 4.752033930799371e-07, 2.3349189248733637e-10, 3.1607710893055696e-10, -3.3323077630598164e-10, -5.772763156386418e-09, -7.372373715952563e-07, 6.598951358682825e-07, -4.4076051608499256e-07, 7.950744923546083e-11, 5.905590683141781e-07, 4.5520011371369407e-11, -3.678068266621537e-11, 5.587929194916796e-07, -1.0976464182022028e-10, -9.585610172280212e-08, 2.2700463375713298e-07, 1.1606702088329257e-07, 1.202752914625238e-11, 3.2928046400648725e-10, 3.470957965490129e-10, 2.3540275284616996e-10, 1.0303837782998926e-08, -2.785539834349038e-07, 7.255736136357882e-07, -1.176472669284223e-10, -3.0973865250416566e-07, -6.878565078638488e-11, 6.993375336605823e-07], [9.975804904360785e-11, -1.8767214171599989e-10, -1.959814810437166e-10, 1.881640954159991e-10, 1.2668988347286358e-07, 1.6923670798085766e-10, 1.9002537043899537e-10, -1.36250122295678e-10, 1.966870826208833e-07, -6.336503588499909e-08, 3.4919260372134886e-08, 1.746884947806393e-07, 7.995946266214915e-11, 1.077753069012033e-07, 1.4036528883654142e-10, -6.077697373152446e-11, -3.916162327755046e-08, -1.642936897638947e-10, -1.0520344062570075e-07, 3.180617724751755e-08, -2.008395512120842e-07, 1.196799465086329e-10, 1.3848398816573848e-10, 1.6321773099736703e-10, 1.7016955899951114e-10, 1.974667895865423e-08, -1.4317485863557522e-07, 1.2554909289974603e-07, -1.3835622925117974e-10, -1.1504598518286002e-07, 6.297754678863399e-11, -1.2929778847592388e-07], [-7.224286946438951e-06, 5.585460894508287e-05, 4.26910410169512e-05, -0.00013705051969736814, 0.04823219031095505, -0.00015174024156294763, -5.053166387369856e-05, 4.173578417976387e-05, 0.0976303294301033, 0.08914950489997864, 0.08825435489416122, 0.06660528481006622, -0.0001477050391258672, -0.1087939664721489, -0.00019918418547604233, 0.00013925058010499924, -0.07833847403526306, 0.00015841821732465178, -0.024375902488827705, -0.0454692617058754, 0.007378376089036465, -0.00018391039338894188, -5.036500806454569e-05, -6.765824218746275e-05, -0.00015039612480904907, -0.016241835430264473, -0.024784697219729424, 0.03522157296538353, 0.00013685507292393595, 0.007494734134525061, -0.00011569076013984159, -0.052344705909490585], [-1.687583903731138e-07, -4.0170187276089564e-05, -4.96235370519571e-05, 6.115352152846754e-05, -0.03412817791104317, 6.394174852175638e-05, 4.524552059592679e-05, 1.3795165614283178e-06, 0.019632674753665924, 0.30382680892944336, -0.026301853358745575, 0.4849647879600525, 2.3908456569188274e-05, -0.2354164868593216, 5.148605487192981e-05, -2.2489623006549664e-05, -0.310764878988266, -6.113616836955771e-05, -0.23178556561470032, 0.002686015795916319, -0.31443867087364197, 5.271143527352251e-05, 1.4093458958086558e-05, 3.7962632632115856e-05, 6.456997653003782e-05, -0.06790350377559662, 0.053710900247097015, -0.06945549696683884, -4.882619032287039e-05, -0.03318487107753754, 3.5933284380007535e-05, 0.05164544656872749], [0.00018425752932671458, -0.0001408344105584547, -0.0001284196914639324, 0.0001021661955746822, 0.0781765878200531, 8.100305421976373e-05, 0.0001283262245124206, -0.00013915736053604633, 0.10561005771160126, 0.3099648952484131, 0.0356980636715889, 0.04265021160244942, 4.307689596316777e-05, -0.23880919814109802, 4.089343929081224e-05, -5.3233230573823676e-05, -0.24006347358226776, -9.398235124535859e-05, -0.10482827574014664, 0.03806839883327484, -0.1615598201751709, 6.388774636434391e-05, 0.00015482655726373196, 0.00016303325537592173, 8.187528874259442e-05, 0.016202881932258606, 0.028388025239109993, 0.015470553189516068, -9.265247354051098e-05, -0.019129877910017967, 1.6391899407608435e-05, -0.003593254368752241], [9.633871478342826e-11, -1.392050641424447e-10, -1.561593215848589e-10, 1.6350489018268632e-10, -1.1061093374564734e-07, 1.606156180278262e-10, 1.5334709890790776e-10, -1.2503800772556417e-10, -1.7786547346076986e-08, -2.7723791617972893e-07, -1.2899974421998195e-07, 1.215492346773317e-07, 1.0353672086349519e-10, 2.7504518129717326e-07, 1.1150699114059748e-10, -9.368631564976582e-11, 1.6835106464441196e-07, -1.2556167217070424e-10, -1.4110922563759232e-07, 9.767742881194863e-08, -1.437961145711597e-07, 9.12506112338285e-11, 1.181968967145508e-10, 1.3185368075152581e-10, 1.6110207612385352e-10, -1.8818097302641945e-08, -1.2490450451707602e-08, 1.4015306248893467e-07, -1.3339115922939015e-10, 