{"model_data": {"model": "SimpleRNN", "input_size": 2, "skip": 1, "output_size": 1, "unit_type": "GRU", "num_layers": 1, "hidden_size": 32, "bias_fl": true}, "state_dict": {"rec.weight_ih_l0": [[-0.004642361309379339, 0.15432405471801758], [3.3549028444213036e-08, 8.289704567232548e-08], [-0.029643485322594643, 0.1937318593263626], [-0.05820531025528908, 0.1927659958600998], [0.05508985370397568, 0.13728807866573334], [-3.019192007513993e-08, -1.025258711706556e-06], [0.022301949560642242, 0.18879976868629456], [-2.4462497094646096e-06, -2.145221696991939e-05], [-1.0697489187805331e-06, -7.76062734075822e-06], [-0.06437452137470245, 0.12394799292087555], [-3.1332353955804138e-06, -2.2476639060187154e-05], [0.028416072949767113, -0.012240683659911156], [0.009774983860552311, 0.18252971768379211], [1.9195471878674653e-09, -5.09317672481302e-08], [-3.0421770134125836e-06, -2.301668246218469e-05], [3.9933613749099095e-08, 1.795887101252447e-07], [3.618808719352273e-08, 1.0988983234483385e-07], [-9.777360032714455e-10, -4.830465627492231e-08], [0.025572875514626503, 0.1149447038769722], [-0.9207425713539124, -0.08786441385746002], [0.03405588120222092, 0.19137471914291382], [2.271774590667519e-08, -8.883454682973024e-08], [-2.8437441415007925e-06, -2.4789249437162653e-05], [0.01469819899648428, 0.253043532371521], [0.0817892923951149, 0.13850905001163483], [0.0760447159409523, 0.10911687463521957], [-1.6868012542303745e-09, -2.840794195435592e-07], [-0.002327329944819212, 0.14022457599639893], [2.97323410336503e-08, 8.649140426086888e-08], [0.04371422529220581, 0.3192741870880127], [-0.04989306628704071, 0.31574851274490356], [-0.07168552279472351, 0.09902358800172806], [-0.004225112497806549, -0.03223182633519173], [8.62932303391517e-09, -1.800041182775658e-08], [0.024018878117203712, -0.1426667422056198], [-0.023553935810923576, -0.15705975890159607], [0.004448591265827417, -0.05440085008740425], [1.1481560591164452e-08, 1.682350045939529e-07], [-0.026593461632728577, -0.13544906675815582], [4.988634145774995e-07, 2.2458871171693318e-06], [9.554006510370527e-07, 4.899719030504457e-08], [0.010561910457909107, 0.0011009367881342769], [6.441216555685969e-07, 9.622432344258414e-07], [0.014306892640888691, -0.0554465688765049], [0.0009697540663182735, -0.018302617594599724], [1.4155147054495387e-09, -5.271464598166631e-09], [6.107648573561164e-07, 1.3684923487744527e-06], [1.0312998455219713e-08, -3.144350912975824e-08], [1.1833074076150751e-08, -4.339965542499158e-08], [1.8861991968321945e-09, -3.098267864487525e-09], [-0.0055628204718232155, -0.011482199653983116], [0.003800216130912304, -0.3079734444618225], [0.004615322221070528, 0.27858442068099976], [6.572181021624601e-09, 2.8902542581477064e-08], [5.922070158703718e-07, 2.248257260362152e-06], [0.001817400217987597, -0.28209301829338074], [-0.08094613999128342, 0.5041106343269348], [-0.003828386077657342, -0.021780548617243767], [8.43911607262271e-09, 1.5247735518642003e-07], [-0.0015488280914723873, -0.035131484270095825], [1.5006360598590618e-08, 5.178625084312216e-09], [0.02467632293701172, -0.31030958890914917], [0.0037391989026218653, -0.3018718659877777], [0.0035501194652169943, -0.010490505024790764], [0.3174848258495331, -0.33521565794944763], [-0.00012074312689946964, -3.8440426578745246e-05], [0.12489274889230728, -0.005002258811146021], [-0.14677421748638153, -0.016065888106822968], [0.13801784813404083, 0.39273494482040405], [-0.0001130776945501566, -5.306346793076955e-05], [-0.14235393702983856, -0.060701362788677216], [-0.00027814286295324564, 6.619943633268122e-06], [-0.0008905758149921894, 1.620990951778367e-05], [-0.32231849431991577, -0.27587443590164185], [-4.123703092773212e-06, -1.555643029860221e-05], [-0.39983639121055603, 0.2372022271156311], [0.16088731586933136, -0.4656941890716553], [-4.208180689602159e-05, -3.5179615224478766e-05], [8.282923954539001e-05, -9.452326594328042e-06], [0.00013575347838923335, 4.5725209929514676e-05], [-0.00010595278581604362, -2.652683724591043e-05], [5.0702619773801416e-05, 3.807896064245142e-05], [0.08333161473274231, 0.021889809519052505], [-1.0582695007324219, -0.6770649552345276], [-0.14801214635372162, 0.05354002118110657], [0.00015890544455032796, 5.6541175581514835e-05], [0.0002468632301315665, -3.015300080733141e-06], [-1.1036782264709473, -0.01624014601111412], [0.09183967858552933, 0.06648481637239456], [-0.21130357682704926, 0.4032025933265686], [0.0001412897981936112, 3.1735311495140195e-05], [0.24817384779453278, 0.35000595450401306], [0.00018837933021131903, 4.694194649346173e-05], [-1.1646870374679565, -0.022514544427394867], [0.5605699419975281, -0.01375565305352211], [0.2214137762784958, 0.34468141198158264]], "rec.weight_hh_l0": [[-0.07025646418333054, -2.2313171939458698e-05, 0.10720659792423248, -0.03973683714866638, 0.08940236270427704, 1.5409432307933457e-05, 0.006461018696427345, 8.466674626106396e-05, 0.00024810046306811273, -0.1794687658548355, -1.99064288608497e-05, 0.04051773250102997, 0.07299935817718506, -2.2075221295381198e-06, -3.7539768527494743e-05, 3.1124720408115536e-05, -4.380112295621075e-05, 2.3614444444319815e-07, 0.013412567786872387, 0.02116675302386284, 0.010217166505753994, -1.7725456302741804e-07, -7.152355101425201e-05, 0.023129690438508987, -0.03434673696756363, 0.08609136939048767, -1.3718031368625816e-05, 0.11284314095973969, 3.2989473766065203e-06, -0.1301158219575882, 0.03866153582930565, 0.12970386445522308], [-6.073793201721855e-08, -2.3549863448213415e-11, -1.494067873863969e-07, 2.0772196762663953e-07, 6.26948670756633e-09, -3.6628339250555086e-11, 2.53368398261955e-07, -1.5439838296771313e-10, -8.159800959917085e-12, -1.3043502633536264e-07, 1.2896400614081927e-10, -1.1389603571387852e-07, -5.752334164554895e-09, -3.111178415587945e-12, 1.3455384029192885e-10, 2.637609575195654e-11, -1.3915766976235755e-11, 5.062109151993122e-12, 2.6891893156744118e-08, 2.2369507135522326e-08, -3.369584078427579e-08, 2.800003111314009e-11, 1.615776401564517e-10, 4.4556440315091095e-08, 1.4463887509919005e-07, 8.708907728305348e-08, 1.4469304226993884e-11, 1.1799973265169683e-07, 3.408136273197471e-11, 2.478168710240425e-07, -1.1376509689853265e-07, 1.2081275713171635e-07], [-0.1019836887717247, 1.4862901480228174e-05, -0.03760669007897377, 0.08291534334421158, 0.09219735115766525, 2.1175897927605547e-05, 0.22529202699661255, 0.00013197561202105135, 0.00012272092862986028, -0.20131689310073853, -0.00014214118709787726, 0.04155780375003815, -0.016584686934947968, 2.091487476718612e-05, -0.00014939234824851155, 1.8912805899162777e-05, -5.8319621132341126e-08, -1.8537270079832524e-05, 0.010681133717298508, 0.03489372879266739, -0.018267055973410606, 1.6603147741989233e-05, -0.00014258682494983077, 0.06476406008005142, -0.01887073926627636, 0.1679934710264206, -3.8185695302672684e-05, 0.13541044294834137, 4.80857961520087e-05, 0.22209878265857697, -0.05184945836663246, 0.16985060274600983], [-0.09808766096830368, -2.2535879907081835e-05, 0.015082870610058308, 0.055512797087430954, 0.1435079574584961, -4.4679269194602966e-05, 0.07912486791610718, -0.00029645173344761133, 8.773871377343312e-05, -0.15651634335517883, 0.0003447264898568392, 0.025071626529097557, 0.05432507395744324, -2.8346719773253426e-05, 0.00034385017352178693, -1.0083988854603376e-05, 3.547350843291497e-06, 2.806574775604531e-05, 0.041523754596710205, 0.10159018635749817, 0.04025537520647049, -1.3590408343588933e-05, 0.0003217055054847151, 0.04887000471353531, 0.02191798761487007, 0.2334282100200653, 2.8162829039501958e-05, 0.12761211395263672, -4.232885839883238e-05, 0.02689788118004799, 0.010321312583982944, 0.15231060981750488], [-0.01590828411281109, -3.063915210077539e-05, -0.028544044122099876, -0.036925215274095535, 0.06981560587882996, 5.028897794545628e-05, 0.008827002719044685, 0.0002944194129668176, 7.060843927320093e-05, -0.16557450592517853, -0.000241392437601462, 0.07381398975849152, 0.06966967135667801, -1.0446632586535998e-05, -0.0002708171959966421, 4.612148040905595e-05, -4.278828055248596e-05, 1.2277127098059282e-05, -0.0073747592978179455, -0.060680825263261795, -0.033655162900686264, 1.4262665217756876e-06, -0.0003109818499069661, -0.09720682352781296, -0.07921931892633438, 0.09100419282913208, -3.35246222675778e-05, 0.05571794882416725, 2.6058640287374146e-05, -0.043261878192424774, 0.0844898447394371, 0.10321791470050812], [2.780301144866826e-07, 2.7411295455692652e-11, -7.437749900418567e-07, 3.7803420127602294e-07, -7.872811806919344e-07, -1.560902969377498e-11, 3.930210823455127e-07, -4.0569389514466536e-10, 2.114892705407101e-10, 1.0521210924707702e-06, 5.301751815345312e-10, -3.2793462878544233e-07, -6.499514029201237e-07, 4.7407945624744485e-11, 4.998751412799152e-10, -4.193125013873811e-11, -3.4030632044962372e-12, -5.495995325510705e-11, -9.537132683590244e-08, -2.222697048637201e-07, -2.7167002869532553e-08, -7.137658519784651e-11, 4.5846940133209557e-10, 1.8597096129724378e-07, 2.77748569033065e-07, -1.0279194384565926e-06, -5.99672186907263e-11, -5.538079790312622e-07, -8.44923991882851e-11, 7.051543207126088e-07, -5.868897687832941e-07, -7.924991223262623e-07], [-0.11993440240621567, -2.6360088668297976e-05, 0.20199204981327057, -0.07851696759462357, 0.13907752931118011, -0.00010860656766453758, 0.005213479045778513, -0.0005338191404007375, -0.00014764377556275576, -0.1710144579410553, 0.0005224233609624207, 0.05016140639781952, -0.018494850024580956, -3.2237810955848545e-05, 0.0005405955598689616, -1.7839753127191216e-05, 4.042014097649371e-06, 3.2118998205987737e-05, 0.026199236512184143, 0.01587325893342495, -0.013463442213833332, 1.3605548701889347e-05, 0.0005598682910203934, -0.029769299551844597, -0.021226322278380394, 0.14788763225078583, 7.278943667188287e-05, 0.15045474469661713, -3.528866363922134e-05, -0.2171224057674408, 0.07217521220445633, 0.1616792529821396], [2.1355956505431095e-06, 8.462211487092475e-10, -1.7285221474594437e-05, 1.0354206096963026e-05, -1.5398154573631473e-05, 9.191715721890148e-10, 1.5033534509711899e-05, -7.061112250461576e-10, 4.332486813751757e-09, 2.504185431462247e-05, 4.0058218964134085e-09, -7.976665074238554e-06, -2.0824638340855017e-05, 1.4255849833944012e-09, 2.818676625437888e-09, -9.611862417102657e-10, -1.696027762676522e-10, -1.611338062978973e-09, -4.466162863536738e-06, -5.653453627019189e-06, 4.571921010665392e-07, -2.1026935748125197e-09, 1.244996994387293e-09, 4.235761934978655e-06, 6.576479336217744e-06, -2.0592078726622276e-05, -1.918235792430778e-09, -1.1402132258808706e-05, -1.9658248362475206e-09, 1.9690878616529517e-05, -1.4652187928732019e-05, -1.7086278603528626e-05], [7.100563834683271e-06, -6.337107921750018e-11, -7.660968549316749e-06, 2.698709238302399e-07, -6.99191195963067e-06, -4.25882135113298e-10, -2.3062110443561323e-08, -1.5379680862182e-09, -4.061310454606115e-10, 7.73188003222458e-06, 2.0010328949382483e-09, -1.2755652960549924e-06, -6.374054350999359e-07, 1.6483259202004774e-10, 1.857335951704897e-09, -5.794666482761279e-11, -1.7284004782958107e-10, -1.6042746298072785e-10, -1.282932657886704e-06, -1.5297658819690696e-06, 3.8098349364190653e-07, -2.1938095784435063e-10, 1.5903617311963103e-09, -8.305686947096547e-07, -6.241026540010353e-07, -8.084588444035035e-06, 2.8727906165038064e-10, -6.685634161840426e-06, -2.8132587925888686e-10, 4.854033250012435e-06, -6.174419127091824e-07, -7.210471721919021e-06], [-0.045482736080884933, 3.41234372172039e-05, 0.059699613600969315, -0.002662664745002985, 0.016746170818805695, 7.568272121716291e-05, 0.05682354420423508, 0.0002619587176013738, 6.296616629697382e-05, -0.1350506991147995, -0.00024828084860928357, 0.051865119487047195, 0.10302064567804337, 2.975937422888819e-05, -0.0002596815465949476, -9.943561053660233e-06, 1.7146663594758138e-05, -2.9269142032717355e-05, -0.017644144594669342, -0.05382739007472992, -0.0037061613984405994, -1.9343235180713236e-05, -0.00027144717751070857, 0.018326036632061005, -0.05881883576512337, 0.11642635613679886, -5.308452091412619e-05, 0.0312952883541584, 2.814523440974881e-06, 0.026309380307793617, -0.008762894198298454, 0.09106709808111191], [2.6815598630491877e-06, 1.0361820290683e-09, -1.8026994439424016e-05, 9.918197065417189e-06, -1.60629515448818e-05, 7.093254872359012e-10, 1.367977984045865e-05, -2.7634139421195414e-09, 6.506828409413856e-09, 2.640316051838454e-05, 6.0440501492564636e-09, -7.623184956173645e-06, -2.1544363335124217e-05, 1.4700283212931708e-09, 4.908290662797299e-09, -1.3458283376621694e-09, 1.4536791215213896e-10, -1.6604106978235222e-09, -5.032430181017844e-06, -5.6600297284603585e-06, 7.914073876236216e-07, -2.2457988801960482e-09, 3.499068368384428e-09, 4.000754870503442e-06, 6.057147402316332e-06, -2.166969352401793e-05, -1.6868890728716224e-09, -1.2605931260623038e-05, -2.3276400806793163e-09, 1.912526204250753e-05, -1.4045935131434817e-05, -1.8358212400926277e-05], [0.13709509372711182, 3.687913704197854e-05, -0.003088982542976737, -0.033756695687770844, -0.1494840532541275, 0.00020032333850394934, 0.03517971560359001, 0.0012888696510344744, -0.00020370174024719745, -0.039081696420907974, -0.001279311254620552, 0.020140165463089943, 0.11206432431936264, 3.5707234928850085e-05, -0.0013324622996151447, 4.20181495428551e-05, -1.9622439140221104e-05, -3.541803016560152e-05, -0.023960944265127182, -0.1008036732673645, -0.006930944975465536, 5.381690243666526e-06, -0.0013692964566871524, -0.07327607274055481, -0.0635330080986023, -0.054506078362464905, -0.000125992126413621, -0.07772732526063919, 8.781400538282469e-05, -0.010937578976154327, 0.01910344697535038, 0.00011287277447991073], [-0.11502933502197266, 3.136777741019614e-05, 0.0015255974140018225, -0.026537297293543816, 0.16003000736236572, -7.851445843698457e-05, 0.04643036425113678, -0.00043166050454601645, -0.00042513536754995584, -0.1998835653066635, 0.00027103780303150415, 0.045991212129592896, -0.06474572420120239, 2.9979813916725107e-05, 0.0003235701587982476, -3.784914224524982e-05, 6.0300069890217856e-05, -2.7281896109343506e-05, -0.0014022683026269078, 0.03613748401403427, -0.05665302276611328, 1.1548881957423873e-05, 0.00041066185804083943, -0.0021844650618731976, -0.058786094188690186, 0.17221511900424957, 2.9145163352950476e-05, 0.1486920714378357, -1.3005560504097957e-06, -0.0033834478817880154, 0.004274378996342421, 0.16362722218036652], [-2.95995885579714e-08, -5.3433498944932545e-12, -1.4583337204499003e-08, 2.2049211345631647e-09, 6.058428869692989e-09, 1.0117180530844205e-11, -6.24293079454219e-08, 6.399224206088405e-11, -4.009854080722075e-12, 8.409630680716873e-08, -4.738965816986074e-11, -7.577812155545871e-09, -6.314560607734165e-08, -3.924005217981197e-12, -5.190035901048162e-11, 6.043051909571107e-12, -1.156485063963375e-11, 3.45326436716753e-12, -8.133084428152415e-09, 6.9821508574818836e-09, -1.0418679252666152e-08, -1.927879947696831e-12, -6.360968696217384e-11, 1.7493624326903046e-08, -8.538571627525471e-09, -3.358216460469521e-08, 9.939446184506484e-13, -1.7808760688353686e-08, -6.289174910023565e-13, -2.0668704081572287e-08, -2.272615429177449e-09, -4.715774437613618e-08], [2.5629112769820495e-06, 9.824739910513358e-10, -1.8934868421638384e-05, 1.0544787983235437e-05, -1.6616193533991463e-05, 8.7627621825348e-10, 1.5658892152714543e-05, -1.6053204321408998e-09, 5.723775231558648e-09, 2.6989306206814945e-05, 4.9934589796407636e-09, -8.062273991527036e-06, -2.202164614573121e-05, 1.5098453598483275e-09, 3.78128017786139e-09, -1.2072520760852967e-09, -1.574838024744063e-12, -1.704045349271155e-09, -5.053964287071722e-06, -5.930141924181953e-06, 6.64320566556853e-07, -2.260748477311836e-09, 2.253462305645826e-09, 4.286458988644881e-06, 6.448933618230512e-06, -2.214801497757435e-05, -1.8568893089820904e-09, -1.2675346624746453e-05, -2.2282728995293155e-09, 2.0756060621351935e-05, -1.5101481949386653e-05, -1.8591001207823865e-05], [-1.5862909208408382e-07, -1.8877841997944067e-11, 1.5611888670719054e-08, 2.431417556181259e-07, 1.3946137755738164e-07, -4.395091235398496e-11, 2.1132480299002054e-07, -1.827418771860323e-10, 1.6852138174511255e-12, -1.688412254452487e-07, 1.4144495297241377e-10, -1.2634473023354076e-07, -1.0683621809448596e-07, 3.176402283561197e-12, 1.4888455746042695e-10, 2.4153715486030514e-11, -7.633416468366683e-12, -1.040044461143863e-12, 4.539890952059977e-08, 5.7809298681377186e-08, -3.336414167165458e-08, 2.972093057773684e-11, 1.8825226100194214e-10, 1.0422752438898897e-07, 2.3542258986708475e-07, 2.2697199142385216e-07, 1.2453853052984964e-11, 1.989636047028398e-07, 3.825922217925992e-11, 1.5412140896842175e-07, -1.2780803615441982e-07, 1.8551935454524937e-07], [-8.037311260977731e-08, -1.9590296398974694e-11, -1.2904982638062279e-09, 2.2106372910002392e-07, 4.788261875887656e-08, -3.254676389508049e-11, 2.08695354331212e-07, -1.1755842133087668e-10, -1.0718714978097399e-11, -1.264442204274019e-07, 8.401292855841902e-11, -1.13130226964131e-07, -6.247681483273482e-08, -1.4143050879739105e-12, 8.929389172518398e-11, 2.358744796704393e-11, -1.0525308923037269e-11, 3.079864922123088e-12, 2.3836333795657083e-08, 2.430730638991463e-08, -2.1539023009609082e-08, 2.668026390095779e-11, 1.201345967150047e-10, 5.576462314138553e-08, 1.7270760110932315e-07, 1.3623287031805376e-07, 1.230098401611146e-11, 1.3145174193596176e-07, 3.442568452527439e-11, 1.6311521733314294e-07, -1.1766170615601368e-07, 1.2757811873598257e-07], [-2.319016090268633e-08, -5.128035149293275e-12, -8.1795121786854e-09, -1.4063098463523716e-09, 5.621383802889568e-09, 1.0132813858809708e-11, -6.277085162764706e-08, 6.501815058568283e-11, -7.25111116983701e-12, 7.797198264825056e-08, -4.799954531065076e-11, -4.4899328699443686e-09, -5.278993242541219e-08, -3.755531476079543e-12, -5.252185145132593e-11, 5.851923112754065e-12, -1.1489443944856514e-11, 3.2439198896505594e-12, -6.420526776906854e-09, 1.0299869401819706e-08, -9.953685875530027e-09, -2.3034059468823864e-12, -6.448119815871678e-11, 1.8251032685157043e-08, -1.3767653683771641e-08, -3.431085460192662e-08, 3.861046410976593e-13, -1.811142169572122e-08, -8.554925431253357e-13, -2.612737581841884e-08, 7.437978677415913e-09, -4.533089281721914e-08], [-0.08532662689685822, 2.88827304757433e-05, 0.08320634067058563, -0.0029470103327184916, 0.09728830307722092, -6.732716428814456e-05, -0.015030870214104652, -0.0003007106715813279, 0.0002312919677933678, -0.08212785422801971, 0.0003261809761170298, 0.011676364578306675, 0.0014710971154272556, -1.1210420780116692e-05, 0.00032233117963187397, -4.3777345126727596e-05, 4.203433854854666e-05, 1.1432754035922699e-05, 0.0206193495541811, 0.0034962918143719435, 0.009917163290083408, 2.1513633328140713e-05, 0.00033506620093248785, 0.01078994944691658, 0.010272342711687088, 0.09754827618598938, 4.3903775804210454e-05, 0.10867637395858765, -1.4524027392326389e-05, -0.05320030450820923, 0.016335422173142433, 0.10936259478330612], [0.4135204553604126, -0.0001459347695345059, -0.14779481291770935, -0.25562191009521484, -0.31639713048934937, 1.2598756256920751e-05, 0.13523881137371063, -0.00015336088836193085, 0.00022678481764160097, -0.28707534074783325, 0.00016018662427086383, -0.03731270134449005, 0.18245361745357513, -2.7548428988666274e-05, 0.0001631475315662101, 0.00012046212214045227, -0.0001343532494502142, 2.76862829196034e-05, 0.2420421540737152, 0.44874680042266846, -0.32283884286880493, 3.6520468711387366e-05, 0.00018763392290566117, 0.020658517256379128, 0.30270183086395264, -0.3337841033935547, 4.727384657599032e-05, 0.0834735780954361, 5.090213380753994e-05, 0.0029525638092309237, 0.08302999287843704, -0.03968191146850586], [-0.07980906218290329, 6.0377875342965126e-05, 0.007810522802174091, 0.00042707574903033674, 0.10847891867160797, -5.6015078371274285e-06, 0.006484525743871927, -5.57199637114536e-05, 1.2359933862171602e-05, -0.21492154896259308, -4.5470555050997064e-05, 0.033538468182086945, 0.009261200204491615, 4.959269062965177e-05, -2.261593544972129e-05, -3.1542273063678294e-05, 7.20569005352445e-05, -4.385076681501232e-05, 0.02149106375873089, 0.010263077914714813, -0.04103047028183937, -2.158730239898432e-06, 1.9089720808551647e-05, 0.029353605583310127, -0.015736693516373634, 0.08728242665529251, -5.2167637477396056e-05, 0.14514051377773285, 1.5474503015866503e-05, -0.004427299834787846, -0.013909116387367249, 0.16796055436134338], [3.4250188463147424e-08, -4.8354853107723805e-12, 1.2967320550671957e-08, 7.389618250641661e-09, -5.294489824336779e-08, -9.088891965436385e-12, 2.7003999036878668e-08, -6.044492684154079e-11, -5.117554643940814e-11, 9.862102245961069e-08, 6.176704286930956e-11, -3.417872918021203e-08, -8.373162785346722e-08, 2.3744372353723397e-12, 6.389498652392689e-11, 3.7620184745179586e-12, -6.904540307550722e-12, -2.490320449854977e-12, 8.65458815724196e-09, 4.508072581899114e-09, -2.0166320169323626e-08, -1.7142008298942635e-12, 6.354578668821276e-11, 3.6941920633637437e-09, 4.7802398484009245e-08, -8.542312457393564e-08, 1.9981434042082302e-12, -4.6050125490637583e-08, -5.573765732812264e-13, 1.4835552342162828e-08, 6.781277761547244e-09, -7.50141708749652e-08], [2.7951300580753013e-06, 9.39503030927824e-10, -1.977155807253439e-05, 1.1332109352224506e-05, -1.7952004782273434e-05, 1.0434311192852874e-09, 1.7046366338036023e-05, -7.706024707232473e-10, 4.708827994193143e-09, 2.8870455935248174e-05, 4.457075597485982e-09, -8.96020901564043e-06, -2.3875409169704653e-05, 1.6036794114882014e-09, 3.1321529814221094e-09, -1.115995629241695e-09, -1.8993583095205935e-10, -1.813309724596479e-09, -5.245798547548475e-06, -6.432406280509895e-06, 5.312239750310255e-07, -2.4136752596604083e-09, 1.3694742007075433e-09, 4.504927346715704e-06, 7.27598535377183e-06, -2.3949969545355998e-05, -2.0815946744079383e-09, -1.3437127563520335e-05, -2.2694890411401047e-09, 2.2455535145127214e-05, -1.6251837223535404e-05, -1.988860640267376e-05], [-0.1017804741859436, -2.7350824893801473e-05, 0.07706349343061447, -0.014340665191411972, 0.14055658876895905, -3.998212923761457e-05, 0.0956956073641777, -0.00019285822054371238, -0.00014497488155029714, -0.26911601424217224, 0.00012826967576984316, 0.056985288858413696, 0.11266392469406128, -1.3825821952195838e-05, 0.00015419010014738888, 1.3622307960758917e-05, -8.750466804485768e-06, 1.5843143046367913e-05, 0.024592023342847824, -0.0030464406590908766, -0.017715806141495705, 2.116138239216525e-05, 0.0001885445963125676, -0.03101654164493084, -0.04999515041708946, 0.19396227598190308, 3.7005018384661525e-05, 0.16802871227264404, 1.383381004416151e-05, -0.04538372531533241, 0.014265621080994606, 0.22366492450237274], [-0.0323820598423481, -3.371045022504404e-05, 0.00015313619223888963, -0.03823409974575043, 0.03426361829042435, -0.00012279728252906352, -0.07255774736404419, -0.0002290213160449639, 0.00023057243379298598, -0.01104769017547369, 0.00021324458066374063, 0.04633631184697151, 0.023177165538072586, -4.544764306047e-05, 0.000203065705136396, 2.978022166644223e-06, 3.8092075556050986e-05, 5.5190965213114396e-05, 0.011474025435745716, -0.031587112694978714, 0.022307954728603363, 6.455500988522545e-05, 0.0002123779122484848, -0.03063226118683815, 0.012349837459623814, -0.038687754422426224, 0.00011317520693410188, 0.11753197759389877, 3.620359711931087e-05, -0.01506114099174738, 0.05295601487159729, 0.1200830340385437], [0.04455745220184326, -1.721425178402569e-05, 0.11253204196691513, -0.02345820516347885, 0.011319402605295181, 2.3721824618405662e-05, 0.06814471632242203, 0.0001712259545456618, -0.00020382762886583805, -0.18445807695388794, -0.0001426059752702713, 0.008954189717769623, 0.12648287415504456, -9.816231795412023e-06, -0.000155443703988567, 2.0035875422763638e-05, -2.2633383196080104e-05, 1.035746026900597e-05, 0.013308894820511341, 0.04158081114292145, -0.05460966378450394, -8.520220262653311e-07, -0.00018165884830523282, -0.0460035614669323, -0.03749161213636398, 0.01570502109825611, -6.1840692069381475e-06, 0.0421249158680439, 6.627447419305099e-06, -0.02391332946717739, 0.05042995512485504, 0.09516353160142899], [2.655500530579502e-08, -1.3272651207263397e-11, -5.6889746247179573e-08, 9.391573030370637e-08, -1.1770873697969364e-07, 2.3303308935296307e-11, -1.1336756422508643e-08, 9.877709761241249e-11, -2.6571819397580576e-11, 2.897520801070641e-07, -3.6467915492943703e-11, -4.957654553550128e-08, -7.2155074803959e-08, -1.101919553866959e-12, -5.2593717575488697e-11, 1.637365937279256e-11, -3.658911021386935e-11, -2.046878075021019e-12, 2.320274461453664e-08, 3.745265786392338e-08, -3.544591464788027e-08, -1.7290986351059523e-11, -8.828424796769596e-11, 4.7225643839965414e-08, 3.6520610535717424e-08, -3.0232325798351667e-07, -2.2610455174820743e-11, -1.0899212554704718e-07, -8.341074358986234e-12, 6.766389759604863e-08, -1.0587083210111814e-07, -2.1712364173254173e-07], [-0.05868523567914963, -2.197651883761864e-05, -0.1286671906709671, 0.025575269013643265, 0.10784699767827988, -8.402959792874753e-05, 0.06293076276779175, -0.00039140266017057, -0.00019532481383066624, -0.16116774082183838, 0.0003529707610141486, 0.021021410822868347, 0.03354376181960106, 1.4311336826722254e-06, 0.0003689322911668569, -2.010976629662764e-07, -6.717891665175557e-06, -1.4749141428183066e-06, 0.049181289970874786, 0.07518834620714188, -0.05222190544009209, 1.702572262729518e-05, 0.0004013257275801152, 0.040639039129018784, 0.031641703099012375, 0.12251705676317215, 6.583189679076895e-05, 0.12127406895160675, 1.047101613949053e-05, 0.034686364233493805, 0.05438309162855148, 0.12325584143400192], [-1.5264274111359555e-07, -8.987317834385777e-12, -6.94313513349698e-08, 1.4614523990985617e-07, 1.3083526084756159e-07, -2.8976748084330595e-11, 4.393720232087617e-08, -1.3681675237187108e-10, -7.215446989894403e-12, -1.9151276120510374e-08, 1.0882889034391496e-10, -8.828045849895716e-08, -2.0678739076629427e-07, 6.793657216647153e-12, 1.1521152781801547e-10, 1.229740528158052e-11, -3.8923230957776944e-12, -5.284018882167896e-12, 2.1249169535053625e-08, 4.941981401884732e-08, -2.38282868991746e-08, 1.4328908719274391e-11, 1.3905310236594914e-10, 6.430393995060513e-08, 1.7574431865341467e-07, 1.3443592195017118e-07, 9.097033022709144e-12, 1.1619322748401828e-07, 1.9582759025471574e-11, 1.0872636124759083e-07, -8.529330841611227e-08, 7.640578303380607e-08], [-0.4025609791278839, 9.65120125329122e-05, 0.07824783772230148, 0.06881313771009445, 0.4310096204280853, -9.127976227318868e-05, 0.08043887466192245, -0.0007026426610536873, 0.000580247666221112, -0.152053564786911, 0.0007500835927203298, 0.1083555594086647, -0.11943017691373825, -2.8047415980836377e-05, 0.0007563068065792322, -0.00014328648103401065, 0.00012497130956035107, 2.1329286028048955e-05, 0.03092806227505207, 0.05663556605577469, 0.05685205012559891, -1.9451994376140647e-05, 0.0007970423903316259, -0.08088986575603485, 0.017038043588399887, 0.36811208724975586, 4.870379052590579e-05, 0.34376680850982666, -0.00010463442595209926, 0.04079166427254677, 0.05832991749048233, 0.3058447241783142], [-0.45518389344215393, 5.880012849956984e-06, -0.1829950511455536, 0.06414566189050674, 0.41500577330589294, -9.592765127308667e-05, -0.10573785752058029, -0.0006918758153915405, -5.3322695748647675e-05, -0.13725365698337555, 0.0005778703489340842, 0.08094041049480438, -0.12246014177799225, -6.4623827711329795e-06, 0.0006296145729720592, -6.999634933890775e-05, 6.945451605133712e-05, 5.473171313497005e-06, 0.014114633202552795, 0.06878558546304703, 0.04294930025935173, -2.2520756829180755e-05, 0.0007170031312853098, -0.033794376999139786, 0.016582032665610313, 0.39721056818962097, 7.416274456772953e-05, 0.3092248737812042, -6.673954339930788e-05, -0.021469570696353912, 0.025380803272128105, 0.26698270440101624], [-0.1163514032959938, -8.478932045363763e-07, -0.09399246424436569, 0.04629788175225258, 0.06117299571633339, 1.434639034414431e-05, 0.10406413674354553, -5.319451702234801e-06, -0.00016604219854343683, -0.06432773917913437, 1.4450249182118569e-05, 0.016251787543296814, -0.08362291008234024, -3.0064029488130473e-06, 1.000674001261359e-05, -1.3376962670008652e-05, -7.096049898791534e-07, 3.5098739203931473e-07, 0.016890840604901314, 0.0074907406233251095, 0.008778506889939308, -2.0382532966323197e-05, 4.9181167014467064e-06, 0.06873913109302521, 0.03055211715400219, 0.10591340065002441, 3.8382663660740945e-06, 0.09397552162408829, -2.4861908968887292e-05, 0.08729992806911469, -0.05610708147287369, 0.08595773577690125], [-0.012311763130128384, 2.8495542210293934e-05, -0.011133519932627678, 0.010968436487019062, -0.014505527913570404, -1.3851279618393164e-05, 0.03612721711397171, -0.00025527196703478694, 0.00027003599097952247, 0.04644385725259781, 0.00034170917933806777, -0.0018908677157014608, -0.04638117924332619, 1.8207550965598784e-05, 0.00031612819293513894, -3.998003376182169e-05, 2.2202699256013148e-05, -2.172262429667171e-05, -0.012486684136092663, -0.01021383423358202, 0.0025005510542541742, -3.343719072290696e-05, 0.00028459218447096646, -0.010971805080771446, 0.003067676443606615, -0.03225678205490112, -2.9212620574980974e-05, -0.014867071993649006, -5.662326657329686e-05, 0.01408394519239664, 0.008228455670177937, -0.026002537459135056], [4.420790844505973e-09, -7.902430446127262e-12, -3.859656061422356e-08, -2.4554431821144362e-09, 1.4387342872623776e-08, -4.358504442775191e-12, -6.803822572010176e-08, -1.998650550616432e-11, -4.7171589551142645e-11, 2.579965219240421e-08, 1.6360518842462035e-11, 3.602978582151195e-09, -1.207532385194554e-08, -1.8808199355596633e-12, 1.9911581064513406e-11, 5.188250436910513e-12, -7.445301319908282e-12, 1.905418531289449e-12, -1.4426599914685312e-09, -5.997148111447359e-09, 6.758726467381848e-09, -1.7058561865585659e-13, 2.068183645176358e-11, -2.5068356279689397e-08, -2.307074531415765e-09, -1.3175490920502853e-08, 6.50209833891191e-12, -7.090727116576545e-09, 5.852724988680835e-13, -4.068475778495895e-09, 1.1022581070108117e-08, -1.72866059244825e-08], [0.07199711352586746, -2.575130929471925e-05, 0.033294081687927246, -0.06102534383535385, -0.06736625730991364, 1.9918215912184678e-05, -0.147023543715477, 0.0001603222481207922, -0.00020518191740848124, 0.1455167829990387, -0.000131737717310898, -0.031182527542114258, -0.04705038294196129, 5.073440206615487e-06, -0.00014213209215085953, 3.782395287998952e-05, -3.492148607620038e-05, -2.573758138169069e-06, -0.008128492161631584, -0.026283860206604004, 0.004024913068860769, 3.605235633585835e-06, -0.00018038356211036444, -0.024941686540842056, 0.01704563945531845, -0.13813818991184235, -1.8529202861827798e-05, -0.08953622728586197, 2.1331703464966267e-05, -0.150230273604393, 0.029214972630143166, -0.12402666360139847], [0.026340028271079063, -4.345830348029267e-06, -0.06010543182492256, 0.007772382348775864, -0.0888274535536766, 2.9508330499083968e-06, -0.07694586366415024, -4.906307003693655e-05, -6.830200436525047e-05, 0.18528561294078827, 8.7684478785377e-05, -0.021265357732772827, -0.11122246086597443, 5.2645100367954e-07, 8.14848390291445e-05, 4.7609469788767456e-07, -1.87788755283691e-05, -2.641535502334591e-06, -0.02820058912038803, -0.021727489307522774, 0.0039225416257977486, -1.853157846198883e-05, 6.124706851551309e-05, 0.007544445805251598, 0.01743738166987896, -0.15446427464485168, -2.2145632101455703e-06, -0.09653090685606003, -2.10184371098876e-05, 0.028339603915810585, -0.013387749902904034, -0.13627535104751587], [0.01335696130990982, -1.1265423381701112e-05, 0.01155386958271265, -0.002912675030529499, -0.03472745418548584, 2.0077717636013404e-05, -0.03110165148973465, 0.00011317707685520872, -0.00017243210459128022, 0.05470588058233261, -0.00011870950402226299, -0.015318873338401318, -0.05274340137839317, 2.142040557373548e-06, -0.00011698529124259949, 1.652343780733645e-05, -2.3146054445533082e-05, -2.7545177090360085e-06, 0.002309280913323164, 0.003194323508068919, -0.009478812105953693, -9.722623872221448e-06, -0.00012559781316667795, 0.010640129446983337, 0.020487051457166672, -0.07138574123382568, -5.714783583243843e-06, -0.022734953090548515, 5.712385245715268e-06, 0.0020679328590631485, -0.005922555457800627, -0.04513445869088173], [-2.1024364471600165e-08, -2.4302515295310245e-12, 1.3814207022733171e-07, -6.753137427040201e-08, 1.3789197339519887e-07, 8.886968418109209e-12, -6.172159316975012e-08, 1.2293097095827932e-10, -7.071142976711187e-11, -1.8109433597146563e-07, -1.4746244503260897e-10, 6.6517522157028e-08, 1.4163647676923574e-07, -4.691797731576353e-12, -1.4378148671667645e-10, 1.0419053640686737e-11, -1.3805819822857585e-13, 6.356891141950927e-12, 2.6539183295426483e-08, 4.146722787368162e-08, 6.8194307978330926e-09, 1.525701787130629e-11, -1.3713970237194673e-10, -3.7353323989464116e-08, -5.408306691379039e-08, 1.706715551108573e-07, 4.33146964476383e-12, 8.756764913186998e-08, 2.186656584968194e-11, -1.6971428351553186e-07, 1.1385749587589089e-07, 1.3207979066010012e-07], [0.06587807089090347, -3.5949931316281436e-06, -0.13140450417995453, 0.05102112144231796, -0.12201688438653946, 2.3579189019073965e-06, 0.0764928013086319, 8.514042747265194e-06, -2.9944067136966623e-05, 0.13260650634765625, 1.404111230840499e-06, -0.02545246295630932, -0.034398969262838364, -1.296855202781444e-06, 4.968922553416633e-07, -7.582220860058442e-07, 1.6798819046925928e-07, 1.7040482589436579e-06, -0.027109289541840553, -0.02109554037451744, 0.012284182012081146, -9.558491910865996e-06, -1.2906507436127868e-05, 0.013862168416380882, 0.011912367306649685, -0.1164715513586998, -6.505413693957962e-06, -0.10432527214288712, -1.1312326932966243e-05, 0.15669074654579163, -0.05029360204935074, -0.11157643049955368], [-3.508035604227189e-07, 3.1211273149311936e-11, 2.860438598872861e-06, -1.1522905651872861e-06, 1.9088736280536978e-06, 1.3061293713256816e-10, 1.4411232029942767e-07, 1.3702210477362087e-09, -8.501290227336256e-10, -2.456487663948792e-06, -1.6842759409385621e-09, 8.169135412572359e-07, 1.7396928342350293e-06, -2.9245193072791054e-11, -1.625556578233045e-09, 5.4366747215262023e-11, 2.9460028166949925e-11, 4.059438549197658e-11, 4.4314518277133175e-07, 3.0381303872673016e-07, 4.172704137772598e-08, 1.4666827474751898e-10, -1.5157040067492744e-09, -9.317024591837253e-07, -5.883260314476502e-07, 2.222047669420135e-06, 3.61460236741884e-11, 1.3450710412143962e-06, 1.9722663779919714e-10, -2.8697081688733306e-06, 1.9914248241548194e-06, 1.8311905023438158e-06], [5.913715312999557e-07, -3.930798464502061e-10, -1.3018284050758666e-07, -1.1812344382633455e-06, 1.791728891475941e-06, -1.165183088902566e-10, -5.287790372676682e-06, 7.125872669710986e-10, -3.5481233506828858e-09, 8.212648339167572e-08, -1.5244719930862516e-09, 4.3408283545431914e-07, 2.947099915218132e-07, -6.322806861414065e-11, -1.2541450100655993e-09, 3.8526362655666446e-10, -3.433402451236134e-10, 9.015802687750707e-11, 4.4595023496185604e-07, 3.9575036225869553e-07, 1.9754114077841223e-07, 2.10985826032406e-10, -9.554874669248647e-10, -1.985572907869937e-06, -9.564782743609612e-08, 2.748589338352758e-07, 4.0785105848151204e-10, 2.8811538754780486e-07, 3.7935712904335617e-10, -2.8444419513107277e-06, 2.396924401182332e-06, -1.6802151492356643e-07], [-0.006800143513828516, 2.2216778233996592e-05, 0.010376199148595333, -0.004015855956822634, 0.01017826609313488, -1.3714851775148418e-05, 0.0027943633031100035, -0.00013422168558463454, 0.00012105608766432852, 0.003020491451025009, 0.00014447570720221847, -0.0006872449885122478, -0.013249846175312996, 6.340282652672613e-06, 0.00014213968825060874, -2.6906309358309954e-05, 2.7518142815097235e-05, -6.532104180223541e-06, 0.0021920569706708193, 0.002120820339769125, 0.0022185156121850014, -7.565071882709162e-06, 0.0001402453490300104, -0.011199538595974445, 0.005177848506718874, -0.00033062754664570093, -3.7890295061515644e-06, 0.007549602072685957, -2.1230049242149107e-05, -0.01122093852609396, 0.004393072333186865, 0.0012854726519435644], [-7.866569973202786e-08, 2.2747690883728744e-11, 2.3922254968056222e-06, -1.08205392734817e-06, 1.1205609098396963e-06, 9.941487910669622e-11, -5.340092101846494e-08, 8.92832252574749e-10, -9.251746035943142e-10, -1.0770085054900846e-06, -1.1765494134508003e-09, 4.0497582176612923e-07, 6.76862782711396e-07, 1.4681728055521148e-11, -1.1090229845578392e-09, 3.193766778819551e-11, 1.5990382845956774e-12, -9.872223698248472e-12, 3.4558118500171986e-07, -1.3474187099404844e-08, -2.821339251113386e-08, 7.764671544618906e-11, -1.0040194231564215e-09, -9.896922392726992e-07, -1.8434374737807957e-07, 9.053644021150831e-07, 2.882831647010864e-11, 7.278441103153455e-07, 1.1988499082349335e-10, -2.6396942303108517e-06, 1.7986886859944207e-06, 7.842563150006754e-07], [0.10786700248718262, 2.8877551812911406e-05, 0.0756596177816391, -0.028205178678035736, -0.08950647711753845, 2.013032826653216e-05, 0.10813160240650177, 0.00013922907237429172, -2.270469667564612e-05, -0.006825365126132965, -0.00014009224832989275, -0.015047223307192326, 0.06458219140768051, 3.224463580409065e-05, -0.00013941593351773918, -8.729221917747054e-06, 1.08355316115194e-05, -3.1981900974642485e-05, -0.0044538769870996475, -0.01292299572378397, -0.01650562882423401, -6.9647981035814155e-06, -0.00016318778216373175, 0.0008001982350833714, -0.01413398515433073, -0.07254131138324738, -3.4486092772567645e-05, -0.06429798901081085, 4.6062023102422245e-06, -0.019000928848981857, 0.0031479632016271353, -0.039303846657276154], [0.014747717417776585, -3.4158979360654484e-06, 0.008915313519537449, -0.004741033539175987, -0.01474716141819954, -6.404051873687422e-06, -0.011608329601585865, -2.7331398086971603e-05, -2.002694964176044e-05, 0.015025071799755096, 2.1541956812143326e-05, -0.0034803145099431276, 0.0029633918311446905, 4.027773314874139e-08, 2.4302993551827967e-05, 2.3475938633055193e-06, -2.3562372462038184e-06, -3.170640994198948e-08, -0.00042490585474297404, -0.0005812003510072827, -0.0003142304194625467, 2.4632352051412454e-06, 2.8766433388227597e-05, 0.0007223974098451436, 0.0002454400819260627, -0.0187042448669672, 3.917548383469693e-06, -0.014935649000108242, 2.7330900138622383e-06, -0.0075065274722874165, 0.005061346106231213, -0.016374634578824043], [3.37909433767436e-09, -9.046226766805388e-13, -7.413616942564261e-10, -5.7126423591569164e-09, 1.137046186372448e-11, 6.018680562616674e-13, -1.9080751201272506e-08, 9.106269557856983e-12, -9.460037787845099e-12, 6.804670604765306e-09, -1.2319190806353575e-11, 1.5779029194362693e-09, -4.300926281786133e-09, -1.12950284975738e-13, -1.1671018318448745e-11, 1.426633008776157e-12, -4.2139431050483567e-13, 3.203092901592902e-13, -1.7041197619693804e-10, -6.453037548759255e-10, -4.6031470302132504e-11, 1.1761352525577196e-12, -1.0778913352160746e-11, -4.137503673007359e-09, -9.41773548035485e-10, -5.765401933643943e-09, 7.559980202617722e-13, -3.967212780509044e-09, 2.169255009995541e-12, -1.2142171712525851e-08, 7.3783552601014435e-09, -5.862652141530589e-09], [-1.4663648073565128e-07, 2.9966147618853967e-11, 2.621572548378026e-06, -1.1388186749172746e-06, 1.3579831374954665e-06, 1.1580885556083942e-10, 4.0658193256604136e-08, 1.0768780311920523e-09, -9.046697835302098e-10, -1.5227410585794132e-06, -1.370345947826479e-09, 5.395346533987322e-07, 1.022611513690208e-06, 3.394023126782053e-12, -1.3065398762890368e-09, 3.705612552917792e-11, 1.2872216313686291e-11, 3.367602637721623e-12, 3.8094734122751106e-07, 7.346080366232854e-08, -9.50268042032576e-09, 9.898047659273601e-11, -1.2011858174787449e-09, -9.819214028539136e-07, -3.1500420050178946e-07, 1.3141462886778754e-06, 2.622921498052211e-11, 9.191222716253833e-07, 1.445269182109854e-10, -2.793822886815178e-06, 1.9036959884033422e-06, 1.114271526603261e-06], [-5.1090562891431546e-09, -7.487934751415626e-12, -6.167650212773879e-08, 7.652575462202549e-09, 1.268012983501876e-08, -3.0925451002111748e-12, -5.677657810565506e-08, -1.8544648455742774e-11, -4.490414637348117e-11, 4.425595179213815e-08, 1.6323829440945126e-11, -5.000706071456307e-09, -2.773692386881521e-08, -5.295582901224463e-14, 1.9147261900998025e-11, 5.017190655987047e-12, -8.540664703238221e-12, -1.256066106160303e-13, -3.6021097216121234e-09, -1.1390122622856325e-08, 9.028296332758146e-09, -1.6251523781221633e-12, 1.9577239135371016e-11, -2.841163215805409e-08, 5.859190022050598e-09, -2.232749629627051e-08, 4.622109119056805e-12, -7.70357289070489e-09, -5.055176112780946e-13, 1.50265577758546e-08, -2.593145698170929e-09, -2.5302549389039086e-08], [4.590002156135142e-09, -7.245880111195202e-12, -4.83420627972464e-08, 6.005322905622279e-09, -5.431281202561422e-09, -3.194275139534186e-12, -3.7794190888007506e-08, -2.6573432690413235e-11, -4.0825596375748674e-11, 5.210178599668325e-08, 2.7819432521503096e-11, -8.954990526888196e-09, -3.6170280992564585e-08, -2.8140348124622294e-13, 3.014696131620198e-11, 4.2131914276821725e-12, -8.893920322439186e-12, -9.307595791102283e-14, -4.326825564504588e-09, -1.5437661815553838e-08, 3.514352364675233e-09, -2.984412630219202e-12, 2.8933423365518074e-11, -2.6393863095108827e-08, 9.09172470642261e-09, -4.009631737744712e-08, 3.983139339192032e-12, -1.6065815344745715e-08, -2.5548426221821963e-12, 1.708680841261412e-08, -1.9651373861506727e-09, -3.5085101046661293e-08], [3.9342018531840495e-09, -1.1724205590743497e-12, 7.925769068828359e-11, -7.193525775051057e-09, 2.7398989743687707e-09, 7.920529466673432e-13, -2.4048343760796342e-08, 1.2792041731435333e-11, -1.2959354943331558e-11, 4.4325711989756655e-09, -1.7049696723892005e-11, 2.9904401177560658e-09, -1.6586848561317424e-09, -2.1157630768903202e-13, -1.6196259611245267e-11, 1.897148020277295e-12, -5.95888084969215e-13, 4.773947621765362e-13, 3.1228195029875394e-10, 3.5289463018450817e-10, 2.803154375285999e-10, 1.6124131110156759e-12, -1.5001630146449507e-11, -5.5444782098845735e-09, -2.177407365522299e-09, -3.3143798816581693e-09, 1.0161502715655413e-12, -3.1160938274155114e-09, 2.906173565686565e-12, -1.56776831516936e-08, 1.0282644069548041e-08, -4.404357767384681e-09], [-0.005567195825278759, 2.866104114218615e-05, -0.0305196400731802, 0.0031044287607073784, -0.01018806453794241, -1.0941169421130326e-05, 0.002180968876928091, -0.00014321415801532567, 0.00018508831271901727, 0.0112359169870615, 0.0001601548574399203, 0.001948544755578041, 0.02438785880804062, 3.4971960758412024e-06, 0.00015786688891239464, -3.823458246188238e-05, 3.064031625399366e-05, -6.267005119298119e-06, -0.008957453072071075, -0.0026249380316585302, -0.0037141733337193727, -1.2519996744231321e-05, 0.00016402870824094862, -0.0021187758538872004, -0.00784390326589346, -0.007311262656003237, -7.506428119086195e-06, -0.01213254313915968, -3.2335905416402966e-05, 0.0003561917692422867, -0.000542866182513535, -0.008766869083046913], [0.08909273892641068, -1.4103774446994066e-05, -0.14502973854541779, 0.004584907554090023, -0.15370513498783112, -1.540744779049419e-05, -0.15086232125759125, -8.464724669465795e-05, -5.701257032342255e-05, 0.34756413102149963, 0.00013255869271233678, -0.07202718406915665, -0.14259542524814606, -8.146231067485132e-08, 0.00012660653737839311, 4.732538855023449e-06, -2.172888707718812e-05, -1.368595121675753e-06, -0.03582485765218735, -0.034640222787857056, 0.009538860060274601, -1.5298743164748885e-05, 8.638587314635515e-05, -0.008553626947104931, 0.05813220515847206, -0.26893243193626404, -1.1603081475186627e-05, -0.1819901019334793, -2.8283209758228622e-05, -0.00994706992059946, -0.013835592195391655, -0.26021715998649597], [-0.1137561947107315, 1.092264756152872e-05, -0.035018499940633774, 0.026734476909041405, 0.18101851642131805, 5.1026665460085496e-05, -0.011900634504854679, 0.00025477222516201437, 8.615490514785051e-05, -0.2877857983112335, -0.00017296921578235924, 0.04008783772587776, 0.12538933753967285, 4.322330823924858e-06, -0.00019954892923124135, 3.676044798339717e-06, -1.45403973874636e-05, -8.070870535448194e-06, 0.03296675533056259, 0.03467916324734688, -0.02005225047469139, -2.5842311515589245e-05, -0.0002526785829104483, 0.03047940693795681, -0.0293789841234684, 0.2641722857952118, -6.016657061991282e-05, 0.1778654307126999, -1.8997965526068583e-05, 0.08124702423810959, -0.06076207384467125, 0.22334805130958557], [-6.127725438176412e-09, -5.267166910960519e-12, -6.469243363227406e-09, -1.6661449109278692e-08, 4.629242056353178e-08, 9.193880465968585e-13, -7.249994382618752e-08, 3.6537869951835944e-11, -4.948017343076039e-11, -2.5486787791351162e-08, -4.866262254266118e-11, 1.7275960217943975e-08, 2.4231816553310637e-08, -1.7023707747296224e-12, -4.5842746265734036e-11, 7.28386361642519e-12, -4.469100870624354e-12, 2.4006838184043033e-12, 5.938536329352928e-09, 1.1720955761518326e-08, 4.269061548711761e-09, 5.804966750344587e-12, -4.2209728767783616e-11, -2.308724056376832e-08, -1.219925049866788e-08, 3.392785785649721e-08, 4.615086958426051e-12, 1.86823445602613e-08, 9.370009976250593e-12, -4.434421896348795e-08, 3.374426427171784e-08, 2.116393815754236e-08], [-3.357492630584602e-07, 3.956894187306936e-11, 3.152936869810219e-06, -1.2747418622893747e-06, 1.957573431354831e-06, 1.432718665927979e-10, 1.8480326957615034e-07, 1.419767303723063e-09, -9.285286428628581e-10, -2.470248546160292e-06, -1.7559950160617177e-09, 8.187288926819747e-07, 1.7270333501073765e-06, -1.9791718611217313e-11, -1.690414475064017e-09, 4.852558632695292e-11, 3.070850518316348e-11, 3.0150281576935e-11, 4.776528612637776e-07, 2.608092017908348e-07, 3.3601192939158864e-08, 1.4265144621106174e-10, -1.570956587038097e-09, -1.0427828556203167e-06, -5.654545134348155e-07, 2.2122060272522504e-06, 3.257800279543588e-11, 1.379084778818651e-06, 1.9469226231194625e-10, -3.1642982776247663e-06, 2.1780481347377645e-06, 1.835165562624752e-06], [0.07410627603530884, -1.8839087715605274e-05, -0.18256375193595886, 0.015736820176243782, -0.13286475837230682, -2.9716686185565777e-05, -0.1723194271326065, -9.572620183462277e-05, -7.376897701760754e-05, 0.3305569291114807, 9.373200737172738e-05, -0.06565984338521957, -0.1444656103849411, -9.10840662982082e-06, 0.00010477341857040301, 3.79920243176457e-06, -6.242744802875677e-06, 9.31684007809963e-06, -0.031696733087301254, -0.025089822709560394, 0.014988822862505913, 4.307213657739339e-06, 9.006181062432006e-05, -0.00578335952013731, 0.05894742161035538, -0.23209452629089355, 8.854203770169988e-06, -0.1630597859621048, -5.501738542079693e-06, 0.0020268475636839867, -0.015117553994059563, -0.23914477229118347], [-0.391727477312088, -7.592436304548755e-05, -0.0459149144589901, -0.007648966740816832, 0.3892466723918915, -3.265089253545739e-05, -0.01177888922393322, -0.00011276250734226778, -0.00018517441640142351, -0.4809459149837494, 4.2890285840258e-05, 0.16811464726924896, -0.3549712002277374, -3.0278071790235117e-05, 5.715437509934418e-05, 5.667470031767152e-05, -4.9461916205473244e-05, 3.7387329939519987e-05, -0.016972268000245094, 0.012759508565068245, 0.009857086464762688, 2.0915462300763465e-05, 9.710704034660012e-05, 0.05014324188232422, -0.08815675228834152, 0.41030237078666687, 6.891147495480254e-05, 0.337838739156723, 4.843112765229307e-05, -0.07810263335704803, -0.02354627661406994, 0.37130284309387207], [-0.034709107130765915, 7.877037205616944e-06, -0.02416815236210823, 0.007552693132311106, 0.014986696653068066, -5.103800958750071e-06, -0.019079212099313736, -0.0001423288631485775, 0.0001655546366237104, 0.04560545086860657, 0.00018072525563184172, -0.003207405563443899, -0.048469990491867065, 4.341944531915942e-06, 0.00017054437194019556, -1.6259051335509866e-05, 1.112277004722273e-05, -5.581262485065963e-06, -0.007261785212904215, -0.004242764785885811, 0.0005935397930443287, -1.3049466360826045e-05, 0.00015993633132893592, -0.0025706307496875525, 0.0108456676825881, -0.012891666032373905, -1.0881267371587455e-05, -2.426355604256969e-05, -2.432052315270994e-05, 0.0005046528531238437, -0.003317103488370776, -0.01814241334795952], [-1.805948030009219e-10, -5.6713223527127266e-12, 8.472793666669531e-08, -5.650025514114532e-08, 1.2620191114365298e-07, 7.187811543879485e-12, -1.3187455749630317e-07, 1.2791372128173606e-10, -8.167356374544354e-11, -1.6655785373131948e-07, -1.5848722334510512e-10, 6.419728038054018e-08, 1.5209542425509426e-07, -5.165385046773663e-12, -1.5330568758908925e-10, 1.3222823877501177e-11, -1.2210304382170856e-12, 7.215154255307832e-12, 2.346708782852147e-08, 4.392684971321614e-08, 1.3489191097448838e-08, 1.6604015037890996e-11, -1.4450494967288563e-10, -2.830930512232044e-08, -5.801566160812399e-08, 1.6218996279349085e-07, 7.362663430321437e-12, 6.719812262190317e-08, 2.4705791232260133e-11, -1.4052530161734467e-07, 1.0033176778279085e-07, 1.1448500458755007e-07], [-0.028047118335962296, 2.0906398276565596e-05, 0.011069923639297485, 0.0066712480038404465, 0.00745905376970768, 2.3120446712709963e-05, 0.022049054503440857, -3.7083587812958285e-05, 9.72477428149432e-05, 0.060776207596063614, 0.00010128100257134065, -0.005218201782554388, -0.06844047456979752, 2.253603088320233e-05, 8.054065256146714e-05, -2.2628402803093195e-05, 8.162840458680876e-06, -2.5183688194374554e-05, -0.008154315873980522, -0.006809455808252096, 0.007494182325899601, -3.9254613511729985e-05, 4.2474082874832675e-05, -0.004443724174052477, 0.013158769346773624, -0.02276650071144104, -4.0671748138265684e-05, -0.005759063176810741, -4.3045205529779196e-05, 0.0076915971003472805, -0.011396808549761772, -0.02750752866268158], [-5.951363402090237e-09, -9.095600141117988e-12, -3.594448116928106e-08, -1.2139365956898018e-08, 4.840925527105355e-08, -1.8187251834764218e-12, -1.0843097442148064e-07, 1.7442667102351983e-11, -7.263041557070693e-11, 4.361468075586572e-09, -3.264156306359567e-11, 9.368397613229718e-09, 3.04770897407991e-09, -1.1825690166694658e-12, -2.75983385450429e-11, 9.17332355909739e-12, -8.558389240354014e-12, 1.724158901587891e-12, 5.742670339259348e-09, 5.419896087488496e-09, 8.701003473277069e-09, 4.3596380845667415e-12, -2.225343000150648e-11, -3.8437264038293506e-08, -3.2006541861306914e-09, 1.472966104643092e-08, 7.67882545743559e-12, 1.2711740104975888e-08, 8.272440892020949e-12, -3.599879860871624e-08, 3.170358908732851e-08, 2.0666248712331026e-09], [0.12436001002788544, -3.3283562515862286e-05, -0.22484485805034637, 0.005954309366643429, -0.15987686812877655, 3.92644178646151e-05, -0.24577824771404266, 0.00038625000161118805, -0.00019698510004673153, 0.33191341161727905, -0.0003984823124483228, -0.09473851323127747, -0.1063801571726799, 5.260577836452285e-06, -0.00040600195643492043, 6.750359898433089e-05, -4.804126001545228e-05, -5.881008178221236e-07, -0.016605399549007416, -0.015207787975668907, 0.0015536362770944834, 3.396705142222345e-05, -0.0004286088515073061, 0.002353283343836665, 0.0809636265039444, -0.2517934739589691, -2.1907781047048047e-05, -0.1830841302871704, 6.866134208394215e-05, -0.01408231072127819, -0.019996004179120064, -0.2609559893608093], [0.3086563050746918, -1.2104256711609196e-05, 0.07293140888214111, -0.04859475418925285, -0.34514206647872925, 5.904920726607088e-06, 0.04873276129364967, 4.475965761230327e-05, -0.0001346324133919552, 0.2019931524991989, -4.528968929662369e-05, -0.06626176089048386, 0.06717966496944427, 7.830936738173477e-06, -4.204973447485827e-05, 1.7837526684161276e-05, -1.9499557311064564e-05, -6.960256996535463e-06, -0.027319487184286118, -0.05077841505408287, -0.03375391289591789, -6.572299753315747e-06, -6.150019180495292e-05, 0.012956924736499786, -0.0004957314231432974, -0.35515204071998596, -6.490641681011766e-06, -0.2671111226081848, 5.456925919133937e-06, 0.008883621543645859, 0.011123241856694221, -0.2592866122722626], [-0.011442245915532112, 6.508244609904068e-07, 0.004056249279528856, -0.0007812830153852701, 0.013733074069023132, 1.0769574146252126e-05, -0.02060704678297043, 3.072735125897452e-05, -3.6883717257296667e-05, 0.02096663787961006, -1.2648757547140121e-05, -0.004659377038478851, -0.03362981230020523, 9.632582077756524e-06, -1.877545400930103e-05, 1.4875225815558224e-06, -5.777345904789399e-06, -9.822239007917233e-06, 0.00166182906832546, 0.00034212134778499603, 0.0025762012228369713, -1.2569246791827027e-05, -3.4390039218124e-05, 0.0007083770469762385, 0.010067724622786045, -0.005248279310762882, -1.116159364755731e-05, 0.0040162550285458565, -7.646489393664524e-06, -0.0016418027225881815, -0.006546651944518089, -0.008627558127045631], [0.623486340045929, 0.00015828284085728228, -0.0011901259422302246, 0.08317068964242935, -0.27132242918014526, 0.00012073716789018363, 0.028780197724699974, 0.0004654120421037078, 4.076670666108839e-05, -0.14857463538646698, -0.00037285173311829567, -0.25545477867126465, 0.48743584752082825, 0.00012527982471510768, -0.00042785063851624727, -0.00013010595284868032, 0.00010857585584744811, -0.00013169679732527584, 0.06291766464710236, -0.07798387110233307, 0.19841833412647247, -0.00012876634718850255, -0.0004801267641596496, -0.007747459691017866, -0.01875336654484272, -0.1911814659833908, -0.00014896017091814429, -0.16586491465568542, -0.00010254656081087887, -0.12048611044883728, 0.05031713843345642, -0.19194483757019043], [-3.2739597372710705e-05, -5.819717685540127e-08, 1.9889184841304086e-05, 6.490624218713492e-05, 3.6505258321994916e-05, -5.111360792398045e-07, 0.00015517984866164625, -3.4055551623168867e-06, 5.404975809142343e-07, 1.70288622030057e-05, 3.1302433853852563e-06, -6.261526141315699e-05, 0.0001409005344612524, -4.456767399574346e-08, 3.3718029044393916e-06, 4.752332305457685e-09, 1.2540261273841224e-08, 5.0359613368300415e-08, 1.0977453712257557e-05, 7.4393278737261426e-06, 0.0001401494664605707, 2.3453029029951722e-07, 3.7335194065235555e-06, -7.097769412212074e-05, 3.6335011827759445e-05, -1.9201752365916036e-05, 1.659752939531245e-07, -2.797674278554041e-05, 9.226528163708281e-08, -2.175044392060954e-05, -3.476376150501892e-05, -5.882903678866569e-06], [-0.010684123262763023, 0.00013031577691435814, 0.8363300561904907, -0.28503498435020447, -0.0003517857985571027, 4.429186446941458e-05, 0.029887806624174118, 0.00020604800374712795, 0.00020511553157120943, -0.12862126529216766, -7.04096382833086e-05, 0.07265972346067429, 0.018769580870866776, 5.06309988850262e-05, -0.00011309622641419992, -0.00014016992645338178, 8.193608664441854e-05, -5.727020470658317e-05, 0.06228409335017204, -0.18098056316375732, 0.03980834037065506, -8.839494694257155e-05, -0.00017853404278866947, -0.18040452897548676, 0.005018928553909063, -0.05873563140630722, -1.2403887012624182e-05, -0.0746174082159996, -0.00014390579599421471, -0.7094062566757202, 0.43726247549057007, -0.054239559918642044], [-0.01468219980597496, 2.668539764272282e-06, 0.03783421218395233, 0.10588862746953964, 0.011385791003704071, -3.24534485116601e-05, -0.11292868107557297, -2.078187208098825e-05, -0.00014672247925773263, -0.008435092866420746, -5.566808340518037e-06, 0.17562153935432434, 0.023830927908420563, -9.98897958197631e-05, 1.1450759302533697e-05, -2.2462338165496476e-05, 3.0398663511732593e-05, 9.586955275153741e-05, 0.20124997198581696, 0.2811131477355957, 0.10475794225931168, 6.996889715082943e-05, 2.882584522012621e-05, 0.22570861876010895, 0.22441861033439636, 0.1402909755706787, 2.4576555006206036e-05, 0.0357540026307106, -4.715673640021123e-06, 0.6833776235580444, 0.11652117967605591, 0.01680229976773262], [-0.38601741194725037, -9.54227289184928e-05, 0.018816746771335602, 0.006726554129272699, 0.388362854719162, 1.8342885596212e-05, -0.10043130815029144, 5.834095645695925e-06, -0.00021673526498489082, -0.03792210668325424, -4.9216414481634274e-05, 0.045710206031799316, -0.35410574078559875, -2.5308012482128106e-05, -3.328814636915922e-05, 7.724566239630803e-05, -8.371294825337827e-05, 2.796853550535161e-05, -0.03317009657621384, -0.1007644534111023, 0.06397062540054321, -4.492737843975192e-06, -3.1730618502479047e-05, -0.3511211574077606, 0.012872369959950447, 0.27589622139930725, 1.3183521332393866e-05, 0.29767197370529175, 2.372322342125699e-05, -0.21680666506290436, 0.09068038314580917, 0.24162179231643677], [-4.977802018402144e-05, 3.1954724022398295e-07, 5.6939512433018535e-05, 2.5438428565394133e-05, 6.713406037306413e-05, -6.680517117274576e-07, -9.547953595756553e-06, -5.651885203405982e-06, 3.7094036997586954e-06, -2.0388399661896983e-06, 5.990009867673507e-06, -2.1244477466098033e-05, 1.95711891137762e-05, 1.2236367297191464e-07, 6.047889655746985e-06, -4.399306590130436e-07, 4.6047341584198875e-07, -1.3960308820060163e-07, 3.304714709884138e-06, 3.9892787754070014e-05, 0.00011806973634520546, 3.59133203176043e-08, 6.299941560428124e-06, 0.00010233507782686502, 2.9299935704329982e-05, -6.620406907131837e-07, -1.3696737255486369e-07, -1.6659032553434372e-05, -3.7133563068891817e-07, 2.852053876267746e-05, -6.518147711176425e-05, -1.9053322830586694e-05], [0.05616900697350502, 1.1154342246300075e-05, 0.08892762660980225, 0.26573896408081055, -0.12410134822130203, 0.00018433180230204016, 0.7933428287506104, 0.0008195370901376009, -0.00025830697268247604, -0.1234002634882927, -0.000769883394241333, -0.05729818344116211, -0.05168113112449646, -8.57395843922859e-06, -0.0008067709277383983, 4.148378866375424e-05, -3.5622786526801065e-05, 5.512303687282838e-06, 0.015869000926613808, 0.008249310776591301, -0.07231961190700531, -5.8793058997252956e-05, -0.0008673497941344976, 0.12975355982780457, 0.04403221234679222, -0.1680113673210144, -0.0001853842259151861, -0.023647861555218697, 1.1734507097571623e-05, 0.6780343651771545, -0.3799137473106384, -0.02412918582558632], [-0.00015395610535051674, 2.0971097001165617e-06, 0.00021720337099395692, -1.3767386008112226e-05, 0.00024040721473284066, -3.1894835501589114e-06, -0.00025533195002935827, -2.2592006644117646e-05, 2.2164311303640716e-05, 7.789602386765182e-05, 2.661763210198842e-05, -1.0017680324381217e-05, 9.842272447713185e-06, 3.563409904927539e-07, 2.602046515676193e-05, -2.6040038392238785e-06, 2.5071938125620363e-06, -3.8428186144301435e-07, -3.1614472391083837e-05, 0.00033688227995298803, 0.00021086388733237982, -5.449113018585194e-07, 2.533564475015737e-05, 0.00035402001230977476, 5.471376425703056e-05, 0.00011910372995771468, -4.931209218739241e-07, -1.1267750778642949e-05, -2.9001098482694943e-06, -0.00014794361777603626, -0.00021852522331755608, -4.080510188941844e-05], [0.00011567846377147362, -1.907195041894738e-06, 0.00019088084809482098, 0.0004537060158327222, -0.00034240420791320503, 2.0594893612724263e-07, 0.00026238118880428374, 3.001702225446934e-06, -1.0303616363671608e-05, 4.038698898511939e-05, -3.0882633836881723e-06, 8.605235780123621e-05, -0.00019907570094801486, 3.15544667728318e-07, -3.319225243103574e-06, 2.957231117761694e-06, -2.769255161183537e-06, -2.763080431122944e-07, -1.9956718460889533e-05, -1.7137988834292628e-05, 0.001216531964018941, 7.391287226710119e-07, -3.848417691187933e-06, 0.0002645725035108626, 7.986431592144072e-05, 4.1255556425312534e-05, -8.686303090144065e-07, -7.697440742049366e-05, 2.3559684905194445e-06, 0.00043869728688150644, -0.0003662709495984018, -1.2664549103647005e-05], [-0.21569032967090607, -8.441966201644391e-05, -0.00965092983096838, -0.051158081740140915, 0.07664313167333603, -1.0135881893802434e-05, 0.003983055241405964, 0.00010370102245360613, -1.872920802270528e-05, 0.5886774063110352, -7.411427213810384e-05, 0.2513706684112549, 0.023610485717654228, -1.3832232980348635e-05, -8.2711449067574e-05, 7.01452954672277e-05, -0.00011490233009681106, 1.3484599548974074e-05, -0.26466163992881775, -0.08219505101442337, 0.22399458289146423, 2.1447864128276706e-05, -0.00010372238466516137, -0.08166966587305069, -0.42974260449409485, -0.03992506489157677, 5.46122646483127e-05, -0.23918084800243378, 3.5167759051546454e-05, -0.05773526802659035, -0.09424422681331635, -0.13951048254966736], [0.0001947099663084373, -2.3317611521633808e-06, -0.00016059896734077483, 7.928173727123067e-05, -0.0003022514865733683, 3.016230266439379e-06, 0.00025779454153962433, 2.212169965787325e-05, -2.2252379494602792e-05, -6.223112723091617e-05, -2.5826660930761136e-05, 4.629514296539128e-05, -3.7377150874817744e-05, -2.629336393056292e-07, -2.5493673092569225e-05, 3.0160178994265152e-06, -2.823401246132562e-06, 3.0045615062590514e-07, -9.539917300571688e-06, -0.00032291756360791624, 4.466062819119543e-05, 7.509252668569388e-07, -2.5025688955793157e-05, -0.00024470221251249313, -8.60613290569745e-05, -0.00013031548587605357, 3.5312211821292294e-07, -4.1337876609759405e-05, 3.31857427227078e-06, 0.00022271701891440898, 0.0001448107504984364, 1.0232874046778306e-05], [0.14058256149291992, 0.0003907733771484345, -0.0959450826048851, -0.24259500205516815, 0.12177198380231857, 1.7488478079030756e-06, 0.09586790949106216, -0.0003693256585393101, 7.026997536740964e-06, 0.22979475557804108, 0.0003177343460265547, 0.39038795232772827, -0.09412658214569092, 0.0001544591214042157, 0.0003282648103777319, -0.0002744133525993675, 0.0003733438206836581, -0.00015552080003544688, -0.04076040908694267, -0.012057887390255928, 0.022555632516741753, -6.460145959863439e-05, 0.0003622660296969116, -0.22589413821697235, -0.22893233597278595, -0.037880197167396545, -0.0003190510324202478, 0.07303600758314133, -0.0001072846571332775, 0.016215158626437187, 0.3064568340778351, -0.012579944916069508], [0.13215555250644684, 3.4470405807951465e-05, -0.006652548909187317, 0.030044881626963615, -0.1156759262084961, -4.929845090373419e-05, 0.006162529811263084, -0.00018301485397387296, -0.00029708087095059454, -0.07465333491563797, 5.399453584686853e-05, -0.13522888720035553, 1.045100212097168, 3.6463130527408794e-05, 8.820679795462638e-05, -3.312789340270683e-05, 7.028836262179539e-05, -3.072696927119978e-05, 0.0011801922228187323, 0.03898541256785393, 0.04986640065908432, 6.402561211871216e-06, 0.00015326507855206728, 0.049986839294433594, -0.16692355275154114, 0.09045443683862686, 5.934707587584853e-06, -0.15561385452747345, 1.3201715773902833e-05, -0.025104517117142677, 0.005560887046158314, -0.07808617502450943], [-3.3212538255611435e-05, 5.552299953137663e-08, -8.633395736978855e-06, 2.0522296836134046e-05, -1.0296995242242701e-05, -3.847901552944677e-07, 2.8947091777808964e-05, -2.514272409825935e-06, 1.1106837973784423e-06, 5.362656884244643e-05, 2.3676529963267967e-06, -4.0264767449116334e-05, 2.3833386876503937e-05, -3.083991373387107e-08, 2.5225399440387264e-06, -1.6796693103060534e-07, 1.6095781063540926e-07, 2.7542322200702074e-08, 2.495710941730067e-05, 3.070487582590431e-05, 1.029242412187159e-05, 1.0829554497604477e-07, 2.814396793837659e-06, -2.8839676815550774e-05, 6.884129106765613e-05, 7.860559890104923e-06, 1.0253363313950103e-07, -1.6009167666197754e-05, -1.2134972848798498e-07, -9.043485079018865e-06, -2.8702104827971198e-05, 2.63980359704874e-06], [0.00018887718033511192, -2.364210558880586e-06, -0.00018441566498950124, 5.826099732075818e-05, -0.00028979138005524874, 3.121465397271095e-06, 0.00025517947506159544, 2.3202479496831074e-05, -2.3474451154470444e-05, -7.047206599963829e-05, -2.7478990887175314e-05, 4.020480264443904e-05, -2.7278940251562744e-05, -2.5397716285624483e-07, -2.644611959112808e-05, 2.9914817787357606e-06, -2.770166247501038e-06, 2.886315542127704e-07, 1.5072434678131685e-07, -0.00032898978679440916, -4.21219265263062e-05, 7.786268838572141e-07, -2.600284460640978e-05, -0.00029347368399612606, -8.357288606930524e-05, -0.00013407306687440723, 4.2802992084034486e-07, -2.916686935350299e-05, 3.2508562526345486e-06, 0.00021005331655032933, 0.00017589208437129855, 1.808560591598507e-05], [3.49211368302349e-05, 1.2654773229314742e-07, -4.27666018367745e-05, -6.53477109153755e-05, -2.5818335416261107e-05, 2.5649168833297153e-07, -0.00015473291568923742, 2.0482857507886365e-06, -1.1078304140710316e-07, -1.7579919585841708e-05, -1.8711107259150594e-06, 2.8836313504143618e-05, -0.00012472075468394905, 8.185710953512171e-08, -2.0382774437166518e-06, -1.3416912736374798e-07, 1.285367829950701e-07, -8.604382628618623e-08, 4.535574134933995e-06, 1.179267383122351e-05, -0.0001264167804038152, -1.9500259895721683e-07, -2.268117668791092e-06, 9.249326103599742e-05, -3.904232471541036e-06, 5.335843979992205e-06, -6.857407441884789e-08, 3.2213742088060826e-05, -1.611524709232981e-07, -4.444137084647082e-05, -1.1591095017138286e-06, 5.501926352735609e-06], [-3.420016946620308e-05, -1.809478220593519e-07, 2.05821397685213e-05, 6.026258779456839e-05, 2.767975820461288e-05, -2.453232070820377e-07, 0.00015266324044205248, -1.6526012132089818e-06, -4.796214057023462e-07, 7.450135854014661e-06, 1.4648131809735787e-06, -5.553978917305358e-05, 0.00014540147094521672, -8.779380777923507e-08, 1.63320794399624e-06, 1.8923701361472922e-07, -1.924403818520659e-07, 9.901688713398471e-08, 2.3558306565973908e-05, 1.907607111206744e-05, 0.00011078947136411443, 1.9490438774028007e-07, 1.7879408460430568e-06, -0.00010070805728901178, 3.6057186662219465e-05, -1.8231650756206363e-05, 1.7029742593877017e-07, -1.8151737094740383e-05, 2.047336664645627e-07, -4.0046115827863105e-06, 1.3300789305503713e-06, -1.313431425842282e-06], [3.388178447494283e-05, -5.95377152023957e-08, 3.898381692124531e-06, -2.2992051526671275e-05, 8.271025762951467e-06, 3.9940272245075903e-07, -3.4144672099500895e-05, 2.6473423986317357e-06, -1.1308853800073848e-06, -5.365324977901764e-05, -2.464645831423695e-06, 3.997727981186472e-05, -2.7045571187045425e-05, 2.6527651186825096e-08, -2.6357827209722018e-06, 1.7174126298868941e-07, -1.6423580007085548e-07, -2.2700694657373788e-08, -2.226439755759202e-05, -2.8332564397715032e-05, -1.594832428963855e-05, -1.0937157668422515e-07, -2.9615584935527295e-06, 2.5635521524236538e-05, -6.622850924031809e-05, -7.365517831203761e-06, -9.186337734945482e-08, 1.836103001551237e-05, 1.260703044181355e-07, 4.113019713258836e-06, 3.090543395956047e-05, -8.590113793616183e-07], [0.09587867558002472, 0.00011873093899339437, -0.016714971512556076, -0.003401512512937188, -0.02663867175579071, -7.902399374870583e-05, 0.02522718533873558, -0.00016524909005966038, 7.075250778143527e-06, -0.1495012491941452, 0.00011100580013589934, -0.24108029901981354, 0.005023476667702198, -1.975192026293371e-05, 0.00014307252422440797, -9.567059896653518e-05, 0.00017015979392454028, 2.4163493435480632e-05, 0.29863691329956055, -0.0006057590362615883, 0.1983945369720459, -2.3335514924838208e-05, 0.0001387535157846287, 0.023235635831952095, 0.46968162059783936, 0.0002471859334036708, -6.259476504055783e-05, 0.1241820827126503, -3.984299473813735e-05, -0.10620228946208954, 0.10282629728317261, 0.04548492282629013], [0.01423643622547388, 5.453898847918026e-05, 0.16568346321582794, 0.15730106830596924, 0.2644248604774475, -8.274213541881181e-06, -0.1705237478017807, -4.573408659780398e-05, 0.00027352329925633967, -0.6963822245597839, 8.191807864932343e-05, -0.062210094183683395, -0.1369471400976181, -8.11828431324102e-05, 6.786511949030682e-05, -4.365768836578354e-05, 1.3509481505025178e-05, 7.862540223868564e-05, 0.28802525997161865, 0.4945739209651947, -0.28419017791748047, 7.485524110961705e-05, 6.460444274125621e-05, -0.7524763941764832, 0.5131120085716248, -0.1192522719502449, 3.3431544579798356e-05, 0.7706298232078552, 3.0549647362931864e-06, 0.05089366063475609, 0.19212524592876434, 0.5568179488182068], [0.08764084428548813, -2.2585413717024494e-06, 0.10849369317293167, 0.07971075177192688, -0.056231942027807236, 3.983517672168091e-05, -0.11329895257949829, 6.325046706479043e-05, -0.00021059448772575706, 0.13589806854724884, -7.232964708236977e-05, -0.04070884361863136, -0.000914623262360692, 3.460259176790714e-05, -7.481275679310784e-05, 2.286390372319147e-05, -1.8726308553596027e-05, -3.456062768236734e-05, 0.23332324624061584, 0.0010972212767228484, 1.1349884271621704, -1.9822444301098585e-05, -7.631084008608013e-05, -0.04803271219134331, -0.16383768618106842, 0.0670950710773468, -6.541313632624224e-05, 0.09315675497055054, 1.0680242667149287e-05, 0.19234304130077362, 0.014839431270956993, 0.08344902843236923], [2.1501626179087907e-05, -8.432827058868497e-08, -6.853819650132209e-05, -3.538812597980723e-05, -3.0458124456345104e-05, 3.2532111049476953e-07, -2.5519733753753826e-05, 2.779923761409009e-06, -1.5031561133582727e-06, -9.128098099608906e-06, -2.6243869797326624e-06, 1.445560519641731e-05, -1.6394566046074033e-05, -1.2203284605050158e-08, -2.790935241137049e-06, 1.2457667253329419e-07, -1.5461823466011992e-07, 2.809832544414803e-08, 3.1813362966204295e-06, -2.664680505404249e-05, -5.680409958586097e-05, -1.0275006445681356e-07, -3.162419034197228e-06, 1.1049829481635243e-05, -2.2240961698116735e-05, 1.2055813385813963e-05, 1.1566629609660595e-07, 3.309239764348604e-05, 5.200416453021717e-08, -0.00011272150732111186, 6.855956144136144e-06, 2.629631489980966e-05], [0.0001767539797583595, -2.36668779507454e-06, -0.0002250817633466795, 3.1204166589304805e-05, -0.0002661367179825902, 3.2599775749986293e-06, 0.00028858042787760496, 2.4149689124897122e-05, -2.4865188606781885e-05, -8.569312922190875e-05, -2.8943686629645526e-05, 2.797815432131756e-05, -1.4652443496743217e-05, -2.9011894753239176e-07, -2.7905798560823314e-05, 2.9075558813929092e-06, -2.7168525775778107e-06, 3.2147883644029207e-07, 1.9876009901054204e-05, -0.00036094512324780226, -0.00015340163372457027, 7.48166598896205e-07, -2.6986550437868573e-05, -0.0003614271990954876, -7.971447485033423e-05, -0.00012898261775262654, 6.034463240212062e-07, 2.108278749801684e-06, 3.2926884614425944e-06, 0.00017984154692385346, 0.00020801536447834224, 4.056096440763213e-05], [0.21382613480091095, -0.00010935821774182841, -0.11910399049520493, 0.12062139064073563, -0.010693224146962166, 2.890223368012812e-05, 0.13818775117397308, 8.093191718216985e-05, -4.533190076472238e-05, -0.17650426924228668, -6.994415889494121e-05, -0.07771299034357071, -0.09996984153985977, 9.817413229029626e-06, -7.392892439384013e-05, 8.026121213333681e-05, -7.078799535520375e-05, -6.67735685055959e-06, 0.12603355944156647, 1.299599528312683, -0.16816723346710205, -5.0038917834172025e-05, -9.037970448844135e-05, 0.4892852008342743, 0.2695464789867401, -0.30406954884529114, -1.652086211834103e-05, 0.14529983699321747, 2.3800452254363336e-05, -0.4556909501552582, -0.41658321022987366, 0.006603966932743788], [-0.12276693433523178, 1.7736800145939924e-05, 0.11849994212388992, 0.22354671359062195, -0.1581508368253708, 2.6944038836518303e-05, -0.11952051520347595, -4.481962969293818e-05, -9.983683412428945e-05, -0.1574038714170456, 3.175526580889709e-05, -0.17846325039863586, -0.03907477855682373, 6.668842252111062e-05, 2.9270808227011003e-05, 3.875961283483775e-06, 3.4164124826929765e-06, -6.625701644225046e-05, 0.2994318902492523, 0.09289247542619705, -0.030815714970231056, -2.457704431435559e-05, 4.0451126551488414e-05, -0.1304073929786682, 1.043419361114502, 0.024228733032941818, -7.229388575069606e-05, -0.11257349699735641, 8.346655704372097e-06, -0.1699247807264328, -0.20691508054733276, 0.008023368194699287], [-0.2759633958339691, 6.165296508697793e-05, -0.17489683628082275, -0.05095016211271286, 0.49302616715431213, -6.579107866855338e-05, 0.16966025531291962, -0.0002345094981137663, -0.0007697107503190637, -0.05087227746844292, -6.038236278982367e-06, 0.22082796692848206, -0.09243328869342804, 3.1647708965465426e-05, 6.294549530139193e-05, -7.201339030871168e-05, 0.00010368879156885669, -2.9558854294009507e-05, -0.020412886515259743, 0.11875616759061813, 0.04348207637667656, 5.73835905015585e-06, 0.00017440441297367215, 0.025880174711346626, -0.11104393750429153, 0.5405890941619873, 3.4801156289177015e-05, 0.14300400018692017, -4.8284655349561945e-06, 0.02836201712489128, 0.003944564610719681, 0.1764059215784073], [1.4540355550707318e-05, -7.062664053592016e-08, -2.5578532586223446e-05, -3.29632057400886e-05, -4.641475607058965e-05, 6.237124807739747e-07, -3.167730392306112e-05, 4.111383987037698e-06, -9.471884254708129e-07, -4.646522484108573e-06, -3.815534910245333e-06, 9.274587500840425e-05, -5.084391887066886e-05, -4.063892333761032e-08, -4.060077571921283e-06, 1.8897578968335438e-07, -2.109254069182498e-07, 4.1845332532375323e-08, -3.1363895686808974e-05, -4.7172892664093524e-05, -6.655709876213223e-05, -1.8269783197411016e-07, -4.499658643908333e-06, -7.280190766323358e-05, -8.207235805457458e-05, 4.2678955651354045e-05, -1.1659840737365812e-07, 3.874511457979679e-05, 7.509715516107462e-08, 1.143560166383395e-05, 8.14806335256435e-05, 3.202545485692099e-05], [-0.17835880815982819, 1.6346146367141046e-05, -0.006906501483172178, 0.14131933450698853, 0.022865112870931625, 6.907179340487346e-05, -0.016882121562957764, 6.0725265939254314e-05, 0.0002912736963480711, -0.10358379781246185, -1.1985574019490741e-05, -0.12095079571008682, -0.4539554715156555, 6.809927435824648e-05, -3.368164470884949e-05, -3.1081228371476755e-05, 1.599256029294338e-05, -7.231767813209444e-05, 0.16941620409488678, -0.23266422748565674, 0.11589056998491287, -5.690804391633719e-05, -4.970491863787174e-05, 0.0692867636680603, 0.42725521326065063, -0.028385505080223083, -3.7281930417520925e-05, 0.4442652761936188, -4.6973458665888757e-05, -0.07936452329158783, 0.0045860931277275085, 0.2738068699836731], [1.9952862203354016e-05, 7.36892289410207e-08, -5.571012297878042e-05, -5.3457843023352325e-05, -1.448266539227916e-05, 1.1204207339687855e-07, -9.266250708606094e-05, 1.4279551123763667e-06, -3.599057265546435e-07, -1.934501779032871e-05, -1.3615976968139876e-06, 3.230926722608274e-06, -7.284620369318873e-05, 4.4399968146535684e-08, -1.4292321566244937e-06, -1.157885236580114e-07, 1.001218095098011e-07, -3.587994257259197e-08, 1.66422723850701e-05, 7.3596024776634295e-06, -0.00010929052223218605, -1.3186385672270262e-07, -1.620282660041994e-06, 3.4126933314837515e-05, 1.2644597518374212e-05, 3.394793793631834e-06, 9.866020889148785e-08, 4.907505353912711e-05, -1.1690344337011993e-07, -9.925304038915783e-05, -1.2894123756268527e-05, 2.4000468329177238e-05], [0.03276756405830383, 0.000470216094981879, -0.11842632293701172, 0.008320808410644531, -0.11308766156435013, 0.00013359264994505793, 0.12819485366344452, -0.000104719445516821, 0.0010811794782057405, -0.07192547619342804, 0.00032677227864041924, 0.004449367057532072, -0.13757970929145813, 0.0002498393878340721, 0.00027108952053822577, -0.00042497439426369965, 0.00041437268373556435, -0.00026267385692335665, 0.10524937510490417, 1.5387424230575562, -0.10276830196380615, -0.000292521552182734, 0.0001755654375301674, 1.404292106628418, 0.27839770913124084, -0.3275044560432434, -0.0003221988445147872, 0.14739547669887543, -0.00035462522646412253, 0.7488496899604797, -0.8207101225852966, 0.03051120787858963], [-0.20715878903865814, -0.000180780392838642, 0.009187688119709492, -0.08861379325389862, -0.2610802948474884, 4.409669418237172e-05, -0.0289786197245121, 0.00015910073125269264, 0.00022283304133452475, 0.04036898910999298, -9.941896860254928e-05, -0.1107720136642456, 0.0737597718834877, -0.00013416267756838351, -0.0001125531634897925, 0.00011619480937952176, -0.00014911932521499693, 0.00013186414435040206, -0.05990627780556679, -0.7243682146072388, 0.07722985744476318, 5.916342342970893e-05, -0.00012596938177011907, -0.9233474135398865, -0.1399219036102295, 0.14432896673679352, 0.00011775839811889455, -0.015088269487023354, 4.1843202780000865e-05, 0.09424573183059692, 1.2404807806015015, 0.02406671643257141], [-0.2007623314857483, 6.658027996309102e-05, -0.0010672945063561201, 0.020291028544306755, 0.06911394745111465, 3.318715243949555e-05, 0.04982753098011017, -0.00010316204861737788, 0.00010353681864216924, -0.11756549030542374, 9.768998279469088e-05, 0.036283668130636215, -0.28687167167663574, 2.3965358195709996e-05, 0.0001006235252134502, -8.276781591121107e-05, 8.695398719282821e-05, -2.6516861908021383e-05, 0.06033971160650253, -0.13164545595645905, 0.03562847152352333, -4.173111665295437e-05, 0.00011157787957927212, 0.10217224806547165, 0.12131750583648682, 0.1512300819158554, -5.055060682934709e-05, 0.24525433778762817, -7.873910362832248e-05, 0.06029997020959854, -0.09618882834911346, 0.2190948873758316]], "rec.bias_ih_l0": [0.23048195242881775, 1.1210637040903748e-07, 0.24712345004081726, 0.1497454196214676, 0.2315077930688858, -1.3308433608472114e-06, 0.22147224843502045, -3.120056135230698e-05, -8.343532499566209e-06, 0.2597954571247101, -3.236047996324487e-05, 0.1619074046611786, 0.24512675404548645, -9.721443205989999e-08, -3.337273301440291e-05, 1.5294942556920432e-07, 1.0886844847846078e-07, -8.92585276801583e-08, 0.15294329822063446, 0.3072163164615631, 0.29435572028160095, -1.3082734540148522e-07, -3.59485020453576e-05, 0.40212011337280273, 0.31748202443122864, 0.2284400910139084, -3.904777940988424e-07, 0.20351332426071167, 6.521474915643921e-09, 0.29292747378349304, 0.11761881411075592, 0.07138272374868393, -0.052998051047325134, -3.4014249195024604e-08, -0.17749692499637604, -0.21293394267559052, -0.07338763773441315, 2.3053939912642818e-07, -0.15368519723415375, 3.071665332754492e-06, -2.775130099053058e-07, -0.005344904959201813, 1.2994531743970583e-06, 0.022429531440138817, -0.017510829493403435, -7.3785773047063685e-09, 1.8765472304949071e-06, -5.9209327218923136e-08, -6.95671289463462e-08, -4.308572165712121e-09, -0.0067038871347904205, -0.43600326776504517, 0.34193047881126404, 3.1266171873767235e-08, 3.0825888188701356e-06, -0.42384597659111023, 0.6469565033912659, -0.05514614284038544, 2.1469745092872472e-07, -0.07656347751617432, -9.436415204788773e-09, -0.45671898126602173, -0.21540991961956024, -0.030295098200440407, 0.12642802298069, -1.917486315505812e-06, 0.27750375866889954, -0.09867854416370392, -0.11293502151966095, -1.9960660210927017e-05, 0.3314181864261627, -0.00010888730321312323, -1.875777707027737e-05, -0.37892282009124756, 9.831532224779949e-05, -0.007681525312364101, 0.4609565734863281, 3.3816308132372797e-05, 9.799813415156677e-05, 3.694899760375847e-06, 9.671948646428064e-07, -3.119640678050928e-05, -0.00239044358022511, -0.3859570324420929, -0.04341916739940643, -9.571743248670828e-06, 0.0001048493868438527, 0.00607768539339304, -0.12156366556882858, 0.091528981924057, -5.7840152294375e-06, 0.06849675625562668, 7.670117156521883e-06, 0.03404410183429718, 0.04658344388008118, 0.1919713169336319], "rec.bias_hh_l0": [0.23048195242881775, 1.1210637040903748e-07, 0.24712345004081726, 0.1497454196214676, 0.2315077930688858, -1.3308433608472114e-06, 0.22147224843502045, -3.120056135230698e-05, -8.343532499566209e-06, 0.2597954571247101, -3.236047996324487e-05, 0.1619074046611786, 0.24512675404548645, -9.721443205989999e-08, -3.337273301440291e-05, 1.5294942556920432e-07, 1.0886844847846078e-07, -8.92585276801583e-08, 0.15294329822063446, 0.30722668766975403, 0.29435572028160095, -1.3082734540148522e-07, -3.59485020453576e-05, 0.40212011337280273, 0.31748202443122864, 0.2284400910139084, -3.904777940988424e-07, 0.20351332426071167, 6.521474915643921e-09, 0.29292747378349304, 0.11761881411075592, 0.07138272374868393, -0.052998051047325134, -3.4014249195024604e-08, -0.17749692499637604, -0.21293394267559052, -0.07338763773441315, 2.3053939912642818e-07, -0.15368519723415375, 3.071665332754492e-06, -2.775130099053058e-07, -0.005344904959201813, 1.2994531743970583e-06, 0.022429531440138817, -0.017510829493403435, -7.3785773047063685e-09, 1.8765472304949071e-06, -5.9209327218923136e-08, -6.95671289463462e-08, -4.308572165712121e-09, -0.0067038871347904205, -0.43600326776504517, 0.34193047881126404, 3.1266171873767235e-08, 3.0825888188701356e-06, -0.42384597659111023, 0.6469563841819763, -0.05514614284038544, 2.1469745092872472e-07, -0.07656347751617432, -9.436415204788773e-09, -0.45671898126602173, -0.21540991961956024, -0.030295098200440407, 0.0776008665561676, 8.908006776664479e-08, 0.14372803270816803, -0.04943319410085678, -0.02286146581172943, -1.5604427971993573e-05, 0.1746450811624527, -8.638380677439272e-05, -2.9859307687729597e-05, -0.21862399578094482, 8.058214007178321e-05, 0.10716851055622101, 0.20673047006130219, 7.722837835899554e-06, 8.403420360991731e-05, -5.1262845772725996e-06, 8.011389581952244e-06, -6.097160621720832e-06, 0.004788530524820089, 0.5507330298423767, -0.019942227751016617, 4.969408564647892e-07, 9.046423656400293e-05, 0.013108938001096249, 0.0018194863805547357, 0.061519451439380646, 2.45404476117983e-06, 0.08146127313375473, -1.0182260439250967e-06, -0.013068616390228271, 0.0557132288813591, 0.1492302119731903], "lin.weight": [[-0.26701322197914124, -0.00012493979011196643, 0.01886742375791073, 0.7946822047233582, -0.4657725393772125, -3.056283458136022e-05, 0.012125908397138119, -9.53960552578792e-05, 0.0002127346961060539, 0.10282962024211884, 0.0001484950043959543, 0.6348028779029846, -0.01618146151304245, 1.8075064872391522e-05, 0.0001426306553184986, 5.4053434723755345e-05, -9.501456224825233e-05, -1.6522311852895655e-05, -0.10582287609577179, 0.17363817989826202, 0.0469316691160202, -5.23533635714557e-05, 0.00012034778774250299, -0.08351197093725204, -0.20730729401111603, 0.03274694085121155, 0.00012800875992979854, -0.22519361972808838, -2.5349332645419054e-05, -1.0855482816696167, -0.6394421458244324, 0.14587852358818054]], "lin.bias": [0.10051433742046356]}}