{"model_data": {"model": "SimpleRNN", "input_size": 2, "skip": 1, "output_size": 1, "unit_type": "GRU", "num_layers": 1, "hidden_size": 32, "bias_fl": true}, "state_dict": {"rec.weight_ih_l0": [[-0.0033606071956455708, 0.15533818304538727], [2.6157169941143366e-07, -2.6219129267701646e-06], [-0.02959171123802662, 0.19384008646011353], [-0.05521882697939873, 0.19282002747058868], [0.05342750996351242, 0.13784272968769073], [-4.701024920450436e-07, -0.0001265690370928496], [0.02298516221344471, 0.18832527101039886], [2.322809535826309e-07, 1.0221701813861728e-06], [2.569103596528066e-09, 7.40347877581371e-06], [-0.06542765349149704, 0.12361012399196625], [6.383634172379971e-07, 5.069251983513823e-06], [0.0276484414935112, -0.013275650329887867], [0.011351748369634151, 0.18168364465236664], [5.357182430998364e-07, -3.0929470085538924e-05], [-7.117384370758373e-07, 1.19430769700557e-05], [9.324506891061901e-07, 8.158151558745885e-07], [-4.494690486467334e-08, -4.5331971705309115e-06], [2.5040939988230093e-08, -8.023528863532192e-08], [0.02573428675532341, 0.11391719430685043], [-0.9205167889595032, -0.08858326822519302], [0.03355985879898071, 0.19144615530967712], [9.366849553771317e-07, 4.277629841453745e-07], [5.179572895031015e-07, -8.533891673323524e-07], [0.013839992694556713, 0.25370922684669495], [0.08157820999622345, 0.13772985339164734], [0.07649741321802139, 0.1090550497174263], [4.544799878658523e-07, -3.7551413697656244e-05], [-0.0007734020473435521, 0.13986359536647797], [1.5182724837359274e-06, -3.573397009404289e-07], [0.043917007744312286, 0.3203141987323761], [-0.04778492823243141, 0.3152678310871124], [-0.07399861514568329, 0.10024111717939377], [-0.0015684267273172736, -0.03215085715055466], [2.4087139394168844e-08, 4.011094461020548e-07], [0.024786613881587982, -0.14178809523582458], [-0.022799618542194366, -0.1564139425754547], [0.00184231239836663, -0.05603036284446716], [-3.134788357783691e-07, -1.0859132544283057e-06], [-0.02511318400502205, -0.1353866457939148], [8.898807912771645e-09, -1.381268077693676e-07], [9.720491789266816e-08, -3.1928314569995564e-07], [0.008951598778367043, 0.0008252983097918332], [9.118638644167731e-08, -7.780624287079263e-07], [0.012735459953546524, -0.05563437193632126], [0.001523877028375864, -0.016565736383199692], [2.9997799799730274e-08, 1.8964432513257634e-07], [1.831742508784373e-07, -7.337928309425479e-07], [6.945661112922608e-08, -2.82392676353993e-07], [1.9948306118067194e-08, 6.961194003451965e-07], [1.7807519903101365e-09, -6.131499219463876e-08], [-0.0063545117154717445, -0.011311990208923817], [0.002193395048379898, -0.30527597665786743], [0.005569241940975189, 0.28084108233451843], [6.335119451250648e-08, -2.7236583832745964e-07], [5.2726505828104564e-08, 1.6893801557671395e-07], [0.0012176277814432979, -0.28057628870010376], [-0.08221551030874252, 0.5068945288658142], [-0.002023028675466776, -0.021881798282265663], [4.929707753120738e-09, 6.870771329658965e-08], [-0.003520190017297864, -0.03429870679974556], [7.543716407099055e-08, -8.707939969099243e-07], [0.025348426774144173, -0.3108924627304077], [0.003705483628436923, -0.3015422523021698], [0.004105256870388985, -0.010775723494589329], [0.31800293922424316, -0.3357304036617279], [0.0003800579288508743, -8.013185833988246e-06], [0.12523040175437927, -0.005314722191542387], [-0.1465802639722824, -0.01615802012383938], [0.13708139955997467, 0.39165738224983215], [-0.00015663857629988343, 2.4235056116594933e-05], [-0.14287203550338745, -0.06185692176222801], [-5.982967559248209e-05, -2.4550832677050494e-05], [-0.0002750102139543742, 3.642039519036189e-05], [-0.3224886357784271, -0.2768845856189728], [-0.000246572308242321, 1.4934857972548343e-05], [-0.40539222955703735, 0.2363429069519043], [0.1600857973098755, -0.46968045830726624], [6.120264151832089e-05, 3.2481111702509224e-06], [0.00024529252550564706, -6.721001409459859e-05], [-0.00031781542929820716, -5.546626269392618e-08], [0.0004668730834964663, 3.722733163158409e-05], [2.082603532471694e-05, 9.67506093729753e-06], [0.08455898612737656, 0.020174788311123848], [-1.0602126121520996, -0.676705539226532], [-0.15134277939796448, 0.05406370386481285], [-0.0003167913528159261, -1.826453370767922e-07], [0.00037129290285520256, 9.396605491929222e-06], [-1.101670742034912, -0.016975734382867813], [0.09380064159631729, 0.0674433708190918], [-0.2118409126996994, 0.4043157398700714], [2.2606031052418984e-05, 9.329874046670739e-06], [0.24871069192886353, 0.353231817483902], [-0.00023984508879948407, 8.361690561287105e-06], [-1.1666388511657715, -0.023079128935933113], [0.5616173148155212, -0.014047743752598763], [0.21960917115211487, 0.34404975175857544]], "rec.weight_hh_l0": [[-0.07083819061517715, -9.942494216375053e-05, 0.10712085664272308, -0.03893021121621132, 0.09063795953989029, 0.001198897254653275, 0.004597686231136322, -3.320478936075233e-05, 0.0001441992208128795, -0.17988668382167816, -2.9370412448770367e-05, 0.03954349830746651, 0.07322527468204498, 0.00044691719813272357, -0.0004074374446645379, -6.080835737520829e-05, -0.0001666532043600455, -8.255405191448517e-06, 0.012059218250215054, 0.021660879254341125, 0.010199787095189095, -6.693928298773244e-05, -2.576277074695099e-05, 0.02293981797993183, -0.033822737634181976, 0.08776256442070007, 0.0005184337496757507, 0.11345895379781723, -0.00020849380234722048, -0.1293565183877945, 0.03786487504839897, 0.12924766540527344], [1.240825213244534e-06, -1.3098760964780354e-09, -2.169050958400476e-06, 4.4748284722118115e-07, -2.3514126041845884e-06, 3.8648595435120114e-09, -5.66671722879164e-08, 2.669439114200145e-10, 8.1845030752703e-10, 2.5335673399240477e-06, 9.671097256358507e-10, -1.2677550103035173e-06, -2.6627985789673403e-06, 5.367890576479795e-10, -1.5340038128641709e-09, 1.8289424419393185e-09, -1.868575072450085e-09, 5.13440734373205e-10, -3.2900004498515045e-07, -6.373676910698123e-07, -7.841643423489586e-07, 1.7448209543857729e-09, -1.8658661282699995e-09, 2.6413249543111306e-07, 1.136991045314062e-06, -2.9944935704406817e-06, 8.919345817481883e-10, -1.708028321445454e-06, 1.4900960465524804e-09, 1.633105853215966e-06, -9.137779670709278e-07, -2.3540308120573172e-06], [-0.10179799795150757, -2.7759344447986223e-05, -0.036888424307107925, 0.08315788954496384, 0.09227459132671356, 0.0002269722754135728, 0.22563867270946503, 3.0437680834438652e-05, 9.338307427242398e-05, -0.20265914499759674, 7.295628893189132e-05, 0.04080531746149063, -0.016592109575867653, -1.0453226423123851e-05, -0.0001375177234876901, 2.887243863369804e-05, -3.829506385955028e-05, 1.1565020031412132e-05, 0.008686264976859093, 0.0349692739546299, -0.01867094449698925, 2.4507358830305748e-05, -3.070754974032752e-05, 0.06412691622972488, -0.01801121234893799, 0.16776736080646515, 2.024272362177726e-05, 0.13596786558628082, 2.611518902995158e-05, 0.2224878966808319, -0.051779936999082565, 0.1689872443675995], [-0.09530448913574219, -0.0003285486891400069, 0.016540218144655228, 0.05501994863152504, 0.1424669623374939, 0.0016301317373290658, 0.0808144062757492, -3.83828446501866e-05, 0.00023195031099021435, -0.15717962384223938, 5.990628415020183e-05, 0.022835271432995796, 0.05459421128034592, 0.0006139306933619082, -0.0006589983822777867, 9.345186117570847e-05, -0.0003415854007471353, -5.218145088292658e-05, 0.04103155434131622, 0.10136408358812332, 0.040606215596199036, 0.00010892234422499314, -0.0002041059051407501, 0.04752365127205849, 0.02219029888510704, 0.23365294933319092, 0.0007385289645753801, 0.12765881419181824, -0.00010980449587805197, 0.02838830091059208, 0.009764573536813259, 0.15141570568084717], [-0.017437875270843506, 8.254728891188279e-05, -0.03040343150496483, -0.03542976453900337, 0.07086029648780823, -0.000190193866728805, 0.0087588457390666, -7.582386751892045e-05, -0.00031520420452579856, -0.16563113033771515, -0.0002445278805680573, 0.07327982038259506, 0.06916840374469757, 2.9693099349969998e-05, 0.00051399867516011, -0.00012387591414153576, 3.652875602710992e-05, -1.2627227988559753e-05, -0.009165751747786999, -0.05868648365139961, -0.0329546220600605, -0.00011259001621510834, 9.06717250472866e-05, -0.09747502207756042, -0.0782397910952568, 0.09320103377103806, -2.737529212026857e-05, 0.055857978761196136, -0.00013978101196698844, -0.042354993522167206, 0.08520837873220444, 0.10149624198675156], [6.300922541413456e-05, -8.87474271848987e-09, -4.966886990587227e-05, -4.464299308892805e-06, -0.00010439864854561165, 1.775317741703475e-07, -4.275589162716642e-05, -2.7851477568674454e-08, -3.9056022416161795e-08, 0.0001263862504856661, -5.105447797859597e-08, -3.6809666198678315e-05, -4.521686787484214e-05, 8.937382034446273e-08, 3.676171189681554e-08, -1.729747545198279e-08, -3.48359847635038e-08, 1.3533072440452543e-09, -2.384275603617425e-06, -1.10057417259668e-05, 1.0556243523751618e-06, -1.5552091170434323e-08, -4.174547818536212e-09, 1.362610055366531e-05, 3.296630166005343e-05, -0.00012620371126104146, 8.764836678665233e-08, -8.892755431588739e-05, -4.832894617834427e-08, 8.09951416158583e-06, -5.561789294006303e-06, -0.00010985346307279542], [-0.11889801919460297, 4.8314952437067404e-05, 0.20260536670684814, -0.07895109057426453, 0.13850858807563782, -0.0005952836945652962, 0.00583824934437871, 4.885402449872345e-05, 6.945456698304042e-05, -0.17177794873714447, 9.901327575789765e-05, 0.048762090504169464, -0.018560007214546204, -0.00036114861723035574, -3.231096115996479e-06, 2.3426779080182314e-05, 5.823337778565474e-05, 2.1977024516672827e-05, 0.024365130811929703, 0.015245545655488968, -0.013656478375196457, 2.4453145670122467e-05, 1.9946162865380757e-05, -0.03031942993402481, -0.02039469964802265, 0.1465514898300171, -0.0003885874175466597, 0.15069156885147095, 0.00010696338722482324, -0.21707727015018463, 0.0718483254313469, 0.1607370376586914], [-1.2798985835615895e-06, -2.559882861241647e-10, 1.027997655000945e-06, -4.1046416754397796e-07, 1.3310586837178562e-06, 4.109786289063777e-09, -9.667382983025163e-07, -4.871077985413308e-10, -8.329951728391904e-10, -8.290845698866178e-07, -9.40918787328826e-10, 5.575114983003004e-07, -8.053800684137968e-07, 2.2089230444777286e-09, 7.816188807296953e-10, -3.847445972926522e-10, -6.002856545173074e-10, -8.68317986957301e-11, 5.953215236331744e-07, 3.8094927390375233e-07, -5.6864028152858737e-08, -3.277763338527251e-10, -1.1662864250749916e-11, -3.3159469126076146e-07, 1.5976544887053024e-07, 8.482232374262821e-07, 2.2593342752230683e-09, 1.2800799140677555e-06, -1.0400972305646405e-09, -9.784085932551534e-07, 8.549345125175023e-07, 9.609276503397268e-07], [-7.92533319327049e-06, -1.9223358460607187e-09, 4.398896635393612e-06, -1.5675741451559588e-06, 8.440681085630786e-06, 1.320807907490007e-08, -5.493419394042576e-06, -5.679023362681335e-10, -4.459281277569005e-10, -5.522794708667789e-06, -4.699883815462158e-10, 3.2688756164134247e-06, -4.485430508793797e-06, 5.7079447834951225e-09, -8.006113549896554e-10, 7.87145237879372e-10, -2.5120436841774563e-09, 6.543520586488327e-11, 1.606917976459954e-06, 1.598256972101808e-06, -5.222122467785084e-08, 8.567438980477959e-10, -1.496080370699815e-09, -1.4068432392377872e-06, -4.117219987165299e-07, 7.306228781089885e-06, 6.449646150485933e-09, 7.293476755876327e-06, -8.229508741131042e-10, -5.659509497490944e-06, 3.71992996406334e-06, 6.5462263592053205e-06], [-0.04442896321415901, -3.3748437999747694e-05, 0.06249645724892616, -0.0037808844354003668, 0.015748141333460808, 0.00019873153360094875, 0.056274786591529846, 2.6366591555415653e-05, 5.4936983360676095e-05, -0.13557150959968567, 4.144599733990617e-05, 0.051566775888204575, 0.10358626395463943, 4.604147034115158e-05, -8.947164315031841e-05, 3.594110967242159e-05, -5.167014751350507e-05, -1.2912051715829875e-05, -0.019074436277151108, -0.05440179631114006, -0.0029103863053023815, 3.11052608594764e-05, -4.427103704074398e-05, 0.018132125958800316, -0.059406962245702744, 0.11558488011360168, 6.173684960231185e-05, 0.030008437111973763, 2.2862732294015586e-05, 0.025570835918188095, -0.008264470845460892, 0.08860654383897781], [-6.894322268635733e-06, -2.4052360103610226e-09, 6.031920293025905e-06, -2.724369551287964e-06, 6.8257131715654396e-06, 1.625684298289798e-08, -7.627022569067776e-06, -1.141636229995413e-09, -2.0600590122654694e-09, -3.6827168514719233e-06, -1.6151192605562414e-09, 3.2332366117771016e-06, -6.139498964330414e-06, 7.436339544142356e-09, 1.7024612830596197e-09, 1.3556958888827353e-09, -4.093227978785308e-09, 4.177241885727767e-10, 2.4684420623088954e-06, 1.7044037576852133e-06, -4.6119228613861196e-07, 1.4680714421899665e-09, -2.4939730280948424e-09, -1.932437953655608e-06, 4.4816030708716426e-07, 4.3547283894440625e-06, 7.981831195991163e-09, 6.236680292204255e-06, -9.936115263897705e-10, -7.982929673744366e-06, 5.426305961009348e-06, 4.670921953220386e-06], [0.13694919645786285, 0.0003195804893039167, -0.0010673083597794175, -0.03359745070338249, -0.15126365423202515, -0.0010068949777632952, 0.035131342709064484, -0.00014260364696383476, -0.0004435857408680022, -0.03839588910341263, -0.00034203968243673444, 0.019588248804211617, 0.1126125156879425, -0.00024004497390706092, 0.0007048260886222124, -0.00022805266780778766, 0.0002973180962726474, 2.8112632207921706e-05, -0.023263707756996155, -0.10074751079082489, -0.006627286318689585, -0.0002239666209788993, 0.00025782425655052066, -0.07279262691736221, -0.06258361041545868, -0.05523974448442459, -0.00036631981492973864, -0.07822514325380325, -0.00014137553807813674, -0.011264451779425144, 0.017698481678962708, -0.002487716730684042], [-0.11530926823616028, -4.3521187762962654e-05, 0.0014380535576492548, -0.026994550600647926, 0.16037584841251373, -0.0008049210300669074, 0.04627973958849907, 0.0001833861315390095, 0.0001980510714929551, -0.19995933771133423, 0.000283418339677155, 0.04465722292661667, -0.06502851098775864, -0.0006507126963697374, -0.00010643546556821093, 0.00019509941921569407, -3.229901949453051e-06, 6.335423677228391e-05, -0.0030569671653211117, 0.035426896065473557, -0.05548527464270592, 0.0002057408564724028, -0.0001105875926441513, -0.004773474298417568, -0.05830410122871399, 0.17216148972511292, -0.000672999769449234, 0.1488570123910904, 0.0003550620749592781, -0.0032372665591537952, 0.005017467774450779, 0.1622098833322525], [1.4411533811653499e-05, -1.7592042267366992e-09, -3.4289298582734773e-06, -3.2365924198529683e-06, -2.3547605451312847e-05, 1.7317281830742104e-08, -1.7050213500624523e-05, -5.002778191709467e-09, -9.342661755340487e-09, 2.9826940590282902e-05, -9.269574441361783e-09, -5.626355232379865e-06, -8.893303856893908e-06, 1.0152856333434102e-08, 1.3164151546618541e-08, -1.1013981948693186e-09, -7.022489256769404e-09, 1.1848461101138241e-09, 1.0836513411049964e-06, -1.4653666084996075e-06, -3.689488536906538e-08, -6.966322518842105e-10, -2.1766208835316547e-09, 8.12776590919384e-07, 6.15065437159501e-06, -3.093266786891036e-05, 8.515753435744955e-09, -2.0179255443508737e-05, -5.485781606751061e-09, -6.306946033873828e-06, 2.8950805699423654e-06, -2.57923747994937e-05], [-1.489945498178713e-05, -5.671132452533811e-09, 5.21904894412728e-06, -2.1303189896570984e-06, 1.4947015188226942e-05, 3.064052123136207e-08, -1.0816461326612625e-05, -1.449723258106772e-10, 3.4087401790117156e-09, -7.324192210944602e-06, 2.4967781175888604e-09, 4.864448328589788e-06, -1.1005515261786059e-05, 1.1698095825352084e-08, -7.949195968137701e-09, 3.1941653766409672e-09, -6.316291489838477e-09, 3.3818024769427524e-11, 2.0750690055137966e-06, 2.8742874746967573e-06, -2.431380892176094e-07, 3.087921918165648e-09, -4.4454613323807735e-09, -9.334862056675775e-07, 2.721200189625961e-07, 1.2658292689593509e-05, 1.4174649010101348e-08, 1.2122974112571683e-05, -1.9422319308404212e-10, -9.063377547136042e-06, 4.292666744731832e-06, 1.0293611012457404e-05], [-1.9331678231537808e-06, -2.961081380092878e-09, 1.5709308627265273e-06, -1.8248514379592962e-06, 1.9791414160863496e-06, 4.15115497531815e-09, -4.1896691982401535e-06, 7.464256990274976e-10, 1.070134758585084e-09, -2.312441722551739e-07, 2.474912275118868e-09, 3.7234704564070853e-07, -5.124039944348624e-06, 1.8491981557122728e-10, -1.0839681374719135e-09, 4.602324743530062e-09, -4.0301917358931405e-09, 1.128267923533599e-09, 1.1762468830056605e-06, 4.566829261420935e-07, -1.2542758440758917e-06, 4.450613211304244e-09, -4.40202096996245e-09, -5.899640882489621e-07, 1.5160793509494397e-06, 2.3505324975303665e-07, 7.163553639166764e-10, 1.7284691011809628e-06, 4.129641517636173e-09, -3.2706427646189695e-06, 2.1539524368563434e-06, 5.552669790631626e-07], [2.7371083888283465e-06, -1.5373931017137465e-09, -4.604764853866072e-06, 1.370187419524882e-06, -4.567792984744301e-06, 7.886256980782491e-09, 1.5195334981399355e-06, -6.315635514564377e-11, 4.793859198493067e-10, 4.6027416829019785e-06, 1.9652147964510647e-10, -2.3932486783451168e-06, -3.0376991162484046e-06, 2.278152111401255e-09, -1.7045291844652866e-09, 1.5552744647706618e-09, -2.5144095694429325e-09, 4.906711703611677e-10, -1.100279973798024e-06, -1.465101377107203e-06, -9.385761927660496e-07, 1.497336254985271e-09, -1.981135699935521e-09, 8.241539717346313e-07, 1.4821293916611467e-06, -4.611202712112572e-06, 2.707071899976654e-09, -3.4832260098482948e-06, 6.649766848276784e-10, 4.329223429522244e-06, -2.5952845135179814e-06, -4.071734110766556e-06], [-4.042947310267664e-09, -1.5493398231036792e-10, -2.332577864194718e-08, -6.106872518785167e-08, -2.9049621375065726e-08, 2.000151294589969e-10, -1.0855379883878413e-07, 4.459020305769279e-11, 8.284530006452684e-11, 8.28407493713712e-08, 1.3638751239497537e-10, 2.8247088224020445e-08, -1.3274859611556167e-07, -3.207823243145391e-11, -1.1473187677690788e-10, 2.3161830786655457e-10, -2.0433953140663874e-10, 5.863716456833146e-11, 4.0023625302865184e-08, 3.161654049677054e-08, -4.3948940486870924e-08, 2.239171070783641e-10, -2.219928962876594e-10, -1.6517653023129242e-08, 4.764835992432381e-08, -7.290547188176788e-08, -4.567133997379624e-12, -3.0924258709319474e-08, 2.136784638118172e-10, -1.2432536777851055e-07, 1.0396394856115876e-07, -5.755821419484164e-08], [-0.08572155237197876, -4.366169014247134e-05, 0.0842219889163971, -0.0025790224317461252, 0.09529665112495422, 0.00043536516022868454, -0.014348798431456089, 2.3806924218661152e-05, 0.00010375695273978636, -0.08135862648487091, 7.313073729164898e-05, 0.011546810157597065, 0.00010523963283048943, 0.00017331873823422939, -0.000217429842450656, 5.607967614196241e-05, -1.990448436117731e-05, 1.8563909179647453e-05, 0.018877524882555008, 0.0039228578098118305, 0.008350531570613384, 5.29338103660848e-05, -4.759304647450335e-05, 0.011271939612925053, 0.009677118621766567, 0.09618794918060303, 0.00021208691759966314, 0.10835527628660202, 4.1217626858269796e-05, -0.05177084729075432, 0.015613077208399773, 0.10803476721048355], [0.4136366546154022, -0.0001430526899639517, -0.14783591032028198, -0.256011039018631, -0.3174327313899994, -0.0003468192298896611, 0.13484548032283783, 5.701273948943708e-06, -3.7830173823749647e-05, -0.28729379177093506, 9.754623170010746e-05, -0.03472639247775078, 0.1830163449048996, -7.307814667001367e-05, 0.0002823561371769756, 0.00012260049697943032, -7.811497198417783e-05, -2.7266409233561717e-05, 0.23803217709064484, 0.4485200345516205, -0.3209519386291504, 0.00012636493192985654, -0.00011699325841618702, 0.021956244483590126, 0.3039976954460144, -0.33332598209381104, -0.00010558288340689614, 0.08360794186592102, 0.00012756070645991713, 0.002854809397831559, 0.08327880501747131, -0.042562421411275864], [-0.07956457883119583, -7.217864913400263e-05, 0.009539850987493992, 0.0001642192219151184, 0.10849975794553757, 0.002194168046116829, 0.006195278372615576, -0.0002995663962792605, -0.00018079012806992978, -0.2149656116962433, -0.0005368239944800735, 0.03331303596496582, 0.009012112393975258, 0.001468047616071999, -0.00027447985485196114, -0.00042291084537282586, -0.00011930376786040142, -0.00016525288810953498, 0.01772664301097393, 0.009204630739986897, -0.04133029654622078, -0.00041511558811180294, 0.0001945799740497023, 0.027402609586715698, -0.01760806329548359, 0.08951012790203094, 0.0015681828372180462, 0.14422619342803955, -0.0007967110723257065, -0.004395586438477039, -0.01352406945079565, 0.16607487201690674], [-1.5185030406428268e-06, -2.820824684945933e-09, 1.572381961523206e-06, -1.619196382307564e-06, 1.5319601516239345e-06, 2.8939060037203035e-09, -4.5388846956484485e-06, 7.819508374140582e-10, 1.1284776446629508e-09, 1.6683063108757779e-07, 2.52316900706262e-09, 1.0682446571763649e-07, -4.8277643145411275e-06, -3.290628602936607e-10, -1.031644103477447e-09, 4.4956403044693616e-09, -3.804317749711572e-09, 1.1028677970870149e-09, 1.061153398040915e-06, 3.5303031609146274e-07, -1.2135486713305e-06, 4.347130211357353e-09, -4.244369300465678e-09, -4.782692712979042e-07, 1.5656609093639418e-06, -2.2156260115480109e-07, 1.3257636655161775e-10, 1.3344224498723634e-06, 4.1686099017113065e-09, -3.2379073218180565e-06, 1.7923222230820102e-06, 1.2942328453391383e-07], [-5.3845038650024435e-08, -2.2016228840016083e-09, -3.232150618259766e-07, -3.83403573778196e-07, -2.2828172063782404e-07, 2.5422628446847284e-09, -1.8635139440448256e-06, 8.342934676441871e-10, 1.468447696773012e-09, 1.2099370678697596e-06, 2.372115837090405e-09, -7.43227190014295e-07, -3.7260108456393937e-06, -5.726613627743404e-10, -1.8963559611506753e-09, 3.6848686324475466e-09, -2.8786533157187932e-09, 9.146137180948699e-10, 1.2672106208810874e-07, -3.151067744511238e-07, -1.136781520472141e-06, 3.5323051150726315e-09, -3.395410619333461e-09, 8.065519807587407e-08, 1.3074123899059487e-06, -1.2929928061566898e-06, -8.540879808949242e-11, -1.2100295521122462e-07, 3.567862671971511e-09, -3.846140259611275e-07, -8.93649101385563e-08, -9.644501233196934e-07], [-0.10279812663793564, 2.1229259800747968e-05, 0.07781976461410522, -0.015077488496899605, 0.14112664759159088, -0.00015272166638169438, 0.09499656409025192, 1.9428543964750133e-05, -1.6393016267102212e-05, -0.26992520689964294, 1.4570995517715346e-05, 0.0568842776119709, 0.11264148354530334, -1.0058540283353068e-05, 5.906309525016695e-05, 7.948394340928644e-06, 3.5788641980616376e-05, 4.932956926495535e-06, 0.02058393321931362, -0.004464278928935528, -0.017189083620905876, 4.073300260643009e-06, 9.489418516750447e-06, -0.031791865825653076, -0.050577595829963684, 0.1943812370300293, -1.755383527779486e-05, 0.16839353740215302, 2.5176988856401294e-05, -0.04625314846634865, 0.01477435976266861, 0.22170688211917877], [-0.03574690222740173, 1.821414116420783e-05, -0.0013838651357218623, -0.03654741495847702, 0.03518708795309067, -0.0005951632629148662, -0.07419081032276154, 0.00010918830230366439, 0.0001296867267228663, -0.00952013861387968, 0.0001541998062748462, 0.04625333100557327, 0.02603071928024292, -0.0003479434526525438, -0.00013863175990991294, 7.981472299434245e-05, 9.258407226298004e-05, 3.022415330633521e-05, 0.012123970314860344, -0.028304671868681908, 0.023537321016192436, 8.767558028921485e-05, 9.59079670792562e-07, -0.029869236052036285, 0.012300629168748856, -0.03774414211511612, -0.00033892798819579184, 0.12051310390233994, 0.00019936343596782535, -0.014828895218670368, 0.05444576218724251, 0.11911508440971375], [0.04452657699584961, -5.7874400226864964e-05, 0.11371472477912903, -0.02419186942279339, 0.011861282400786877, 0.0001763086038408801, 0.0663294643163681, 5.869692540727556e-05, 0.00015381287084892392, -0.18447521328926086, 0.00012501970923040062, 0.00898159109055996, 0.12556663155555725, -6.433884118450806e-05, -0.00022446046932600439, 7.074895984260365e-05, -5.877357398276217e-05, 1.980036176973954e-05, 0.012119932100176811, 0.04055287688970566, -0.0558895617723465, 6.838495028205216e-05, -6.557377491844818e-05, -0.048418860882520676, -0.03698837384581566, 0.014983820728957653, -2.2020782125764526e-05, 0.04217267781496048, 7.816564902896062e-05, -0.026016978546977043, 0.05187961459159851, 0.0927327498793602], [1.8354954590904526e-05, -1.8972963200525328e-09, -4.409659595694393e-06, -2.8604988528968534e-06, -2.8764401577063836e-05, 1.886410494478241e-08, -1.9121176592307165e-05, -5.076110642932008e-09, -8.949266216973228e-09, 3.6107710911892354e-05, -9.167863801451404e-09, -7.541949798905989e-06, -9.403879630554002e-06, 1.0204502132182824e-08, 1.2233965840380279e-08, -8.470603662935616e-10, -7.450155603550002e-09, 1.4178365148609373e-09, 6.838556032562337e-07, -1.9099009023193503e-06, 1.2574886909533234e-07, -4.970943656701365e-10, -2.5242190559993105e-09, 1.8010978237725794e-06, 7.375821496680146e-06, -3.717948493431322e-05, 8.656408034823926e-09, -2.492759631422814e-05, -5.3649764630847585e-09, -6.5010062826331705e-06, 1.8034431832347764e-06, -3.1389787181979045e-05], [-0.05708608403801918, 9.449286881135777e-05, -0.12780041992664337, 0.023217028006911278, 0.10673997551202774, -0.0007911008433438838, 0.060456614941358566, -4.426069790497422e-05, -0.0002491236955393106, -0.1629088670015335, -0.00013997730275150388, 0.01909216307103634, 0.03488975763320923, -0.0003298661031294614, 0.00045891889021731913, -2.8285261578275822e-05, 6.412687071133405e-05, 1.9505381715134718e-05, 0.04797608405351639, 0.07483525574207306, -0.05424278974533081, -1.4169913811201695e-05, 4.821038237423636e-05, 0.04040820151567459, 0.032780684530735016, 0.12012778967618942, -0.00043397548142820597, 0.1217869445681572, 3.670359728857875e-05, 0.03108745813369751, 0.05580645799636841, 0.1220284253358841], [-2.8901922632940114e-06, -3.5873497505889418e-09, 3.27593193105713e-06, -3.9305168684222735e-06, 2.0769548427779227e-06, 1.005908689677426e-08, -9.999787835113239e-06, -6.442135713768948e-10, -1.5873693470780381e-09, 1.2259945378900738e-06, -6.43824923929337e-11, 1.16564058316726e-06, -7.349626230279682e-06, 3.968954498390076e-09, 2.6403372821448556e-09, 4.024843569538916e-09, -5.857757390259621e-09, 1.142419714383891e-09, 2.717949428188149e-06, 1.2489927030401304e-06, -1.087018972611986e-06, 4.0247392085746014e-09, -4.779848072899995e-09, -1.4653738844572217e-06, 2.4281907826662064e-06, -1.178741854346299e-06, 4.176294865487762e-09, 1.8874624174713972e-06, 2.1477521983115366e-09, -7.977923814905807e-06, 5.4365686992241535e-06, -3.382371573934506e-07], [-0.40371763706207275, 0.00012246820551808923, 0.07672776281833649, 0.06837200373411179, 0.43091917037963867, 0.0006451094523072243, 0.08118146657943726, -0.0001477946643717587, -0.0001844128273660317, -0.15262474119663239, -0.0002739722840487957, 0.1070004403591156, -0.11700320988893509, 0.00045514089288190007, 0.00011641065066214651, -0.0002797178749460727, 0.0001526729902252555, -3.3394993806723505e-05, 0.026787051931023598, 0.05559678375720978, 0.05898483470082283, -0.0002765915123745799, 0.00022789013746660203, -0.08001194149255753, 0.015869824215769768, 0.3692050576210022, 0.00044737206189893186, 0.34526434540748596, -0.00037340796552598476, 0.03968355804681778, 0.059219688177108765, 0.30863475799560547], [-0.45402035117149353, 7.920030475361273e-05, -0.18233515322208405, 0.061613548547029495, 0.4150995910167694, -0.0001759893202688545, -0.10719698667526245, -0.00014220555021893233, -0.0003423296147957444, -0.13671404123306274, -0.00029566476587206125, 0.08021281659603119, -0.12205122411251068, 6.650733848800883e-05, 0.0005031266482546926, -0.00016296688409056515, 2.6839663405553438e-05, -3.344544893479906e-05, 0.010624933056533337, 0.06847452372312546, 0.042031627148389816, -0.00014184252358973026, 0.00011191987141501158, -0.035586368292570114, 0.015627851709723473, 0.3969200551509857, -3.9319886013799987e-07, 0.3083186447620392, -0.0002018006780417636, -0.022839738056063652, 0.026559852063655853, 0.2683945298194885], [-0.11873945593833923, 1.2389900803100318e-05, -0.095615454018116, 0.04585883021354675, 0.06211889907717705, 0.00035088250297121704, 0.10601934045553207, -0.000109234890260268, -0.00013148182188160717, -0.06495941430330276, -0.0002089665795210749, 0.01637667417526245, -0.08440202474594116, 0.0001863566430984065, -1.7683676560409367e-05, -0.00011106817692052573, -2.854327431123238e-05, -1.800545032892842e-05, 0.015620134770870209, 0.007754702121019363, 0.0077008516527712345, -9.641184442443773e-05, 4.91267564939335e-05, 0.07000868767499924, 0.030380332842469215, 0.10653164237737656, 0.00017661986930761486, 0.09483029693365097, -0.00018150357936974615, 0.08797984570264816, -0.0571119599044323, 0.08763236552476883], [-0.01403127796947956, 2.8382874006638303e-05, -0.008443021215498447, 0.008341425098478794, -0.012993917800486088, 4.252874350640923e-05, 0.03605658560991287, -2.2228439775062725e-05, -3.262637255829759e-05, 0.046766553074121475, -4.641658961190842e-05, 0.001428009825758636, -0.04786817729473114, 3.973957791458815e-05, 1.904457894852385e-05, -3.185246532666497e-05, 2.8961687348783016e-05, -8.910641554393806e-06, -0.01090167835354805, -0.011013580486178398, 0.00360850989818573, -3.781020132009871e-05, 3.090831160079688e-05, -0.0141580356284976, 0.001063576084561646, -0.03217223659157753, 3.43568462994881e-05, -0.013692338950932026, -3.7928548408672214e-05, 0.012435263954102993, 0.010225934907793999, -0.024867933243513107], [-2.3320133379911567e-07, 2.1494899610230433e-11, 2.6767835947794083e-07, -6.841992217232473e-08, 3.3786699304982903e-07, -3.235465367845691e-11, -9.316478610799095e-08, -9.450849824954588e-12, 2.6016606403944653e-12, -3.7462666568899294e-07, 1.3948282971882643e-14, 1.1755584239381278e-07, -1.7560884690848155e-10, 1.147816650753919e-11, 8.6906037921608e-12, -4.921656485135095e-11, 5.745462092199283e-11, -1.590802316264739e-11, 5.803245883839736e-08, 6.134909824595525e-08, -8.19577294919327e-09, -4.836329253743443e-11, 5.510132974895221e-11, -8.8633520078929e-08, -4.9739639962353976e-08, 3.76798425349989e-07, 1.5663852159786273e-11, 2.872372704132431e-07, -4.23577249664131e-11, -1.8961158332331252e-07, 1.6334847430243826e-07, 3.250110296448838e-07], [0.07064679265022278, -2.706010673136916e-05, 0.035042136907577515, -0.05966073274612427, -0.06533005833625793, 7.302527956198901e-05, -0.14681482315063477, -1.3816089449392166e-05, -4.709201675723307e-05, 0.14518135786056519, -1.0846132681763265e-05, -0.029442885890603065, -0.04821064695715904, 6.73308823024854e-05, 0.0001058601847034879, -1.286026929392392e-07, -2.7690994102158584e-05, 2.1407206531876e-06, -0.003922820091247559, -0.024703046306967735, 0.0044143907725811005, 4.4291314225120004e-06, -9.785580914467573e-06, -0.02482098899781704, 0.017831241711974144, -0.136802539229393, 6.885427865199745e-05, -0.08761656284332275, -1.5688858184148557e-05, -0.1510404497385025, 0.030329488217830658, -0.12198466062545776], [0.024506211280822754, 2.8952848879271187e-05, -0.060696009546518326, 0.007896042428910732, -0.08753955364227295, -0.0004857609746977687, -0.07814691960811615, 5.045890429755673e-05, 4.198940587230027e-05, 0.18586137890815735, 8.274762512883171e-05, -0.019017351791262627, -0.11328287422657013, -0.0002668914385139942, 1.1279486898274627e-05, 5.4442702094092965e-05, 4.469394116313197e-05, 2.8579848731169477e-05, -0.027399763464927673, -0.023855533450841904, 0.0033640952315181494, 5.4903070122236386e-05, -1.5537136277998798e-05, 0.005664319731295109, 0.01637178659439087, -0.15430264174938202, -0.00027961216983385384, -0.09548487514257431, 0.0001291618391405791, 0.028671639040112495, -0.015326526947319508, -0.13405701518058777], [0.011622068472206593, 2.4858711185515858e-05, 0.007687239442020655, 0.0003952603437937796, -0.035378288477659225, -0.0002430292806820944, -0.030922023579478264, 1.1464254384918604e-05, 3.3190372050739825e-05, 0.056874752044677734, 2.512284481781535e-05, -0.01574217528104782, -0.054647721350193024, -0.00010293963714502752, -1.4380158063431736e-05, -2.4931958250817843e-05, 5.183396933716722e-05, -7.345147423620801e-06, 0.0011349266860634089, 0.0023038156796246767, -0.008246059529483318, -2.8624108381336555e-05, 3.942137846024707e-05, 0.01197610329836607, 0.02181571163237095, -0.0723399817943573, -0.00011059113603550941, -0.023886611685156822, 3.716056426128489e-06, 0.00573199987411499, -0.009094350971281528, -0.04625026881694794], [3.6257154079066822e-06, 2.1963650898015885e-09, 4.799387625098461e-06, -1.51517917856836e-06, -1.371201392430521e-06, -6.6065077852783816e-09, -1.5507768011957523e-06, 4.922174889898656e-10, 1.9347619062415333e-09, 2.7868500751537795e-07, 7.973048887777168e-10, 3.794830831793661e-07, 3.6068420286028413e-06, -4.1118792815098004e-09, -2.8238356097887163e-09, -2.746956440091708e-09, 4.209563808643679e-09, -9.107674059372073e-10, -2.1964638108329382e-07, 5.292529863254458e-07, 5.823595756737632e-07, -2.861721748459445e-09, 3.426980699217097e-09, 2.974531696509075e-07, -1.4809164667894947e-06, -5.634057629322342e-07, -4.106759821098649e-09, -2.395401224930538e-06, -1.3522678532496002e-09, -2.8123897664045217e-06, 1.2242793445693678e-06, -1.4136880963633303e-06], [0.06450121849775314, -4.089844151167199e-05, -0.13215483725070953, 0.05226738005876541, -0.12179890275001526, 0.0002705251972656697, 0.07733960449695587, -1.472928579460131e-05, 2.7383737688069232e-05, 0.133333221077919, 2.9034445105935447e-06, -0.02463734894990921, -0.03751455619931221, 0.00011054970673285425, -6.40203506918624e-05, -9.99910412247118e-07, -2.7310139557812363e-05, -6.6825791691371705e-06, -0.02558317966759205, -0.02197161689400673, 0.010944325476884842, -3.154164915031288e-06, -9.40454083320219e-06, 0.012723054736852646, 0.013115372508764267, -0.11685054004192352, 0.00013261157437227666, -0.10390865802764893, -2.427688377792947e-05, 0.1572909653186798, -0.05019807815551758, -0.11047791689634323], [-4.1074159184972814e-08, -3.742812310081334e-11, -1.1490511298006822e-07, 2.5246091439612428e-08, -2.9405363477508217e-08, 2.386660591380263e-10, -1.3264974541016272e-07, -9.43667626679412e-12, 8.366893983202672e-12, 1.8522327138725814e-07, -1.2420525545564498e-11, -3.8743635855098546e-08, -2.2944884392472886e-07, 1.0561888863502844e-10, -3.6876238174166076e-11, -7.775164789346894e-14, -5.090960986109394e-11, -2.3688631351631573e-12, -1.2292557194371057e-08, -2.860479852984099e-08, -1.4783049451239094e-08, -2.692153141040099e-13, -1.9118824579056337e-11, -1.3776880081195486e-08, 5.792413659833073e-08, -1.3362642903302913e-07, 1.1811988887000524e-10, -4.076270343489341e-08, -3.2682506007075673e-11, 6.21033038328278e-08, -5.481066622792241e-08, -1.1162969570932546e-07], [-1.0753267787322329e-07, -1.1220310097703745e-10, -2.0368730702102766e-07, -5.24626209141843e-08, 3.168185047641714e-09, 9.22745102549527e-10, -6.543133395098266e-07, -5.4953406408708716e-11, -7.988813777171089e-11, 4.344553872215329e-07, -8.155896097372661e-11, -1.1751435380347175e-07, -5.73933903069701e-07, 5.084247467479486e-10, 3.718825594689612e-11, 3.548381033446901e-11, -1.8759950537461378e-10, 1.8773633689295188e-11, 1.6933487501091804e-08, -7.64151124599266e-08, -4.8897685900328725e-08, 3.685081753634911e-11, -9.913875970157804e-11, -1.1804752375610406e-07, 1.7169763566471374e-07, -3.2021608831200865e-07, 5.531329283492425e-10, -4.441577416969267e-08, -9.859452837490679e-11, -1.4767854850106232e-07, -3.313500229751298e-08, -2.6254738827447e-07], [-0.006996853742748499, 9.008051165437791e-06, 0.008213082328438759, -0.0011008615838363767, 0.009414097294211388, 0.0003628157137427479, 0.0038879094645380974, -4.463768709683791e-05, -6.937034049769863e-05, 0.003331259824335575, -9.618187323212624e-05, -0.001652877195738256, -0.013998109847307205, 0.00021975940035190433, 7.648226892342791e-05, -6.59809957141988e-05, -1.1776732208090834e-05, -1.2194736882520374e-05, 0.0033746976405382156, 0.002407257677987218, 0.003449245821684599, -5.8233756135450676e-05, 3.0312339731608517e-05, -0.009980784729123116, 0.006379459518939257, -0.0007126304553821683, 0.0002240612666355446, 0.0077271778136491776, -0.00012126198998885229, -0.009343726560473442, 0.003144562942907214, 0.001140781445428729], [5.115400014688021e-08, -1.8383093658425054e-10, -6.125939080448006e-07, 2.9058218942168423e-08, -2.8133396767771046e-07, 1.92713023317026e-09, -8.248777021435671e-07, -1.3044643143445e-10, -1.3920280206303204e-10, 9.061259902409802e-07, -2.3429705398037015e-10, -2.287187896854448e-07, -8.46930788611644e-07, 9.69413216367343e-10, -2.5628180133629996e-11, -6.175886191339686e-11, -3.1024727231709903e-10, -1.622526765721055e-11, -4.5804199544363655e-08, -1.3067464976757037e-07, -1.0212403367404477e-07, -5.487092030742602e-11, -8.9540416747802e-11, -7.51161124412647e-08, 2.506216674191819e-07, -7.85426095717412e-07, 1.0512343218138653e-09, -3.0963897756919323e-07, -3.3349614736444266e-10, 9.444586623885698e-08, -2.0451537352528248e-07, -6.367752689584449e-07], [0.10710684955120087, 7.963420102896634e-06, 0.07629901170730591, -0.02724987268447876, -0.09029953181743622, 0.00047516223276034, 0.1079852357506752, -8.499512478010729e-05, -0.00011630362132564187, -0.0073609733954072, -0.00016407463408540934, -0.013193474151194096, 0.06489364802837372, 0.000331283692503348, 9.490349475527182e-05, -0.00012129654351156205, -1.925604919961188e-05, -3.972204649471678e-05, -0.002612258307635784, -0.012423712760210037, -0.0157142523676157, -0.00011942635319428518, 6.54026516713202e-05, 0.0019019223982468247, -0.013092607259750366, -0.07334096729755402, 0.0003315143403597176, -0.06444061547517776, -0.00021027016919106245, -0.018373820930719376, 0.0043014236725866795, -0.04023480415344238], [0.012963617220520973, -5.5445480029447936e-06, 0.010158558376133442, -0.0050073545426130295, -0.012853226624429226, 7.366088539129123e-05, -0.012835484929382801, -7.222728982014814e-06, -8.729169167054351e-06, 0.01364465057849884, -1.306130889133783e-05, -0.002469643484801054, 0.001046466175466776, 3.562253914424218e-05, 2.3071543182595633e-06, -5.649259833262477e-07, -1.3575830053014215e-05, 1.479658976677456e-06, 0.0009610767592675984, -0.0010224528377875686, -0.0017832244047895074, -4.603408143566412e-08, -6.11919267612393e-06, -3.989869128417922e-06, 0.0015646216925233603, -0.017412161454558372, 3.722068140632473e-05, -0.012854169122874737, -1.155270729213953e-05, -0.009229547344148159, 0.0057319169864058495, -0.01478099450469017], [-1.7605840696433006e-07, 1.9833711062400283e-10, 3.69092674645799e-07, -1.8705735271851154e-07, 3.001357811172056e-07, 1.3086665084927063e-09, -3.235242331811605e-07, -4.8300679428292526e-11, 3.9464947976242115e-10, -7.355552611443272e-08, -5.262890470647541e-11, 1.4539782000611012e-07, -6.336416618069052e-07, 4.5805909065776973e-10, -8.730843270576827e-10, -7.248552869043579e-10, 5.125921354043328e-10, -2.861786085883722e-10, -1.0760881075100315e-09, 1.0795979221711605e-08, -7.485367348181171e-08, -7.462098161603592e-10, 6.613477543382373e-10, -7.105067822976707e-08, -3.7102601879723807e-08, 1.42960956850402e-07, 5.854332019161745e-10, 1.7838812027548556e-07, -8.115222938087641e-10, -5.167368044567411e-07, 2.132547507471827e-07, 1.1882166717214204e-07], [3.145733842302434e-07, 6.118894280149334e-11, 1.551884452055674e-07, -2.1700299157600966e-07, -2.2497795271192444e-07, -4.2813663725382867e-10, -1.191066871797375e-06, 2.1935493352276403e-11, -1.4214876498108708e-10, 8.010289889170963e-07, 2.288164276109672e-11, -2.6830861088456004e-07, -1.8598970541461313e-07, -1.1529117244224452e-10, 2.779378949213651e-10, 1.740343841261094e-10, -1.394020641108662e-12, 1.2172193808446252e-10, 4.709931289426095e-08, -8.862158296096823e-08, 8.883827007366563e-08, 1.6959252058246221e-10, -1.1388046061711066e-10, -2.399081893145194e-07, 1.9253126026796963e-07, -6.010452580085257e-07, -1.282021849791093e-10, -4.066068584052118e-07, 2.4180490942882216e-10, -4.4239951080271567e-07, 4.389185193076628e-08, -6.482306389443693e-07], [-4.4179042646419475e-08, -8.516357064003444e-11, -2.9795546652167104e-07, 2.2194150517407252e-08, -1.2159391715726997e-08, 1.395003335069589e-09, -3.85463863494806e-07, -1.283087663894733e-10, -1.7674156582714318e-10, 3.499646936688805e-07, -2.459697168166741e-10, -8.168560583499129e-08, -3.78635519382442e-07, 7.370224430758299e-10, 7.462035156446944e-11, -1.0339543110582383e-10, -1.8341200780369604e-10, -1.8265403078920883e-11, -4.048464230521631e-09, -3.305456530711126e-08, -5.030640437553302e-08, -9.281819063344798e-11, -1.4659369204639283e-11, -9.525371780227943e-08, 1.1650535469698298e-07, -2.837677470779454e-07, 7.823365844039643e-10, -6.413695530227415e-08, -3.0535696193823014e-10, 6.730864754445065e-08, -6.681740671865555e-08, -2.2279256484125654e-07], [-4.902512387161551e-07, 2.325696059346516e-11, 3.855157615362259e-07, -6.372928851305915e-08, 6.340410436678212e-07, -1.0399291844320757e-10, -3.4166813378533334e-08, 8.833487760706582e-12, 7.418012037962995e-11, -6.097981213315506e-07, 5.044490519745537e-11, 2.053929790690745e-07, -8.432043330230954e-08, -4.412795129304925e-11, -8.153258623799786e-11, -6.571954092038368e-11, 9.282660057285952e-11, -3.266489509434756e-11, 8.269130802318614e-08, 1.1145965572723071e-07, -5.186773233134545e-09, -6.792269524602546e-11, 8.218729863340712e-11, -1.0727944044219839e-07, -6.865914770060044e-08, 6.740361300217046e-07, -3.309958904185173e-11, 5.281698349790531e-07, -4.2305128150621485e-11, -2.437185173675971e-07, 2.05471692993342e-07, 5.735239483328769e-07], [3.0797636441093346e-08, -1.6180007637520144e-12, -2.8150996200793088e-08, -3.934849390763162e-10, -4.1919520299416035e-08, 3.0586186361425405e-11, -3.494715272722715e-08, -3.1412168872979596e-12, -6.747967202375138e-12, 5.972918870611466e-08, -7.508610920525793e-12, -1.6014910286799022e-08, -1.4217881094680251e-08, 1.7012816502792738e-11, 5.760162312407058e-12, -7.690642285333726e-13, -6.4358887143234345e-12, 1.2981772774811606e-12, -4.9931094814326116e-09, -6.779755867825088e-09, -1.924494785754405e-09, -5.085147255536049e-13, -2.3247716685742548e-12, 8.035525578264924e-10, 9.508409171132826e-09, -5.979093486985221e-08, 1.7627652809659722e-11, -4.050307822467403e-08, -5.537942934091822e-12, 3.965855199794532e-09, -4.306300649403738e-09, -5.182733175956855e-08], [-0.005124813411384821, 8.669924136484042e-05, -0.030710522085428238, 0.00434082793071866, -0.01035735197365284, -0.00038717009010724723, 0.004419467877596617, -4.647307378036203e-06, -8.715692820260301e-05, 0.01103105116635561, -3.7132711440790445e-05, 0.002165749901905656, 0.025125091895461082, -0.00017642865714151412, 0.00013493988080881536, 3.550004112184979e-05, 5.173190584173426e-05, 4.3193263991270214e-05, -0.009087774902582169, -0.0016298001864925027, -0.0013106776168569922, 3.6364894185680896e-05, -7.449134500348009e-06, -0.0032009666319936514, -0.008504107594490051, -0.007053540088236332, -0.000208798170206137, -0.012099037878215313, 8.787062688497826e-05, 0.0007840777980163693, 0.0006607926334254444, -0.008474607020616531], [0.08690828084945679, 0.00012064308975823224, -0.14655156433582306, 0.005606250371783972, -0.1513725072145462, -0.0009525221539661288, -0.15101182460784912, 6.88989894115366e-05, -9.625980055716354e-06, 0.3454921245574951, 8.80653242347762e-05, -0.0680391862988472, -0.1436356008052826, -0.0005004480481147766, 0.00011324407387292013, 0.00010286017641192302, 0.00011915001960005611, 7.100811490090564e-05, -0.032277610152959824, -0.03418545797467232, 0.010254986584186554, 9.79646501946263e-05, -1.8795735741150565e-05, -0.00815272144973278, 0.05572628974914551, -0.2666318714618683, -0.0005384313990361989, -0.17902834713459015, 0.00025238568196073174, -0.009695273824036121, -0.013212984427809715, -0.2542165517807007], [-0.11724714189767838, 5.2968614909332246e-05, -0.032927729189395905, 0.02515615150332451, 0.18318872153759003, 0.0011420774972066283, -0.010516290552914143, -0.00023108623281586915, -0.0005129942437633872, -0.28964537382125854, -0.0005235149874351919, 0.04027748107910156, 0.12161705642938614, 0.0008287206874229014, 0.0005463648121803999, -0.000287559611024335, -5.289104228722863e-05, -4.7949888539733365e-05, 0.030655669048428535, 0.034850794821977615, -0.01727331057190895, -0.00024948862846940756, 0.0001367048971587792, 0.028231574222445488, -0.029580680653452873, 0.2655008137226105, 0.0007974575855769217, 0.18096312880516052, -0.000509454112034291, 0.07786045223474503, -0.057245735079050064, 0.22319163382053375], [-3.034105233723494e-08, -7.110565608536845e-11, -2.72904969733645e-07, 2.070613547289213e-08, -2.3206824906196744e-08, 1.2333510879258824e-09, -3.48510042158523e-07, -1.1581122866255456e-10, -1.6241440137232388e-10, 3.3296404922111833e-07, -2.242618313275102e-10, -7.711235383567328e-08, -3.422956638132746e-07, 6.567597576889739e-10, 7.472992363810604e-11, -9.626520414141027e-11, -1.5992045188095716e-10, -1.5788139892669584e-11, -5.758009624656779e-09, -3.1992648530376755e-08, -4.4874632010305504e-08, -8.667013634555687e-11, -9.256793248590967e-12, -9.05701469378073e-08, 1.0750869705589139e-07, -2.7271590852251393e-07, 6.957527332041025e-10, -7.193630580104582e-08, -2.7560118076586093e-10, 6.75750655432239e-08, -5.6469104947609594e-08, -2.1667521821200353e-07], [-2.382605970296936e-07, -3.4490972578016255e-11, -6.910244376712171e-09, -1.091891110860388e-08, 2.7917678835365223e-07, 6.25643148399746e-10, -1.8360609033152286e-07, -6.720238948654256e-11, -9.694023361817017e-11, -1.0147660844950224e-07, -1.1982374814589747e-10, 4.445113788165145e-08, -1.8348285379943263e-07, 3.547922788893487e-10, 6.831284843356045e-11, -5.765095345555693e-11, -7.388901296367933e-11, -9.998844634206971e-12, 3.7287509968564336e-08, 2.991405878560727e-08, -2.340142657430988e-08, -5.137858888337732e-11, 4.383939392060832e-12, -1.1161107948964855e-07, 3.0256394722982805e-08, 1.6242638878338767e-07, 3.7437991595723474e-10, 2.0621304486212466e-07, -1.509157798729177e-10, -5.5757080730245434e-08, 5.572830730216083e-08, 1.4829403482963244e-07], [0.07317516952753067, 5.151849836693145e-05, -0.18527376651763916, 0.015538506209850311, -0.13272224366664886, -0.0007009276305325329, -0.1730222851037979, 5.313443034538068e-05, -9.149518518825062e-06, 0.329598069190979, 7.328709034482017e-05, -0.06525378674268723, -0.1461029350757599, -0.00035166426096111536, 9.353684436064214e-05, 0.00012483067985158414, 4.454436566447839e-05, 5.544378291233443e-05, -0.03007829189300537, -0.026847653090953827, 0.013422107324004173, 0.00011686852667480707, -6.056516940589063e-05, -0.0036028767935931683, 0.0587364062666893, -0.23167288303375244, -0.0003847724001388997, -0.16127754747867584, 0.00022873305715620518, 0.0035645687021315098, -0.015795530751347542, -0.23451809585094452], [-0.38679859042167664, 0.00023014668840914965, -0.042669519782066345, -0.00942311342805624, 0.3838672637939453, 0.0007919143536128104, -0.009928327985107899, -3.142153218504973e-05, -4.420605910127051e-05, -0.48930448293685913, -0.00019220920512452722, 0.16792181134223938, -0.35109826922416687, 0.00028440504684112966, -5.697181768482551e-05, -0.0002140357537427917, 0.00011981621355516836, -6.154023139970377e-06, -0.02197299897670746, 0.011319339275360107, 0.011006204411387444, -0.00020871456945315003, 0.00015334607451222837, 0.049642905592918396, -0.09079545736312866, 0.4087583124637604, 0.00030006165616214275, 0.33588284254074097, -0.0002710407425183803, -0.07748878002166748, -0.021906865760684013, 0.36937153339385986], [-0.034136999398469925, 1.8598480892251246e-05, -0.021959304809570312, 0.002491495804861188, 0.015903929248452187, 5.026759026804939e-06, -0.021146263927221298, -2.041354491666425e-05, -2.312919605174102e-05, 0.044975362718105316, -4.204648212180473e-05, -0.000510578858666122, -0.04715362936258316, 3.8475704059237614e-05, -9.672399755800143e-06, -3.325900252093561e-05, 1.7988206309382804e-05, -3.932725576305529e-06, -0.005926996469497681, -0.0026267836801707745, 0.0008376518380828202, -3.701819514390081e-05, 2.7341811801306903e-05, -0.00544693972915411, 0.007818282581865788, -0.011848111636936665, 3.843216836685315e-05, 0.00021501544688362628, -4.242156137479469e-05, -0.004557462874799967, 0.0015089623630046844, -0.01673448644578457], [1.824260209559725e-07, 3.5194533398730243e-10, 6.033489512446977e-07, -2.7201602392779023e-07, 8.633535486524124e-08, 4.560586630564245e-10, -3.002900825777033e-07, -7.126756216419006e-12, 4.27290813842518e-10, -5.750853304675729e-08, -3.995700038200711e-12, 1.5074492409894447e-07, -1.7783938233151275e-07, 3.4677035548602575e-11, -8.520213423679479e-10, -8.032954856851404e-10, 7.530162604574286e-10, -2.9853075567132237e-10, -2.5840430240009482e-08, 3.0470832967921524e-08, -2.031800860891053e-08, -8.287153741015629e-10, 8.067110868203997e-10, -5.443700601404089e-08, -1.5505470685184264e-07, 5.7519070395528615e-08, 1.2711685870581135e-10, -6.223711324082615e-08, -7.608499386080325e-10, -6.474949145740538e-07, 3.1522239396508667e-07, -1.421293838177462e-08], [-0.029489073902368546, -5.0137555263063405e-06, 0.011654563248157501, 0.008307848125696182, 0.007899620570242405, 0.00012172649439889938, 0.02353714033961296, -1.2297899047553074e-05, 2.8090527848689817e-05, 0.061564333736896515, 8.610538316133898e-06, -0.002553600585088134, -0.07008098065853119, 7.303443999262527e-05, -5.0180071411887184e-05, -2.911266710725613e-05, 2.0446208509383723e-05, -1.667795004323125e-05, -0.0075075444765388966, -0.0058442531153559685, 0.009355445392429829, -2.8092532375012524e-05, 2.4269120331155136e-05, -0.005994816776365042, 0.012454817071557045, -0.022003132849931717, 8.216546848416328e-05, -0.005141413304954767, -4.336350684752688e-05, 0.00822233036160469, -0.009170470759272575, -0.02628595381975174], [1.8536724155637785e-07, -1.3505876972352837e-10, -6.27674864972505e-07, 5.3099633134934265e-08, -3.8881722730366164e-07, 2.4602324621980642e-09, -6.850429485893983e-07, -1.8704122972668102e-10, -1.6609634501119075e-10, 9.60958573159587e-07, -3.60120155917798e-10, -2.3287769579383166e-07, -7.704870199631841e-07, 1.2109493408019034e-09, -1.0606354683417862e-10, -2.3353746714249723e-10, -2.530494980224063e-10, -6.713347239228895e-11, -6.452156497971373e-08, -1.154151618720789e-07, -9.625900077026017e-08, -2.2339299854401418e-10, 3.615016272440208e-11, -4.847949597319712e-08, 2.349831902392907e-07, -8.732048968340678e-07, 1.310666464249266e-09, -4.14946754290213e-07, -5.674652414633385e-10, 1.8139341761980177e-07, -2.1141005390745704e-07, -7.158073458413128e-07], [0.1258106678724289, 7.450686098309234e-05, -0.22516514360904694, 0.005748496390879154, -0.16092540323734283, -0.0006613422883674502, -0.24544622004032135, 4.2819880036404356e-05, -4.132337562623434e-05, 0.3323118984699249, 2.3006559786153957e-05, -0.09482498466968536, -0.105917789041996, -0.00028715221560560167, 0.0001424971706001088, 3.3228374377358705e-05, 6.94992850185372e-05, 2.8239095627213828e-05, -0.012462879531085491, -0.013511470519006252, -0.0013157816138118505, 3.499981903587468e-05, 6.896766990394099e-06, 0.0062887645326554775, 0.08158048242330551, -0.25255855917930603, -0.00032321971957571805, -0.1831195205450058, 0.00011736304441001266, -0.011765156872570515, -0.019963394850492477, -0.25826525688171387], [0.30722951889038086, 2.730376763793174e-06, 0.07440885901451111, -0.04772630333900452, -0.34361135959625244, -0.0005676052533090115, 0.048173416405916214, 5.414115003077313e-05, 4.149105734541081e-05, 0.2024940848350525, 8.539755799574777e-05, -0.06265663355588913, 0.06487632542848587, -0.0002734785375650972, 3.802069477387704e-05, 3.7568363040918484e-05, 3.999619002570398e-05, 2.6738880478660576e-05, -0.024190092459321022, -0.05056801810860634, -0.03247896581888199, 4.581384200719185e-05, -5.2745458560821135e-06, 0.01150740310549736, -1.674527629802469e-05, -0.35518893599510193, -0.0002916140074376017, -0.2660728991031647, 0.0001119629159802571, 0.008056643418967724, 0.010684609413146973, -0.25937193632125854], [-0.010999435558915138, -5.536576281883754e-05, 0.004579175729304552, 0.0003379891568329185, 0.013574851676821709, 0.00022977379558142275, -0.022693200036883354, 5.354690529202344e-06, 1.5013313714007381e-05, 0.021168053150177002, 2.255070285173133e-05, -0.0047364565543830395, -0.035582441836595535, 0.00013975407637190074, 1.2639748092624359e-05, 2.928527919721091e-06, -4.52847671112977e-05, -1.647521094128024e-05, 0.003119074273854494, 0.000988131039775908, 0.002651606686413288, 9.004480489238631e-06, -2.126876643160358e-05, 0.00040270574390888214, 0.011273729614913464, -0.0057416572235524654, 0.00015125730715226382, 0.004071317613124847, -3.597123213694431e-05, -0.0016296281246468425, -0.005954243242740631, -0.008551666513085365], [0.6234040260314941, 0.00017005005793180317, -0.0005869932356290519, 0.08448626846075058, -0.2702290415763855, 0.00021874898811802268, 0.028772054240107536, -9.288365254178643e-05, -0.0002948574547190219, -0.14982764422893524, -0.000273296405794099, -0.2575548589229584, 0.48795947432518005, 0.0002514999941922724, 0.00022297749819699675, -0.00011974565131822601, 0.00010213792120339349, -6.580192712135613e-05, 0.06513708084821701, -0.07720620185136795, 0.19845739006996155, -8.871153113432229e-05, 9.870415669865906e-05, -0.009157638065516949, -0.015520094893872738, -0.1911047101020813, 0.00022070365957915783, -0.1644124537706375, -0.000138782401336357, -0.12205781787633896, 0.04889710247516632, -0.1956336349248886], [9.745919669512659e-05, -1.6880464954738272e-06, -3.693981489050202e-05, 8.067700400715694e-05, -0.00010990451119141653, 1.6524640159332193e-05, 0.00011668994557112455, -2.4710682282602647e-06, -3.75816830455733e-06, -4.7905457904562354e-05, -4.685176918428624e-06, -3.062890755245462e-05, 0.00013139299699105322, 1.017565682559507e-05, 3.750253426915151e-06, -9.38173400300002e-07, -3.553821670720936e-06, 1.9451933042091696e-07, -1.2379725831124233e-06, 2.921231134678237e-05, 6.43645107629709e-05, -6.286339839789434e-07, -1.0557437235547695e-06, -0.00043947872472926974, 2.2340183932101354e-05, 0.0001651438942644745, 1.0009430297941435e-05, -6.6155924287159e-05, -4.12180406783591e-06, 0.00010802041651913896, 4.350439485278912e-05, 8.68670849740738e-06], [-0.01164547260850668, -0.00032126784208230674, 0.8369439840316772, -0.28630727529525757, -0.0009244616376236081, -6.466229388024658e-05, 0.03220277279615402, 0.00010420124453958124, 0.00029215498943813145, -0.1296365112066269, 0.0003506542125251144, 0.07046729326248169, 0.01809781789779663, -0.00027825988945551217, -0.0004968055873177946, 0.00044920246000401676, -0.00034928368404507637, 0.00012340315151959658, 0.06113087758421898, -0.1821553260087967, 0.03937452286481857, 0.00045228746603243053, -0.000398767355363816, -0.1804506927728653, 0.006407814100384712, -0.059248894453048706, -0.00020875759946648031, -0.07416027784347534, 0.00046469198423437774, -0.7097970843315125, 0.43630558252334595, -0.055659253150224686], [-0.013652044348418713, -0.00019706267630681396, 0.03854178637266159, 0.10661114752292633, 0.011265354230999947, 0.0009283571853302419, -0.11372668296098709, 8.211059139284771e-06, 0.0004004667280241847, -0.010814358480274677, 0.00022524510859511793, 0.17412492632865906, 0.02429990842938423, 0.0002619416918605566, -0.0008427711436524987, 0.00011539649858605117, -0.0001349295926047489, 4.6410517825279385e-05, 0.20097534358501434, 0.27840811014175415, 0.10786639899015427, 0.00013137899804860353, -0.00012761945254169405, 0.22782808542251587, 0.22789360582828522, 0.14054781198501587, 0.0003718676161952317, 0.035527460277080536, 6.24362874077633e-05, 0.6837790012359619, 0.11453130096197128, 0.01759893260896206], [-0.3858715295791626, 0.0005049263127148151, 0.019870351999998093, 0.0029362929053604603, 0.38757455348968506, -0.00018402999558020383, -0.10067376494407654, -0.0003589636762626469, -0.0006628247210755944, -0.036772023886442184, -0.0007046915125101805, 0.04635808989405632, -0.3538356125354767, 0.0003058830334339291, 0.0008820533403195441, -0.0006601288914680481, 0.0005744631635025144, -9.003993181977421e-05, -0.037084873765707016, -0.10015067458152771, 0.061463017016649246, -0.000636845943517983, 0.0006175456219352782, -0.3504461348056793, 0.00911041721701622, 0.2743852734565735, 0.00019995876937173307, 0.29812225699424744, -0.0006556513253599405, -0.21864065527915955, 0.09145820140838623, 0.24370752274990082], [-5.3236872190609574e-05, 2.1128325897734612e-05, -0.00012438234989531338, 0.00020808912813663483, 0.00021408451721072197, -0.00015558456652797759, -7.301078585442156e-05, 6.00568318986916e-06, -1.379836248815991e-06, 0.00014145737804938108, 1.5604384316247888e-05, 0.00013083103112876415, -0.0002469569444656372, -8.381163934245706e-05, 3.0142611649353057e-05, 3.0594756026403047e-06, 2.933844007202424e-05, 2.7400171802582918e-06, -0.0006438092095777392, 0.000277136976365, 3.290393215138465e-05, 2.1908374492340954e-06, 1.0571357961453032e-05, -0.0002594471152406186, -0.0005296698655001819, 1.0212966117251199e-05, -9.035440598381683e-05, -5.884623169549741e-05, 2.6922996767098084e-05, 0.0005593029200099409, -0.0004972153110429645, -9.743926057126373e-05], [0.05633086711168289, -9.841457358561456e-05, 0.08919921517372131, 0.2675913870334625, -0.12313972413539886, 0.00013413211854640394, 0.7934547066688538, -0.00016385353228542954, 1.5774427311043837e-06, -0.12254142016172409, -8.923287532525137e-05, -0.05568492040038109, -0.05240781605243683, 2.9337723390199244e-05, -0.00016437983140349388, -0.00010635848593665287, -9.76155570242554e-06, -6.51730370009318e-05, 0.014777159318327904, 0.008082926273345947, -0.07493885606527328, -0.00011118481052108109, 7.880086195655167e-05, 0.12783746421337128, 0.043746985495090485, -0.16923728585243225, 3.780576662393287e-05, -0.02411072887480259, -0.00015727378195151687, 0.6799790263175964, -0.37849804759025574, -0.025003474205732346], [-0.00014573652879334986, -1.6416172456956701e-06, 0.0001434806763427332, -0.00010856214066734537, 4.356113277026452e-05, 8.64692628965713e-06, -0.00012019094720017165, 5.295121923154511e-07, 2.9732912025792757e-06, 2.2343390810419805e-05, 2.0834363567701075e-06, 2.0385630705277435e-05, -6.011360528646037e-05, 1.6595000715824426e-06, -6.181319804454688e-06, 1.427966822120652e-06, -1.459909185541619e-06, 1.7175877076169854e-07, 0.00013736047549173236, -4.692945003625937e-05, 0.00010216733062407002, 1.355040922135231e-06, -1.4287320482253563e-06, 0.0001811264519346878, 4.7360164899146184e-05, -0.00011088831524830312, 2.7991329716314794e-06, 4.938480560667813e-05, 1.067284415512404e-06, -0.00016616805805824697, 7.58813475840725e-05, -2.0982904970878735e-05], [-0.00024262985971290618, -1.938764626174816e-06, 0.0005105814780108631, -0.0002804813557304442, -6.298569701357337e-07, 6.299911547102965e-06, 5.3272182412911206e-05, 1.5498943639613572e-06, 4.41113570559537e-06, -4.5114109525457025e-05, 3.6388264561537653e-06, 1.1476899999252055e-05, -0.00028631335590034723, -6.298638481894159e-07, -8.962862921180204e-06, 2.7578589651966467e-06, -1.8322773485124344e-06, 7.520108056269237e-07, 0.00016114985919557512, -0.0002589155628811568, -5.386205157265067e-05, 2.8131596536695724e-06, -2.415247763565276e-06, 0.0004589511372614652, 4.3533782445592806e-05, -0.00013629980094265193, 9.507854770163249e-07, 0.00015910094953142107, 2.9615964649565285e-06, -0.00043234784970991313, 9.669650171417743e-05, 7.375609129667282e-05], [-0.21625688672065735, -0.00013723403390031308, -0.010057264938950539, -0.050929829478263855, 0.07526781409978867, -0.0003544646315276623, 0.003738411469385028, 0.00018594159337226301, 0.00024163737543858588, 0.5896996259689331, 0.0002650455280672759, 0.2531772553920746, 0.02414569817483425, -0.0002664360508788377, -0.0001457783073419705, 0.00013049101107753813, -0.00013922256766818464, -8.39952099340735e-06, -0.2613503038883209, -0.08174630999565125, 0.22352305054664612, 0.0001343779731541872, -0.0001241786958416924, -0.08177933841943741, -0.4310002028942108, -0.038779549300670624, -0.00027142369071953, -0.24004173278808594, 0.00017148657934740186, -0.058055199682712555, -0.09575775265693665, -0.1385992169380188], [-0.0002461987314745784, -3.8180519368324894e-06, 0.00038688170025125146, -0.0003416007966734469, 3.9603077311767265e-05, 2.8060354452463798e-05, -8.463543963443954e-06, 3.7877390468565864e-07, 4.7387625272676814e-06, -3.3086958865169436e-05, 1.7508480141259497e-06, 1.0082273547595832e-05, -0.000195082655409351, 8.37490733829327e-06, -1.2915305887872819e-05, 1.5915276208033902e-06, -4.016651928395731e-06, -4.0291169511874614e-08, 0.00024156199651770294, -0.00028567356639541686, -8.623269422969315e-06, 1.686573568804306e-06, -2.6034917937067803e-06, 0.0005165393813513219, 8.825317490845919e-05, -0.00018259168427903205, 1.093567789212102e-05, 0.00016611498722340912, -5.664370519298245e-07, -0.000548279145732522, 9.485733608016744e-05, 6.444072641897947e-05], [0.14178527891635895, 0.00017085400759242475, -0.09553193300962448, -0.24414639174938202, 0.12073398381471634, -4.107951099285856e-05, 0.09506017714738846, -0.0001914849126478657, -6.859759014332667e-05, 0.23011842370033264, -6.961775216041133e-05, 0.38956648111343384, -0.09394749999046326, 2.0682164176832885e-06, 3.279606607975438e-05, 4.4765220081899315e-05, 4.156919021625072e-05, -2.3621249056304805e-05, -0.0387466624379158, -0.012604977935552597, 0.019172947853803635, 7.6558644650504e-06, -2.1102909158798866e-05, -0.22653712332248688, -0.22737406194210052, -0.03980787470936775, -5.114849955134559e-06, 0.07398802787065506, 2.1288991774781607e-05, 0.01729532703757286, 0.30839213728904724, -0.013478986918926239], [0.12887850403785706, 0.00013231061166152358, -0.006784891244024038, 0.0303647480905056, -0.11587690562009811, -0.00026267231442034245, 0.006580239627510309, 0.00011121580610051751, 0.00019195961067453027, -0.07428157329559326, 0.00016350044461432844, -0.13718482851982117, 1.0455455780029297, -0.00021575683786068112, -0.0002041548432316631, 9.630224667489529e-06, 0.00016285541641991585, 2.293018269483582e-06, 0.0026031758170574903, 0.038671523332595825, 0.048624131828546524, -2.2341343992593465e-06, 5.044561476097442e-05, 0.05028463155031204, -0.16582626104354858, 0.09079829603433609, -0.0002012497716350481, -0.1550029218196869, 0.00010217805538559332, -0.02545901946723461, 0.005729033146053553, -0.07939570397138596], [1.6920146663323976e-05, 1.0345259397581685e-05, -0.00031257662340067327, 0.0002820735389832407, 8.291073754662648e-05, -9.389857586938888e-05, -6.310074240900576e-05, 4.057945716340328e-06, -3.2647187708789716e-07, 6.576105079147965e-05, 7.883137186581735e-06, 2.717173265409656e-05, -8.757425348449033e-06, -4.410695328260772e-05, 1.6092573787318543e-05, 1.2010451655442012e-06, 1.5834684745641425e-05, 1.5497839740419295e-06, -0.00029998188256286085, 0.00030096672708168626, 0.00013801964814774692, 7.079248689478845e-07, 5.9198423514317255e-06, -0.00035491070593707263, -0.00015671391156502068, 8.52006851346232e-05, -4.8292346036760136e-05, -4.293472375138663e-05, 1.3922078323957976e-05, 0.00046201786608435214, -0.00017903836851473898, -3.9792277675587684e-05], [0.00022515504679176956, -8.95867117378657e-07, -0.0007852718699723482, 0.00040545137017033994, -3.583578290999867e-06, 2.983055128424894e-05, -2.177410806325497e-06, -4.512202394835185e-06, -6.596393632207764e-06, 6.344859866658226e-05, -9.718359251564834e-06, -3.3590458770049736e-05, 0.00038117021904326975, 1.806545515137259e-05, 5.177608272788348e-06, -5.791088824480539e-06, -2.5150698093057144e-06, -2.1112748527229996e-06, -0.00010651082266122103, 0.0002904110006056726, 0.00012082042667316273, -5.692381364497123e-06, 2.4314961137861246e-06, -0.00043882374302484095, 6.735073839081451e-05, 7.890392589615658e-05, 1.7529593606013805e-05, -0.0001318355352850631, -1.0842818483070005e-05, 0.0004907392431050539, -8.339907071786001e-05, -6.657903577433899e-05], [-0.00011938734678551555, -1.2761345260514645e-06, 0.00010537219350226223, -0.0002791586157400161, 0.00010425416985526681, 1.0341530469304416e-05, -0.00011481243564048782, 8.447639743280888e-07, 4.545550837065093e-06, 2.673826747923158e-05, 2.533358610889991e-06, 1.6451995179522783e-05, -9.700856026029214e-05, 2.0395480078150285e-06, -9.601381862012204e-06, -8.013733321377003e-08, -5.581587174674496e-07, -6.795913236601336e-07, 0.00012817647075280547, -0.0002266163646709174, -2.8750822821166366e-05, -3.698864148304892e-08, -1.4068972120639955e-07, 0.000478539353935048, 3.469453440629877e-05, -0.000171748994034715, 3.441665739956079e-06, 9.656728070694953e-05, -4.4648689367932093e-07, -0.00047312589595094323, -2.0581588614732027e-05, 1.798018638510257e-05], [0.00012113135016988963, -3.115137133136159e-06, 0.000136734131956473, 4.4936194171896204e-05, -0.0001624345313757658, 2.0811519789276645e-05, 9.132442937698215e-05, -1.927802031786996e-06, -2.2615840862272307e-06, -9.56342410063371e-05, -3.4685035643633455e-06, -2.3574983060825616e-05, 9.772762132342905e-05, 1.1549684131750837e-05, 9.219943990501633e-07, 1.9150168384385324e-07, -4.726740826299647e-06, 4.6977805823189556e-07, 8.909468306228518e-05, 4.0236594941234216e-05, 7.695992098888382e-05, 5.478325988406141e-07, -2.298571871506283e-06, -0.00043135887244716287, 3.0836199584882706e-05, 0.00019708053150679916, 1.1827908565464895e-05, -4.85745222249534e-05, -3.266979774707579e-06, 0.00017433587345294654, 0.00015540141612291336, 3.606427344493568e-05], [-4.7519017243757844e-05, -9.47373393955786e-07, 1.5583333151880652e-05, -5.615257396129891e-05, -3.070971433771774e-05, 9.721899914438836e-06, 2.692904854484368e-05, -2.286942191176422e-07, 6.30344061391952e-07, -4.359992544777924e-06, -2.0381791898671509e-07, -1.8683966118260287e-05, 2.1781097530038096e-05, 3.887344519171165e-06, -2.179327793783159e-06, -1.745101343431088e-07, -1.1858920743179624e-06, -2.591827410469705e-07, 6.656205641775159e-06, -5.8096633438253775e-05, -4.877506580669433e-05, -1.817621324562424e-07, -4.068299972459499e-07, 2.7736885385820642e-05, 4.103460923943203e-06, 6.884202321089106e-06, 4.430782610143069e-06, -7.723499038547743e-06, -1.246943611477036e-06, -0.00010324078175472096, 3.5668370401253924e-05, -3.508311237965245e-06], [0.09686359763145447, 4.7602312406525016e-05, -0.01621183566749096, -0.004922827705740929, -0.02754373475909233, 0.00045516836689785123, 0.024590302258729935, 4.182762131677009e-05, -5.618828799924813e-05, -0.14693792164325714, -5.0019840273307636e-05, -0.24049077928066254, 0.004625849425792694, 0.0003433363453950733, -2.05023698072182e-05, -7.817975711077452e-05, 5.059740578872152e-05, 0.00011059417738579214, 0.2938803732395172, 4.382697807159275e-05, 0.19987446069717407, -8.351660653715953e-05, 7.708786142757162e-05, 0.02356017753481865, 0.46666398644447327, -0.0019083290826529264, 0.0003844670718535781, 0.12228745967149734, -0.0001131059616454877, -0.1057024747133255, 0.10350069403648376, 0.04383929446339607], [0.015329023823142052, 6.581133493455127e-05, 0.16646640002727509, 0.15734060108661652, 0.2649737000465393, -2.762750955298543e-05, -0.17119833827018738, -9.299442899646237e-05, -1.0127104360435624e-05, -0.6955974698066711, -4.056969191879034e-05, -0.06044626608490944, -0.1356218457221985, 8.331076969625428e-06, -7.830351933080237e-06, -1.3344621038413607e-05, 9.87828207144048e-06, 8.66966183821205e-06, 0.2819480895996094, 0.49407702684402466, -0.27996161580085754, -3.089664096478373e-05, 1.469430026190821e-05, -0.7526980638504028, 0.5162783265113831, -0.11808019131422043, -1.5039411664474756e-05, 0.7708744406700134, -3.5659373679663986e-05, 0.05088150128722191, 0.19293539226055145, 0.5563424229621887], [0.08854570239782333, -7.545720291091129e-05, 0.11125155538320541, 0.08273179084062576, -0.05653630942106247, 0.00019275718659628183, -0.11604060977697372, -2.1233505322015844e-05, 2.1523765099118464e-05, 0.13409344851970673, 4.770881059812382e-05, -0.04292095825076103, -0.001319283270277083, 0.00013683323049917817, 1.850539592851419e-05, 7.649005419807509e-05, -7.580680539831519e-05, -3.2462859962834045e-05, 0.23314934968948364, 0.00015921368321869522, 1.1340137720108032, 7.212839409476146e-05, -8.516963134752586e-05, -0.04897952079772949, -0.16532430052757263, 0.06864655017852783, 0.0001503151434008032, 0.09370139986276627, 3.3668980904622003e-05, 0.19569480419158936, 0.015755999833345413, 0.08423592150211334], [-9.996459993999451e-05, -9.957275324268267e-07, 7.434419967466965e-05, -0.00026159652043133974, 0.00010726894834078848, 8.185879778466187e-06, -0.0001267245243070647, 9.348534035780176e-07, 4.495742359722499e-06, 4.157255534664728e-05, 2.676762505871011e-06, 2.236745785921812e-05, -8.379051723750308e-05, 1.145837359217694e-06, -9.148831850325223e-06, 1.0136577088815102e-07, -2.3034419882606016e-07, -6.964676231291378e-07, 0.00011295003787381575, -0.00019421930483076721, -3.429418211453594e-05, 1.5183362123138977e-08, -5.201778208174801e-08, 0.0004590183962136507, 2.6635279937181622e-05, -0.00016174852498807013, 2.421962790322141e-06, 8.037748921196908e-05, -7.199398055490747e-08, -0.00044545286800712347, -1.58963848662097e-05, 1.0496119102754164e-05], [0.00010753460810519755, -7.012413902884873e-07, -5.528174824576126e-06, 0.00019566368428058922, -0.00012816517846658826, 3.2293189633492148e-06, 0.00010633312194840983, -1.2775777804563404e-06, -3.778906375373481e-06, -5.742777284467593e-05, -3.0380053885892266e-06, -2.3410768335452303e-05, 9.391930507263169e-05, 4.0980917219712865e-06, 6.208427748788381e-06, 2.6622611670745755e-08, -1.8798342580339522e-06, 5.748004241468152e-07, -4.313294266466983e-05, 0.00015692423039581627, 4.463781078811735e-05, 1.9204534851269273e-07, -8.923780114855617e-07, -0.0004509784048423171, -3.835358256765176e-06, 0.00018203548097517341, 3.4747390600387007e-06, -7.513170567108318e-05, -1.2905794619655353e-06, 0.00036222796188667417, 7.804681808920577e-05, 2.884296236516093e-06], [0.2147403210401535, 8.253331179730594e-05, -0.11956536769866943, 0.11942578107118607, -0.009630990214645863, -0.00032150509650819004, 0.13807140290737152, -0.00012933342077303678, -0.00047649446059949696, -0.17517992854118347, -0.0003777958045247942, -0.07419402152299881, -0.0992845892906189, 0.00011195608385605738, 0.0008124762098304927, -0.0002242222399218008, 2.1985282728564925e-05, -0.00011878278746735305, 0.12534038722515106, 1.2982196807861328, -0.1693587452173233, -0.00021382760314736515, 0.0001509670983068645, 0.4892781972885132, 0.26979687809944153, -0.30324870347976685, 6.8237550294725224e-06, 0.14559714496135712, -0.00027573309489525855, -0.456626296043396, -0.413006991147995, 0.005881988909095526], [-0.12381032854318619, -0.00010354803816881031, 0.12082739174365997, 0.2261776179075241, -0.1591590791940689, 0.00032825081143528223, -0.12184914201498032, 4.2830010897887405e-06, 0.00016323881573043764, -0.1569223701953888, 0.0001301092270296067, -0.17862854897975922, -0.03961670771241188, 2.988548112625722e-05, -0.0002561828005127609, 0.00012133917334722355, -0.00010983141692122445, -6.658566417172551e-05, 0.29749149084091187, 0.09255897253751755, -0.03242786228656769, 0.00011070617620134726, -0.00012461552978493273, -0.13255740702152252, 1.0457470417022705, 0.02385891228914261, 6.697484059259295e-05, -0.11251269280910492, 9.259652870241553e-05, -0.17381511628627777, -0.2103131115436554, 0.008404150605201721], [-0.2752499580383301, 0.00015458851703442633, -0.175157368183136, -0.05305669829249382, 0.49261602759361267, -0.000860454747453332, 0.17003725469112396, -8.963511936599389e-05, -0.00018744062981568277, -0.053699612617492676, -8.010373858269304e-05, 0.22003455460071564, -0.09168629348278046, -0.00030908139888197184, 0.00042929063783958554, -4.1649040213087574e-05, 0.00016329227946698666, 8.040876309678424e-06, -0.022713426500558853, 0.11658395826816559, 0.04262135550379753, -2.150888576579746e-05, 8.252605039160699e-05, 0.02295675501227379, -0.11526725441217422, 0.5426903963088989, -0.0003804576408583671, 0.14243213832378387, 5.370326107367873e-05, 0.029654037207365036, 0.0076735191978514194, 0.17718954384326935], [-1.3779540495306719e-05, 1.0717548320826609e-05, -0.00023011351004242897, 0.00022125507530290633, 9.288442379329354e-05, -9.937647701008245e-05, -9.755902283359319e-05, 4.611405529431067e-06, 4.1348647528138827e-07, 6.290780584095046e-05, 9.293432412960101e-06, 3.899569492205046e-05, -6.883853347972035e-05, -4.779329537996091e-05, 1.6110734577523544e-05, 1.708573449832329e-06, 1.6589281585766003e-05, 1.8180933238909347e-06, -0.00029197504045441747, 0.00027866088203154504, 0.00015459686983376741, 1.2420174471117207e-06, 5.937796231592074e-06, -0.0003162582579534501, -0.000179365262738429, 6.206918624229729e-05, -5.204752233112231e-05, -2.5395687771379016e-05, 1.5407851606141776e-05, 0.00040438686846755445, -0.00017489168385509402, -3.860241486108862e-05], [-0.17390680313110352, 0.00017489961464889348, -0.00739992456510663, 0.14050428569316864, 0.022214343771338463, 4.5957389374962077e-05, -0.017900051549077034, 0.00011136038665426895, 6.194492743816227e-05, -0.10317696630954742, -5.907892409595661e-05, -0.12039624899625778, -0.45415982604026794, -4.615293437382206e-05, -0.00023737887386232615, -0.00012934929691255093, 0.00013420959294307977, -8.129941124934703e-05, 0.16654036939144135, -0.2317030429840088, 0.11893346905708313, -0.0001299439463764429, 0.000122812605695799, 0.06863810867071152, 0.42961806058883667, -0.03090587817132473, -3.9957409171620384e-05, 0.44581952691078186, -0.00010186312283622101, -0.07988378405570984, 0.007100144401192665, 0.2774183452129364], [-0.00011713411367964, -4.306958089728141e-06, 0.00022962014190852642, -0.0003704590490087867, 6.286561256274581e-05, 3.277641735621728e-05, -0.0001221906568389386, 2.2257962584149027e-08, 4.958490535500459e-06, -4.775392426381586e-06, 1.0600832638374413e-06, 1.3741781003773212e-05, -8.456459181616083e-05, 1.2923569556733128e-05, -1.37815823109122e-05, 5.188965701563575e-08, -4.71480507258093e-06, -8.729003866392304e-07, 0.00022899781470187008, -0.00029109534807503223, -2.1769903469248675e-05, 1.9158912323291588e-07, -1.915424036269542e-06, 0.0004823532945010811, 7.420685869874433e-05, -0.00014168139023240656, 1.5278286809916608e-05, 0.00010172059410251677, -3.509040197968716e-06, -0.0005768921691924334, 7.247867324622348e-05, 3.60706435458269e-05], [0.03496415168046951, 6.444972768804291e-06, -0.11841190606355667, 0.00801165122538805, -0.11391380429267883, -0.0008387668058276176, 0.1283348947763443, -0.00010722520528361201, -6.114409916335717e-05, -0.07085516303777695, -3.072498657274991e-05, 0.007908865809440613, -0.13613279163837433, -0.0002866363211069256, 9.611378482077271e-05, 5.227694782661274e-05, 9.382826647197362e-06, 4.130167326366063e-06, 0.10475010424852371, 1.5404021739959717, -0.10192938148975372, 6.595873855985701e-05, -2.663784835021943e-05, 1.4004217386245728, 0.28056737780570984, -0.3290954530239105, -0.00032605035812593997, 0.14953790605068207, 0.00011062550765927881, 0.7492514848709106, -0.8221794962882996, 0.032565969973802567], [-0.20869798958301544, 7.436098530888557e-05, 0.009539289399981499, -0.08842697739601135, -0.2620479464530945, -0.0005789066199213266, -0.029794786125421524, 7.879157783463597e-05, 0.00015495152911171317, 0.04213301092386246, 0.00017796752217691392, -0.11154693365097046, 0.07333360612392426, -0.0003007589839398861, -0.00015671350411139429, 3.534495408530347e-05, 0.00017479283269494772, 1.902138683362864e-05, -0.05991825833916664, -0.7241532206535339, 0.07793191820383072, 1.935429281729739e-05, 4.5073255023453385e-05, -0.9241383671760559, -0.14074572920799255, 0.1434505730867386, -0.00029681946034543216, -0.014023161493241787, 0.00014330082922242582, 0.09589535742998123, 1.2420858144760132, 0.023258483037352562], [-0.2033262848854065, 6.912306707818061e-05, -0.0014674434205517173, 0.020800122991204262, 0.06851645559072495, 0.0004149711749050766, 0.0495104044675827, 1.3981606571178418e-05, 0.0002281358902109787, -0.11388145387172699, 8.232460095314309e-05, 0.035734087228775024, -0.2935623228549957, 9.275456250179559e-05, -0.0004853052378166467, -1.615843029867392e-05, 4.8742760554887354e-05, -2.5347173504997045e-05, 0.05878864973783493, -0.132208451628685, 0.0385129451751709, -2.8201851819176227e-05, 1.438772142137168e-05, 0.10695120692253113, 0.1249871775507927, 0.14980453252792358, 0.00015552410332020372, 0.24776111543178558, -2.4878727344912477e-05, 0.06234944239258766, -0.09750835597515106, 0.22049424052238464]], "rec.bias_ih_l0": [0.23156291246414185, -2.723669922488625e-06, 0.24746648967266083, 0.15077140927314758, 0.2307738959789276, -0.00014504650607705116, 0.22217433154582977, 6.834601435912191e-07, 5.582079211308155e-06, 0.26055535674095154, 3.0757096283196006e-06, 0.16170482337474823, 0.24456855654716492, -3.6608471418730915e-05, 7.401835318887606e-06, -1.0344426470965118e-07, -5.0449407353880815e-06, -1.0705545605560474e-07, 0.15142767131328583, 0.3081887364387512, 0.2938861846923828, -4.3924575265918975e-07, -1.4625413768953877e-06, 0.40303948521614075, 0.3185731768608093, 0.22886595129966736, -4.411244299262762e-05, 0.20471148192882538, -2.2283954876911594e-06, 0.2932862341403961, 0.11808152496814728, 0.07168161869049072, -0.053583890199661255, 4.45734826826083e-07, -0.17804063856601715, -0.21292921900749207, -0.07491829991340637, 1.04901545228131e-07, -0.15443433821201324, -2.4084621941256046e-07, -6.23682524292235e-07, -0.005677501671016216, -1.2065556802554056e-06, 0.024156661704182625, -0.016098134219646454, 9.135900569390287e-08, -1.1201066172361607e-06, -4.858986244471453e-07, 7.276613018802891e-07, -7.350860187216313e-08, -0.0067450497299432755, -0.4338601529598236, 0.3438860774040222, -4.5620322453032713e-07, 8.421062602792517e-08, -0.42280134558677673, 0.6589865684509277, -0.055296365171670914, 1.213236657804373e-07, -0.07712966948747635, -1.2472614798753057e-06, -0.45746082067489624, -0.21574755012989044, -0.030629098415374756, 0.12556323409080505, -7.782362081343308e-05, 0.2774386405944824, -0.09767618030309677, -0.11273762583732605, -0.00013326501357369125, 0.3317432403564453, 0.00010303679300704971, 4.565471681416966e-05, -0.38111329078674316, 8.726790838409215e-05, -0.009405206888914108, 0.4624376595020294, -0.00010987244604621083, -2.2255870135268196e-05, 8.921168046072125e-05, -7.897183240856975e-05, -3.938965528504923e-05, -0.0033531724475324154, -0.38408878445625305, -0.04337674006819725, 9.528599912300706e-05, -8.314131264341995e-05, 0.005361418705433607, -0.12068139761686325, 0.09241141378879547, -0.00010615088831400499, 0.06770241260528564, 0.00010357909195590764, 0.03571121767163277, 0.046565860509872437, 0.18622349202632904], "rec.bias_hh_l0": [0.23156291246414185, -2.723669922488625e-06, 0.24746648967266083, 0.15077140927314758, 0.2307738959789276, -0.00014504650607705116, 0.22217433154582977, 6.834601435912191e-07, 5.582079211308155e-06, 0.26055535674095154, 3.0757096283196006e-06, 0.16170482337474823, 0.24456855654716492, -3.6608471418730915e-05, 7.401835318887606e-06, -1.0344426470965118e-07, -5.0449407353880815e-06, -1.0705545605560474e-07, 0.15142767131328583, 0.30819931626319885, 0.2938861846923828, -4.3924575265918975e-07, -1.4625413768953877e-06, 0.40303948521614075, 0.3185731768608093, 0.22886595129966736, -4.411244299262762e-05, 0.20471148192882538, -2.2283954876911594e-06, 0.2932862341403961, 0.11808152496814728, 0.07168161869049072, -0.053583890199661255, 4.45734826826083e-07, -0.17804063856601715, -0.21292921900749207, -0.07491829991340637, 1.04901545228131e-07, -0.15443433821201324, -2.4084621941256046e-07, -6.23682524292235e-07, -0.005677501671016216, -1.2065556802554056e-06, 0.024156661704182625, -0.016098134219646454, 9.135900569390287e-08, -1.1201066172361607e-06, -4.858986244471453e-07, 7.276613018802891e-07, -7.350860187216313e-08, -0.0067450497299432755, -0.4338601529598236, 0.3438860774040222, -4.5620322453032713e-07, 8.421062602792517e-08, -0.42280134558677673, 0.6589864492416382, -0.055296365171670914, 1.213236657804373e-07, -0.07712966948747635, -1.2472614798753057e-06, -0.45746082067489624, -0.21574755012989044, -0.030629098415374756, 0.07686326652765274, -4.322152744862251e-05, 0.14393189549446106, -0.048528771847486496, -0.022443341091275215, -0.00013948485138826072, 0.17502109706401825, 5.8683657698566094e-05, 3.901500895153731e-05, -0.2199496477842331, 7.221007399493828e-05, 0.10679421573877335, 0.20678050816059113, -0.00010053444566437975, -2.3674821932218038e-05, 6.291014142334461e-05, -3.947600635001436e-05, -1.0126072083949111e-05, 0.0036688537802547216, 0.5504849553108215, -0.019590338692069054, 6.553678394993767e-05, -5.329624400474131e-05, 0.012519806623458862, 0.0029472687747329473, 0.06242760270833969, -9.979741298593581e-05, 0.0815577581524849, 8.140772115439177e-05, -0.012397829443216324, 0.05558815225958824, 0.14507848024368286], "lin.weight": [[-0.26585808396339417, -0.00021544982155319303, 0.01813475415110588, 0.7929405570030212, -0.46234238147735596, 3.7405530747491866e-05, 0.013294192962348461, 0.00019215205975342542, 0.00013678260438609868, 0.10172080248594284, 0.0001926663680933416, 0.6391193270683289, -0.015506003983318806, -7.079491479089484e-05, -0.00016959149797912687, 0.00019236777734477073, -0.0001653445651754737, -1.056453402270563e-05, -0.10246250033378601, 0.1730329841375351, 0.0443306565284729, 0.00020586118625942618, -0.00018810824258252978, -0.08312098681926727, -0.20748256146907806, 0.03185262903571129, -4.235557935317047e-05, -0.22547203302383423, 0.0001994384656427428, -1.0855313539505005, -0.6393297910690308, 0.1476714164018631]], "lin.bias": [0.09940598905086517]}}